{
  "input_features": [
    "queue_len",
    "io_type",
    "size",
    "prev_queue_len_1",
    "prev_queue_len_2",
    "prev_queue_len_3",
    "prev_latency_1",
    "prev_latency_2",
    "prev_latency_3",
    "prev_throughput_1",
    "prev_throughput_2",
    "prev_throughput_3"
  ],
  "scaler_min": [
    1.0,
    0.0,
    512.0,
    1.0,
    1.0,
    1.0,
    16.0,
    16.0,
    16.0,
    3.0,
    3.0,
    3.0
  ],
  "scaler_scale": [
    6.0,
    1.0,
    523776.0,
    7.0,
    7.0,
    7.0,
    789.0,
    876.0,
    782.0,
    5210.0,
    5210.0,
    5158.0
  ],
  "layers": [
    {
      "name": "dense_1",
      "weights": [
        [
          0.038948312401771545,
          -0.08514881134033203,
          0.0695287436246872,
          0.10103239119052887,
          -0.08540492504835129,
          -0.023089364171028137,
          0.039615482091903687,
          -0.06242266297340393,
          -0.094317726790905,
          -0.17865218222141266,
          0.15690787136554718,
          -0.1530527025461197,
          0.030606478452682495,
          0.16205854713916779,
          0.15400604903697968,
          0.019796937704086304,
          0.20362062752246857,
          0.0015569329261779785,
          -0.19103574752807617,
          -0.061205461621284485,
          -0.08453534543514252,
          0.15003006160259247,
          -0.19803307950496674,
          0.19397352635860443,
          -0.2042820155620575,
          0.08198057115077972,
          0.12612338364124298,
          0.09477971494197845,
          0.1322067826986313,
          0.05008964240550995,
          -0.05657514929771423,
          0.06229294836521149,
          -0.005049601197242737,
          0.007283806800842285,
          -0.1434500366449356,
          0.1377590447664261,
          -0.0262632817029953,
          0.04210615158081055,
          0.025164932012557983,
          0.0531340092420578,
          0.0024969875812530518,
          0.09566630423069,
          0.18841122090816498,
          -0.0635758489370346,
          0.13491328060626984,
          -0.20146647095680237,
          -0.06877061724662781,
          -0.03423982858657837,
          -0.11364294588565826,
          0.09343965351581573,
          0.023269563913345337,
          0.1255064159631729,
          0.12037064135074615,
          0.12421779334545135,
          -0.13229764997959137,
          0.06907863914966583,
          0.09062965214252472,
          -0.1416189819574356,
          -0.0036854594945907593,
          -0.07835738360881805,
          0.040961265563964844,
          -0.05848735570907593,
          -0.13698828220367432,
          -0.1530165821313858,
          0.20446963608264923,
          0.023758098483085632,
          0.0472608357667923,
          -0.1710449904203415,
          0.16842202842235565,
          -0.09385588765144348,
          0.07719172537326813,
          -0.18458691239356995,
          0.056088998913764954,
          0.039059221744537354,
          -0.014729902148246765,
          -0.004832029342651367,
          0.14442722499370575,
          0.0153435617685318,
          -0.06768232583999634,
          0.05159686505794525,
          -0.17627784609794617,
          -0.1812898963689804,
          -0.1543695628643036,
          -0.19204534590244293,
          0.06512285768985748,
          -0.1861027181148529,
          0.09437038004398346,
          0.00298859179019928,
          0.13834761083126068,
          -0.02156051993370056,
          -0.07791440188884735,
          -0.13268357515335083,
          -0.015145540237426758,
          -0.008965462446212769,
          0.1710750311613083,
          0.1973860114812851,
          -0.05560232698917389,
          -0.032573968172073364,
          -0.13842950761318207,
          0.13427500426769257,
          0.057380810379981995,
          0.01213163137435913,
          -0.17757678031921387,
          0.04878295958042145,
          -0.1404978334903717,
          0.013191044330596924,
          0.1436648815870285,
          -0.12496764212846756,
          0.09414191544055939,
          -0.08248133957386017,
          0.18566419184207916,
          -0.16394424438476562,
          -0.011586040258407593,
          0.005134686827659607,
          0.1249992698431015,
          0.013160839676856995,
          -0.08449699729681015,
          -0.07899375259876251,
          0.07320590317249298,
          -0.1397670954465866,
          0.12918736040592194,
          -0.030963391065597534,
          0.1625198870897293,
          -0.06712070107460022,
          0.023106485605239868,
          0.11630617082118988,
          0.09451697766780853,
          0.1091945618391037
        ],
        [
          0.10074050724506378,
          0.2042035013437271,
          0.02992352843284607,
          0.15516795217990875,
          -0.14160960912704468,
          -0.019966572523117065,
          -0.15404459834098816,
          -0.06942780315876007,
          -0.05753026902675629,
          -0.1552067995071411,
          -0.09935537725687027,
          -0.0466131716966629,
          0.19909317791461945,
          0.07699622213840485,
          -0.12905970215797424,
          -0.11425946652889252,
          0.036033421754837036,
          0.13512350618839264,
          0.1157398372888565,
          -0.16015982627868652,
          -0.0041075199842453,
          -0.15263968706130981,
          0.08126695454120636,
          -0.17707808315753937,
          -0.20666632056236267,
          0.06457982957363129,
          -0.12430743873119354,
          0.011048436164855957,
          0.14711959660053253,
          0.018483728170394897,
          -0.07082101702690125,
          0.11223231256008148,
          -0.03880023956298828,
          0.1954783946275711,
          0.1042933315038681,
          0.03738640248775482,
          0.17166022956371307,
          -0.20250599086284637,
          -0.0967690572142601,
          0.07243002951145172,
          0.11111022531986237,
          0.18408070504665375,
          -0.12363094836473465,
          0.1861800104379654,
          -0.16186490654945374,
          0.07607017457485199,
          0.08285067975521088,
          -0.07012961804866791,
          0.06699596345424652,
          -0.08310112357139587,
          -0.1469617635011673,
          0.15395264327526093,
          -0.10011740773916245,
          0.051675304770469666,
          -0.04300189018249512,
          -0.03396402299404144,
          0.015481173992156982,
          -0.14227785170078278,
          -0.12166301906108856,
          0.07444863021373749,
          0.06555379927158356,
          -0.18810954689979553,
          -0.022705763578414917,
          -0.14845724403858185,
          -0.18135786056518555,
          -0.11821842193603516,
          -0.015818282961845398,
          -0.04566964507102966,
          0.20302201807498932,
          0.024952948093414307,
          -0.13944020867347717,
          -0.1932244449853897,
          0.0691080242395401,
          -0.1958121955394745,
          -0.1427379548549652,
          -0.1668333262205124,
          -0.0029955506324768066,
          0.03328436613082886,
          0.03093002736568451,
          0.00039239227771759033,
          -0.017794698476791382,
          0.03471642732620239,
          0.1423584669828415,
          0.13430140912532806,
          -0.0019298195838928223,
          -0.0071985721588134766,
          -0.1976727694272995,
          0.16955794394016266,
          -0.03547884523868561,
          0.06985016167163849,
          0.18467144668102264,
          -0.1109025776386261,
          3.065168857574463e-05,
          -0.13107047975063324,
          -0.0496368408203125,
          -0.044891342520713806,
          -0.017333313822746277,
          0.1685614138841629,
          0.008631512522697449,
          0.1841663271188736,
          -0.11449351906776428,
          0.1395384818315506,
          0.14879395067691803,
          -0.09720369428396225,
          0.06921814382076263,
          -0.19703374803066254,
          0.03502988815307617,
          0.12503935396671295,
          0.12616954743862152,
          0.1760030835866928,
          -0.0996142104268074,
          -0.12633267045021057,
          -0.11692481487989426,
          -0.07955840229988098,
          0.12623094022274017,
          -0.10069616883993149,
          0.18635468184947968,
          -0.18140780925750732,
          0.0666438490152359,
          0.1748214215040207,
          0.000427931547164917,
          -0.1695016771554947,
          0.13365571200847626,
          -0.015157833695411682,
          -0.004018872976303101,
          -0.16704654693603516,
          -0.0022344589233398438,
          0.0030385851860046387
        ],
        [
          0.14678387343883514,
          -0.060729265213012695,
          0.2032810002565384,
          0.15827850997447968,
          0.1408541351556778,
          0.19885997474193573,
          -0.07113656401634216,
          -0.09389912337064743,
          0.11291216313838959,
          0.020884022116661072,
          -0.0004343986511230469,
          -0.06619806587696075,
          0.01575826108455658,
          0.09494294226169586,
          -0.00911867618560791,
          -0.16414912045001984,
          0.05350281298160553,
          -0.010693714022636414,
          0.14518238604068756,
          -0.06930199265480042,
          0.04657690227031708,
          0.17765535414218903,
          -0.07779407501220703,
          0.06510035693645477,
          0.0421673059463501,
          -0.16056784987449646,
          0.15563814342021942,
          -0.1804136484861374,
          0.06812219321727753,
          0.14048810303211212,
          0.02275921404361725,
          0.039730191230773926,
          -0.20526061952114105,
          0.03624734282493591,
          -0.022199347615242004,
          -0.02967880666255951,
          0.18786819279193878,
          0.04419998824596405,
          0.18189160525798798,
          0.038721129298210144,
          0.11026795208454132,
          0.034245699644088745,
          0.1310298591852188,
          -0.00038424134254455566,
          -0.17898540198802948,
          -0.06607817113399506,
          -0.044073835015296936,
          0.03158612549304962,
          0.1945214420557022,
          -0.1208549439907074,
          -0.1344018578529358,
          0.15573595464229584,
          -0.14966383576393127,
          0.14484240114688873,
          -0.17081843316555023,
          -0.1290421485900879,
          0.10024745762348175,
          0.08985637128353119,
          -0.18970170617103577,
          0.20073126256465912,
          -0.08431042730808258,
          0.19700495898723602,
          -0.11617127805948257,
          -0.03419150412082672,
          0.013125106692314148,
          -0.11129961162805557,
          -0.19600361585617065,
          0.08899842202663422,
          0.06480668485164642,
          -0.2052106261253357,
          0.12887407839298248,
          0.05896054208278656,
          -0.12221276015043259,
          -0.10038699954748154,
          -0.14678047597408295,
          0.08930094540119171,
          0.17959178984165192,
          0.11210907995700836,
          -0.03404639661312103,
          0.07023431360721588,
          -0.028876811265945435,
          0.020426243543624878,
          0.069435253739357,
          0.06167568266391754,
          0.005435720086097717,
          0.17329774796962738,
          -0.04076679050922394,
          -0.0484866201877594,
          0.08193536102771759,
          0.004129931330680847,
          0.20318110287189484,
          -0.09019199013710022,
          -0.14321120083332062,
          -0.047338321805000305,
          -0.1595110148191452,
          -0.009127557277679443,
          0.188179150223732,
          -0.049830079078674316,
          -0.06786999106407166,
          -0.01750299334526062,
          0.09859393537044525,
          -0.11160868406295776,
          -0.0013339817523956299,
          0.054049745202064514,
          -0.13192623853683472,
          0.14509956538677216,
          0.09695695340633392,
          -0.12876346707344055,
          -0.155558779835701,
          -0.09420424699783325,
          -0.15000177919864655,
          -0.003618478775024414,
          -0.10992125421762466,
          -0.0426945835351944,
          0.03485609591007233,
          -0.1903507113456726,
          -0.03598174452781677,
          0.154099240899086,
          0.11421100795269012,
          -0.17399443686008453,
          -0.1746605634689331,
          -0.03409852087497711,
          -0.16893664002418518,
          -0.16965395212173462,
          0.020152300596237183,
          0.012929394841194153,
          -0.1019563153386116,
          0.18715216219425201
        ],
        [
          -0.14887642860412598,
          0.07051385939121246,
          -0.07462182641029358,
          -0.09497392922639847,
          -0.09465182572603226,
          0.07098136842250824,
          0.05494938790798187,
          0.19638939201831818,
          -0.1611318141222,
          0.15838812291622162,
          0.004904687404632568,
          -0.0757228434085846,
          0.10716177523136139,
          0.17202876508235931,
          -0.022634878754615784,
          0.04899205267429352,
          0.16769005358219147,
          0.0991629809141159,
          0.06859900057315826,
          0.032210007309913635,
          0.04961024224758148,
          -0.07771307229995728,
          -0.20087912678718567,
          -0.11656045913696289,
          0.05183763802051544,
          -0.027193233370780945,
          0.06808282434940338,
          -0.033068373799324036,
          0.00996243953704834,
          0.005899190902709961,
          -0.04803036153316498,
          0.2059459537267685,
          -0.019445806741714478,
          0.02839908003807068,
          -0.18229253590106964,
          0.10721425712108612,
          -0.0867982804775238,
          0.16506488621234894,
          0.09464077651500702,
          -0.16030728816986084,
          0.181796595454216,
          0.021415606141090393,
          -0.018697693943977356,
          0.1336047202348709,
          0.184027299284935,
          -0.08950567990541458,
          -0.13845986127853394,
          -0.18272563815116882,
          0.012450933456420898,
          -0.01285862922668457,
          0.10177187621593475,
          -0.11669555306434631,
          0.09516207873821259,
          -0.039075955748558044,
          0.15224866569042206,
          -0.08944931626319885,
          0.03814531862735748,
          -0.1685626059770584,
          -0.1985020786523819,
          0.11866970360279083,
          0.008287042379379272,
          -0.12088914960622787,
          0.06275297701358795,
          0.14886103570461273,
          0.07862846553325653,
          -0.12990781664848328,
          -0.1563548594713211,
          -0.12855005264282227,
          -0.1545611172914505,
          -0.11372625827789307,
          -0.1556030958890915,
          0.1283980756998062,
          -0.19775071740150452,
          -0.012011304497718811,
          0.1947328895330429,
          0.03831136226654053,
          0.05257426202297211,
          -0.20669203996658325,
          0.12228487432003021,
          -0.018282651901245117,
          -0.1289878487586975,
          -0.052084967494010925,
          0.11124734580516815,
          -0.08739886432886124,
          -0.006237238645553589,
          -0.016225233674049377,
          0.07755748927593231,
          -0.06681926548480988,
          -0.105722576379776,
          -0.1287451535463333,
          -0.0651034563779831,
          0.0011747479438781738,
          0.0072640180587768555,
          -0.2050139307975769,
          -0.023151054978370667,
          0.10126347839832306,
          -0.20511527359485626,
          0.09009064733982086,
          -0.11829186230897903,
          -0.15858402848243713,
          0.14753888547420502,
          0.01767367124557495,
          -0.061056897044181824,
          0.08893166482448578,
          0.14692451059818268,
          0.146267369389534,
          0.12647713720798492,
          -0.1657354235649109,
          0.191652312874794,
          -0.17871136963367462,
          0.07262630760669708,
          0.14682747423648834,
          0.027275606989860535,
          -0.16442804038524628,
          0.188169464468956,
          0.019124537706375122,
          -0.02294953167438507,
          0.19548051059246063,
          -0.0204552561044693,
          0.06274275481700897,
          0.02259238064289093,
          -0.13664641976356506,
          -0.010433942079544067,
          -0.10992159694433212,
          -0.1705782115459442,
          0.10892210900783539,
          0.03288900852203369,
          -0.004336237907409668
        ],
        [
          -0.07751718163490295,
          -0.18356017768383026,
          -0.18206849694252014,
          -0.0465332567691803,
          -0.022865667939186096,
          0.11872945725917816,
          -0.017946481704711914,
          0.07021640241146088,
          -0.004787668585777283,
          0.10925804078578949,
          -0.10673030465841293,
          0.20636288821697235,
          0.026643827557563782,
          0.012400537729263306,
          -0.019664853811264038,
          -0.07633458077907562,
          -0.0019483864307403564,
          -0.043571725487709045,
          -0.18472866714000702,
          -0.14150965213775635,
          0.09534169733524323,
          0.11517061293125153,
          -0.19818371534347534,
          -0.11172407865524292,
          0.003033161163330078,
          0.1497512012720108,
          0.16890855133533478,
          -0.17401595413684845,
          -0.13434770703315735,
          -0.048581093549728394,
          -0.02666519582271576,
          0.1439867466688156,
          0.10047410428524017,
          -0.07846459746360779,
          -0.0622175931930542,
          -0.06490908563137054,
          -0.13923265039920807,
          -0.20480205118656158,
          -0.0510161817073822,
          -0.023217350244522095,
          -0.10849907249212265,
          0.0707186609506607,
          0.07980464398860931,
          -0.05970090627670288,
          0.02090376615524292,
          0.03164106607437134,
          0.1759284883737564,
          0.17338411509990692,
          -0.14376667141914368,
          -0.0879783183336258,
          0.018816307187080383,
          -0.06408640742301941,
          -0.02240176498889923,
          -0.15857550501823425,
          0.01977941393852234,
          -0.019171029329299927,
          0.06074519455432892,
          -0.13170595467090607,
          -0.1190275326371193,
          0.17618443071842194,
          -0.04622304439544678,
          0.09078298509120941,
          -0.17949210107326508,
          -0.1077902540564537,
          0.14764808118343353,
          -0.015524357557296753,
          -0.12782183289527893,
          -0.03099893033504486,
          -0.0013836324214935303,
          -0.098860964179039,
          -0.07106459140777588,
          0.11029337346553802,
          -0.18052731454372406,
          0.12219972908496857,
          -0.1095130667090416,
          -0.12488798052072525,
          0.025581657886505127,
          0.10554914176464081,
          -0.04795840382575989,
          0.19783110916614532,
          0.14400826394557953,
          0.13926957547664642,
          -0.0779469758272171,
          -0.09102721512317657,
          0.01527644693851471,
          -0.0026602596044540405,
          0.12058447301387787,
          -0.14424848556518555,
          -0.002178683876991272,
          0.05925150215625763,
          -0.16418826580047607,
          -0.1766822338104248,
          -0.09246475249528885,
          -0.11683665961027145,
          0.1995401531457901,
          -0.05508989095687866,
          -0.15625348687171936,
          0.004292309284210205,
          -0.13481536507606506,
          -0.10144300013780594,
          0.04141722619533539,
          -0.08833575993776321,
          0.07682015001773834,
          -0.18833382427692413,
          -0.08790270239114761,
          0.14141951501369476,
          0.08484922349452972,
          -0.06697256863117218,
          0.09871436655521393,
          0.01528729498386383,
          0.15983666479587555,
          0.17971952259540558,
          -0.20583653450012207,
          0.00853605568408966,
          -0.1407429277896881,
          0.1389145404100418,
          0.04683701694011688,
          0.12356732785701752,
          -0.0948265939950943,
          -0.06713052093982697,
          -0.1252567172050476,
          0.20523129403591156,
          0.18016044795513153,
          -0.12152032554149628,
          -0.11561274528503418,
          0.09122799336910248,
          -0.11780519783496857,
          -0.04045288264751434
        ],
        [
          -0.022651061415672302,
          -0.18059365451335907,
          0.08631281554698944,
          0.0026832669973373413,
          -0.1840657889842987,
          -0.13568222522735596,
          0.1311294585466385,
          -0.019808828830718994,
          -0.10439594835042953,
          -0.10716702044010162,
          -0.07581193745136261,
          -0.0215272456407547,
          -0.0874619409441948,
          -0.07842233777046204,
          0.08389092981815338,
          0.20038293302059174,
          -0.04647989571094513,
          0.047334328293800354,
          -0.13528282940387726,
          0.17145253717899323,
          -0.06531402468681335,
          -0.03374160826206207,
          -0.031018316745758057,
          0.06937478482723236,
          0.042754605412483215,
          -0.1170627698302269,
          -0.0394759476184845,
          0.05982191860675812,
          0.029429465532302856,
          0.01590949296951294,
          -0.1044519692659378,
          -0.09372731298208237,
          0.03815391659736633,
          0.038239046931266785,
          -0.12098114937543869,
          0.05441339313983917,
          0.14685501158237457,
          -0.03326733410358429,
          -0.1310918927192688,
          0.19326470792293549,
          -0.10345889627933502,
          0.08407647907733917,
          -0.055349767208099365,
          0.015726476907730103,
          0.17766542732715607,
          0.14747153222560883,
          -0.1652827113866806,
          -0.1630348265171051,
          0.037757232785224915,
          0.19899891316890717,
          0.06320853531360626,
          -0.10920833796262741,
          0.10124556720256805,
          0.1249101310968399,
          -0.09004031866788864,
          -0.05081292986869812,
          0.07625259459018707,
          -0.1550712287425995,
          -0.009994715452194214,
          0.18690447509288788,
          0.17051942646503448,
          -0.1544867753982544,
          -0.0954761877655983,
          0.1163346916437149,
          0.1815943866968155,
          0.15802006423473358,
          -0.1255762279033661,
          0.07060079276561737,
          0.13805769383907318,
          -0.14826563000679016,
          0.08094169199466705,
          -0.16202113032341003,
          0.16254402697086334,
          0.14337919652462006,
          0.0118379145860672,
          -0.1641312539577484,
          -0.14642100036144257,
          0.11264537274837494,
          -0.10977590084075928,
          -0.17411792278289795,
          -0.10864921659231186,
          0.16420824825763702,
          -0.10138687491416931,
          -0.09409946203231812,
          0.007649943232536316,
          -0.017173588275909424,
          -0.05544695258140564,
          -0.023913532495498657,
          -0.1466485857963562,
          0.1934996098279953,
          0.06961233913898468,
          0.2021719068288803,
          0.18382547795772552,
          0.19290988147258759,
          0.036480650305747986,
          0.0979280024766922,
          -0.20383869111537933,
          0.024705126881599426,
          -0.19836199283599854,
          0.11565281450748444,
          0.12579862773418427,
          0.10804863274097443,
          0.0900065153837204,
          -0.0390314906835556,
          0.17094315588474274,
          0.12612690031528473,
          -0.12243758141994476,
          -0.20262746512889862,
          0.08707793056964874,
          0.053517118096351624,
          0.05045308172702789,
          -0.05460432171821594,
          -0.12182352691888809,
          -0.1476990133523941,
          0.14535389840602875,
          0.00423179566860199,
          -0.05093090236186981,
          -0.18757396936416626,
          -0.07453757524490356,
          0.2009594887495041,
          0.18395869433879852,
          -0.050835639238357544,
          0.18840207159519196,
          0.08092747628688812,
          -0.12047494202852249,
          -0.10537238419055939,
          -0.07469971477985382,
          -0.11330593377351761
        ],
        [
          -0.20350971817970276,
          -0.04734534025192261,
          -0.14551441371440887,
          -0.14045226573944092,
          0.1708025485277176,
          -0.19684988260269165,
          0.12365107238292694,
          0.04788057506084442,
          -0.02755393087863922,
          0.1963280886411667,
          0.12200580537319183,
          -0.19512790441513062,
          0.1789909154176712,
          -0.1613643318414688,
          -0.05375082790851593,
          0.08400885760784149,
          -0.15919113159179688,
          0.032133013010025024,
          -0.03127221763134003,
          -0.06385532021522522,
          0.14047838747501373,
          0.018240198493003845,
          0.054340705275535583,
          -0.048779264092445374,
          -0.08779677748680115,
          -0.043427884578704834,
          0.08134473860263824,
          0.13438694179058075,
          -0.16651037335395813,
          0.1556953340768814,
          0.2003561407327652,
          0.04714898765087128,
          0.08906777203083038,
          0.016308844089508057,
          0.004431396722793579,
          0.033548131585121155,
          -0.16819153726100922,
          -0.06699962913990021,
          -0.17181801795959473,
          0.0026028603315353394,
          -0.13976502418518066,
          -0.003689110279083252,
          -0.20217466354370117,
          -0.005208879709243774,
          0.02458369731903076,
          -0.1932065337896347,
          0.07313711941242218,
          0.14058001339435577,
          0.0012674927711486816,
          -0.16065137088298798,
          -0.07901616394519806,
          0.0045500993728637695,
          0.1746157854795456,
          0.17907701432704926,
          -0.17698627710342407,
          -0.16665735840797424,
          -0.17858022451400757,
          -0.06206877529621124,
          0.06567387282848358,
          0.20320682227611542,
          -0.038174644112586975,
          -0.18526019155979156,
          -0.005459114909172058,
          -0.0415940135717392,
          -0.17354626953601837,
          0.11683504283428192,
          -0.054883092641830444,
          0.06211639940738678,
          0.1415412575006485,
          -0.09178371727466583,
          0.17273305356502533,
          0.17336048185825348,
          0.19890646636486053,
          -0.002182379364967346,
          0.028637424111366272,
          -0.18980605900287628,
          -0.039270564913749695,
          -0.00876586139202118,
          -0.1229962632060051,
          -0.06884080171585083,
          0.0014042109251022339,
          0.0775844007730484,
          0.04909835755825043,
          -0.03240245580673218,
          -0.17280511558055878,
          -0.017286568880081177,
          -0.20122353732585907,
          0.048890724778175354,
          -0.016890376806259155,
          0.17532502114772797,
          0.061533138155937195,
          -0.0560920387506485,
          -0.10057149827480316,
          -0.17680217325687408,
          -0.19181114435195923,
          0.09748657047748566,
          0.16461826860904694,
          0.19818662106990814,
          -0.10626526176929474,
          -0.15721629559993744,
          -0.17911851406097412,
          0.15881304442882538,
          0.059813156723976135,
          -0.1533573418855667,
          -0.17059405148029327,
          0.2054819017648697,
          0.036511048674583435,
          -0.17814123630523682,
          -0.12886475026607513,
          0.09377489984035492,
          -0.10218404978513718,
          -0.11234860122203827,
          0.0619024783372879,
          0.10160394012928009,
          0.08338423073291779,
          0.015866607427597046,
          0.13031892478466034,
          -0.13704749941825867,
          0.10074864327907562,
          -0.06626953184604645,
          0.04697997868061066,
          0.07522298395633698,
          -0.14702464640140533,
          0.05820314586162567,
          -0.046078383922576904,
          -0.04365627467632294,
          -0.0008062571287155151,
          -0.13090825080871582
        ],
        [
          0.0489070862531662,
          0.00981302559375763,
          -0.1478889435529709,
          -0.02063615620136261,
          -0.17202694714069366,
          -0.13686981797218323,
          0.12243525683879852,
          0.0036403536796569824,
          0.17255260050296783,
          -0.1447562873363495,
          -0.039409711956977844,
          0.09457691013813019,
          -0.11756497621536255,
          -0.059736043214797974,
          0.13456596434116364,
          0.00023168325424194336,
          0.0012198686599731445,
          -0.13622209429740906,
          -0.008947491645812988,
          0.16841872036457062,
          0.10526488721370697,
          0.09659476578235626,
          -0.15677425265312195,
          0.02879922091960907,
          0.01648189127445221,
          0.07448895275592804,
          0.201588973402977,
          0.16608335077762604,
          -0.1858775019645691,
          -0.022736549377441406,
          0.02265368402004242,
          -0.01781405508518219,
          -0.13479459285736084,
          0.016966581344604492,
          0.041188642382621765,
          0.06445156037807465,
          0.06713633239269257,
          -0.0014174878597259521,
          0.0946594625711441,
          0.1866934448480606,
          0.04993803799152374,
          0.038928866386413574,
          0.17323510348796844,
          -0.17681534588336945,
          -0.01194581389427185,
          0.13112689554691315,
          -0.11805850267410278,
          -0.13635334372520447,
          0.04985372722148895,
          -0.07155214250087738,
          -0.030164584517478943,
          0.15100763738155365,
          0.198008194565773,
          -0.08816133439540863,
          0.14853210747241974,
          0.1767915040254593,
          -0.12025495618581772,
          0.00047288835048675537,
          0.1377275437116623,
          -0.11811166256666183,
          0.1593821495771408,
          0.12902773916721344,
          -0.05342729389667511,
          0.10046009719371796,
          0.06569238007068634,
          -0.05687534809112549,
          0.08072386682033539,
          -0.11828979104757309,
          0.14606480300426483,
          -0.15199364721775055,
          -0.10472669452428818,
          -0.1184188574552536,
          0.12921305000782013,
          0.015592962503433228,
          -0.184930682182312,
          0.031992435455322266,
          -0.1315055638551712,
          -0.15938866138458252,
          0.1426013857126236,
          -0.10916683077812195,
          -0.1721666306257248,
          -0.01879863440990448,
          -0.027739211916923523,
          -0.02005097270011902,
          0.14770834147930145,
          0.027365878224372864,
          0.19575618207454681,
          0.05133672058582306,
          0.1307307630777359,
          -0.1313927322626114,
          -0.20021171867847443,
          0.1715817004442215,
          -0.016091078519821167,
          -0.11842937767505646,
          -0.14380377531051636,
          0.1473904401063919,
          -0.09324755519628525,
          0.10593028366565704,
          -0.15605852007865906,
          0.14446385204792023,
          -0.05725909769535065,
          0.10062913596630096,
          -0.14959034323692322,
          0.08522014319896698,
          0.04632650315761566,
          0.08290167152881622,
          0.13290099799633026,
          0.030704453587532043,
          -0.06990282237529755,
          -0.06437993049621582,
          0.09062422811985016,
          0.07451881468296051,
          0.03771531581878662,
          0.08446763455867767,
          -0.07596059143543243,
          -0.04099807143211365,
          0.030549973249435425,
          -0.1685090959072113,
          0.18156768381595612,
          -0.15167149901390076,
          0.07898478209972382,
          0.09741683304309845,
          -0.04057784378528595,
          0.2029041200876236,
          0.0700363963842392,
          0.035946205258369446,
          0.1914193481206894,
          -0.07540641725063324
        ],
        [
          -0.08852647989988327,
          -0.046768635511398315,
          -0.03466266393661499,
          0.16457803547382355,
          0.14335067570209503,
          0.08694009482860565,
          -0.07764595746994019,
          -0.059088483452796936,
          -0.12124165892601013,
          -0.022002816200256348,
          0.011587381362915039,
          -0.07984492182731628,
          -0.12156213074922562,
          -0.157822847366333,
          -0.10149052739143372,
          -0.08256988972425461,
          0.20361395180225372,
          -0.08894458413124084,
          -0.02791053056716919,
          -0.1847725510597229,
          0.16732807457447052,
          0.007245168089866638,
          0.01624399423599243,
          -0.06207148730754852,
          -0.06287217140197754,
          0.03921692073345184,
          -0.11497529596090317,
          0.10306043922901154,
          -0.0982605367898941,
          0.0016398429870605469,
          0.027729645371437073,
          -0.12244725972414017,
          -0.11051265150308609,
          0.0927899032831192,
          -0.11438542604446411,
          -0.0456024706363678,
          0.16413812339305878,
          0.03904184699058533,
          0.06641541421413422,
          -0.0628066211938858,
          0.16442246735095978,
          -0.1037701964378357,
          -0.004546448588371277,
          -0.13211271166801453,
          -0.18509286642074585,
          0.16403357684612274,
          0.061942413449287415,
          -0.11909515410661697,
          0.19525130093097687,
          0.1601513773202896,
          -0.14557886123657227,
          -0.1119319275021553,
          -0.058331385254859924,
          -0.17588506639003754,
          0.12528125941753387,
          -0.17251776158809662,
          -0.20376257598400116,
          0.03633163869380951,
          0.1410815268754959,
          -0.1714162528514862,
          -0.04181736707687378,
          -0.11152981221675873,
          0.05332319438457489,
          -0.17719565331935883,
          0.0976787656545639,
          0.16273711621761322,
          0.20198757946491241,
          0.20518334209918976,
          -0.050798624753952026,
          0.1201946884393692,
          -0.003990635275840759,
          0.10267840325832367,
          0.11533777415752411,
          -0.18618248403072357,
          0.1262580007314682,
          0.09177733957767487,
          -0.14186039566993713,
          -0.1743568629026413,
          0.06257005035877228,
          0.19162626564502716,
          -0.1870594620704651,
          0.1814219206571579,
          0.16038112342357635,
          -0.15511071681976318,
          -0.07525616884231567,
          -0.02979445457458496,
          -0.0645294338464737,
          0.10141189396381378,
          -0.16084899008274078,
          0.049039170145988464,
          0.05366687476634979,
          -0.10161086171865463,
          0.18416954576969147,
          -0.025769367814064026,
          -0.09543956816196442,
          -0.09381980448961258,
          0.041536226868629456,
          -0.11737959086894989,
          -0.07519170641899109,
          -0.08752324432134628,
          0.11826275289058685,
          -0.006806924939155579,
          0.17971162497997284,
          -0.07851286232471466,
          0.18155722320079803,
          0.03304058313369751,
          0.09168840944766998,
          0.1756591647863388,
          -0.11745121330022812,
          -0.19448937475681305,
          -0.06251363456249237,
          -0.06885604560375214,
          -0.04592064023017883,
          -0.15389904379844666,
          -0.07607974112033844,
          -0.14969615638256073,
          -0.1918255090713501,
          -0.001451149582862854,
          0.12330661714076996,
          -0.05264750123023987,
          0.13348712027072906,
          0.10888387262821198,
          0.11286868155002594,
          0.07276402413845062,
          0.11354927718639374,
          0.13040320575237274,
          -0.18643085658550262,
          0.1934133917093277
        ],
        [
          0.08545912802219391,
          0.010923415422439575,
          0.17299272119998932,
          0.13415102660655975,
          -0.08704087138175964,
          -0.06546267867088318,
          0.12760628759860992,
          -0.008632749319076538,
          -0.1649341583251953,
          0.12659431993961334,
          0.16054342687129974,
          0.00753369927406311,
          -0.06505617499351501,
          0.10990707576274872,
          -0.17700043320655823,
          -0.046134546399116516,
          0.1944333165884018,
          -0.04638853669166565,
          -0.08736944198608398,
          -0.1665773093700409,
          -0.030978485941886902,
          0.060652121901512146,
          0.11175067722797394,
          -0.024083957076072693,
          -0.04650887846946716,
          -0.07319682836532593,
          -0.14616918563842773,
          -0.15464892983436584,
          0.1329544335603714,
          0.11775071918964386,
          -0.06499828398227692,
          0.11311773955821991,
          0.12000139057636261,
          -0.18667882680892944,
          0.10849891602993011,
          0.15870623290538788,
          0.03479425609111786,
          -0.0952116847038269,
          -0.023263931274414062,
          -0.03283002972602844,
          -0.12740188837051392,
          -0.17329874634742737,
          -0.18483507633209229,
          -0.19827310740947723,
          -0.09027130901813507,
          0.0990944653749466,
          0.16287191212177277,
          -0.1294626146554947,
          0.027660101652145386,
          0.06928472220897675,
          0.15140773355960846,
          0.0667196661233902,
          -0.032628610730171204,
          0.14009590446949005,
          -0.050947681069374084,
          -0.003074079751968384,
          0.06397287547588348,
          0.07565142214298248,
          -0.11358075588941574,
          0.19318397343158722,
          -0.028429433703422546,
          0.08944927155971527,
          -0.1074080765247345,
          0.03172512352466583,
          0.1311284750699997,
          0.09816326200962067,
          0.007581427693367004,
          -0.060385942459106445,
          0.1320164054632187,
          0.00605560839176178,
          -0.05147036910057068,
          -0.12651129066944122,
          -0.10469554364681244,
          0.16426031291484833,
          0.15607284009456635,
          -0.015079498291015625,
          -0.038276270031929016,
          -0.1999771147966385,
          -0.16640302538871765,
          -0.017692774534225464,
          -0.12091920524835587,
          0.09673391282558441,
          -0.11354457587003708,
          0.17751608788967133,
          -0.12548387050628662,
          0.0787685364484787,
          -0.2038809359073639,
          0.0799044817686081,
          0.10109640657901764,
          0.16286538541316986,
          -0.06040365993976593,
          0.15315566956996918,
          0.11085633933544159,
          0.004345223307609558,
          -0.18449263274669647,
          0.06588013470172882,
          -0.031892284750938416,
          0.2052200585603714,
          0.020199492573738098,
          -0.031081795692443848,
          0.13588790595531464,
          0.048207804560661316,
          -0.18898341059684753,
          0.15470688045024872,
          -0.002361208200454712,
          0.14746515452861786,
          -0.0703660398721695,
          -0.08011184632778168,
          0.07892633974552155,
          0.153788223862648,
          0.1861196607351303,
          -0.09916278719902039,
          0.019476652145385742,
          -0.12186163663864136,
          0.17449747025966644,
          -0.17224125564098358,
          0.09090234339237213,
          0.043059155344963074,
          0.02139417827129364,
          0.14201118052005768,
          -0.16708755493164062,
          -0.20599225163459778,
          0.10038606822490692,
          0.00043670833110809326,
          -0.014430060982704163,
          0.14162205159664154,
          -0.033572718501091,
          -0.07333014905452728
        ],
        [
          -0.13556668162345886,
          0.07939650118350983,
          -0.07595901191234589,
          0.08854706585407257,
          0.04829762876033783,
          -0.03501468896865845,
          0.017039626836776733,
          -0.18467718362808228,
          -0.023727163672447205,
          -0.1839861273765564,
          -0.13954958319664001,
          0.11717061698436737,
          0.031552016735076904,
          -0.05281536281108856,
          0.16138042509555817,
          0.056103214621543884,
          0.07433752715587616,
          0.09235729277133942,
          0.20570187270641327,
          0.0041639357805252075,
          0.17240522801876068,
          -0.1503036469221115,
          0.004321381449699402,
          0.02578669786453247,
          -0.10500852018594742,
          0.1685701161623001,
          -0.01990710198879242,
          -0.1310807466506958,
          -0.17729870975017548,
          0.06613324582576752,
          0.20122285187244415,
          0.1791699081659317,
          0.015975192189216614,
          -0.07132929563522339,
          0.16355176270008087,
          -0.17633500695228577,
          -0.16744476556777954,
          -0.1350828856229782,
          0.16405202448368073,
          -0.08128447830677032,
          -0.13711106777191162,
          -0.14162519574165344,
          -0.060397639870643616,
          -0.0873095765709877,
          0.01832030713558197,
          -0.01042298972606659,
          -0.005185633897781372,
          -0.023760616779327393,
          0.10192646086215973,
          0.10459659993648529,
          0.15328951179981232,
          -0.08201925456523895,
          -0.055009931325912476,
          0.04591397941112518,
          0.07214976847171783,
          -0.08575846999883652,
          0.11354388296604156,
          -0.010301068425178528,
          0.08778472244739532,
          0.18703360855579376,
          0.1514843851327896,
          0.1863299161195755,
          0.1495467573404312,
          0.13345004618167877,
          -0.025310054421424866,
          -0.205260768532753,
          0.18517948687076569,
          -0.10198622196912766,
          -0.0915759727358818,
          0.13433967530727386,
          -0.007267966866493225,
          -0.19428089261054993,
          -0.1021132692694664,
          -0.19820919632911682,
          0.07112924754619598,
          -0.03495733439922333,
          -0.056081876158714294,
          0.05448122322559357,
          -0.10559059679508209,
          0.143437460064888,
          0.12301506102085114,
          -0.1422751396894455,
          -0.03639264404773712,
          -0.03577938675880432,
          -0.10799237340688705,
          0.1344137340784073,
          -0.002709612250328064,
          0.091751828789711,
          -0.1882692128419876,
          -0.11930517107248306,
          -0.06765282154083252,
          0.14644162356853485,
          0.08786474168300629,
          -0.10740620642900467,
          -0.10377518087625504,
          0.06952236592769623,
          -0.01492471992969513,
          -0.16318315267562866,
          -0.024273842573165894,
          -0.06966087222099304,
          0.08681748807430267,
          -0.12598736584186554,
          0.1849183589220047,
          0.000706210732460022,
          0.09673164784908295,
          -0.053264111280441284,
          0.1381462961435318,
          0.1607845276594162,
          -0.13710761070251465,
          0.08106572926044464,
          0.032983630895614624,
          0.10856623947620392,
          0.1347876340150833,
          -0.1859208345413208,
          -0.16005250811576843,
          -0.08221757411956787,
          0.14622999727725983,
          -0.06919868290424347,
          -0.1292826533317566,
          0.1336849480867386,
          -0.03364275395870209,
          0.0329086035490036,
          -0.17856216430664062,
          -0.06392653286457062,
          0.06793998181819916,
          -0.1556575894355774,
          0.053726449608802795,
          -0.088716059923172
        ],
        [
          -0.15960243344306946,
          -0.203496053814888,
          0.04786847531795502,
          0.08310599625110626,
          -0.0068839192390441895,
          -0.04025036096572876,
          0.13466976583003998,
          -0.00804869830608368,
          -0.14202307164669037,
          0.18018107116222382,
          -0.14939098060131073,
          -0.0011675506830215454,
          -0.16481178998947144,
          0.07882820069789886,
          0.10580770671367645,
          0.10784567892551422,
          0.08835871517658234,
          0.009613469243049622,
          0.1452619582414627,
          0.13454152643680573,
          -0.06400589644908905,
          -0.13253998756408691,
          0.002661988139152527,
          -0.02520279586315155,
          -0.16254545748233795,
          -0.14384406805038452,
          0.0892506092786789,
          -0.004368916153907776,
          -0.1513390690088272,
          0.05319584906101227,
          0.0425419807434082,
          0.035931989550590515,
          -0.03994281589984894,
          -0.0796327292919159,
          -0.1664678305387497,
          0.20452935993671417,
          0.10400567948818207,
          0.17988793551921844,
          -0.19258743524551392,
          0.1126142293214798,
          0.07228691875934601,
          0.07401962578296661,
          -0.17610332369804382,
          -0.20068272948265076,
          0.09717284142971039,
          0.1515817493200302,
          -0.17151659727096558,
          -0.0779232382774353,
          -0.16795097291469574,
          0.03192378580570221,
          0.20043234527111053,
          -0.16587485373020172,
          0.0015056878328323364,
          0.19168473780155182,
          -0.12314438074827194,
          -0.18841254711151123,
          -0.16862070560455322,
          -0.17660237848758698,
          0.13616947829723358,
          -0.13123083114624023,
          -0.10392631590366364,
          0.1342913955450058,
          -0.13300864398479462,
          0.00025469064712524414,
          0.012972235679626465,
          0.10038052499294281,
          0.18475483357906342,
          -0.1055305227637291,
          -0.01379375159740448,
          0.1762365847826004,
          0.13296149671077728,
          0.13338281214237213,
          0.03163103759288788,
          -0.20060336589813232,
          0.17194224894046783,
          -0.05773450434207916,
          0.16784821450710297,
          0.15162207186222076,
          -0.045041680335998535,
          0.15124578773975372,
          -0.05948260426521301,
          0.08087046444416046,
          0.05190764367580414,
          0.169099822640419,
          0.164307102560997,
          0.06616093218326569,
          0.026542946696281433,
          0.12716121971607208,
          0.06761278212070465,
          -0.010172590613365173,
          -0.057119667530059814,
          -0.007397770881652832,
          0.036965832114219666,
          -0.18119482696056366,
          -0.19672906398773193,
          -0.0196409672498703,
          -0.10039281845092773,
          0.09729130566120148,
          -0.07226264476776123,
          -0.09668746590614319,
          -0.19280628859996796,
          0.08804498612880707,
          0.10468272864818573,
          -0.03980274498462677,
          -0.11647743731737137,
          -0.07006485760211945,
          0.05490140616893768,
          0.09955896437168121,
          0.010605216026306152,
          0.15943171083927155,
          0.1857975870370865,
          -0.07208381593227386,
          -0.13504847884178162,
          0.1637532263994217,
          0.018302977085113525,
          0.10791335999965668,
          -0.17869532108306885,
          0.03781057894229889,
          0.04810483753681183,
          -0.161377415060997,
          0.10783256590366364,
          -0.09675326198339462,
          -0.08657074719667435,
          0.05244635045528412,
          -0.08809667825698853,
          -0.14335191249847412,
          -0.06464216113090515,
          -0.15126685798168182
        ]
      ],
      "bias": [
        0.0,
        0.0,
        0.0,
        0.0,
        0.0,
        0.0,
        0.0,
        0.0,
        0.0,
        0.0,
        0.0,
        0.0,
        0.0,
        0.0,
        0.0,
        0.0,
        0.0,
        0.0,
        0.0,
        0.0,
        0.0,
        0.0,
        0.0,
        0.0,
        0.0,
        0.0,
        0.0,
        0.0,
        0.0,
        0.0,
        0.0,
        0.0,
        0.0,
        0.0,
        0.0,
        0.0,
        0.0,
        0.0,
        0.0,
        0.0,
        0.0,
        0.0,
        0.0,
        0.0,
        0.0,
        0.0,
        0.0,
        0.0,
        0.0,
        0.0,
        0.0,
        0.0,
        0.0,
        0.0,
        0.0,
        0.0,
        0.0,
        0.0,
        0.0,
        0.0,
        0.0,
        0.0,
        0.0,
        0.0,
        0.0,
        0.0,
        0.0,
        0.0,
        0.0,
        0.0,
        0.0,
        0.0,
        0.0,
        0.0,
        0.0,
        0.0,
        0.0,
        0.0,
        0.0,
        0.0,
        0.0,
        0.0,
        0.0,
        0.0,
        0.0,
        0.0,
        0.0,
        0.0,
        0.0,
        0.0,
        0.0,
        0.0,
        0.0,
        0.0,
        0.0,
        0.0,
        0.0,
        0.0,
        0.0,
        0.0,
        0.0,
        0.0,
        0.0,
        0.0,
        0.0,
        0.0,
        0.0,
        0.0,
        0.0,
        0.0,
        0.0,
        0.0,
        0.0,
        0.0,
        0.0,
        0.0,
        0.0,
        0.0,
        0.0,
        0.0,
        0.0,
        0.0,
        0.0,
        0.0,
        0.0,
        0.0,
        0.0,
        0.0
      ]
    },
    {
      "name": "dense_2",
      "weights": [
        [
          0.15166079998016357,
          0.026022866368293762,
          0.13863545656204224,
          -0.11243456602096558,
          0.009191200137138367,
          0.028231382369995117,
          0.0879075825214386,
          -0.09800899028778076,
          -0.020007386803627014,
          -0.11986757814884186,
          -0.13724130392074585,
          0.016497522592544556,
          0.058981865644454956,
          0.14084354043006897,
          -0.17862191796302795,
          -0.16732120513916016
        ],
        [
          -0.17341484129428864,
          0.18915003538131714,
          -0.15185654163360596,
          0.1736951768398285,
          0.004555761814117432,
          0.12464979290962219,
          0.03254249691963196,
          -0.1620609313249588,
          0.02371123433113098,
          -0.07746529579162598,
          0.03364315629005432,
          -0.015253260731697083,
          -0.11017909646034241,
          -0.13086718320846558,
          -0.0010238587856292725,
          0.17618486285209656
        ],
        [
          -0.15487807989120483,
          -0.004033952951431274,
          -0.12320555001497269,
          0.1487416923046112,
          0.05428794026374817,
          0.19078508019447327,
          -0.20350107550621033,
          0.005597963929176331,
          0.09868615865707397,
          -0.022049501538276672,
          0.15607976913452148,
          -0.12482503801584244,
          -0.1251927614212036,
          -0.0670270025730133,
          0.05301082134246826,
          0.16118595004081726
        ],
        [
          -0.09447299689054489,
          0.17217373847961426,
          -0.18114428222179413,
          0.17226824164390564,
          0.15591377019882202,
          0.007008388638496399,
          -0.17193473875522614,
          0.04302258789539337,
          -0.1843920648097992,
          0.14531195163726807,
          0.18565058708190918,
          -0.1710115224123001,
          -0.14421051740646362,
          -0.0853339210152626,
          0.060369014739990234,
          -0.08426791429519653
        ],
        [
          0.058259010314941406,
          0.1212310791015625,
          -0.1869840770959854,
          0.001890033483505249,
          0.1376684606075287,
          -0.020110473036766052,
          0.1591796875,
          -0.1024639680981636,
          0.023869454860687256,
          -0.039365798234939575,
          0.04075154662132263,
          -0.15403564274311066,
          0.02266421914100647,
          -0.08843084424734116,
          0.1889234483242035,
          -0.012177646160125732
        ],
        [
          -0.12142540514469147,
          -0.0564287006855011,
          0.07428085803985596,
          0.009896188974380493,
          0.20410248637199402,
          0.14054402709007263,
          -0.04476739466190338,
          -0.07501024007797241,
          -0.18099389970302582,
          0.16525155305862427,
          0.01480191946029663,
          -0.16572201251983643,
          -0.030751898884773254,
          0.0996955931186676,
          -0.07283365726470947,
          0.06822502613067627
        ],
        [
          -0.20377394556999207,
          -0.07615546882152557,
          -0.15057455003261566,
          0.19790008664131165,
          -0.06971785426139832,
          0.1958138644695282,
          0.13410404324531555,
          -0.15137872099876404,
          -0.127375528216362,
          -0.09316147118806839,
          -0.04721774160861969,
          -0.01504063606262207,
          0.03709821403026581,
          0.06909412145614624,
          0.01741480827331543,
          0.07044848799705505
        ],
        [
          -0.14970949292182922,
          -0.1204930916428566,
          -0.20152781903743744,
          -0.1263282150030136,
          -0.08869607746601105,
          -0.024552255868911743,
          -0.09899158030748367,
          0.15046635270118713,
          -0.10411091148853302,
          0.15355774760246277,
          -0.13758090138435364,
          -0.02525709569454193,
          -0.04456670582294464,
          0.13400086760520935,
          -0.04855699837207794,
          -0.1647363007068634
        ],
        [
          -0.0669897198677063,
          0.0038929283618927,
          0.038098275661468506,
          -0.16038425266742706,
          -0.18093135952949524,
          0.09507378935813904,
          0.16006937623023987,
          0.2019583284854889,
          0.10985678434371948,
          0.017324373126029968,
          0.20298510789871216,
          -0.04452596604824066,
          -0.18533071875572205,
          -0.16257339715957642,
          -0.174946591258049,
          -0.044211044907569885
        ],
        [
          -0.15146899223327637,
          0.06676119565963745,
          -0.16931800544261932,
          -0.0851047933101654,
          -0.026008665561676025,
          0.1144818365573883,
          0.15407666563987732,
          0.04262888431549072,
          0.1604047417640686,
          0.11975306272506714,
          -0.18163138628005981,
          0.1168336272239685,
          -0.0548039972782135,
          -0.07661142945289612,
          0.19348213076591492,
          0.18948644399642944
        ],
        [
          0.09380751848220825,
          0.04304760694503784,
          0.09058555960655212,
          0.15330460667610168,
          -0.016513779759407043,
          0.1745460033416748,
          -0.12699666619300842,
          -0.17573557794094086,
          -0.05664467811584473,
          -0.10550297796726227,
          0.011723339557647705,
          0.12298247218132019,
          -0.08793798834085464,
          0.11621293425559998,
          0.1718079149723053,
          -0.09662684798240662
        ],
        [
          0.12212032079696655,
          0.05975964665412903,
          -0.06891162693500519,
          -0.05143380165100098,
          0.09207910299301147,
          -0.1823830008506775,
          -0.2038242667913437,
          0.022054463624954224,
          -0.163491889834404,
          0.1182534396648407,
          0.025720462203025818,
          -0.16111868619918823,
          -0.11567588895559311,
          -0.11157511174678802,
          -0.04321040213108063,
          -0.05463574826717377
        ],
        [
          0.05348920822143555,
          0.00361458957195282,
          -0.010396972298622131,
          0.11326944828033447,
          -0.15621636807918549,
          0.06124809384346008,
          0.1476307213306427,
          0.063717782497406,
          0.01813584566116333,
          0.19973471760749817,
          0.0535871684551239,
          0.14688178896903992,
          0.11242455244064331,
          -0.02212473750114441,
          0.17172759771347046,
          -0.026540204882621765
        ],
        [
          0.1470322608947754,
          0.029640093445777893,
          -0.14611440896987915,
          -0.0743207186460495,
          0.04784822463989258,
          -0.047467052936553955,
          0.018162235617637634,
          0.16474482417106628,
          -0.07943358272314072,
          -0.1294942945241928,
          -0.1472884565591812,
          -0.006610676646232605,
          0.03355690836906433,
          -0.11899921298027039,
          -0.19273890554904938,
          0.1824253797531128
        ],
        [
          0.05416187644004822,
          0.10541766881942749,
          -0.1841883510351181,
          0.19380903244018555,
          0.16787302494049072,
          -0.12096263468265533,
          -0.19878976047039032,
          -0.18618763983249664,
          -0.20324163138866425,
          -0.1601775735616684,
          0.07159298658370972,
          0.062160491943359375,
          -0.0786815732717514,
          0.13250049948692322,
          -0.11889778822660446,
          0.06639179587364197
        ],
        [
          0.15947404503822327,
          0.1272909939289093,
          -0.17784442007541656,
          -0.14604711532592773,
          0.1408039629459381,
          0.1980736255645752,
          -0.03373830020427704,
          0.09423121809959412,
          0.1365455687046051,
          -0.19263003766536713,
          0.046489328145980835,
          0.10963627696037292,
          0.17825156450271606,
          -0.055750176310539246,
          -0.05750943720340729,
          0.07389873266220093
        ],
        [
          -0.09801780432462692,
          -0.03977338969707489,
          0.08344212174415588,
          -0.15974988043308258,
          0.045416370034217834,
          -0.07651293277740479,
          0.09454184770584106,
          0.04433587193489075,
          -0.07887604832649231,
          -0.1458936631679535,
          0.013451755046844482,
          -0.15335075557231903,
          0.0407547652721405,
          0.07813096046447754,
          -0.06327039003372192,
          -0.009733781218528748
        ],
        [
          -0.113326296210289,
          -0.1390458345413208,
          0.13856276869773865,
          0.14930561184883118,
          -0.12302309274673462,
          -0.00043542683124542236,
          -0.17037665843963623,
          -0.050199955701828,
          -0.1203991174697876,
          -0.030041933059692383,
          0.026322856545448303,
          -0.07145117223262787,
          -0.19119304418563843,
          -0.20359085500240326,
          0.19089797139167786,
          -0.18060851097106934
        ],
        [
          0.034252941608428955,
          0.1901257336139679,
          -0.023825213313102722,
          0.008726716041564941,
          -0.20165756344795227,
          0.12132948637008667,
          0.14804449677467346,
          0.07660719752311707,
          -0.1998039335012436,
          -0.14591342210769653,
          -0.11497289687395096,
          -0.16534040868282318,
          -0.06412309408187866,
          -0.15276938676834106,
          0.20037400722503662,
          -0.11905386298894882
        ],
        [
          0.16632172465324402,
          -0.08812297135591507,
          -0.01851019263267517,
          -0.03709709644317627,
          -0.08002474159002304,
          0.18038776516914368,
          0.17453014850616455,
          0.06413188576698303,
          0.05758798122406006,
          0.03095385432243347,
          0.15767145156860352,
          0.07575231790542603,
          0.08893239498138428,
          0.1927568018436432,
          0.14298683404922485,
          0.0435781329870224
        ],
        [
          0.07689884305000305,
          0.0342571884393692,
          0.05282506346702576,
          0.1811622977256775,
          0.12341395020484924,
          0.0029135048389434814,
          0.07250168919563293,
          0.18660932779312134,
          0.13868695497512817,
          -0.1964574009180069,
          -0.10362506657838821,
          0.017455682158470154,
          0.08450958132743835,
          -0.13957756757736206,
          0.0006810426712036133,
          0.052471667528152466
        ],
        [
          -0.13667890429496765,
          -0.17026054859161377,
          0.0009489506483078003,
          -0.06713110208511353,
          -0.04869253933429718,
          0.000187799334526062,
          0.014166772365570068,
          0.14777716994285583,
          -0.00784754753112793,
          -0.190985769033432,
          0.00911673903465271,
          -0.07280917465686798,
          -0.17882105708122253,
          0.18137428164482117,
          -0.16701191663742065,
          0.19066530466079712
        ],
        [
          -0.10828132927417755,
          0.15431100130081177,
          -0.10061165690422058,
          -0.09144333004951477,
          -0.09678832441568375,
          0.12995803356170654,
          0.1605270802974701,
          -0.10627921670675278,
          0.05434194207191467,
          -0.1247938945889473,
          0.08779090642929077,
          0.04277448356151581,
          0.0065930187702178955,
          0.014581158757209778,
          0.07419949769973755,
          -0.05160750448703766
        ],
        [
          -0.131789430975914,
          -0.005915910005569458,
          0.06940996646881104,
          -0.11780142039060593,
          -0.06936861574649811,
          -0.03893481194972992,
          -0.11489711701869965,
          -0.19504109025001526,
          -0.17924490571022034,
          0.1259385347366333,
          0.16995301842689514,
          -0.1670892983675003,
          -0.10269927233457565,
          -0.11614236235618591,
          -0.16255319118499756,
          0.1763341724872589
        ],
        [
          -0.11754932254552841,
          0.005924716591835022,
          -0.06955733895301819,
          -0.16089199483394623,
          -0.021206051111221313,
          0.10118275880813599,
          -0.006875082850456238,
          -0.19401903450489044,
          0.14559128880500793,
          -0.03199884295463562,
          0.17974311113357544,
          0.14196673035621643,
          -0.16440623998641968,
          -0.05980899930000305,
          -0.16221082210540771,
          0.06650841236114502
        ],
        [
          0.12794965505599976,
          0.1286802887916565,
          -0.1542937308549881,
          0.19844427704811096,
          0.15439504384994507,
          -0.1007557064294815,
          -0.18838787078857422,
          0.06600329279899597,
          0.09366950392723083,
          -0.15770119428634644,
          0.1891116499900818,
          0.15263938903808594,
          0.12257707118988037,
          -0.13201913237571716,
          0.07111009955406189,
          -0.13149665296077728
        ],
        [
          -0.16692329943180084,
          -0.1548420637845993,
          0.18282684683799744,
          -0.0810011476278305,
          -0.14562064409255981,
          -0.025808438658714294,
          0.19340339303016663,
          0.14556115865707397,
          0.057465434074401855,
          -0.03419703245162964,
          0.08160197734832764,
          0.07602459192276001,
          0.04509945213794708,
          -0.050547778606414795,
          -0.1939181536436081,
          0.14824947714805603
        ],
        [
          -0.0334150493144989,
          -0.11341160535812378,
          -0.16269467771053314,
          0.09794077277183533,
          0.022741645574569702,
          0.03193099796772003,
          -0.11941073834896088,
          -0.07123547792434692,
          0.029703602194786072,
          0.1393844485282898,
          0.05389353632926941,
          0.02580299973487854,
          -0.0008326470851898193,
          -0.16008009016513824,
          -0.169003427028656,
          -0.1694151908159256
        ],
        [
          0.15578964352607727,
          0.004515662789344788,
          0.04170595109462738,
          -0.016252145171165466,
          -0.054947078227996826,
          -0.14005021750926971,
          0.1482531726360321,
          -0.12163832783699036,
          -0.07024525105953217,
          0.16916421055793762,
          -0.07330197095870972,
          0.12263157963752747,
          0.10128101706504822,
          -0.1413576602935791,
          0.005062922835350037,
          0.16481563448905945
        ],
        [
          -0.026031285524368286,
          -0.13551922142505646,
          -0.05399671196937561,
          -0.02610112726688385,
          0.07218924164772034,
          0.16780328750610352,
          0.09724515676498413,
          -0.05800364911556244,
          0.15720966458320618,
          -0.15579773485660553,
          -0.015054792165756226,
          -0.10019370168447495,
          0.015916690230369568,
          -0.05823974311351776,
          -0.19804272055625916,
          0.19567230343818665
        ],
        [
          -0.12847262620925903,
          0.04568594694137573,
          0.03478166460990906,
          -0.1178082823753357,
          -0.11085303872823715,
          -0.1304701268672943,
          0.02991136908531189,
          0.01316826045513153,
          0.07022029161453247,
          -0.08509885519742966,
          0.02987569570541382,
          0.19646534323692322,
          -0.0006450861692428589,
          0.006378546357154846,
          0.0004910081624984741,
          0.033844441175460815
        ],
        [
          -0.08440286666154861,
          0.18456989526748657,
          0.018267542123794556,
          0.1401529610157013,
          -0.04373571276664734,
          0.0720909833908081,
          0.027359217405319214,
          -0.08766073733568192,
          0.10001757740974426,
          0.04911568760871887,
          0.072165846824646,
          -0.13953755795955658,
          -0.04937218129634857,
          -0.11057096719741821,
          -0.1252574920654297,
          0.043606117367744446
        ],
        [
          0.16922876238822937,
          -0.18637734651565552,
          -0.11713949590921402,
          0.19971376657485962,
          0.11037620902061462,
          -0.04456733167171478,
          0.12841394543647766,
          0.14824733138084412,
          -0.1258903592824936,
          -0.13130462169647217,
          0.007151126861572266,
          -0.13684087991714478,
          -0.13648298382759094,
          -0.11193899065256119,
          0.16652432084083557,
          0.15390712022781372
        ],
        [
          0.039212942123413086,
          -0.12214392423629761,
          0.007380247116088867,
          -0.03301379084587097,
          0.18671101331710815,
          0.04788714647293091,
          -0.007455289363861084,
          -0.09885959327220917,
          0.0848613977432251,
          -0.159730464220047,
          0.12513330578804016,
          -0.20159824192523956,
          0.045911312103271484,
          0.1476474106311798,
          0.18676725029945374,
          0.1680682897567749
        ],
        [
          0.03305262327194214,
          -0.04687799513339996,
          -0.05342920124530792,
          -0.1665865182876587,
          -0.07792757451534271,
          0.19625693559646606,
          -0.10488631576299667,
          -0.16898585855960846,
          0.05754345655441284,
          0.0627802312374115,
          0.06697925925254822,
          0.18318653106689453,
          0.03512321412563324,
          -0.09502312541007996,
          -0.03930287063121796,
          -0.14928016066551208
        ],
        [
          0.09856906533241272,
          0.06656992435455322,
          -0.15275833010673523,
          -0.09745798259973526,
          0.07361742854118347,
          0.11507397890090942,
          0.015520930290222168,
          -0.06355972588062286,
          -0.04505619406700134,
          0.10469913482666016,
          0.1642453372478485,
          -0.1887560933828354,
          0.04039540886878967,
          -0.19938156008720398,
          -0.19781841337680817,
          0.058095335960388184
        ],
        [
          -0.14875635504722595,
          0.08195862174034119,
          0.10004532337188721,
          0.028713136911392212,
          0.17715713381767273,
          0.07085734605789185,
          0.19510427117347717,
          0.1337890625,
          -0.04472847282886505,
          0.027686789631843567,
          0.06018427014350891,
          -0.030727848410606384,
          -0.1587027609348297,
          -0.06462416052818298,
          0.16060855984687805,
          0.20399439334869385
        ],
        [
          -0.16303777694702148,
          0.19460007548332214,
          -0.16886262595653534,
          -0.11026090383529663,
          0.07610747218132019,
          0.15020695328712463,
          0.11747738718986511,
          0.03387601673603058,
          -0.16410396993160248,
          0.028168603777885437,
          0.1300426721572876,
          -0.14871668815612793,
          -0.13588368892669678,
          0.1498698890209198,
          0.037851482629776,
          0.09063991904258728
        ],
        [
          -0.18067187070846558,
          -0.0018401890993118286,
          0.020551100373268127,
          -0.0944393202662468,
          -0.055061936378479004,
          0.04390248656272888,
          0.09565526247024536,
          0.150142639875412,
          0.014141172170639038,
          0.05351021885871887,
          0.010894209146499634,
          -0.0944264680147171,
          0.09549680352210999,
          -0.10773143917322159,
          0.012123197317123413,
          -0.09924931824207306
        ],
        [
          -0.06572973728179932,
          0.061623454093933105,
          0.12518030405044556,
          -0.012693226337432861,
          -0.17939971387386322,
          -0.01875913143157959,
          0.044701218605041504,
          -0.07035289704799652,
          0.17321565747261047,
          0.11019900441169739,
          -0.08286985754966736,
          -0.17714424431324005,
          -0.18580695986747742,
          -0.19991928339004517,
          0.050742775201797485,
          0.1104675829410553
        ],
        [
          -0.09288421273231506,
          -0.009288623929023743,
          0.12769708037376404,
          -0.029993951320648193,
          -0.1660229116678238,
          0.06029367446899414,
          0.13669204711914062,
          -0.026689469814300537,
          -0.10517009347677231,
          -0.004630610346794128,
          0.19062870740890503,
          -0.17954537272453308,
          0.0011698156595230103,
          -0.047877416014671326,
          -0.0024970024824142456,
          -0.00972682237625122
        ],
        [
          -0.1450411081314087,
          0.028151318430900574,
          -0.0675932914018631,
          -0.06474412977695465,
          -0.09728521853685379,
          0.02915571630001068,
          0.19331097602844238,
          -0.0034164786338806152,
          -0.15071402490139008,
          0.06490400433540344,
          -0.17044834792613983,
          0.06529951095581055,
          -0.20387303829193115,
          -0.11660245805978775,
          -0.185673326253891,
          0.10451680421829224
        ],
        [
          0.20401275157928467,
          0.01898255944252014,
          0.07537075877189636,
          -0.16709017753601074,
          0.0776812732219696,
          -0.04320956766605377,
          -0.09516236186027527,
          0.1290740966796875,
          -0.17648781836032867,
          0.04541589319705963,
          -0.1906498670578003,
          0.102475106716156,
          0.06702852249145508,
          -0.18159639835357666,
          0.16234129667282104,
          -0.1690531075000763
        ],
        [
          -0.1310819685459137,
          0.022478505969047546,
          0.1859155297279358,
          -0.00944596529006958,
          -0.028364285826683044,
          0.12709957361221313,
          -0.08884840458631516,
          -0.12577491998672485,
          0.07126906514167786,
          0.19050469994544983,
          -0.17187531292438507,
          0.1444888412952423,
          -0.15530221164226532,
          -0.022794067859649658,
          0.09265834093093872,
          -0.03625725209712982
        ],
        [
          0.10998836159706116,
          0.16269677877426147,
          0.00026470422744750977,
          0.030463144183158875,
          -0.19125421345233917,
          -0.007696047425270081,
          -0.0012582838535308838,
          -0.041451871395111084,
          0.002538710832595825,
          -0.07388943433761597,
          -0.03447248041629791,
          -0.08559044450521469,
          0.14836385846138,
          -0.16734850406646729,
          -0.1871626377105713,
          0.12286463379859924
        ],
        [
          0.13266286253929138,
          0.03409560024738312,
          0.03599853813648224,
          -0.011174723505973816,
          0.20071980357170105,
          -0.20095962285995483,
          -0.10559652000665665,
          0.14382994174957275,
          0.17884570360183716,
          -0.16273778676986694,
          -0.10680808126926422,
          0.01092943549156189,
          0.15172702074050903,
          0.1975284218788147,
          0.08592414855957031,
          0.07069382071495056
        ],
        [
          0.1459084153175354,
          -0.0160038024187088,
          0.033720776438713074,
          -0.06249523162841797,
          0.13169345259666443,
          -0.1153290867805481,
          -0.08475964516401291,
          -0.03693878650665283,
          -0.0465874969959259,
          0.11041274666786194,
          -0.13524922728538513,
          0.06708022952079773,
          0.047964274883270264,
          0.1905650496482849,
          -0.10568810999393463,
          0.19980734586715698
        ],
        [
          0.07740753889083862,
          0.01240365207195282,
          -0.0791512131690979,
          0.20046138763427734,
          0.05309709906578064,
          -0.10565535724163055,
          0.13195928931236267,
          -0.1673879772424698,
          -0.11109257489442825,
          -0.0240643173456192,
          -0.18857334554195404,
          0.143358051776886,
          -0.1110924780368805,
          -0.03617914021015167,
          0.0079251229763031,
          -0.18168069422245026
        ],
        [
          0.019243165850639343,
          -0.20367665588855743,
          0.1430835723876953,
          0.10275354981422424,
          -0.17700670659542084,
          0.16168293356895447,
          0.14578279852867126,
          -0.19235403835773468,
          0.03532133996486664,
          -0.1818835735321045,
          -0.0008988827466964722,
          -0.08411768078804016,
          -0.033950477838516235,
          0.15116819739341736,
          -0.08650221675634384,
          0.0008984357118606567
        ],
        [
          0.014326974749565125,
          0.16561207175254822,
          -0.16870397329330444,
          0.1714278757572174,
          0.06461656093597412,
          -0.11640661954879761,
          -0.06436589360237122,
          0.1786925494670868,
          0.11679688096046448,
          -0.1997075229883194,
          -0.15584786236286163,
          0.17998546361923218,
          0.18758821487426758,
          0.08209630846977234,
          -0.202628955245018,
          -0.03637176752090454
        ],
        [
          -0.07489168643951416,
          -0.02765291929244995,
          -0.1700962483882904,
          -0.03548519313335419,
          -0.023980364203453064,
          -0.10765493661165237,
          -0.0978020578622818,
          0.08919057250022888,
          -0.1216265931725502,
          0.013121739029884338,
          -0.1770884245634079,
          -0.09848184138536453,
          0.15507230162620544,
          0.10425505042076111,
          -0.04276193678379059,
          -0.005926862359046936
        ],
        [
          -0.0756639838218689,
          -0.10069842636585236,
          0.10491806268692017,
          -0.14387796819210052,
          0.1318148970603943,
          0.022677063941955566,
          -0.041467100381851196,
          0.07444047927856445,
          0.16209343075752258,
          0.0662946105003357,
          -0.11467378586530685,
          -0.04384589195251465,
          0.19396987557411194,
          0.10847210884094238,
          0.06600084900856018,
          -0.13620133697986603
        ],
        [
          -0.1607949137687683,
          0.1724664270877838,
          -0.10043562203645706,
          -0.20360536873340607,
          0.007402986288070679,
          0.1369682252407074,
          0.12933292984962463,
          -0.16752326488494873,
          0.07216677069664001,
          0.062296509742736816,
          0.1859636902809143,
          -0.053746312856674194,
          0.15895995497703552,
          -0.16364704072475433,
          0.18728867173194885,
          -0.1288405954837799
        ],
        [
          -0.006351873278617859,
          0.12946626543998718,
          0.0317072719335556,
          0.1979135274887085,
          0.15925922989845276,
          0.020532548427581787,
          -0.1468474417924881,
          -0.09202606976032257,
          0.07932671904563904,
          -0.029362395405769348,
          0.10235738754272461,
          -0.1449364721775055,
          0.09963899850845337,
          0.12279060482978821,
          0.089348703622818,
          0.17600670456886292
        ],
        [
          0.19102787971496582,
          0.021557822823524475,
          -0.1760970801115036,
          -0.11890435963869095,
          -0.0860619768500328,
          -0.16324256360530853,
          0.06633076071739197,
          -0.07531431317329407,
          0.11162680387496948,
          0.17011615633964539,
          0.02865692973136902,
          0.0577719509601593,
          0.01360495388507843,
          0.1586451530456543,
          -0.20085354149341583,
          -0.1807272583246231
        ],
        [
          -0.1981382519006729,
          0.178593248128891,
          0.0319785475730896,
          0.07797834277153015,
          0.09316760301589966,
          0.09397658705711365,
          -0.05311836302280426,
          0.14106237888336182,
          0.1489945650100708,
          -0.011277943849563599,
          0.13479569554328918,
          0.14343991875648499,
          -0.1668761968612671,
          -0.15916110575199127,
          -0.19186416268348694,
          -0.18316152691841125
        ],
        [
          -0.16357535123825073,
          0.18484890460968018,
          0.06014934182167053,
          0.08221274614334106,
          -0.159251868724823,
          -0.022886037826538086,
          0.09827053546905518,
          0.02022099494934082,
          -0.05202983319759369,
          -0.05668993294239044,
          -0.13236680626869202,
          -0.1715714931488037,
          -0.17984510958194733,
          0.10250046849250793,
          -0.05748072266578674,
          0.19297343492507935
        ],
        [
          0.002900749444961548,
          -0.14115530252456665,
          0.12923744320869446,
          0.06737112998962402,
          0.1507396697998047,
          0.06747853755950928,
          -0.02696429193019867,
          0.18112120032310486,
          -0.0286475270986557,
          -0.04512681066989899,
          0.07863646745681763,
          -0.09055086970329285,
          -0.16500523686408997,
          0.037689462304115295,
          -0.16855096817016602,
          0.012439817190170288
        ],
        [
          -0.07264813780784607,
          0.0261467844247818,
          0.12014317512512207,
          0.17542114853858948,
          -0.13151967525482178,
          -0.17234456539154053,
          0.03950032591819763,
          -0.019679516553878784,
          0.09807679057121277,
          -0.04133063554763794,
          -0.16155172884464264,
          0.061026811599731445,
          -0.048684895038604736,
          -0.201710507273674,
          -0.16962680220603943,
          -0.0857536718249321
        ],
        [
          -0.17000435292720795,
          0.11663535237312317,
          0.006326228380203247,
          -0.16108185052871704,
          -0.0787787139415741,
          -0.10854116082191467,
          0.1582629680633545,
          0.14739975333213806,
          -0.11112547665834427,
          -0.030306488275527954,
          -0.1739589422941208,
          -0.1814325898885727,
          -0.0004321634769439697,
          -0.1407385617494583,
          -0.14025413990020752,
          0.19012987613677979
        ],
        [
          -0.03194740414619446,
          0.14097395539283752,
          0.17800870537757874,
          -0.11215799301862717,
          -0.12026406824588776,
          0.12554678320884705,
          0.18355593085289001,
          0.19194874167442322,
          0.16007080674171448,
          -0.08133592456579208,
          0.1952124536037445,
          -0.018238097429275513,
          0.1500246524810791,
          -0.16624590754508972,
          0.18639880418777466,
          0.20056620240211487
        ],
        [
          0.1811964511871338,
          -0.08755099028348923,
          0.1234154999256134,
          -0.16088314354419708,
          0.1227518618106842,
          0.08397936820983887,
          -0.020002618432044983,
          0.12564045190811157,
          -0.012759163975715637,
          0.08852729201316833,
          -0.10314302146434784,
          -0.09724735468626022,
          -0.05721369385719299,
          0.19736585021018982,
          0.17592480778694153,
          -0.20155204832553864
        ],
        [
          -0.035578057169914246,
          0.019131436944007874,
          -0.012633025646209717,
          -0.1785103678703308,
          -0.1821334809064865,
          0.1782151460647583,
          0.14782914519309998,
          0.16637828946113586,
          -0.1257454752922058,
          0.15785562992095947,
          -0.12456301599740982,
          0.01155233383178711,
          0.019236698746681213,
          0.16457945108413696,
          -0.166522815823555,
          0.1487763524055481
        ],
        [
          -0.0713493674993515,
          -0.11122845858335495,
          0.20079892873764038,
          0.17869865894317627,
          -0.10176939517259598,
          -0.11943370848894119,
          -0.011188000440597534,
          0.0604320764541626,
          -0.19946487247943878,
          0.010331466794013977,
          -0.16247698664665222,
          -0.1782834827899933,
          0.019325077533721924,
          -0.002716153860092163,
          0.13149583339691162,
          0.16229286789894104
        ],
        [
          0.1213352382183075,
          0.13777512311935425,
          -0.03099113702774048,
          0.03567202389240265,
          -0.13506968319416046,
          -0.03954596817493439,
          0.13447389006614685,
          0.005737587809562683,
          -0.11679011583328247,
          -0.13052651286125183,
          0.03167185187339783,
          0.0966046154499054,
          0.06572073698043823,
          -0.18852828443050385,
          0.13928759098052979,
          0.06762892007827759
        ],
        [
          0.014132559299468994,
          -0.06360293924808502,
          0.18802130222320557,
          -0.12041366845369339,
          -0.10105691105127335,
          0.14825215935707092,
          -0.08936339616775513,
          0.09123361110687256,
          0.021287381649017334,
          -0.07174137234687805,
          0.050075262784957886,
          -0.0727398693561554,
          0.05028924345970154,
          0.043365493416786194,
          0.15952333807945251,
          -0.11828974634408951
        ],
        [
          0.02463163435459137,
          0.08735057711601257,
          -0.11861814558506012,
          0.17506903409957886,
          -0.11281534284353256,
          0.048257410526275635,
          -0.10787642002105713,
          0.14986556768417358,
          -0.11968332529067993,
          -0.02403832972049713,
          0.0046020448207855225,
          -0.13358277082443237,
          -0.09654002636671066,
          -0.15962806344032288,
          -0.02525217831134796,
          -0.06279423832893372
        ],
        [
          0.04990658164024353,
          -0.032841265201568604,
          0.19974491000175476,
          0.07511097192764282,
          -0.08227407932281494,
          -0.19056333601474762,
          0.1828191578388214,
          0.15835103392601013,
          -0.14085881412029266,
          0.0998745858669281,
          -0.031193792819976807,
          0.1963021159172058,
          0.029186561703681946,
          -0.1924687922000885,
          -0.1425611972808838,
          0.029023244976997375
        ],
        [
          0.19928187131881714,
          0.1320725381374359,
          0.14419761300086975,
          -0.013504162430763245,
          -0.19230249524116516,
          -0.13787353038787842,
          -0.01819293200969696,
          0.044915929436683655,
          0.13266924023628235,
          -0.07332110404968262,
          -0.015913918614387512,
          0.07627898454666138,
          0.19974485039710999,
          0.08647170662879944,
          -0.05702671408653259,
          0.09198406338691711
        ],
        [
          0.09407207369804382,
          0.07174888253211975,
          0.1781896948814392,
          0.016116410493850708,
          -0.016068965196609497,
          0.11335185170173645,
          -0.1587757170200348,
          -0.04659099876880646,
          -0.12708517909049988,
          0.06165274977684021,
          -0.039406731724739075,
          0.12201282382011414,
          0.17367637157440186,
          0.18414747714996338,
          -0.03382614254951477,
          -0.009309649467468262
        ],
        [
          0.19556057453155518,
          -0.07715430855751038,
          -0.164987713098526,
          0.2020757496356964,
          0.11408734321594238,
          -0.1742103099822998,
          0.021236330270767212,
          -0.12019233405590057,
          0.09797170758247375,
          -0.1573064625263214,
          -0.061200737953186035,
          -0.19291546940803528,
          0.12146911025047302,
          0.054993271827697754,
          0.10160717368125916,
          -0.15186519920825958
        ],
        [
          0.19205251336097717,
          0.09343725442886353,
          -0.06475362181663513,
          -0.05950230360031128,
          -0.18065202236175537,
          0.0493408739566803,
          -0.1051425039768219,
          0.04283060133457184,
          -0.08992291986942291,
          0.0681728720664978,
          -0.0432865172624588,
          -0.1282127946615219,
          -0.1528814136981964,
          -0.16053506731987,
          0.1802685260772705,
          -0.07839693129062653
        ],
        [
          -0.06778362393379211,
          0.09069854021072388,
          0.1813434362411499,
          0.11191827058792114,
          0.05242413282394409,
          0.19958147406578064,
          0.005459114909172058,
          -0.14628645777702332,
          -0.14173179864883423,
          -0.08100591599941254,
          0.05102553963661194,
          -0.019750326871871948,
          -0.10347823798656464,
          0.09984573721885681,
          -0.14819443225860596,
          -0.0969056636095047
        ],
        [
          0.14254051446914673,
          -0.08067955076694489,
          0.09529590606689453,
          -0.1011318564414978,
          0.09086880087852478,
          0.05158871412277222,
          0.01084563136100769,
          -0.15342102944850922,
          -0.10597743093967438,
          0.17232775688171387,
          0.0463104248046875,
          0.004822850227355957,
          -0.006301939487457275,
          0.13546618819236755,
          -0.12033974379301071,
          0.07109946012496948
        ],
        [
          -0.026796624064445496,
          0.15868216753005981,
          0.05067718029022217,
          0.04858994483947754,
          -0.19031961262226105,
          -0.14778071641921997,
          -0.13335271179676056,
          0.00655578076839447,
          -0.1105031743645668,
          -0.1662461906671524,
          -0.08774979412555695,
          -0.178264319896698,
          0.17294156551361084,
          0.035336121916770935,
          -0.1849234700202942,
          0.003520280122756958
        ],
        [
          0.10749244689941406,
          -0.15989422798156738,
          0.12623044848442078,
          -0.052322909235954285,
          -0.09552600234746933,
          -0.004720792174339294,
          0.14998304843902588,
          0.19164356589317322,
          0.04457351565361023,
          0.08078983426094055,
          -0.034069716930389404,
          -0.10811065137386322,
          0.04524010419845581,
          0.008895978331565857,
          -0.0571979284286499,
          -0.0022075772285461426
        ],
        [
          0.15595701336860657,
          0.1867448389530182,
          -0.08600542694330215,
          0.08891141414642334,
          -0.06786967813968658,
          0.013541251420974731,
          0.19514364004135132,
          -0.18367549777030945,
          -0.08089403063058853,
          0.1757788062095642,
          -0.036427393555641174,
          0.19423633813858032,
          0.10105335712432861,
          -0.11088365316390991,
          -0.17994843423366547,
          0.18164247274398804
        ],
        [
          -0.09961777925491333,
          -0.10928372293710709,
          -0.05903860926628113,
          -0.005171447992324829,
          -0.11418239772319794,
          0.1348283588886261,
          -0.1912369430065155,
          0.11782357096672058,
          -0.01978200674057007,
          -0.057556405663490295,
          -0.033762574195861816,
          -0.13598033785820007,
          0.1757737696170807,
          -0.05469362437725067,
          -0.1174798309803009,
          0.060575276613235474
        ],
        [
          0.11687284708023071,
          0.1760396957397461,
          0.18306493759155273,
          0.15658721327781677,
          0.18701663613319397,
          0.011252343654632568,
          0.035609930753707886,
          -0.1986198127269745,
          0.06538230180740356,
          -0.09443411231040955,
          -0.12233830243349075,
          0.08742928504943848,
          0.19925323128700256,
          0.12182563543319702,
          0.034869417548179626,
          0.08754253387451172
        ],
        [
          -0.09611594676971436,
          0.10809668898582458,
          -0.14902396500110626,
          0.17288583517074585,
          0.19101300835609436,
          -0.07677081227302551,
          -0.06103454530239105,
          -0.1699482500553131,
          -0.1420108675956726,
          0.08459329605102539,
          -0.08603447675704956,
          -0.06186056137084961,
          0.2037385106086731,
          -0.13710945844650269,
          0.11864963173866272,
          0.0198565274477005
        ],
        [
          -0.015110611915588379,
          -0.18586769700050354,
          -0.09216481447219849,
          0.12296995520591736,
          -0.18966571986675262,
          0.05928424000740051,
          -0.1654016375541687,
          -0.197356715798378,
          0.05512666702270508,
          0.20377057790756226,
          0.06617358326911926,
          -0.18393245339393616,
          -0.06562758982181549,
          0.013611823320388794,
          -0.024254709482192993,
          -0.03503064811229706
        ],
        [
          -0.03813306987285614,
          0.08895683288574219,
          -0.015432104468345642,
          -0.12071934342384338,
          -0.09199093282222748,
          -0.07239949703216553,
          -0.15720629692077637,
          -0.1680523306131363,
          0.05810454487800598,
          0.1241874098777771,
          -0.0882740393280983,
          0.14402398467063904,
          0.1700834333896637,
          0.1677907407283783,
          0.20216578245162964,
          -0.11601831018924713
        ],
        [
          -0.06625758111476898,
          0.03647376596927643,
          -0.10594336688518524,
          0.10034742951393127,
          -0.06735540926456451,
          0.10827615857124329,
          0.10122266411781311,
          0.08488982915878296,
          0.1920795738697052,
          -0.08266142010688782,
          -0.15651138126850128,
          0.010955765843391418,
          -0.19902832806110382,
          -0.1985873579978943,
          -0.15869925916194916,
          -0.08665133267641068
        ],
        [
          -0.10061588883399963,
          0.1006009578704834,
          -0.18563595414161682,
          -0.11224111914634705,
          -0.0016197413206100464,
          0.1059781014919281,
          -0.18995597958564758,
          0.09130439162254333,
          0.18810692429542542,
          0.16751113533973694,
          0.13802888989448547,
          0.1783130168914795,
          -0.06711611151695251,
          0.16139978170394897,
          0.17258977890014648,
          -0.07117405533790588
        ],
        [
          -0.03285045921802521,
          0.0677681565284729,
          -0.012691140174865723,
          0.11583337187767029,
          -0.07017633318901062,
          0.04361462593078613,
          -0.012566685676574707,
          0.10496312379837036,
          0.03623403608798981,
          0.08578598499298096,
          0.0017751753330230713,
          0.024334952235221863,
          0.008025825023651123,
          -0.1954411268234253,
          -0.12911459803581238,
          -0.15722382068634033
        ],
        [
          -0.13142213225364685,
          -0.0812552347779274,
          0.15976423025131226,
          0.17035582661628723,
          -0.0007606595754623413,
          0.17321482300758362,
          -0.16787853837013245,
          -0.1558137983083725,
          -0.0784643292427063,
          0.15433713793754578,
          -0.10278736054897308,
          0.1088663637638092,
          -0.19638420641422272,
          0.19568774104118347,
          0.04473809897899628,
          0.03651444613933563
        ],
        [
          0.09679898619651794,
          0.2013448178768158,
          -0.11251963675022125,
          0.052836835384368896,
          0.11072942614555359,
          -0.1413508951663971,
          -0.08108110725879669,
          0.10634666681289673,
          0.1178436279296875,
          0.07242727279663086,
          0.19162914156913757,
          -0.17276985943317413,
          0.03593000769615173,
          -0.009521156549453735,
          0.09444797039031982,
          -0.18002061545848846
        ],
        [
          0.048043906688690186,
          0.1867956817150116,
          0.07445645332336426,
          -0.00953732430934906,
          -0.0765899121761322,
          0.050014376640319824,
          0.20124033093452454,
          -0.08353017270565033,
          0.12328070402145386,
          -0.14300137758255005,
          0.13150128722190857,
          0.19896918535232544,
          -0.06268902122974396,
          0.11878803372383118,
          -0.1326083540916443,
          0.031139716506004333
        ],
        [
          0.17959079146385193,
          0.11053499579429626,
          -0.05185127258300781,
          -0.19908824563026428,
          -0.09272176027297974,
          0.034148022532463074,
          0.20153695344924927,
          0.11328718066215515,
          0.1294812560081482,
          0.17911195755004883,
          -0.013706177473068237,
          0.15687355399131775,
          0.006458893418312073,
          -0.06337594985961914,
          -0.14354577660560608,
          -0.10411650687456131
        ],
        [
          -0.022954657673835754,
          0.14423933625221252,
          0.14120250940322876,
          -0.054642319679260254,
          0.13025972247123718,
          0.16898080706596375,
          0.15025123953819275,
          -0.14861735701560974,
          -0.12293481081724167,
          0.015264496207237244,
          -0.05751177668571472,
          -0.12216281145811081,
          0.13489243388175964,
          0.14238598942756653,
          -0.1825108528137207,
          0.18245604634284973
        ],
        [
          0.0025862157344818115,
          -0.039885520935058594,
          -0.04776519536972046,
          -0.19348818063735962,
          -0.1656579077243805,
          0.10984036326408386,
          -0.1568179875612259,
          -0.08728259056806564,
          0.09883227944374084,
          0.12894320487976074,
          -0.10072363913059235,
          -0.02686189115047455,
          0.16758662462234497,
          0.12162750959396362,
          0.17892399430274963,
          0.07659730315208435
        ],
        [
          0.15906503796577454,
          0.12813681364059448,
          0.15886834263801575,
          0.03155489265918732,
          -0.048183441162109375,
          -0.12487798929214478,
          -0.023494958877563477,
          0.0782209038734436,
          0.08890825510025024,
          -0.17254750430583954,
          -0.04126109182834625,
          -0.19725646078586578,
          -0.04138714075088501,
          0.01542748510837555,
          0.11872634291648865,
          0.16794273257255554
        ],
        [
          -0.15412305295467377,
          -0.1968974471092224,
          0.08946588635444641,
          -0.09464449435472488,
          -0.08066383004188538,
          0.004183709621429443,
          0.17697516083717346,
          0.08042511343955994,
          -0.0462966114282608,
          0.1637400984764099,
          0.11061257123947144,
          -0.15172888338565826,
          -0.16066794097423553,
          0.13520747423171997,
          0.20179402828216553,
          0.03059503436088562
        ],
        [
          0.08799377083778381,
          0.1168900728225708,
          0.0706922709941864,
          0.20041626691818237,
          -0.10580792278051376,
          -0.12767747044563293,
          0.1565033495426178,
          -0.11166193336248398,
          0.02895890176296234,
