{
  "input_features": [
    "queue_len",
    "io_type",
    "size",
    "prev_queue_len_1",
    "prev_queue_len_2",
    "prev_queue_len_3",
    "prev_latency_1",
    "prev_latency_2",
    "prev_latency_3",
    "prev_throughput_1",
    "prev_throughput_2",
    "prev_throughput_3"
  ],
  "scaler_min": [
    1.0,
    0.0,
    2048.0,
    1.0,
    1.0,
    1.0,
    17.0,
    17.0,
    17.0,
    1.0,
    1.0,
    1.0
  ],
  "scaler_scale": [
    12.0,
    1.0,
    2095104.0,
    12.0,
    12.0,
    12.0,
    6990.0,
    6990.0,
    6990.0,
    5931.0,
    5931.0,
    5931.0
  ],
  "layers": [
    {
      "name": "dense_1",
      "weights": [
        [
          0.14110220968723297,
          0.1613299697637558,
          0.20397095382213593,
          -0.016739189624786377,
          0.11224688589572906,
          0.03292559087276459,
          0.04782705008983612,
          0.1971500664949417,
          -0.042831361293792725,
          0.2008817344903946,
          0.04824317991733551,
          0.16263918578624725,
          0.06397272646427155,
          -0.07883931696414948,
          0.10129956901073456,
          0.01541602611541748,
          0.1672067493200302,
          0.04347814619541168,
          0.20492707192897797,
          -0.01251983642578125,
          0.11175338923931122,
          0.12664322555065155,
          0.06896014511585236,
          0.16416461765766144,
          0.11045347154140472,
          0.1410999447107315,
          0.14097605645656586,
          -0.055511608719825745,
          0.0797642320394516,
          -0.02725827693939209,
          0.0815625935792923,
          0.05629529058933258,
          0.03349359333515167,
          0.10739178955554962,
          0.04306088387966156,
          -0.2044285535812378,
          -0.1534019559621811,
          -0.01990482211112976,
          0.14605949819087982,
          0.106916144490242,
          -0.20105355978012085,
          -0.11830677092075348,
          -0.0038081705570220947,
          -0.16248242557048798,
          0.1724514216184616,
          0.1578759104013443,
          -0.0665813684463501,
          -0.1114727035164833,
          -0.060979604721069336,
          0.13088904321193695,
          -0.19884510338306427,
          -0.1792563647031784,
          -0.16243819892406464,
          0.17631496489048004,
          -0.08390051126480103,
          -0.075456902384758,
          -0.09355653077363968,
          -0.11283881962299347,
          -0.03592453896999359,
          -0.0019020885229110718,
          0.06901092827320099,
          0.10369236767292023,
          0.06557871401309967,
          -0.12126712501049042,
          0.0764135867357254,
          -0.11958295106887817,
          -0.09230601787567139,
          -0.0045446306467056274,
          0.020763203501701355,
          0.17528291046619415,
          0.17082597315311432,
          -0.16275931894779205,
          -0.19055278599262238,
          -0.14883458614349365,
          -0.19363707304000854,
          -0.06253905594348907,
          -0.004280909895896912,
          -0.030928298830986023,
          0.12975703179836273,
          -0.1966620832681656,
          -0.09361527115106583,
          -0.1391567885875702,
          0.11598886549472809,
          -0.034305959939956665,
          -0.011374205350875854,
          -0.028794825077056885,
          -0.15685716271400452,
          -0.11313940584659576,
          -0.0743606835603714,
          0.020977750420570374,
          -0.08472448587417603,
          -0.1819017231464386,
          0.1218261569738388,
          -0.09880193322896957,
          -0.10382898151874542,
          0.04241868853569031,
          -0.149373859167099,
          0.11433108150959015,
          0.04527415335178375,
          -0.030564382672309875,
          -0.16715508699417114,
          0.18798328936100006,
          -0.15849217772483826,
          -0.11231785267591476,
          -0.20437772572040558,
          -0.20173004269599915,
          -0.05242335796356201,
          0.12702010571956635,
          -0.0274917334318161,
          -0.012343525886535645,
          -0.17238785326480865,
          0.05041719973087311,
          0.14834041893482208,
          0.02662023901939392,
          0.10948039591312408,
          -0.03933301568031311,
          0.1522490233182907,
          -0.08582865446805954,
          0.20310233533382416,
          0.0963757187128067,
          -0.20481383800506592,
          -0.0006756484508514404,
          -0.05652421712875366,
          -0.1328088939189911,
          -0.12153715640306473,
          -0.08011169731616974,
          -0.18756631016731262,
          -0.13938698172569275
        ],
        [
          0.01905006170272827,
          0.15456871688365936,
          -0.13572625815868378,
          0.10480557382106781,
          -0.18619635701179504,
          0.1723284274339676,
          -0.10200246423482895,
          0.10163326561450958,
          0.14157138764858246,
          -0.03729011118412018,
          0.00017364323139190674,
          0.16940946877002716,
          -0.17202971875667572,
          -0.026373296976089478,
          -0.011833474040031433,
          -0.05505870282649994,
          0.04720763862133026,
          -0.20363864302635193,
          0.1468140333890915,
          0.1872248500585556,
          0.039310604333877563,
          0.05056707561016083,
          0.16065053641796112,
          -0.1917458474636078,
          -0.16333073377609253,
          0.05308006703853607,
          -0.053462982177734375,
          0.18146134912967682,
          -0.02959875762462616,
          0.19773517549037933,
          0.00536973774433136,
          0.10742707550525665,
          -0.06403008103370667,
          0.06612585484981537,
          -0.06813296675682068,
          -0.08725962042808533,
          0.1974409967660904,
          0.041096001863479614,
          0.0461338609457016,
          0.1103031188249588,
          -0.004374682903289795,
          -0.09084834903478622,
          0.1863475888967514,
          0.06858991086483002,
          0.16086913645267487,
          -0.01152108609676361,
          -0.20206236839294434,
          -0.10838091373443604,
          -0.1166500449180603,
          -0.15531010925769806,
          0.05159614980220795,
          0.10922680795192719,
          0.046448126435279846,
          -0.03883203864097595,
          -0.1483137160539627,
          0.15314869582653046,
          -0.17727476358413696,
          -0.11834951490163803,
          0.1673188954591751,
          0.04565690457820892,
          -0.12452080845832825,
          0.06853671371936798,
          0.1596553474664688,
          -0.15131168067455292,
          -0.12825843691825867,
          0.1372942477464676,
          -0.15188150107860565,
          0.05630640685558319,
          -0.18869240581989288,
          0.10575629770755768,
          -0.017793715000152588,
          0.17078034579753876,
          -0.00418718159198761,
          -0.130459725856781,
          -0.028491422533988953,
          -0.03354655206203461,
          0.009944766759872437,
          0.055844470858573914,
          0.016586676239967346,
          0.05065907537937164,
          0.07263647019863129,
          0.04780109226703644,
          0.06690289080142975,
          -0.13860419392585754,
          -0.14043307304382324,
          0.15311838686466217,
          0.16113369166851044,
          0.060769543051719666,
          -0.12996013462543488,
          0.0674060732126236,
          -0.031069308519363403,
          -0.07262355089187622,
          -0.08185480535030365,
          -0.11797444522380829,
          -0.07675006985664368,
          -0.054217949509620667,
          -0.09361260384321213,
          -0.17983730137348175,
          0.01660144329071045,
          0.043490514159202576,
          -0.13667550683021545,
          0.08688254654407501,
          0.07589779794216156,
          0.179963156580925,
          0.0554967075586319,
          -0.09722684323787689,
          0.10517244040966034,
          0.006332501769065857,
          0.017551913857460022,
          0.07276718318462372,
          0.018604308366775513,
          0.10102291405200958,
          0.01066543161869049,
          0.05390004813671112,
          0.17777667939662933,
          0.15434719622135162,
          0.177244171500206,
          -0.11194460839033127,
          0.139240100979805,
          0.12322445213794708,
          0.07282008230686188,
          -0.1729995310306549,
          0.09395618736743927,
          -0.1761980950832367,
          -0.17691797018051147,
          -0.15972483158111572,
          0.18324227631092072,
          0.049257442355155945
        ],
        [
          0.14536647498607635,
          0.01104108989238739,
          0.0036153793334960938,
          0.1758483499288559,
          0.17679812014102936,
          0.0035572797060012817,
          -0.037385016679763794,
          -0.07872100174427032,
          0.015029162168502808,
          0.049080684781074524,
          0.16752229630947113,
          0.18049253523349762,
          -0.053464069962501526,
          -0.14718426764011383,
          -0.1764201521873474,
          0.05528341233730316,
          0.13571254909038544,
          0.09722535312175751,
          0.0692438930273056,
          0.18846051394939423,
          -0.12439534068107605,
          -0.1434585303068161,
          0.17590205371379852,
          0.12306024134159088,
          0.017202317714691162,
          0.1223069280385971,
          -0.20596055686473846,
          0.00395415723323822,
          0.12200702726840973,
          0.2058999389410019,
          0.05333869159221649,
          0.0867675393819809,
          -0.007433459162712097,
          -0.0462644100189209,
          0.0184050053358078,
          0.07735656201839447,
          -0.11894194781780243,
          -0.1383713185787201,
          -0.05454690754413605,
          -0.08188652992248535,
          -0.019315987825393677,
          0.11325602233409882,
          -0.14050182700157166,
          -0.09640617668628693,
          0.050137147307395935,
          -0.06925351917743683,
          0.07348592579364777,
          -0.15920238196849823,
          -0.04495584964752197,
          0.10610438883304596,
          0.07512922585010529,
          0.11610202491283417,
          0.18433518707752228,
          0.1297043114900589,
          -0.2021312266588211,
          -0.0938531681895256,
          0.00407157838344574,
          -0.03652837872505188,
          -0.15629942715168,
          0.2056313008069992,
          -0.11828815937042236,
          0.05332852900028229,
          -0.0684465765953064,
          -0.08327688276767731,
          0.07821346819400787,
          -0.1629776805639267,
          -0.10152685642242432,
          -0.1448737531900406,
          -0.12295553833246231,
          -0.16541755199432373,
          -0.13286727666854858,
          -0.20609140396118164,
          0.0782618373632431,
          7.295608520507812e-05,
          0.10214896500110626,
          -0.1667061746120453,
          0.13144589960575104,
          -0.04526299238204956,
          0.20626895129680634,
          0.01957106590270996,
          -0.08361838757991791,
          -0.11371944844722748,
          0.1599435955286026,
          -0.03296290338039398,
          -0.14972642064094543,
          -0.07843576371669769,
          0.20492596924304962,
          -0.10979563742876053,
          -0.030542224645614624,
          -0.1789243370294571,
          0.09594251215457916,
          0.13904090225696564,
          0.12425117194652557,
          0.13414086401462555,
          0.017690658569335938,
          0.03909006714820862,
          -0.05009177327156067,
          -0.07579934597015381,
          0.02355845272541046,
          -0.012945592403411865,
          0.043173566460609436,
          -0.1804664582014084,
          -0.017701715230941772,
          -0.06036233901977539,
          -0.12580548226833344,
          0.002618849277496338,
          0.13177599012851715,
          0.04441468417644501,
          0.17621184885501862,
          -0.10769558697938919,
          -0.17438367009162903,
          -0.17218656837940216,
          -0.17308960855007172,
          -0.15991826355457306,
          -0.18359221518039703,
          -0.17553719878196716,
          -0.12220367789268494,
          0.13832511007785797,
          -0.10571102797985077,
          -0.07585783302783966,
          -0.1993689388036728,
          0.16452355682849884,
          0.03738778829574585,
          0.12148840725421906,
          0.030529290437698364,
          0.13374708592891693,
          0.10854749381542206,
          -0.004133179783821106
        ],
        [
          -0.15313799679279327,
          0.01928040385246277,
          -0.009215161204338074,
          -0.07376646995544434,
          -0.15664838254451752,
          -0.14713382720947266,
          -0.10140815377235413,
          -0.07277175784111023,
          0.14304111897945404,
          -0.18990525603294373,
          0.1384103149175644,
          -0.02607133984565735,
          0.08681763708591461,
          -0.05812394618988037,
          -0.12218116968870163,
          0.1228422075510025,
          -0.013248398900032043,
          0.02535940706729889,
          -0.13965114951133728,
          -0.1024961844086647,
          -0.017296433448791504,
          -0.016646742820739746,
          0.10680173337459564,
          -0.16724757850170135,
          0.1959129422903061,
          0.10096196830272675,
          -0.19286417961120605,
          -0.01180700957775116,
          -0.20625557005405426,
          0.20575933158397675,
          0.023207813501358032,
          -0.13892288506031036,
          -0.062583327293396,
          0.12526147067546844,
          0.061573877930641174,
          0.17784707248210907,
          0.18365712463855743,
          -0.1467544585466385,
          0.0844346433877945,
          0.1732032746076584,
          0.1509888917207718,
          0.03283625841140747,
          0.08381335437297821,
          -0.10069014877080917,
          0.09827445447444916,
          0.1529940813779831,
          0.10133807361125946,
          0.12222950160503387,
          0.11813940107822418,
          0.041630297899246216,
          -0.12064917385578156,
          0.08561833202838898,
          -0.06727221608161926,
          -0.1750440150499344,
          0.052050039172172546,
          0.0929260402917862,
          0.09177739918231964,
          0.15858738124370575,
          -0.07059165835380554,
          -0.17965582013130188,
          0.023390591144561768,
          -0.15320062637329102,
          0.14310424029827118,
          -0.15906181931495667,
          -0.07689739763736725,
          -0.010203346610069275,
          -0.18933488428592682,
          -0.06566095352172852,
          -0.13396978378295898,
          -0.005850180983543396,
          -0.20012682676315308,
          0.10259269177913666,
          -0.13365936279296875,
          -0.09245779365301132,
          -0.15312348306179047,
          -0.013444945216178894,
          -0.08228914439678192,
          0.12199686467647552,
          -0.0960109755396843,
          0.09638388454914093,
          0.1496342271566391,
          0.030380770564079285,
          -0.06830744445323944,
          -0.007953345775604248,
          0.13950516283512115,
          0.03614354133605957,
          0.1528170257806778,
          -0.17078812420368195,
          0.06005050241947174,
          0.01736988127231598,
          0.12898646295070648,
          0.0547042042016983,
          0.13807536661624908,
          0.055419549345970154,
          0.05200175940990448,
          0.17368386685848236,
          0.06337793171405792,
          0.14222051203250885,
          0.19585953652858734,
          0.17332400381565094,
          -0.08982161432504654,
          0.11682482063770294,
          0.18545277416706085,
          0.14873714745044708,
          -0.12405240535736084,
          0.05347512662410736,
          -0.13684454560279846,
          0.06149972975254059,
          0.03308910131454468,
          -0.18477016687393188,
          0.08091215789318085,
          -0.045024752616882324,
          0.03320993483066559,
          0.02655257284641266,
          -0.12566491961479187,
          -0.11169949918985367,
          0.15643475949764252,
          0.14030824601650238,
          0.025185376405715942,
          0.0798436850309372,
          0.03556911647319794,
          0.10840193927288055,
          0.018350914120674133,
          -0.0706184059381485,
          0.13765515387058258,
          -0.03087647259235382,
          0.021633967757225037,
          -0.10403124988079071
        ],
        [
          -0.033154845237731934,
          0.0777515321969986,
          0.041098326444625854,
          -0.042155757546424866,
          -0.11899648606777191,
          0.13264034688472748,
          -0.10578348487615585,
          -0.020250976085662842,
          -0.08980749547481537,
          0.1431339532136917,
          -0.08687122911214828,
          -0.07370239496231079,
          -0.13683167099952698,
          -0.11306121945381165,
          0.08458153903484344,
          0.04162229597568512,
          -0.03357701003551483,
          0.19103412330150604,
          -0.16941767930984497,
          -0.033407509326934814,
          -0.18987110257148743,
          -0.0800391435623169,
          0.04573948681354523,
          0.10362972319126129,
          -0.016699165105819702,
          0.15568773448467255,
          0.104935422539711,
          0.11510850489139557,
          -0.01891477406024933,
          -0.1584140956401825,
          -0.11228473484516144,
          0.03903687000274658,
          -0.11477544903755188,
          -0.09813181310892105,
          -0.14541929960250854,
          0.05942247807979584,
          -0.12227080762386322,
          0.0731797069311142,
          -0.1227109283208847,
          0.14612974226474762,
          0.07691605389118195,
          -0.1318676471710205,
          -0.12094427645206451,
          -0.038713276386260986,
          0.08592326939105988,
          -0.20189717411994934,
          0.17948125302791595,
          -0.18185365200042725,
          -0.02150493860244751,
          0.11141489446163177,
          0.16070230305194855,
          -0.059272438287734985,
          0.10002966225147247,
          -0.11144605278968811,
          0.1700318306684494,
          0.18016286194324493,
          0.08253054320812225,
          0.08730800449848175,
          0.0007034391164779663,
          -0.13893833756446838,
          -0.1409766972064972,
          0.11209072172641754,
          0.05325721204280853,
          0.09296528995037079,
          0.0068779438734054565,
          0.17347468435764313,
          0.16372157633304596,
          -0.11652062833309174,
          0.17148299515247345,
          -0.2064075469970703,
          0.15630091726779938,
          0.19368059933185577,
          0.1310151070356369,
          -0.03976646065711975,
          -0.17043182253837585,
          0.12287543714046478,
          -0.13779976963996887,
          -0.012834340333938599,
          0.0434613972902298,
          0.09719021618366241,
          0.08031298220157623,
          -0.16422602534294128,
          0.011467784643173218,
          -0.05008643865585327,
          0.10988907516002655,
          0.15979699790477753,
          -0.12833736836910248,
          0.08029405772686005,
          0.15352921187877655,
          -0.012720614671707153,
          -0.14531001448631287,
          -0.04143671691417694,
          0.057815954089164734,
          0.13551737368106842,
          -0.1243828535079956,
          0.10351698100566864,
          -0.11701493710279465,
          -0.07045765221118927,
          -0.11072691529989243,
          -0.044275954365730286,
          -0.11184510588645935,
          -0.0288219153881073,
          -0.16379958391189575,
          0.18837295472621918,
          -0.15097905695438385,
          -0.19406263530254364,
          0.20330305397510529,
          0.14648757874965668,
          0.12797601521015167,
          0.08758603036403656,
          0.08075679838657379,
          -0.13593840599060059,
          0.15239448845386505,
          0.06792338192462921,
          0.04946310818195343,
          -0.003565967082977295,
          0.13713698089122772,
          0.01780255138874054,
          -0.1247151792049408,
          0.16718973219394684,
          0.016659587621688843,
          -0.06785883009433746,
          -0.07766559720039368,
          -0.03427654504776001,
          -0.030826613306999207,
          -0.07977399230003357,
          0.056049689650535583,
          0.0699402242898941
        ],
        [
          -0.13394485414028168,
          0.16318245232105255,
          0.07548005878925323,
          0.19425536692142487,
          0.04063771665096283,
          -0.13715150952339172,
          0.14530907571315765,
          -0.13758619129657745,
          0.18376170098781586,
          0.20176301896572113,
          0.1421496719121933,
          -0.019030660390853882,
          0.07823161780834198,
          -0.1671556830406189,
          0.14195357263088226,
          0.016646847128868103,
          -0.057725027203559875,
          -0.2062261998653412,
          0.202474907040596,
          0.07317595183849335,
          -0.06674942374229431,
          0.04205876588821411,
          -0.19910378754138947,
          -0.061941489577293396,
          0.09707818925380707,
          0.05070774257183075,
          0.18987993896007538,
          -0.20108133554458618,
          -0.03223651647567749,
          -0.15860703587532043,
          0.14493940770626068,
          0.1501738280057907,
          0.07022334635257721,
          -0.1629766821861267,
          -0.14881399273872375,
          0.03546680510044098,
          -0.05616454780101776,
          -0.15816815197467804,
          -0.09755033254623413,
          0.07856635749340057,
          0.14118240773677826,
          -0.00847652554512024,
          -0.1831643283367157,
          0.10081873834133148,
          0.18007422983646393,
          -0.01081790030002594,
          0.04024696350097656,
          0.16718243062496185,
          0.15513791143894196,
          -0.08381329476833344,
          -0.10147083550691605,
          0.11089171469211578,
          0.15513552725315094,
          0.020561769604682922,
          0.004792690277099609,
          0.19715403020381927,
          -0.15329909324645996,
          -0.12067893147468567,
          -0.13237982988357544,
          -0.06238248944282532,
          -0.15554273128509521,
          0.19234411418437958,
          0.020816057920455933,
          0.055249616503715515,
          0.15316079556941986,
          -0.12905338406562805,
          -0.07565093040466309,
          0.0038581639528274536,
          -0.16025087237358093,
          -0.12336485832929611,
          0.041060954332351685,
          0.06686572730541229,
          -0.12189840525388718,
          0.1870383769273758,
          -0.13180121779441833,
          0.18752367794513702,
          -0.02641935646533966,
          -0.011510968208312988,
          -0.19195334613323212,
          -0.11687417328357697,
          0.06679917871952057,
          -0.10484667867422104,
          0.09063313901424408,
          0.08268924057483673,
          0.16594307124614716,
          -0.1424061805009842,
          -0.047615766525268555,
          0.04903756082057953,
          0.1314813643693924,
          -0.10526873171329498,
          0.117557093501091,
          0.10533259809017181,
          0.15493114292621613,
          0.1529095619916916,
          0.20027197897434235,
          -0.13902994990348816,
          0.16382534801959991,
          0.0051717609167099,
          -0.17572879791259766,
          -0.1174277663230896,
          -0.14958791434764862,
          -0.17050324380397797,
          -0.1362563520669937,
          0.15095458924770355,
          -0.18135109543800354,
          -0.12512552738189697,
          -0.0059991925954818726,
          -0.15112441778182983,
          0.134368434548378,
          -0.02432556450366974,
          0.15987803041934967,
          -0.0034096986055374146,
          0.12485210597515106,
          -0.1959075629711151,
          -0.1788717806339264,
          0.03617735207080841,
          0.12896855175495148,
          0.08583037555217743,
          -0.05640698969364166,
          0.12227864563465118,
          -0.010844692587852478,
          -0.11858637630939484,
          -0.12759262323379517,
          -0.10895493626594543,
          -0.038256675004959106,
          0.06374238431453705,
          -0.18996459245681763,
          0.12276147305965424
        ],
        [
          -0.058359771966934204,
          -0.04936577379703522,
          -0.15933792293071747,
          0.014801815152168274,
          0.12903602421283722,
          0.03459469974040985,
          0.16837207973003387,
          -0.13816708326339722,
          0.08159355819225311,
          0.09593372046947479,
          0.0641595870256424,
          -0.1712014526128769,
          0.13504843413829803,
          0.022327587008476257,
          -0.12134165316820145,
          0.02873900532722473,
          -0.0376598984003067,
          0.1703101545572281,
          -0.16062411665916443,
          -0.1073964312672615,
          0.15274359285831451,
          0.16986830532550812,
          -0.1344839334487915,
          -0.004437267780303955,
          0.08583320677280426,
          -0.16778744757175446,
          -0.17549529671669006,
          -0.09354636818170547,
          -0.10655533522367477,
          0.06410403549671173,
          0.06970460712909698,
          -0.0651068240404129,
          0.16416071355342865,
          0.12339003384113312,
          0.01567859947681427,
          -0.07604385912418365,
          0.13753624260425568,
          0.20448730885982513,
          0.14413787424564362,
          -0.15557797253131866,
          -0.10840500146150589,
          -0.1526726484298706,
          -0.004466444253921509,
          -0.057444483041763306,
          -0.16474999487400055,
          -0.010157391428947449,
          0.1263263076543808,
          0.034050047397613525,
          -0.14813384413719177,
          0.1731652170419693,
          -0.06636808812618256,
          0.014767274260520935,
          -0.1803881824016571,
          -0.12355498224496841,
          -0.035029441118240356,
          -0.09125830978155136,
          0.11296792328357697,
          -0.05975539982318878,
          -0.0990295261144638,
          0.08471046388149261,
          0.10109962522983551,
          -0.13024908304214478,
          -0.012475073337554932,
          -0.041259765625,
          0.09334529936313629,
          -0.14231038093566895,
          -0.18279065191745758,
          0.14658160507678986,
          -0.10613421350717545,
          0.13689078390598297,
          -0.12113336473703384,
          -0.19006404280662537,
          0.07659350335597992,
          0.15870313346385956,
          -0.15377244353294373,
          -0.1973736733198166,
          0.1331549435853958,
          -0.06584702432155609,
          -0.07551741600036621,
          -0.09580999612808228,
          0.18221010267734528,
          -0.055723339319229126,
          0.1272936910390854,
          0.182960644364357,
          -0.021359294652938843,
          -0.182112917304039,
          0.014462679624557495,
          0.07491333782672882,
          0.1061539500951767,
          0.009181544184684753,
          0.10594217479228973,
          0.1663699597120285,
          -0.09226583689451218,
          0.07056687772274017,
          -0.0846312940120697,
          -0.09060525894165039,
          0.06720317900180817,
          -0.11299517750740051,
          -0.03478685021400452,
          0.11117543280124664,
          -0.05263121426105499,
          -0.15527985990047455,
          0.026362746953964233,
          0.03136831521987915,
          0.19284577667713165,
          -0.07587382197380066,
          0.059950605034828186,
          0.1751561015844345,
          -0.06558769941329956,
          -0.17593185603618622,
          0.07836799323558807,
          -0.10003320127725601,
          -0.04704844951629639,
          -0.09106448292732239,
          -0.1094680055975914,
          0.19367872178554535,
          -0.024052470922470093,
          -0.03815974295139313,
          -0.15366695821285248,
          0.12872754037380219,
          0.1657571941614151,
          -0.02268734574317932,
          -0.055738404393196106,
          0.06235016882419586,
          0.04555346071720123,
          -0.04276220500469208,
          -0.0007748156785964966,
          0.19292105734348297
        ],
        [
          -0.014760613441467285,
          -0.03600992262363434,
          0.18296946585178375,
          -0.035866886377334595,
          -0.18784868717193604,
          -0.1793416142463684,
          -0.04354402422904968,
          0.09105999767780304,
          -0.011604353785514832,
          -0.14515148103237152,
          -0.08135461807250977,
          -0.18865306675434113,
          0.1478244811296463,
          -0.14558938145637512,
          -0.04075361788272858,
          -0.019568413496017456,
          0.05142347514629364,
          -0.01833629608154297,
          -0.16869142651557922,
          0.08143250644207001,
          0.17215149104595184,
          -0.12212401628494263,
          -0.07717868685722351,
          -0.1930823028087616,
          0.11268626153469086,
          -0.18987011909484863,
          -0.11797720938920975,
          -0.20277923345565796,
          -0.05653132498264313,
          0.17076142132282257,
          0.18682895600795746,
          -0.08101285994052887,
          0.16174523532390594,
          0.13210780918598175,
          -0.06213095784187317,
          0.1874433308839798,
          0.045327022671699524,
          -0.07965825498104095,
          -0.14976663887500763,
          -0.005867063999176025,
          0.1001068502664566,
          -0.005494952201843262,
          -0.030692070722579956,
          -0.10021577775478363,
          -0.018219217658042908,
          0.05335484445095062,
          0.17269258201122284,
          0.045053139328956604,
          -0.03977860510349274,
          0.05911503732204437,
          -0.1406874656677246,
          0.09550906717777252,
          0.18806146085262299,
          0.1264515072107315,
          0.11175467073917389,
          -0.016136929392814636,
          0.08109216392040253,
          -0.10837898403406143,
          -0.1576710194349289,
          0.1353463977575302,
          -0.16884487867355347,
          -0.07888595759868622,
          -0.18817701935768127,
          0.12713946402072906,
          -0.11236108839511871,
          0.09555269777774811,
          -0.10768023133277893,
          0.17288129031658173,
          -0.009544968605041504,
          -0.10630983114242554,
          0.18536315858364105,
          -0.047586143016815186,
          -0.10799883306026459,
          0.03123757243156433,
          0.072349414229393,
          -0.030433833599090576,
          -0.045892104506492615,
          0.026372656226158142,
          0.027067065238952637,
          0.00043670833110809326,
          -0.045135706663131714,
          -0.052147507667541504,
          0.010226696729660034,
          0.030393511056900024,
          0.10587631165981293,
          -0.1652856171131134,
          0.08357085287570953,
          0.07855714857578278,
          -0.1117575466632843,
          0.11091960966587067,
          0.0093289315700531,
          -0.05369757115840912,
          0.15849582850933075,
          0.09362693130970001,
          0.11414040625095367,
          -0.16945405304431915,
          -0.1836453676223755,
          0.08603774011135101,
          -0.010975643992424011,
          0.021694481372833252,
          -0.20520494878292084,
          0.03886905312538147,
          -0.15321390330791473,
          0.14834056794643402,
          0.05968581140041351,
          -0.028091877698898315,
          0.05159585177898407,
          -0.11125878989696503,
          0.028608351945877075,
          0.19073925912380219,
          -0.19567745923995972,
          -0.1262650489807129,
          0.1322483867406845,
          0.0025700926780700684,
          -0.19361352920532227,
          -0.05831407010555267,
          -0.030191734433174133,
          0.007758229970932007,
          -0.09295018017292023,
          0.0013643354177474976,
          -0.07076118886470795,
          0.2016918808221817,
          -0.15667025744915009,
          -0.16696658730506897,
          0.19237889349460602,
          0.15233086049556732,
          0.0854528397321701,
          -0.0661998838186264
        ],
        [
          0.05498151481151581,
          0.20692850649356842,
          -0.1573534607887268,
          -0.012878164649009705,
          -0.010009720921516418,
          -0.05990104377269745,
          -0.10231360793113708,
          -0.13149277865886688,
          0.15356840193271637,
          -0.130878284573555,
          0.1119956523180008,
          0.0663355141878128,
          -0.15568305552005768,
          0.09194843471050262,
          0.05584190785884857,
          0.03330963850021362,
          0.16997437179088593,
          -0.12110424786806107,
          0.1151181012392044,
          0.06002785265445709,
          0.020961716771125793,
          0.12213315069675446,
          0.16661106050014496,
          0.06721861660480499,
          -0.12877832353115082,
          0.0028802454471588135,
          0.14979861676692963,
          0.09554518759250641,
          -0.2043905109167099,
          0.033583372831344604,
          0.1873788684606552,
          -0.0029998421669006348,
          -0.12145527452230453,
          -0.12438695132732391,
          0.009424343705177307,
          -0.03965748846530914,
          -0.11452950537204742,
          0.15274013578891754,
          -0.2046734243631363,
          -0.10374759137630463,
          -0.031294822692871094,
          0.1784668117761612,
          0.019301772117614746,
          0.2059318870306015,
          -0.04470767080783844,
          0.09951885044574738,
          -0.13663694262504578,
          0.058896198868751526,
          0.004160374402999878,
          -0.06579308211803436,
          -0.17630450427532196,
          0.1817396730184555,
          0.07083918154239655,
          0.0068471431732177734,
          0.13469640910625458,
          -0.04388903081417084,
          -0.05698002874851227,
          0.1162540465593338,
          0.040005311369895935,
          -0.11845198273658752,
          -0.09208904206752777,
          -0.13740801811218262,
          0.16768468916416168,
          0.028896689414978027,
          0.03872354328632355,
          -0.12797334790229797,
          0.012795940041542053,
          -0.10394828021526337,
          -0.11966779828071594,
          0.03460703790187836,
          0.05033455789089203,
          -0.08542782813310623,
          0.18834684789180756,
          -0.16010606288909912,
          -0.1724439263343811,
          -0.0779985636472702,
          0.030276387929916382,
          0.15248681604862213,
          -0.09376423060894012,
          -0.195164293050766,
          0.028185710310935974,
          -0.14969176054000854,
          -0.027147769927978516,
          0.0686364620923996,
          -0.06779378652572632,
          0.09696145355701447,
          -0.17440612614154816,
          -0.148942232131958,
          0.016444385051727295,
          0.12549720704555511,
          0.08556963503360748,
          -0.13673600554466248,
          0.19303663074970245,
          0.13396860659122467,
          0.13837505877017975,
          0.1937883049249649,
          -0.0001765042543411255,
          0.08466322720050812,
          0.042850807309150696,
          0.05972720682621002,
          -0.04904460906982422,
          0.03827755153179169,
          -0.001242026686668396,
          0.07163779437541962,
          -0.01677246391773224,
          -0.1401039958000183,
          0.18889804184436798,
          0.050794705748558044,
          0.12022890150547028,
          -0.08992728590965271,
          0.13091446459293365,
          0.05546928942203522,
          0.027931660413742065,
          0.19678394496440887,
          0.09432600438594818,
          -0.0192815363407135,
          0.11610297858715057,
          0.08639399707317352,
          -0.14608468115329742,
          0.049969956278800964,
          -0.19041197001934052,
          0.15072692930698395,
          0.023532643914222717,
          -0.10236962884664536,
          0.05156420171260834,
          0.016242310404777527,
          -0.14108631014823914,
          0.10125179588794708
        ],
        [
          0.08681072294712067,
          -0.18297283351421356,
          -0.08059079945087433,
          0.17663879692554474,
          -0.10739968717098236,
          -0.03149378299713135,
          0.02975936233997345,
          0.18396110832691193,
          0.06480194628238678,
          -0.12054675072431564,
          0.12123574316501617,
          0.19446603953838348,
          0.13729418814182281,
          0.18564064800739288,
          0.019976839423179626,
          -0.20520445704460144,
          -0.18372473120689392,
          0.04410265386104584,
          -0.045867130160331726,
          0.14770524203777313,
          0.05195443332195282,
          0.07760696113109589,
          0.057594671845436096,
          -0.0686311274766922,
          0.10108964145183563,
          -0.16964319348335266,
          -0.09904482215642929,
          0.027032867074012756,
          0.06485332548618317,
          -0.11926430463790894,
          -0.17857766151428223,
          0.10573478043079376,
          0.06132979691028595,
          -0.05329599976539612,
          0.08296854794025421,
          -0.13626785576343536,
          0.15196190774440765,
          -0.1472080647945404,
          0.15171442925930023,
          0.09512446820735931,
          0.07580892741680145,
          -0.05484211444854736,
          0.04037854075431824,
          -0.20624540746212006,
          -0.0712522566318512,
          -0.018712997436523438,
          -0.10320796817541122,
          -0.04453261196613312,
          0.07235993444919586,
          0.08955366909503937,
          0.19652877748012543,
          -0.0730600655078888,
          -0.09513063728809357,
          -0.06563928723335266,
          -0.08647029846906662,
          -0.15955549478530884,
          -0.1453433334827423,
          -0.14276501536369324,
          -0.08923623710870743,
          0.1964830607175827,
          0.16551561653614044,
          0.1829313188791275,
          0.07539640367031097,
          -0.004117533564567566,
          -0.04516926407814026,
          0.027746722102165222,
          0.14746816456317902,
          0.0025945156812667847,
          0.025210246443748474,
          0.04561875760555267,
          0.13935135304927826,
          0.02311013638973236,
          -0.008276283740997314,
          -0.08087031543254852,
          0.1978858858346939,
          0.16216854751110077,
          0.08351878821849823,
          -0.09187907725572586,
          -0.06393443048000336,
          0.019646987318992615,
          -0.12607955932617188,
          -0.11307671666145325,
          0.14504577219486237,
          -0.052803173661231995,
          0.0033355653285980225,
          -0.08191032707691193,
          0.20535503327846527,
          -0.013310939073562622,
          -0.06347857415676117,
          0.12760131061077118,
          -0.12590652704238892,
          -0.20229795575141907,
          -0.013657569885253906,
          -0.08423259109258652,
          -0.1949850171804428,
          0.18285880982875824,
          -0.15489289164543152,
          0.15552951395511627,
          0.007994607090950012,
          -0.1400017887353897,
          -0.08325911313295364,
          -0.1670076996088028,
          -0.18504346907138824,
          0.05395101010799408,
          -0.08125865459442139,
          -0.06043079495429993,
          -0.03696484863758087,
          0.016560271382331848,
          -0.008294597268104553,
          -0.13636177778244019,
          -0.18978093564510345,
          -0.051329463720321655,
          0.17032887041568756,
          0.001455157995223999,
          -0.07619854807853699,
          -0.15395332872867584,
          0.009784996509552002,
          -0.1048988476395607,
          0.19949020445346832,
          -0.16725483536720276,
          0.16424749791622162,
          -0.17007900774478912,
          -0.1011839210987091,
          0.1348712295293808,
          0.2048034816980362,
          -0.06968945264816284,
          0.03474627435207367,
          0.19679667055606842
        ],
        [
          0.19050757586956024,
          -0.19776679575443268,
          0.11137132346630096,
          0.048427239060401917,
          0.07713057100772858,
          -0.09637651592493057,
          0.06815995275974274,
          0.20035766065120697,
          -0.1468789428472519,
          -0.10992051661014557,
          0.07222102582454681,
          -0.16160564124584198,
          -0.007334887981414795,
          0.029245898127555847,
          -0.04954065382480621,
          0.18310005962848663,
          -0.15464842319488525,
          0.18186558783054352,
          -0.08542190492153168,
          -0.1593562811613083,
          -0.14744363725185394,
          -0.12581752240657806,
          -0.07848453521728516,
          0.05260010063648224,
          0.013258621096611023,
          0.04665441811084747,
          0.1857062727212906,
          -0.1576918065547943,
          -0.04324650764465332,
          0.03985767066478729,
          -0.06528864800930023,
          -0.15962843596935272,
          0.19085238873958588,
          0.10721530020236969,
          -0.17760497331619263,
          0.20568718016147614,
          0.17686273157596588,
          0.17291401326656342,
          -0.077765092253685,
          0.0598100870847702,
          0.0685863047838211,
          -0.19707970321178436,
          0.031548574566841125,
          -0.13176774978637695,
          -0.028083831071853638,
          -0.1111157014966011,
          0.06775681674480438,
          -0.11813461035490036,
          0.04310105741024017,
          -0.1834752857685089,
          0.11402802169322968,
          -0.0668213963508606,
          0.004719838500022888,
          -0.07522605359554291,
          0.18374280631542206,
          0.13818271458148956,
          -0.023571684956550598,
          0.11234064400196075,
          0.04646943509578705,
          0.06953640282154083,
          0.15929748117923737,
          -0.08532264828681946,
          0.05276186764240265,
          0.12473733723163605,
          -0.09772846102714539,
          -0.18564242124557495,
          0.17891599237918854,
          0.05215521156787872,
          -0.030469417572021484,
          0.16714362800121307,
          -0.17624783515930176,
          -0.1932062804698944,
          -0.012304440140724182,
          0.005903288722038269,
          -0.19441302120685577,
          -0.16157588362693787,
          0.2032242864370346,
          -0.1122245118021965,
          -0.06668813526630402,
          -0.1761898398399353,
          0.035514578223228455,
          0.1647055298089981,
          -0.006224304437637329,
          -0.08835767954587936,
          -0.054630666971206665,
          -0.1889389008283615,
          0.07113336026668549,
          -0.19185462594032288,
          0.06521056592464447,
          -0.019429609179496765,
          0.1470329314470291,
          -0.15128210186958313,
          0.07819278538227081,
          0.16759337484836578,
          -0.02222980558872223,
          0.19814200699329376,
          0.06114642322063446,
          0.09440647065639496,
          -0.1346655786037445,
          -0.06466151773929596,
          0.15316341817378998,
          0.09399498999118805,
          0.09102676808834076,
          0.17799238860607147,
          -0.015132024884223938,
          -0.1978738009929657,
          -0.0385943204164505,
          -0.09126398712396622,
          0.047035619616508484,
          0.19759972393512726,
          0.027181729674339294,
          -0.04269394278526306,
          0.14353008568286896,
          -0.15646126866340637,
          -0.19748206436634064,
          -0.0811181366443634,
          0.17700661718845367,
          -0.19510096311569214,
          0.14250899851322174,
          -0.18523600697517395,
          0.19330145418643951,
          -0.0998074933886528,
          0.09577135741710663,
          0.15559400618076324,
          -0.026080220937728882,
          -0.16388985514640808,
          -0.09493236988782883,
          -0.08620165288448334
        ],
        [
          0.06123413145542145,
          0.1631568819284439,
          0.17873333394527435,
          -0.08143693208694458,
          0.1255381554365158,
          -0.15955612063407898,
          -0.10879112035036087,
          -0.14559362828731537,
          -0.17047327756881714,
          -0.2007325291633606,
          -0.11047148704528809,
          0.15500928461551666,
          -0.07158654928207397,
          0.15393783152103424,
          0.07840140163898468,
          0.11522416770458221,
          -0.15210914611816406,
          -0.023979023098945618,
          -0.09689733386039734,
          0.18422214686870575,
          -0.05777473747730255,
          0.11050955951213837,
          -0.14311140775680542,
          -0.0799839049577713,
          -0.16700942814350128,
          -0.12138276547193527,
          0.17802195250988007,
          -0.084053173661232,
          -0.2065739780664444,
          -0.0961926132440567,
          -0.15713904798030853,
          -0.16954003274440765,
          -0.029034554958343506,
          0.01729293167591095,
          -0.013737127184867859,
          0.08516241610050201,
          -0.005023792386054993,
          -0.046768248081207275,
          -0.10247273743152618,
          -0.1845066100358963,
          0.07407085597515106,
          0.03879263997077942,
          0.16637833416461945,
          -0.049094751477241516,
          0.00916367769241333,
          -0.07607278227806091,
          -0.08050048351287842,
          0.06990809738636017,
          -0.16632819175720215,
          -0.17265911400318146,
          -0.09931140393018723,
          -0.1306287795305252,
          -0.09861447662115097,
          -0.1558973640203476,
          0.1098957508802414,
          0.12310351431369781,
          -0.07664266228675842,
          0.010381817817687988,
          -0.13095363974571228,
          0.10759405791759491,
          -0.11287948489189148,
          0.18768225610256195,
          0.15929384529590607,
          -0.06611710786819458,
          0.011316657066345215,
          0.16516108810901642,
          0.024914056062698364,
          0.18762238323688507,
          0.023996099829673767,
          -0.06790843605995178,
          -0.04899120330810547,
          -0.1887400895357132,
          -0.023436889052391052,
          0.1195753961801529,
          0.2067703753709793,
          -0.06559747457504272,
          0.001911267638206482,
          -0.11656011641025543,
          -0.1801319718360901,
          -0.11059285700321198,
          0.03333219885826111,
          0.113469198346138,
          -0.032962605357170105,
          -0.01893441379070282,
          -0.1366131603717804,
          0.17539460957050323,
          0.00973692536354065,
          0.0037289410829544067,
          -0.05796332657337189,
          -0.07132357358932495,
          -0.10844720155000687,
          -0.07121025025844574,
          0.1838303655385971,
          -0.09640805423259735,
          -0.008229449391365051,
          -0.1247144415974617,
          0.046839430928230286,
          -0.03980018198490143,
          -0.19122996926307678,
          -0.19591110944747925,
          0.00684472918510437,
          0.014154255390167236,
          -0.12059818208217621,
          0.1401725560426712,
          -0.10423114150762558,
          0.18432117998600006,
          0.20145951211452484,
          0.18465669453144073,
          -0.013284385204315186,
          0.14625240862369537,
          0.022230640053749084,
          0.01989559829235077,
          -0.08876709640026093,
          0.18933729827404022,
          0.10037262737751007,
          -0.05492578446865082,
          0.006233781576156616,
          0.19800202548503876,
          -0.13566139340400696,
          -0.18534301221370697,
          0.08548863232135773,
          0.08363689482212067,
          0.009302377700805664,
          -0.15930776298046112,
          0.027179017663002014,
          -0.17899581789970398,
          -0.1647033989429474,
          0.061569973826408386
        ]
      ],
      "bias": [
        0.0,
        0.0,
        0.0,
        0.0,
        0.0,
        0.0,
        0.0,
        0.0,
        0.0,
        0.0,
        0.0,
        0.0,
        0.0,
        0.0,
        0.0,
        0.0,
        0.0,
        0.0,
        0.0,
        0.0,
        0.0,
        0.0,
        0.0,
        0.0,
        0.0,
        0.0,
        0.0,
        0.0,
        0.0,
        0.0,
        0.0,
        0.0,
        0.0,
        0.0,
        0.0,
        0.0,
        0.0,
        0.0,
        0.0,
        0.0,
        0.0,
        0.0,
        0.0,
        0.0,
        0.0,
        0.0,
        0.0,
        0.0,
        0.0,
        0.0,
        0.0,
        0.0,
        0.0,
        0.0,
        0.0,
        0.0,
        0.0,
        0.0,
        0.0,
        0.0,
        0.0,
        0.0,
        0.0,
        0.0,
        0.0,
        0.0,
        0.0,
        0.0,
        0.0,
        0.0,
        0.0,
        0.0,
        0.0,
        0.0,
        0.0,
        0.0,
        0.0,
        0.0,
        0.0,
        0.0,
        0.0,
        0.0,
        0.0,
        0.0,
        0.0,
        0.0,
        0.0,
        0.0,
        0.0,
        0.0,
        0.0,
        0.0,
        0.0,
        0.0,
        0.0,
        0.0,
        0.0,
        0.0,
        0.0,
        0.0,
        0.0,
        0.0,
        0.0,
        0.0,
        0.0,
        0.0,
        0.0,
        0.0,
        0.0,
        0.0,
        0.0,
        0.0,
        0.0,
        0.0,
        0.0,
        0.0,
        0.0,
        0.0,
        0.0,
        0.0,
        0.0,
        0.0,
        0.0,
        0.0,
        0.0,
        0.0,
        0.0,
        0.0
      ]
    },
    {
      "name": "dense_2",
      "weights": [
        [
          0.037853971123695374,
          -0.06791819632053375,
          0.10023322701454163,
          -0.026533395051956177,
          -0.007207632064819336,
          -0.1389198750257492,
          0.1459398865699768,
          -0.05236738920211792,
          0.02535185217857361,
          0.0038501471281051636,
          0.1062699556350708,
          -0.0543978214263916,
          0.13760221004486084,
          0.15331390500068665,
          -0.18140868842601776,
          0.16618233919143677
        ],
        [
          0.05103161931037903,
          -0.12744590640068054,
          -0.2000940442085266,
          -0.029006987810134888,
          0.022423848509788513,
          -0.12960131466388702,
          0.04011848568916321,
          -0.13388940691947937,
          -0.07454429566860199,
          -0.16773998737335205,
          0.14316728711128235,
          0.1662968099117279,
          0.03465591371059418,
          0.056082338094711304,
          -0.1781599223613739,
          -0.053479522466659546
        ],
        [
          -0.07963905483484268,
          0.05706894397735596,
          -0.17377322912216187,
          0.03129439055919647,
          0.1891198754310608,
          -0.13005751371383667,
          0.1507166624069214,
          -0.16415366530418396,
          -0.02576303482055664,
          -0.09272249042987823,
          0.19971007108688354,
          -0.11358349770307541,
          0.19295945763587952,
          -0.1636311262845993,
          0.026342853903770447,
          0.10283175110816956
        ],
        [
          -0.018294453620910645,
          -0.03545297682285309,
          0.18321725726127625,
          -0.011388614773750305,
          0.19225183129310608,
          0.03492674231529236,
          0.17454031109809875,
          -0.10185553133487701,
          0.18761855363845825,
          0.08644410967826843,
          0.08265012502670288,
          0.11827325820922852,
          0.12687772512435913,
          -0.12062600255012512,
          -0.0017366856336593628,
          0.15810585021972656
        ],
        [
          -0.01954232156276703,
          -0.09849629551172256,
          0.03224875032901764,
          -0.07364454865455627,
          0.11630037426948547,
          -0.10874103754758835,
          -0.06591738760471344,
          -0.12495239824056625,
          -0.1682344377040863,
          -0.12355910986661911,
          0.157430499792099,
          -0.16147683560848236,
          -0.026700124144554138,
          -0.11239174008369446,
          -0.029387906193733215,
          -0.15310761332511902
        ],
        [
          0.19260019063949585,
          0.02861565351486206,
          -0.05146782100200653,
          -0.06351664662361145,
          0.13608571887016296,
          0.15230047702789307,
          -0.025435075163841248,
          -0.0984862670302391,
          0.146447092294693,
          -0.09781675785779953,
          0.12922406196594238,
          -0.18443675339221954,
          -0.0013526976108551025,
          -0.1950184553861618,
          0.07073143124580383,
          -0.004152074456214905
        ],
        [
          -0.00897546112537384,
          -0.12334580719470978,
          0.1401495337486267,
          -0.19988857209682465,
          -0.10252100974321365,
          -0.17425182461738586,
          0.04577520489692688,
          0.056736499071121216,
          0.03016744554042816,
          -0.17918062210083008,
          0.012711763381958008,
          0.02946615219116211,
          -0.12330073863267899,
          -0.1624106466770172,
          -0.13038510084152222,
          0.08170923590660095
        ],
        [
          0.12913191318511963,
          0.20170584321022034,
          -0.1385158896446228,
          -0.1716289520263672,
          0.13480284810066223,
          0.014318659901618958,
          0.08838397264480591,
          0.0001347661018371582,
          -0.12657397985458374,
          0.05837780237197876,
          0.02195100486278534,
          0.10811689496040344,
          0.18455958366394043,
          0.0812254548072815,
          -0.15671446919441223,
          0.068961501121521
        ],
        [
          0.1569022238254547,
          0.08929744362831116,
          -0.12930108606815338,
          -0.19684965908527374,
          -0.11162255704402924,
          -0.08735208958387375,
          0.01422049105167389,
          0.005096361041069031,
          0.007700532674789429,
          -0.06057336926460266,
          0.06479600071907043,
          -0.08960828930139542,
          -0.1280885934829712,
          0.09855601191520691,
          -0.043028876185417175,
          0.11698964238166809
        ],
        [
          -0.10052016377449036,
          0.11584880948066711,
          0.12571462988853455,
          0.01743873953819275,
          0.18105337023735046,
          -0.11693845689296722,
          -0.06795883178710938,
          0.13726988434791565,
          0.08150061964988708,
          -0.16853247582912445,
          0.11688452959060669,
          -0.15357325971126556,
          0.09150177240371704,
          -0.013325124979019165,
          -0.020729750394821167,
          -0.16117563843727112
        ],
        [
          -0.11192833632230759,
          -0.06765630841255188,
          -0.039134398102760315,
          -0.06623286008834839,
          0.12300309538841248,
          -0.045382797718048096,
          -0.11207550764083862,
          -0.050713732838630676,
          0.0704604983329773,
          0.1951645016670227,
          0.07004955410957336,
          -0.003306478261947632,
          0.19338545203208923,
          0.02349652349948883,
          0.02869035303592682,
          -0.004608422517776489
        ],
        [
          -0.07013000547885895,
          0.18301275372505188,
          0.14137214422225952,
          -0.11576889455318451,
          -0.1863916516304016,
          -0.10966332256793976,
          -0.003581106662750244,
          0.11751660704612732,
          0.11879464983940125,
          0.18860045075416565,
          0.1920107901096344,
          -0.13099202513694763,
          0.14500963687896729,
          -0.06822966039180756,
          -0.1720806360244751,
          -0.10193900018930435
        ],
        [
          0.11103096604347229,
          -0.14768174290657043,
          0.029819771647453308,
          -0.03887845575809479,
          0.19819477200508118,
          -0.18937163054943085,
          0.11829787492752075,
          0.08636599779129028,
          0.18976271152496338,
          0.15060001611709595,
          0.20315787196159363,
          0.1859065294265747,
          0.1282057762145996,
          -0.15426228940486908,
          -0.08154791593551636,
          0.04021747410297394
        ],
        [
          -0.038405805826187134,
          0.02814231812953949,
          -0.006977826356887817,
          -0.1834765523672104,
          -0.14840593934059143,
          0.16179481148719788,
          0.11369889974594116,
          -0.13709895312786102,
          0.16090062260627747,
          -0.07337537407875061,
          -0.18017400801181793,
          -0.08747550845146179,
          0.12710192799568176,
          -0.09626199305057526,
          0.1727445125579834,
          0.14639395475387573
        ],
        [
          0.08143875002861023,
          0.13539263606071472,
          0.11013588309288025,
          0.005057662725448608,
          0.1317206621170044,
          0.07172593474388123,
          0.00018474459648132324,
          0.1676378846168518,
          0.06251269578933716,
          0.11685231328010559,
          0.11900100111961365,
          -0.20321018993854523,
          -0.1280847042798996,
          0.16466757655143738,
          -0.10097217559814453,
          -0.06671835482120514
        ],
        [
          0.15984448790550232,
          -0.1051521897315979,
          0.04985007643699646,
          -0.0293872207403183,
          0.1377851963043213,
          0.1158725917339325,
          0.011394888162612915,
          -0.10423729568719864,
          -0.1949457973241806,
          -0.0990721732378006,
          0.03584367036819458,
          0.18290820717811584,
          -0.013712272047996521,
          -0.05724099278450012,
          0.18303105235099792,
          0.01914973556995392
        ],
        [
          0.17857226729393005,
          -0.031705811619758606,
          0.11536237597465515,
          -0.04989942908287048,
          0.11597242951393127,
          -0.14012038707733154,
          0.17872977256774902,
          0.09042301774024963,
          0.0032856613397598267,
          0.07852983474731445,
          0.15194541215896606,
          0.06093701720237732,
          -0.12008696794509888,
          0.0676436722278595,
          -0.12635274231433868,
          -0.051350727677345276
        ],
        [
          -0.14136086404323578,
          0.06196168065071106,
          0.025556445121765137,
          0.09314194321632385,
          0.0712590217590332,
          -0.14754429459571838,
          0.1520066261291504,
          -0.10158518701791763,
          0.11662065982818604,
          0.030686140060424805,
          -0.18712005019187927,
          0.1797606647014618,
          -0.14090582728385925,
          -0.11063734441995621,
          0.010967344045639038,
          -0.03988766670227051
        ],
        [
          -0.07845990359783173,
          0.058611273765563965,
          0.028563573956489563,
          -0.13130690157413483,
          0.06553623080253601,
          -0.18137812614440918,
          0.11226239800453186,
          -0.07601681351661682,
          0.04871088266372681,
          -0.017110198736190796,
          -0.06997174024581909,
          0.11204305291175842,
          0.0893828272819519,
          -0.1471225917339325,
          0.16482287645339966,
          0.08809179067611694
        ],
        [
          0.17407667636871338,
          -0.032871589064598083,
          -0.19032905995845795,
          0.00896596908569336,
          0.193753182888031,
          -0.03463853895664215,
          -0.026098117232322693,
          0.10518109798431396,
          0.17694830894470215,
          -0.0708501785993576,
          0.12458166480064392,
          0.0840194821357727,
          0.025047093629837036,
          0.011117488145828247,
          -0.1373075395822525,
          -0.13755014538764954
        ],
        [
          0.04302696883678436,
          0.0031332820653915405,
          -0.12274584174156189,
          -0.09137193113565445,
          -0.06481139361858368,
          -0.010395020246505737,
          0.17985260486602783,
          0.04618215560913086,
          0.05557608604431152,
          0.16746565699577332,
          -0.17182056605815887,
          -0.1731126755475998,
          -0.14324355125427246,
          -0.03949818015098572,
          0.16120770573616028,
          -0.08478353917598724
        ],
        [
          0.028211966156959534,
          0.09782883524894714,
          -0.1926361620426178,
          0.14246517419815063,
          -0.13740287721157074,
          0.19743561744689941,
          -0.1426663100719452,
          -0.04829901456832886,
          0.12057533860206604,
          -0.01244799792766571,
          0.18356594443321228,
          0.107697993516922,
          0.17162194848060608,
          0.037283629179000854,
          -0.19206587970256805,
          -0.014498189091682434
        ],
        [
          0.172491192817688,
          0.07081374526023865,
          0.12289386987686157,
          0.04591628909111023,
          -0.02514292299747467,
          0.04346415400505066,
          0.003636687994003296,
          0.07937923073768616,
          0.11089402437210083,
          -0.12702040374279022,
          0.08033859729766846,
          0.1753719449043274,
          0.035619765520095825,
          -0.18242247402668,
          -0.09303352236747742,
          -0.03860722482204437
        ],
        [
          0.1664210557937622,
          0.09708148241043091,
          0.08139285445213318,
          -0.13875874876976013,
          -0.13884668052196503,
          -0.05953282117843628,
          -0.1507870852947235,
          -0.15813711285591125,
          -0.03981645405292511,
          -0.03006325662136078,
          -0.1065678596496582,
          0.1582430601119995,
          -0.0991104245185852,
          0.06347563862800598,
          -0.07402010262012482,
          -0.19956424832344055
        ],
        [
          0.15899574756622314,
          0.08558538556098938,
          -0.0815778449177742,
          0.04554237425327301,
          -0.19679485261440277,
          -0.19337229430675507,
          0.11299541592597961,
          0.19727671146392822,
          -0.11319436132907867,
          0.06342506408691406,
          -0.1763201653957367,
          -0.12467222660779953,
          0.11683246493339539,
          -0.09601257741451263,
          0.008149921894073486,
          0.04312703013420105
        ],
        [
          0.058244794607162476,
          -0.1743173748254776,
          0.01297876238822937,
          -0.16562670469284058,
          -0.07976792007684708,
          0.18992683291435242,
          0.17620527744293213,
          -0.10173697769641876,
          -0.0293436199426651,
          0.18788602948188782,
          -0.15107324719429016,
          0.07611489295959473,
          -0.07329303026199341,
          -0.07297424972057343,
          -0.020085886120796204,
          0.037947505712509155
        ],
        [
          -0.07029202580451965,
          -0.011700570583343506,
          -0.1000102236866951,
          0.013112008571624756,
          -0.1907324492931366,
          -0.10809975117444992,
          0.12392193078994751,
          0.07087033987045288,
          0.14611968398094177,
          0.12394252419471741,
          -0.10058021545410156,
          -0.1510288566350937,
          0.19579070806503296,
          -0.09495314210653305,
          0.1480250358581543,
          0.037590622901916504
        ],
        [
          0.18881317973136902,
          -0.03413994610309601,
          -0.10831558704376221,
          0.021682903170585632,
          0.04008622467517853,
          -0.09783651679754257,
          0.14313870668411255,
          0.20244431495666504,
          0.1079639196395874,
          -0.04434940218925476,
          -0.03368067741394043,
          0.15974536538124084,
          0.05828413367271423,
          -0.017464250326156616,
          -0.09061554819345474,
          -0.01845724880695343
        ],
        [
          -0.1363711953163147,
          -0.11570153385400772,
          0.18832844495773315,
          0.025177478790283203,
          0.12690532207489014,
          -0.15500155091285706,
          0.1080847978591919,
          0.05406966805458069,
          0.06565937399864197,
          -0.016383007168769836,
          -0.038040801882743835,
          -0.11115725338459015,
          0.12623068690299988,
          -0.09719040989875793,
          -0.10244795680046082,
          0.0889083743095398
        ],
        [
          -0.11030426621437073,
          0.03272368013858795,
          0.10024067759513855,
          0.1807256042957306,
          0.1714390516281128,
          0.019666627049446106,
          0.11812421679496765,
          -0.14284628629684448,
          0.152622252702713,
          -0.02676597237586975,
          0.13729959726333618,
          -0.12724320590496063,
          0.05197760462760925,
          -0.055130600929260254,
          -0.17126770317554474,
          -0.014826491475105286
        ],
        [
          -0.0732184648513794,
          0.12921014428138733,
          0.0733395516872406,
          0.18106549978256226,
          0.03962504863739014,
          -0.06571212410926819,
          0.12533605098724365,
          -0.18853694200515747,
          0.08671289682388306,
          -0.02149420976638794,
          -0.11495012044906616,
          -0.06579704582691193,
          -0.03977470099925995,
          0.05285775661468506,
          0.06596815586090088,
          0.09702363610267639
        ],
        [
          0.1266685426235199,
          0.10970839858055115,
          -0.017423853278160095,
          -0.09106080234050751,
          0.07224774360656738,
          -0.10281748324632645,
          0.05336382985115051,
          0.12029802799224854,
          0.07800564169883728,
          0.17467001080513,
          0.05531114339828491,
          0.057591646909713745,
          0.16921693086624146,
          0.09428682923316956,
          -0.12425646185874939,
          -0.19943401217460632
        ],
        [
          0.024427369236946106,
          0.03047974407672882,
          0.1597824990749359,
          -0.0049211084842681885,
          -0.06960508227348328,
          0.1442224383354187,
          -0.13049805164337158,
          0.11862441897392273,
          -0.03551940619945526,
          0.1030309796333313,
          -0.05363982915878296,
          -0.034115269780159,
          -0.16638383269309998,
          -0.07718370854854584,
          0.09861806035041809,
          0.047459959983825684
        ],
        [
          -0.03822194039821625,
          0.034273773431777954,
          0.06388130784034729,
          -0.18131154775619507,
          -0.12321416288614273,
          -0.2014232873916626,
          0.12900367379188538,
          0.08812949061393738,
          0.010388895869255066,
          0.01800994575023651,
          0.15782257914543152,
          -0.014028698205947876,
          0.17118340730667114,
          -0.009375542402267456,
          -0.1001647487282753,
          -0.143674835562706
        ],
        [
          -0.158245250582695,
          -0.1625671088695526,
          0.1464402973651886,
          0.20181703567504883,
          0.11650747060775757,
          -0.07878859341144562,
          0.02158653736114502,
          -0.0787346214056015,
          0.03899812698364258,
          -0.13227146863937378,
          -0.1349482536315918,
          0.14841270446777344,
          0.04844468832015991,
          -0.05776256322860718,
          -0.016335606575012207,
          0.1706654131412506
        ],
        [
          -0.09252042323350906,
          0.07788640260696411,
          -0.1971186399459839,
          -0.04510374367237091,
          -0.1935051679611206,
          0.08381029963493347,
          -0.09436728805303574,
          0.05156350135803223,
          0.1510923206806183,
          0.0035358071327209473,
          -0.006289288401603699,
          0.19877704977989197,
          -0.1415940821170807,
          0.07020315527915955,
          0.015794485807418823,
          -0.06965366005897522
        ],
        [
          -0.0664670467376709,
          0.16326060891151428,
          0.1348269283771515,
          0.17169412970542908,
          -0.09876824915409088,
          0.08721065521240234,
          0.03037501871585846,
          0.1120421290397644,
          0.08356720209121704,
          -0.10846392810344696,
          0.07915836572647095,
          0.17180368304252625,
          -0.1053413525223732,
          -0.11531838029623032,
          0.11141952872276306,
          -0.09124009311199188
        ],
        [
          0.030439212918281555,
          -0.11060182005167007,
          0.020132169127464294,
          -0.01369522511959076,
          0.13991740345954895,
          0.1639740765094757,
          0.1829686164855957,
          -0.038433536887168884,
          0.18378430604934692,
          0.18242111802101135,
          -0.16999326646327972,
          0.175197035074234,
          0.05932646989822388,
          0.13457489013671875,
          -0.022601380944252014,
          0.07148048281669617
        ],
        [
          0.03083379566669464,
          0.050225794315338135,
          0.06519770622253418,
          -0.11954949051141739,
          -0.06147964298725128,
          -0.1953587383031845,
          0.1473606824874878,
          0.14035993814468384,
          0.11040076613426208,
          -0.08414780348539352,
          0.08760297298431396,
          -0.03451837599277496,
          -0.14363905787467957,
          0.08385959267616272,
          -0.16896580159664154,
          0.038129523396492004
        ],
        [
          0.034516528248786926,
          0.0904310941696167,
          0.08185485005378723,
          -0.056328341364860535,
          -0.11645207554101944,
          -0.1540483981370926,
          0.20357665419578552,
          0.16399690508842468,
          0.11032292246818542,
          -0.14316879212856293,
          -0.15059338510036469,
          0.025042042136192322,
          0.18792226910591125,
          -0.1473028063774109,
          -0.0650927871465683,
          0.11248376965522766
        ],
        [
          0.06562131643295288,
          0.1887010931968689,
          0.1667289137840271,
          0.02325187623500824,
          0.15526822209358215,
          -0.087379589676857,
          0.1644282042980194,
          -0.10201642662286758,
          0.00743924081325531,
          -0.026366710662841797,
          0.030372247099876404,
          -0.1871962696313858,
          0.0037806928157806396,
          0.12720704078674316,
          -0.11935121566057205,
          -0.19550499320030212
        ],
        [
          0.0032057464122772217,
          0.06889960169792175,
          0.026710346341133118,
          0.04716828465461731,
          0.009544715285301208,
          -0.04605299234390259,
          -0.09468839317560196,
          -0.15090158581733704,
          0.16805881261825562,
          -0.08552084863185883,
          0.005792155861854553,
          -0.11451873183250427,
          -0.03542052209377289,
          -0.14823482930660248,
          -0.0190039724111557,
          0.07238802313804626
        ],
        [
          0.011140897870063782,
          0.022866040468215942,
          -0.08175762742757797,
          0.18296155333518982,
          -0.00017885863780975342,
          0.06362906098365784,
          -0.11325343698263168,
          -0.1888144463300705,
          -0.04112677276134491,
          0.0022150278091430664,
          0.01593858003616333,
          0.0006168484687805176,
          0.1259382963180542,
          0.13697174191474915,
          0.12979888916015625,
          0.15271782875061035
        ],
        [
          -0.1954302340745926,
          0.13386854529380798,
          -0.18479765951633453,
          0.07182115316390991,
          -0.07225476205348969,
          -0.029507622122764587,
          -0.19108499586582184,
          -0.15476122498512268,
          -0.18624623119831085,
          -0.2021188735961914,
          -0.18794812262058258,
          0.0963519811630249,
          -0.055567771196365356,
          -0.17347557842731476,
          -0.10045431554317474,
          0.0527874231338501
        ],
        [
          0.1748669147491455,
          -2.339482307434082e-06,
          -0.13069798052310944,
          0.18933001160621643,
          0.03492450714111328,
          0.11262732744216919,
          0.06636488437652588,
          -0.125756174325943,
          -0.10296407341957092,
          -0.004396423697471619,
          -0.03796181082725525,
          0.055762141942977905,
          0.16902440786361694,
          0.06741896271705627,
          0.18261387944221497,
          -0.016301453113555908
        ],
        [
          -0.18225248157978058,
          -0.16477639973163605,
          0.10693305730819702,
          0.19629091024398804,
          -0.06323112547397614,
          0.008625879883766174,
          -0.1529548466205597,
          0.16966134309768677,
          -0.18257465958595276,
          -0.11452876031398773,
          -0.18646971881389618,
          0.18245083093643188,
          -0.13968423008918762,
          -0.08770210295915604,
          -0.0493880957365036,
          0.1114138662815094
        ],
        [
          0.1955622136592865,
          0.05756211280822754,
          0.13473057746887207,
          0.049082010984420776,
          -0.033730655908584595,
          -0.2003779113292694,
          0.011315658688545227,
          0.1850377321243286,
          0.19237729907035828,
          -0.13678903877735138,
          -0.0045432597398757935,
          0.1786704957485199,
          -0.08836840093135834,
          -0.0028865784406661987,
          0.018794462084770203,
          -0.03120863437652588
        ],
        [
          -0.1531822681427002,
          -0.03618498146533966,
          0.1963006556034088,
          0.12634170055389404,
          0.14862167835235596,
          -0.1355879306793213,
          0.1828223168849945,
          -0.15395763516426086,
          0.12678664922714233,
          0.0641264021396637,
          0.0648440420627594,
          -0.1672130674123764,
          0.014449134469032288,
          0.010369524359703064,
          0.009648770093917847,
          0.11532407999038696
        ],
        [
          -0.01577599346637726,
          -0.06362888216972351,
          -0.07523955404758453,
          0.016876354813575745,
          -0.01864895224571228,
          -0.05917361378669739,
          0.1124175488948822,
          -0.15736939013004303,
          0.11118587851524353,
          -0.037066489458084106,
          -0.1059342622756958,
          -0.037193164229393005,
          -0.09009642153978348,
          -0.18584322929382324,
          -0.12936192750930786,
          0.14457181096076965
        ],
        [
          0.15230554342269897,
          -0.19536788761615753,
          0.038322970271110535,
          -0.053768500685691833,
          0.11685684323310852,
          0.04744458198547363,
          0.07158714532852173,
          0.03984493017196655,
          -0.12421110272407532,
          0.04650047421455383,
          0.10814180970191956,
          0.06221535801887512,
          -0.04877479374408722,
          0.09515899419784546,
          -0.0632794052362442,
          0.06693011522293091
        ],
        [
          -0.06226357817649841,
          -0.009534403681755066,
          -0.007763072848320007,
          0.04803168773651123,
          0.03626137971878052,
          -0.03799402713775635,
          -0.05383075773715973,
          -0.19325029850006104,
          -0.030400022864341736,
          -0.1378902792930603,
          -0.11021209508180618,
          0.19312512874603271,
          0.019816666841506958,
          0.10726964473724365,
          0.17940914630889893,
          0.005572035908699036
        ],
        [
          -0.15617766976356506,
          0.1831170916557312,
          0.09472918510437012,
          0.0811290442943573,
          -0.012125581502914429,
          0.0014083683490753174,
          0.022214338183403015,
          -0.15492449700832367,
          -0.13650014996528625,
          -0.0697268545627594,
          0.13993152976036072,
          0.04451340436935425,
          -0.07463379204273224,
          0.018086552619934082,
          0.014859884977340698,
          0.016668349504470825
        ],
        [
          -0.12756586074829102,
          -0.08551875501871109,
          0.1498163640499115,
          0.18090876936912537,
          -0.15088193118572235,
          0.1279241442680359,
          0.09852594137191772,
          -0.13937218487262726,
          0.13711968064308167,
          -0.046539947390556335,
          -0.09107452630996704,
          0.20140761137008667,
          -0.04036425054073334,
          -0.19101078808307648,
          0.13708198070526123,
          -0.19264696538448334
        ],
        [
          0.1010482907295227,
          -0.16536152362823486,
          -0.16825512051582336,
          0.1815146803855896,
          0.1904924213886261,
          0.1795482039451599,
          0.020849481225013733,
          0.16368705034255981,
          0.1088590919971466,
          -0.1266552209854126,
          -0.08932013064622879,
          0.16510909795761108,
          0.11241504549980164,
          0.09451493620872498,
          0.15734869241714478,
          -0.03599463403224945
        ],
        [
          -0.12418550252914429,
          -0.09955791383981705,
          0.17307442426681519,
          -0.09852729737758636,
          0.15551501512527466,
          0.176771342754364,
          0.002225443720817566,
          0.07659152150154114,
          0.11633309721946716,
          0.1415833830833435,
          0.03792575001716614,
          0.05196666717529297,
          -0.07635709643363953,
          -0.05691322684288025,
          -0.023968786001205444,
          0.059384435415267944
        ],
        [
          -0.1538383960723877,
          -0.0641326755285263,
          -0.031268343329429626,
          -0.005377262830734253,
          0.006963714957237244,
          0.1553824543952942,
          -0.17713665962219238,
          -0.005281925201416016,
          -0.16794851422309875,
          -0.009443879127502441,
          -0.06662185490131378,
          -0.1164434626698494,
          -0.16487544775009155,
          -0.005807086825370789,
          -0.011318966746330261,
          -0.08387181162834167
        ],
        [
          0.19509482383728027,
          -0.1029568687081337,
          -0.08004800230264664,
          -0.013948202133178711,
          0.07677718997001648,
          -0.06065210700035095,
          0.059623777866363525,
          0.06882986426353455,
          -0.13948240876197815,
          -0.06984345614910126,
          -0.03407871723175049,
          0.10225996375083923,
          -0.12390907853841782,
          -0.18621884286403656,
          0.00018328428268432617,
          -0.08348525315523148
        ],
        [
          -0.1361507773399353,
          -0.016645371913909912,
          -0.025509625673294067,
          -0.19061872363090515,
          -0.05330836772918701,
          0.14335033297538757,
          0.16787678003311157,
          0.12948766350746155,
          0.1268940269947052,
          0.19587242603302002,
          -0.19598902761936188,
          0.11420175433158875,
          0.08056965470314026,
          0.05217170715332031,
          0.19853076338768005,
          -0.19730551540851593
        ],
        [
          -0.0744238942861557,
          0.018265500664711,
          0.01454724371433258,
          -0.16744130849838257,
          -0.14335334300994873,
          -0.10892042517662048,
          -0.02514253556728363,
          0.19335317611694336,
          -0.17103832960128784,
          -0.07747513055801392,
          -0.16312941908836365,
          0.006941959261894226,
          -0.13980644941329956,
          -0.10908044129610062,
          0.02483530342578888,
          0.008874237537384033
        ],
        [
          -0.026625856757164,
          -0.08856073021888733,
          0.12257695198059082,
          0.003140971064567566,
          -0.02463756501674652,
          0.147335946559906,
          -0.11620781570672989,
          -0.11979803442955017,
          0.1986602544784546,
          0.06535223126411438,
          -0.16545647382736206,
          0.19603413343429565,
          -0.017126157879829407,
          0.021527156233787537,
          0.17438432574272156,
          -0.03341139853000641
        ],
        [
          0.1593000590801239,
          -0.05484794080257416,
          0.1709062159061432,
          -0.16377541422843933,
          -0.05246281623840332,
          -0.032012805342674255,
          0.0727626383304596,
          0.0789823830127716,
          0.18863904476165771,
          -0.022409304976463318,
          -0.04118327796459198,
          0.1058485209941864,
          0.018686816096305847,
          0.12342682480812073,
          -0.1777854859828949,
          -0.19966407120227814
        ],
        [
          0.20351645350456238,
          -0.0131303071975708,
          0.16268157958984375,
          0.005913868546485901,
          -0.14011426270008087,
          0.19395765662193298,
          0.09484237432479858,
          -0.17345435917377472,
          -0.06641949713230133,
          -0.040135711431503296,
          0.16277235746383667,
          0.17112794518470764,
          -0.12401191145181656,
          -0.1339988112449646,
          0.08688589930534363,
          -0.079674631357193
        ],
        [
          -0.008700832724571228,
          0.14819428324699402,
          0.03154788911342621,
          0.038484156131744385,
          -0.15911628305912018,
          -0.08020144701004028,
          -0.03214707970619202,
          0.1568101942539215,
          -0.18603575229644775,
          -0.1224522814154625,
          0.018032774329185486,
          -0.003965198993682861,
          0.0967760980129242,
          0.19893643260002136,
          -0.037983521819114685,
          -0.19475623965263367
        ],
        [
          -0.12700560688972473,
          -0.01480303704738617,
          0.05800890922546387,
          0.005632370710372925,
          -0.19520261883735657,
          0.055559396743774414,
          -0.1121213510632515,
          -0.13297003507614136,
          0.14482250809669495,
          0.02843494713306427,
          0.00042404234409332275,
          0.12183025479316711,
          -0.07711713016033173,
          0.013133957982063293,
          0.09998419880867004,
          0.013866007328033447
        ],
        [
          0.12652915716171265,
          0.13231506943702698,
          -0.08046960085630417,
          -0.0775577574968338,
          -0.13791368901729584,
          0.11235469579696655,
          0.04812365770339966,
          -0.058869585394859314,
          -0.06822031736373901,
          -0.06279720366001129,
          -0.022317752242088318,
          0.05873924493789673,
          -0.0017913281917572021,
          0.15967848896980286,
          -0.12604540586471558,
          -0.1955314576625824
        ],
        [
          -0.001383364200592041,
          -0.10900617390871048,
          0.18114826083183289,
          0.052779942750930786,
          0.042152225971221924,
          -0.023235172033309937,
          -0.04538606107234955,
          -0.013816118240356445,
          0.13640940189361572,
          0.1316404640674591,
          -0.017009109258651733,
          0.028003960847854614,
          -0.06309840083122253,
          -0.08134663105010986,
          0.15039321780204773,
          -0.199762761592865
        ],
        [
          0.15176135301589966,
          -0.11724695563316345,
          -0.10131722688674927,
          0.1173718273639679,
          0.032050177454948425,
          -0.08718983083963394,
          0.14699605107307434,
          -0.04576459527015686,
          0.10411003232002258,
          0.0656450092792511,
          0.02632923424243927,
          -0.09387224912643433,
          0.14909228682518005,
          -0.16375693678855896,
          0.14930668473243713,
          -0.12453614920377731
        ],
        [
          0.07878169417381287,
          0.09989255666732788,
          -0.17981435358524323,
          0.16526386141777039,
          -0.20346534252166748,
          -0.04441899061203003,
          0.18953341245651245,
          0.1533435583114624,
          -0.14517275989055634,
          -0.18356862664222717,
          0.05610772967338562,
          -0.07325126230716705,
          -0.18862469494342804,
          0.030826017260551453,
          0.08874392509460449,
          -0.1230023130774498
        ],
        [
          0.09747573733329773,
          0.20306599140167236,
          0.18246889114379883,
          -0.12479812651872635,
          0.1695212423801422,
          0.14874392747879028,
          0.05937168002128601,
          0.14441236853599548,
          -0.14659611880779266,
          0.08409836888313293,
          -0.08563146740198135,
          0.15577447414398193,
          0.14599063992500305,
          0.09252169728279114,
          0.04914727807044983,
          -0.1835971474647522
        ],
        [
          -0.13557913899421692,
          0.1672704815864563,
          -0.07692568004131317,
          0.08549338579177856,
          -0.017985612154006958,
          -0.12171750515699387,
          0.01594384014606476,
          0.00408579409122467,
          -0.019358858466148376,
          -0.15245401859283447,
          0.056561022996902466,
          0.10239845514297485,
          -0.12180768698453903,
          -0.05328315496444702,
          -0.19816464185714722,
          0.11142054200172424
        ],
        [
          -0.08635855466127396,
          0.15868452191352844,
          0.09315913915634155,
          -0.10036452114582062,
          0.20228537917137146,
          -0.12598054111003876,
          -0.14336827397346497,
          0.09114846587181091,
          -0.058031052350997925,
          -0.0918416678905487,
          -0.19520115852355957,
          -0.09755395352840424,
          -0.19959500432014465,
          0.03331620991230011,
          0.12128520011901855,
          -0.05171719193458557
        ],
        [
          -0.002801075577735901,
          -0.07542434334754944,
          -0.1851980984210968,
          -0.09170306473970413,
          -0.14272767305374146,
          0.027959436178207397,
          0.17646145820617676,
          -0.17698170244693756,
          -0.07207328081130981,
          0.07187515497207642,
          -0.15404582023620605,
          -0.18844905495643616,
          -0.028811246156692505,
          -0.00873616337776184,
          0.20110154151916504,
          0.014726385474205017
        ],
        [
          -0.10510585457086563,
          0.06483319401741028,
          0.19584399461746216,
          0.09664773941040039,
          0.0626659095287323,
          0.09851109981536865,
          0.14596661925315857,
          -0.17348940670490265,
          0.0792398452758789,
          -0.025696128606796265,
          0.15162304043769836,
          -0.09705939888954163,
          -0.014007046818733215,
          -0.17516179382801056,
          -0.10093295574188232,
          0.19494551420211792
        ],
        [
          0.1519894301891327,
          0.1207120418548584,
          -0.1985035091638565,
          0.14348945021629333,
          0.06627929210662842,
          0.03459283709526062,
          -0.04712049663066864,
          0.021038934588432312,
          0.056912779808044434,
          0.04268844425678253,
          -0.12677955627441406,
          0.12954092025756836,
          -0.02321586012840271,
          -0.18062762916088104,
          -0.06465856730937958,
          -0.12839579582214355
        ],
        [
          0.017813965678215027,
          -0.0851924940943718,
          0.2040291130542755,
          0.13759049773216248,
          -0.1991574466228485,
          0.02315463125705719,
          -0.13918998837471008,
          0.1647646129131317,
          -0.026246055960655212,
          -0.16139788925647736,
          -0.17999529838562012,
          0.026998892426490784,
          -0.06813958287239075,
          0.09897509217262268,
          -0.011899664998054504,
          0.1776534914970398
        ],
        [
          -0.10503119975328445,
          -0.1057228073477745,
          -0.008243948221206665,
          -0.07700856029987335,
          0.14590591192245483,
          0.02386726438999176,
          0.10328501462936401,
          -0.06985187530517578,
          -0.06556786596775055,
          0.03431163728237152,
          -0.1431768238544464,
          -0.013329938054084778,
          0.13441768288612366,
          -0.1642346978187561,
          -0.12369080632925034,
          -0.13843384385108948
        ],
        [
          0.1422351598739624,
          0.12438824772834778,
          0.06967049837112427,
          -0.018963634967803955,
          0.08593630790710449,
          0.04262888431549072,
          -0.20329880714416504,
          0.11502331495285034,
          0.024909913539886475,
          0.04346999526023865,
          -0.1951604187488556,
          -0.1829148381948471,
          -0.09340319782495499,
          0.1356389820575714,
          0.1268826425075531,
          -0.0532088428735733
        ],
        [
          -0.12883393466472626,
          0.11584335565567017,
          0.1712988018989563,
          0.12321266531944275,
          -0.1440233439207077,
          0.0015580803155899048,
          0.12241041660308838,
          0.1041933000087738,
          -0.17076045274734497,
          -0.09614616632461548,
          -0.16865992546081543,
          0.12648716568946838,
          -0.10539041459560394,
          0.05754920840263367,
          -0.19871428608894348,
          0.11604726314544678
        ],
        [
          0.2029573619365692,
          0.13314414024353027,
          -0.05782276391983032,
          -0.12024523317813873,
          0.07999879121780396,
          0.02401764690876007,
          0.1505158543586731,
          0.05943864583969116,
          -0.11146342009305954,
          -0.17773422598838806,
          0.18493670225143433,
          0.10574105381965637,
          0.18691331148147583,
          0.16165250539779663,
          -0.1048271432518959,
          -0.04472428560256958
        ],
        [
          0.1426929235458374,
          0.008011996746063232,
          -0.06677690148353577,
          -0.1404421329498291,
          0.0491490364074707,
          0.04735255241394043,
          0.13262391090393066,
          0.09993737936019897,
          -0.11418502032756805,
          -0.15770553052425385,
          0.19714415073394775,
          -0.07861694693565369,
          -0.06735940277576447,
          -0.018852367997169495,
          0.18918094038963318,
          0.17989003658294678
        ],
        [
          0.13370686769485474,
          -0.028062164783477783,
          0.004406407475471497,
          -0.11126744002103806,
          0.05590680241584778,
          0.15120282769203186,
          0.1755962371826172,
          0.13007274270057678,
          -0.10674890130758286,
          -0.03428292274475098,
          0.011665776371955872,
          0.1291508674621582,
          -0.20283807814121246,
          -0.15513765811920166,
          -0.05203329026699066,
          -0.01901853084564209
        ],
        [
          -0.18245980143547058,
          -0.06180669367313385,
          -0.1487087607383728,
          -0.09536656737327576,
          0.15790140628814697,
          -0.02741391956806183,
          -0.05797712504863739,
          -0.12492461502552032,
          -0.022108927369117737,
          0.1924721598625183,
          0.13522124290466309,
          0.13905644416809082,
          0.06065240502357483,
          0.14276158809661865,
          0.19593241810798645,
          -0.1940966099500656
        ],
        [
          0.10486164689064026,
          0.11299759149551392,
          -0.1541127860546112,
          -0.17462606728076935,
          0.04575100541114807,
          0.16364216804504395,
          0.19520294666290283,
          0.1434151828289032,
          -0.059618040919303894,
          -0.15788725018501282,
          0.06883302330970764,
          0.06043195724487305,
          0.066897451877594,
          -0.09051622450351715,
          0.18823933601379395,
          0.1781785488128662
        ],
        [
          0.13179808855056763,
          -0.038932040333747864,
          -0.015402570366859436,
          -0.013478860259056091,
          -0.0882083848118782,
          -0.060107678174972534,
          -0.1993708461523056,
          -0.016871437430381775,
          -0.1029105857014656,
          0.04204443097114563,
          -0.0776703804731369,
          0.05796310305595398,
          -0.12024737149477005,
          0.13886278867721558,
          0.1998099684715271,
          -0.15519042313098907
        ],
        [
          0.1452256143093109,
          -0.15750882029533386,
          0.06679514050483704,
          0.1915477216243744,
          -0.18260210752487183,
          0.0811004638671875,
          -0.012673571705818176,
          -0.13292531669139862,
          -0.05996745824813843,
          -0.1459289938211441,
          0.09663060307502747,
          -0.0198565274477005,
          0.06530570983886719,
          0.05320727825164795,
          -0.12502433359622955,
          -0.03011181950569153
        ],
        [
          -0.1632809191942215,
          0.1393524706363678,
          0.04418817162513733,
          -0.13804270327091217,
          -0.1469678431749344,
          -0.006505027413368225,
          -0.054363757371902466,
          0.0010771006345748901,
          0.07017263770103455,
          -0.009087726473808289,
          0.1037028431892395,
          -0.028734207153320312,
          0.13878077268600464,
          -0.02179574966430664,
          0.007504358887672424,
          0.14876806735992432
        ],
        [
          0.07163187861442566,
          -0.07609249651432037,
          -0.0891779288649559,
          0.19406449794769287,
          -0.11051567643880844,
          0.1733148694038391,
          -0.042243242263793945,
          0.0055272579193115234,
          0.05922582745552063,
          -0.14824876189231873,
          -0.16215530037879944,
          -0.04114833474159241,
          -0.17260751128196716,
          -0.19012509286403656,
          -0.20129236578941345,
          -0.1877896636724472
        ],
        [
          0.0705665647983551,
          -0.006852596998214722,
          -0.0051699429750442505,
          -0.1872529685497284,
          0.2011582851409912,
          -0.12085770815610886,
          -0.008608415722846985,
          -0.18075309693813324,
          -0.03275896608829498,
          0.07289925217628479,
          0.11712980270385742,
          0.014880076050758362,
          -0.09899021685123444,
          0.03699153661727905,
          -0.09152046591043472,
          -0.19924597442150116
        ],
        [
          -0.17725373804569244,
          -0.04827970266342163,
          -0.16246749460697174,
          -0.12815600633621216,
          0.04664638638496399,
          -0.15556105971336365,
          0.0055456459522247314,
          0.1816229224205017,
          0.08005866408348083,
          0.03324899077415466,
          0.07887658476829529,
          -0.054375097155570984,
          0.041639044880867004,
          0.16562354564666748,
          0.061162590980529785,
          0.10962715744972229
        ],
        [
          -0.18013215065002441,
          -0.12778958678245544,
          0.16027504205703735,
          -0.017320677638053894,
          -0.1427396535873413,
          0.002121150493621826,
          -0.05078396201133728,
          -0.08419296890497208,
          -0.012274444103240967,
          0.13653120398521423,
          0.13872122764587402,
          0.18272557854652405,
          -0.061060234904289246,
          0.09811210632324219,
          0.07513585686683655,
          -0.14882931113243103
        ],
        [
          0.15464380383491516,
          0.03850911557674408,
          0.030291885137557983,
          -0.07570803165435791,
          0.20278304815292358,
          -0.14894157648086548,
          0.18240919709205627,
          -0.16467274725437164,
          -0.07753294706344604,
          -0.17421089112758636,
          -0.10422449558973312,
          0.16161859035491943,
          0.14081227779388428,
          0.10141178965568542,
          0.02871932089328766,
          0.16084828972816467
        ],
        [
          0.15596377849578857,
          0.015816092491149902,
          -0.06172409653663635,
          -0.018454670906066895,
          0.18263795971870422,
          -0.0005057007074356079,
          -0.18380393087863922,
          0.02403278648853302,
          -0.11667876690626144,
          0.180555522441864,
          0.17884597182273865,
          -0.05136576294898987,
          0.016113057732582092,
          -0.0825224220752716,
          -0.10392003506422043,
          -0.1919204145669937
        ],
        [
          -0.01589474081993103,
          -0.11091060936450958,
          -0.0834587812423706,
          -0.20148304104804993,
          0.11613759398460388,
          -0.02913108468055725,
          -0.13371741771697998,
          0.0763462483882904,
          -0.17456410825252533,
          0.05923745036125183,
          -0.07013887166976929,
          -0.19037261605262756,
          0.05659395456314087,
          0.012709036469459534,
          0.026978597044944763,
          -0.19270828366279602
        ],
        [
          0.08054128289222717,
          0.15122255682945251,
          0.1418434977531433,
          0.0635547935962677,
          -0.03149707615375519,
          0.005859166383743286,
          0.18867477774620056,
          0.012493014335632324,
