{
  "input_features": [
    "queue_len",
    "io_type",
    "size",
    "prev_queue_len_1",
    "prev_queue_len_2",
    "prev_queue_len_3",
    "prev_latency_1",
    "prev_latency_2",
    "prev_latency_3",
    "prev_throughput_1",
    "prev_throughput_2",
    "prev_throughput_3"
  ],
  "scaler_min": [
    1.0,
    0.0,
    1024.0,
    1.0,
    1.0,
    1.0,
    17.0,
    17.0,
    17.0,
    1.0,
    1.0,
    1.0
  ],
  "scaler_scale": [
    11.0,
    1.0,
    154624.0,
    11.0,
    11.0,
    11.0,
    957.0,
    957.0,
    957.0,
    2848.0,
    2848.0,
    2848.0
  ],
  "layers": [
    {
      "name": "dense_1",
      "weights": [
        [
          0.18132208287715912,
          0.11949135363101959,
          -0.10599660873413086,
          -0.04521428048610687,
          -0.0744805634021759,
          -0.19157713651657104,
          0.10660077631473541,
          -0.15706604719161987,
          0.11329059302806854,
          -0.1067015752196312,
          -0.1896675080060959,
          -0.1916402280330658,
          -0.19244296848773956,
          0.20671533048152924,
          -0.16943928599357605,
          -0.15656018257141113,
          -0.14507409930229187,
          0.14657627046108246,
          -0.029259517788887024,
          -0.03291606903076172,
          -0.1578325629234314,
          -0.05446547269821167,
          0.07345418632030487,
          0.053895339369773865,
          -0.03813590109348297,
          -0.14285558462142944,
          0.06907115876674652,
          0.1279645711183548,
          0.11852498352527618,
          -0.14751042425632477,
          0.05864642560482025,
          0.03513270616531372,
          0.031030073761940002,
          -0.03384985029697418,
          -0.11467895656824112,
          0.11949755251407623,
          -0.14544540643692017,
          0.14780671894550323,
          0.09142474830150604,
          0.05360595881938934,
          0.009391367435455322,
          -0.13312295079231262,
          0.1365867406129837,
          0.11046309769153595,
          -0.08656403422355652,
          0.10259558260440826,
          0.02335001528263092,
          -0.13915225863456726,
          0.01828630268573761,
          0.010713204741477966,
          0.20579226315021515,
          0.0591437965631485,
          -0.03569936752319336,
          -0.09499036520719528,
          -0.11582967638969421,
          -0.14558814465999603,
          0.1414080709218979,
          0.059019193053245544,
          0.20684807002544403,
          -0.06263238191604614,
          -0.04992316663265228,
          -0.1687726229429245,
          -0.05347803235054016,
          0.04064655303955078,
          -0.10622631758451462,
          -0.1636069416999817,
          0.007665842771530151,
          0.0553714781999588,
          -0.10931677371263504,
          -0.19787192344665527,
          0.009594917297363281,
          0.1367993801832199,
          -0.13670353591442108,
          0.14782758057117462,
          0.15136675536632538,
          0.0986374169588089,
          -0.1894323229789734,
          0.08420120179653168,
          -0.14824777841567993,
          0.12656085193157196,
          0.007887303829193115,
          -0.028875425457954407,
          0.18183885514736176,
          -0.0775604099035263,
          -0.08344341069459915,
          -0.04481281340122223,
          -0.12440279871225357,
          -0.045882388949394226,
          0.11164729297161102,
          0.08032403886318207,
          0.0008099973201751709,
          0.137139692902565,
          -0.014623939990997314,
          0.0433739572763443,
          0.08919335901737213,
          -0.08927769958972931,
          0.12511171400547028,
          -0.2035728543996811,
          -0.045050859451293945,
          0.04077562689781189,
          0.06001897156238556,
          -0.05977168679237366,
          -0.13002434372901917,
          0.16366265714168549,
          0.12164919078350067,
          0.03393089771270752,
          -0.07027147710323334,
          -0.20407091081142426,
          0.19578693807125092,
          -0.063002809882164,
          0.09094761312007904,
          0.1143888384103775,
          0.1591532677412033,
          0.11407230794429779,
          0.007871702313423157,
          0.042454466223716736,
          0.002474576234817505,
          0.001670554280281067,
          0.03735619783401489,
          -0.1450839638710022,
          -0.10381989926099777,
          0.04621373116970062,
          -0.019867554306983948,
          0.04128287732601166,
          -0.18494242429733276,
          0.16655085980892181,
          -0.0013416856527328491,
          -0.110139861702919
        ],
        [
          0.03890295326709747,
          0.02958729863166809,
          0.06586883962154388,
          -0.1470748484134674,
          0.012932807207107544,
          0.1921129673719406,
          0.023181065917015076,
          -0.17557933926582336,
          -0.04860839247703552,
          -0.008089020848274231,
          -0.026576310396194458,
          -0.09146077185869217,
          0.04861287772655487,
          -0.09036286920309067,
          -0.19084453582763672,
          0.008951008319854736,
          -0.20267903804779053,
          -0.12242213636636734,
          0.11607246100902557,
          -0.05809566378593445,
          0.08751864731311798,
          0.012682706117630005,
          -0.10072845220565796,
          -0.03458799421787262,
          0.12673403322696686,
          0.044520303606987,
          0.19364599883556366,
          -0.00885559618473053,
          0.08302323520183563,
          -0.010436654090881348,
          -0.12211064249277115,
          0.1356019824743271,
          -0.17339113354682922,
          -0.025815114378929138,
          0.18243975937366486,
          0.1616176813840866,
          -0.045333728194236755,
          -0.08141852915287018,
          -0.1911548376083374,
          0.08866123855113983,
          -0.12651386857032776,
          0.17582382261753082,
          0.14336015284061432,
          -0.041437551379203796,
          0.13094492256641388,
          0.1766534000635147,
          0.10683237016201019,
          0.025876864790916443,
          0.19448478519916534,
          -0.031533464789390564,
          -0.20547306537628174,
          0.0767669528722763,
          0.16747082769870758,
          0.057485297322273254,
          0.16721893846988678,
          0.08192424476146698,
          -0.0532170832157135,
          0.188649520277977,
          -0.10649032890796661,
          0.0017760246992111206,
          -0.14813384413719177,
          0.08937723934650421,
          -0.1912129819393158,
          0.1195039302110672,
          -0.010868683457374573,
          -0.17006075382232666,
          0.08108620345592499,
          -0.08273632079362869,
          -0.09917547553777695,
          -0.09257417172193527,
          -0.14250469207763672,
          -0.053984493017196655,
          -0.1212909147143364,
          -0.14437666535377502,
          -0.10479159653186798,
          0.039146095514297485,
          0.16822247207164764,
          0.03037884831428528,
          0.07872281968593597,
          -0.17398060858249664,
          0.03758096694946289,
          -0.08212552219629288,
          -0.15292131900787354,
          -0.06720519065856934,
          -0.20077280700206757,
          0.01388426125049591,
          -0.10444249212741852,
          0.037135571241378784,
          -0.16445735096931458,
          -0.19193285703659058,
          0.0813942402601242,
          -0.17150647938251495,
          0.16426591575145721,
          0.13963092863559723,
          0.07695524394512177,
          0.20203931629657745,
          -0.11193148046731949,
          0.1258143037557602,
          0.16453103721141815,
          -0.026928618550300598,
          0.12660832703113556,
          -0.10242614895105362,
          0.0036860108375549316,
          -0.09345841407775879,
          -0.1883523315191269,
          -0.15049925446510315,
          -0.14036914706230164,
          0.03548002243041992,
          0.18940822780132294,
          -0.16888763010501862,
          0.061397209763526917,
          -0.17910034954547882,
          -0.11010866612195969,
          -0.18139630556106567,
          0.12953130900859833,
          0.18247435986995697,
          0.09688602387905121,
          -0.14171671867370605,
          0.18142296373844147,
          -0.1292981058359146,
          -0.1669323891401291,
          0.10452397167682648,
          -0.055113285779953,
          0.08718691766262054,
          -0.05117452144622803,
          -0.05932213366031647,
          -0.08962537348270416,
          0.011330723762512207
        ],
        [
          0.16180281341075897,
          -0.13527783751487732,
          0.20597077906131744,
          -0.13296988606452942,
          0.025519967079162598,
          -0.14797116816043854,
          0.16187207400798798,
          -0.05557067692279816,
          -0.02104923129081726,
          -0.20550060272216797,
          0.029415488243103027,
          0.16150693595409393,
          -0.17398259043693542,
          -0.19627389311790466,
          0.1547667235136032,
          -0.010008975863456726,
          -0.19326446950435638,
          0.019159376621246338,
          -0.07380209863185883,
          -0.03919436037540436,
          0.02948834002017975,
          -0.1425231546163559,
          0.07615812122821808,
          0.03204011917114258,
          -0.07913456857204437,
          -0.11282825469970703,
          0.20243962109088898,
          -0.09702976047992706,
          -0.11682476848363876,
          -0.1393127590417862,
          0.18469204008579254,
          0.16992564499378204,
          -0.14035049080848694,
          -0.18876363337039948,
          0.07602445781230927,
          0.03375627100467682,
          -0.1105419248342514,
          0.10819961130619049,
          0.1576889008283615,
          0.05390481650829315,
          0.08653698861598969,
          -0.17719461023807526,
          -0.1386040896177292,
          0.04252757132053375,
          0.14614464342594147,
          -0.052756622433662415,
          -0.014707207679748535,
          -0.09900247305631638,
          0.1344381719827652,
          0.030516117811203003,
          0.12651099264621735,
          -0.02192986011505127,
          -0.06355057656764984,
          0.05436794459819794,
          -0.08928456157445908,
          0.006797686219215393,
          -0.03347271680831909,
          -0.02787761390209198,
          -0.0904916375875473,
          0.2057921141386032,
          0.15124495327472687,
          -0.18242570757865906,
          -0.15730884671211243,
          -0.06852070987224579,
          -0.11747436225414276,
          0.04311610758304596,
          0.15091325342655182,
          0.1252221316099167,
          0.20592151582241058,
          0.11469869315624237,
          0.03233340382575989,
          0.01373031735420227,
          0.07321934401988983,
          -0.11954613029956818,
          0.07843334972858429,
          0.18113748729228973,
          0.18078507483005524,
          0.1154765635728836,
          0.10577340424060822,
          0.09968261420726776,
          0.07785294950008392,
          0.05666588246822357,
          -0.07735937833786011,
          0.12082137167453766,
          -0.15726733207702637,
          0.19129998981952667,
          0.08572284877300262,
          0.08517421782016754,
          -0.08956021815538406,
          -0.13942115008831024,
          -0.12913477420806885,
          -0.1858915239572525,
          -0.07419301569461823,
          0.08717496693134308,
          0.05496363341808319,
          -0.033208757638931274,
          -0.08425089716911316,
          -0.04643632471561432,
          0.13785038888454437,
          -0.06182257831096649,
          -0.1816374659538269,
          -0.19733023643493652,
          0.1918657273054123,
          -0.1887989193201065,
          -0.09446486085653305,
          -0.035653069615364075,
          0.09255506098270416,
          0.07061968743801117,
          -0.15218481421470642,
          0.11106826364994049,
          -0.14073903858661652,
          0.043488696217536926,
          -0.13002914190292358,
          -0.06934952735900879,
          -0.19045382738113403,
          -0.10769489407539368,
          -0.13861286640167236,
          0.13077740371227264,
          0.18035145103931427,
          0.023057132959365845,
          0.019637808203697205,
          -0.17834655940532684,
          -0.19829201698303223,
          0.16353018581867218,
          0.11945261061191559,
          0.014400884509086609,
          -0.11589423567056656,
          0.15712331235408783
        ],
        [
          0.03272987902164459,
          -0.031246155500411987,
          0.03229673206806183,
          0.14082996547222137,
          -0.16875781118869781,
          0.17144449055194855,
          0.08623196184635162,
          0.013960078358650208,
          -0.01692916452884674,
          0.19950036704540253,
          -0.1670989692211151,
          0.205313041806221,
          -0.0656217634677887,
          -0.078155517578125,
          -0.03619349002838135,
          -0.20249059796333313,
          0.16791696846485138,
          0.17277579009532928,
          0.12884284555912018,
          0.032787784934043884,
          0.17110218107700348,
          -0.013623014092445374,
          0.18350474536418915,
          -0.0084761381149292,
          -0.08853862434625626,
          0.044460609555244446,
          0.09935756027698517,
          0.13181568682193756,
          -0.058718353509902954,
          0.10596974194049835,
          -0.18567059934139252,
          -0.1320524513721466,
          0.2064342051744461,
          -0.007365792989730835,
          0.08125875890254974,
          -0.15335872769355774,
          0.03918859362602234,
          0.002523094415664673,
          -0.10667063295841217,
          -0.09314025193452835,
          -0.04863281548023224,
          0.010189130902290344,
          -0.09241411089897156,
          0.06405840814113617,
          0.06902109086513519,
          -0.12468625605106354,
          -0.16854868829250336,
          0.16222511231899261,
          0.16496498882770538,
          0.006425678730010986,
          0.03998832404613495,
          0.046867117285728455,
          0.10226194560527802,
          -0.14440011978149414,
          -0.02877044677734375,
          0.019619837403297424,
          -0.12623947858810425,
          -0.041089147329330444,
          0.2048003226518631,
          0.012559711933135986,
          -0.06937652826309204,
          -0.012260407209396362,
          -0.1724933683872223,
          -0.10667181760072708,
          0.140955850481987,
          -0.15273627638816833,
          -0.065580353140831,
          -0.15915682911872864,
          -0.0522647351026535,
          -0.19126811623573303,
          -0.18480448424816132,
          -0.14681512117385864,
          0.09724198281764984,
          -0.12830661237239838,
          -0.1900477111339569,
          0.030360683798789978,
          -0.038155242800712585,
          -0.03897610306739807,
          0.10308338701725006,
          0.13126321136951447,
          -0.020898237824440002,
          0.19775046408176422,
          -0.033089205622673035,
          0.18923263251781464,
          0.1038600355386734,
          -0.1998993307352066,
          0.11266182363033295,
          -0.024661928415298462,
          -0.010312080383300781,
          -0.1721525639295578,
          -0.02190631628036499,
          0.07865531742572784,
          0.1427319496870041,
          -0.016623899340629578,
          -0.06073310971260071,
          -0.014057368040084839,
          -0.19766674935817719,
          0.17509771883487701,
          0.19656045734882355,
          -0.06462651491165161,
          -0.1587790995836258,
          -0.06372500956058502,
          -0.10014164447784424,
          0.005068302154541016,
          -0.09752580523490906,
          0.17793695628643036,
          0.20081250369548798,
          0.041492387652397156,
          -0.04342043399810791,
          0.03149501979351044,
          0.10212688148021698,
          -0.0363302081823349,
          0.18263493478298187,
          0.08334194123744965,
          -0.041387900710105896,
          -0.18675477802753448,
          0.0730213075876236,
          -0.150945246219635,
          0.14164043962955475,
          -0.026384562253952026,
          -0.13435223698616028,
          0.06985695660114288,
          -0.004824578762054443,
          0.01384088397026062,
          0.18654589354991913,
          0.010028675198554993,
          0.19672934710979462,
          -0.1443624496459961
        ],
        [
          0.10119245946407318,
          0.062403514981269836,
          0.1542430967092514,
          0.03560224175453186,
          -0.07679878175258636,
          0.08739189803600311,
          0.020043671131134033,
          0.16635845601558685,
          0.005113169550895691,
          0.17761863768100739,
          0.19370226562023163,
          -0.11810287833213806,
          0.14158572256565094,
          0.08642838895320892,
          -0.039706841111183167,
          -0.15261811017990112,
          -0.1371864378452301,
          0.1786954253911972,
          0.1839723140001297,
          -0.13925693929195404,
          -0.03452131152153015,
          -0.07238519191741943,
          -0.013155609369277954,
          -0.039909347891807556,
          0.05990158021450043,
          0.20015092194080353,
          -0.03622478246688843,
          0.14465110003948212,
          -0.13955974578857422,
          0.044507935643196106,
          -0.017071813344955444,
          0.12312714755535126,
          -0.1994420439004898,
          0.19968773424625397,
          0.035769760608673096,
          0.13912643492221832,
          -0.1690550446510315,
          0.193946972489357,
          -0.05066180229187012,
          0.021500304341316223,
          0.05959005653858185,
          -0.06796036660671234,
          0.1610455960035324,
          -0.16972467303276062,
          0.10612325370311737,
          0.0907709151506424,
          -0.13195012509822845,
          0.01890707015991211,
          -0.03911145031452179,
          -0.1951517015695572,
          -0.02268502116203308,
          0.18936826288700104,
          -0.1930011510848999,
          0.047296419739723206,
          -0.10029242932796478,
          -0.11447762697935104,
          0.0015503615140914917,
          0.06290440261363983,
          0.009281694889068604,
          -0.1899804323911667,
          0.0446467250585556,
          0.09533043205738068,
          0.07101340591907501,
          0.11991773545742035,
          0.09376014769077301,
          0.1391628533601761,
          -0.14313241839408875,
          -0.20648612082004547,
          0.011926651000976562,
          0.09321527183055878,
          -0.18200354278087616,
          -0.016568660736083984,
          0.1747296005487442,
          0.019176408648490906,
          -0.014801323413848877,
          -0.11500797420740128,
          0.1697492152452469,
          -0.013245627284049988,
          0.1378248780965805,
          -0.06665633618831635,
          0.152740016579628,
          0.12218748033046722,
          0.08276994526386261,
          0.1522916704416275,
          -0.17064034938812256,
          -0.12583598494529724,
          0.1376732438802719,
          -0.19479559361934662,
          0.047485992312431335,
          -0.06909681856632233,
          -0.17101112008094788,
          0.021296903491020203,
          0.16959290206432343,
          -0.05123044550418854,
          -0.059718966484069824,
          0.03393474221229553,
          0.07976149022579193,
          -0.2036564201116562,
          0.19889752566814423,
          -0.11490757763385773,
          -0.10501503944396973,
          -0.1224977970123291,
          0.12278847396373749,
          -0.12000332772731781,
          -0.05196329951286316,
          0.19567029178142548,
          0.19174866378307343,
          -0.1588660627603531,
          0.1661207526922226,
          0.19773070514202118,
          0.142365500330925,
          -0.06675633788108826,
          0.13742800056934357,
          0.028929471969604492,
          -0.08985147625207901,
          -0.004131749272346497,
          -0.06933481991291046,
          0.14695115387439728,
          -0.19379748404026031,
          -0.03199194371700287,
          0.11601512134075165,
          0.07621245086193085,
          -0.13950896263122559,
          -0.01702013611793518,
          -0.15595798194408417,
          -0.17735211551189423,
          0.0034365057945251465,
          -0.18014514446258545
        ],
        [
          0.11814834177494049,
          0.10885919630527496,
          -0.1788465529680252,
          -0.08672982454299927,
          -0.1936964988708496,
          -0.006440192461013794,
          -0.07689137756824493,
          0.06437341868877411,
          0.1514037400484085,
          -0.19036072492599487,
          -0.03171214461326599,
          -0.16701604425907135,
          0.20353330671787262,
          -0.006959885358810425,
          -0.09948894381523132,
          -0.13291560113430023,
          0.07509304583072662,
          -0.08398377895355225,
          -0.20335528254508972,
          -0.07402485609054565,
          -0.055703356862068176,
          0.011845067143440247,
          0.08417125046253204,
          -0.13465595245361328,
          -0.043676361441612244,
          0.02694210410118103,
          -0.013215869665145874,
          0.15143980085849762,
          -0.17370885610580444,
          -0.16617292165756226,
          0.03851228952407837,
          0.03680868446826935,
          -0.06638704240322113,
          -0.08199156820774078,
          0.07335101068019867,
          -0.1582004725933075,
          0.03438790142536163,
          -0.12638212740421295,
          -0.15040932595729828,
          0.005401119589805603,
          0.16571448743343353,
          -0.2061976194381714,
          -0.13849183917045593,
          -0.14309363067150116,
          -0.14654499292373657,
          -0.20440447330474854,
          0.2004169374704361,
          -0.12625044584274292,
          -0.04904954135417938,
          0.07317911088466644,
          -0.20507138967514038,
          0.17411793768405914,
          0.1475854367017746,
          -0.14282704889774323,
          0.10142014920711517,
          -0.13703733682632446,
          -0.18400909006595612,
          -0.010997459292411804,
          0.14786984026432037,
          0.1625947207212448,
          0.0365518182516098,
          -0.1514018476009369,
          -0.11751507967710495,
          -0.018629685044288635,
          0.19956524670124054,
          -0.16268068552017212,
          -0.05476394295692444,
          -0.06978525221347809,
          -0.1067194938659668,
          0.003537192940711975,
          -0.14809051156044006,
          0.06519560515880585,
          0.0779266506433487,
          0.027052804827690125,
          0.13041003048419952,
          -0.11134027689695358,
          -0.20557819306850433,
          0.1896810680627823,
          -0.10547450184822083,
          -0.13666123151779175,
          -0.12568801641464233,
          -0.016687124967575073,
          -0.1594579517841339,
          0.030928537249565125,
          0.1024789959192276,
          0.010404974222183228,
          -0.14230316877365112,
          -0.1484730839729309,
          -0.030324846506118774,
          0.10986237227916718,
          0.07132415473461151,
          -0.01637721061706543,
          -0.19280056655406952,
          0.10094182193279266,
          0.013304471969604492,
          -0.10535402595996857,
          -0.025705203413963318,
          0.17099927365779877,
          0.08651255071163177,
          0.16586236655712128,
          0.04522441327571869,
          -0.14369866251945496,
          -0.018145084381103516,
          0.17640291154384613,
          -0.11411845684051514,
          0.013864085078239441,
          0.06783519685268402,
          0.009985536336898804,
          0.02728453278541565,
          -0.1008274108171463,
          -0.054734766483306885,
          0.08722849190235138,
          -0.16140367090702057,
          0.19001083076000214,
          0.10905034840106964,
          0.03639046847820282,
          0.1532249003648758,
          -0.06509546935558319,
          -0.09584725648164749,
          -0.1262856274843216,
          0.12037055194377899,
          -0.16179339587688446,
          -0.1037321388721466,
          0.08686141669750214,
          0.05938570201396942,
          0.10851703584194183,
          0.047753021121025085,
          0.06397391855716705
        ],
        [
          -0.10324863344430923,
          0.13391612470149994,
          0.00010532140731811523,
          0.20613346993923187,
          0.14181269705295563,
          -0.02623327076435089,
          0.019015014171600342,
          0.20083080232143402,
          0.11121146380901337,
          -0.1384969800710678,
          0.12400601804256439,
          -0.17598111927509308,
          -0.19040288031101227,
          -0.05691686272621155,
          -0.19670329988002777,
          0.0544327050447464,
          -0.1653190404176712,
          -0.06378878653049469,
          0.03327356278896332,
          -0.1263512670993805,
          -0.13032129406929016,
          0.05273847281932831,
          0.005596131086349487,
          0.09534727036952972,
          0.15067486464977264,
          -0.08125758171081543,
          0.0755506306886673,
          -0.14979784190654755,
          -0.050929903984069824,
          -0.10218014568090439,
          -0.05276995897293091,
          0.010391786694526672,
          0.1775297373533249,
          -0.06081084907054901,
          0.01820427179336548,
          0.023250862956047058,
          -0.11441519111394882,
          0.1531817764043808,
          0.060481056571006775,
          0.19058583676815033,
          -0.1804618239402771,
          -0.08469244837760925,
          -0.047443896532058716,
          0.05772112309932709,
          -0.09473893791437149,
          -0.0820392444729805,
          -0.01139172911643982,
          -0.08504308760166168,
          -0.00514964759349823,
          -0.012439727783203125,
          -0.09140534698963165,
          0.16811691224575043,
          0.09300462901592255,
          -0.05225786566734314,
          0.11792735755443573,
          -0.15676797926425934,
          -0.013439908623695374,
          0.06406630575656891,
          0.1663898080587387,
          0.11602054536342621,
          0.014201939105987549,
          0.17324115335941315,
          -0.16033078730106354,
          0.17716927826404572,
          0.08982913196086884,
          -0.08040596544742584,
          -0.16517788171768188,
          -0.04658651351928711,
          0.024852409958839417,
          0.13929568231105804,
          0.11796323955059052,
          -0.09160573780536652,
          0.05232934653759003,
          -0.012775599956512451,
          0.04687748849391937,
          0.11013384163379669,
          -2.22623348236084e-05,
          -0.12174031138420105,
          -0.0015204548835754395,
          -0.1008848175406456,
          0.15853755176067352,
          -0.04863746464252472,
          0.05261047184467316,
          -0.058656349778175354,
          0.14941753447055817,
          0.04879535734653473,
          -0.05072443187236786,
          -0.17390120029449463,
          -0.022255465388298035,
          -0.0276431143283844,
          -0.057076871395111084,
          -0.1486327052116394,
          0.075990691781044,
          -0.027179956436157227,
          -0.08477088063955307,
          0.1401384025812149,
          -0.06691290438175201,
          0.16977907717227936,
          0.09181605279445648,
          0.13977102935314178,
          0.046955570578575134,
          0.15020789206027985,
          0.024267420172691345,
          -0.07276001572608948,
          -0.03013211488723755,
          0.1525939255952835,
          0.18630750477313995,
          -0.08967453241348267,
          -0.03729766607284546,
          -0.15963707864284515,
          0.07452346384525299,
          -0.1672654002904892,
          0.11972619593143463,
          -0.014367133378982544,
          -0.13384801149368286,
          -0.016431644558906555,
          0.056760743260383606,
          -0.04882773756980896,
          -0.14557328820228577,
          0.1341630071401596,
          -0.12078717350959778,
          0.14720045030117035,
          0.17751963436603546,
          0.1271294504404068,
          -0.1280384063720703,
          -0.20230920612812042,
          -0.13944390416145325,
          -0.19935359060764313
        ],
        [
          0.07489649951457977,
          -0.0093764066696167,
          0.12308476865291595,
          -0.0016063898801803589,
          -0.016690582036972046,
          -0.18636742234230042,
          -0.06560923159122467,
          -0.18605193495750427,
          0.10342608392238617,
          -0.038124144077301025,
          -0.1430346965789795,
          0.13777358829975128,
          0.08792410790920258,
          0.09747777879238129,
          -0.11066072434186935,
          0.17747722566127777,
          0.05580393970012665,
          -0.154075488448143,
          0.09393693506717682,
          -0.14115378260612488,
          0.1461162120103836,
          -0.1530918926000595,
          0.16969166696071625,
          -0.0626719743013382,
          -0.06703867018222809,
          -0.039171457290649414,
          0.1355210393667221,
          0.18117700517177582,
          -0.015680238604545593,
          0.184511199593544,
          -0.06347964704036713,
          0.04250746965408325,
          0.08251915872097015,
          -0.15689748525619507,
          0.11110098659992218,
          -0.10687556117773056,
          -0.012259915471076965,
          -0.09244821220636368,
          -0.0439123809337616,
          0.17436693608760834,
          0.09011371433734894,
          -0.18328575789928436,
          -0.008164241909980774,
          0.16122864186763763,
          0.008552446961402893,
          -0.07929956912994385,
          0.16336847841739655,
          0.16337721049785614,
          0.03502470254898071,
          -0.08891817927360535,
          -0.16283784806728363,
          0.1670810431241989,
          0.022209957242012024,
          0.14969788491725922,
          -0.1041109561920166,
          -0.07687252759933472,
          -0.030812889337539673,
          0.013613000512123108,
          0.027613699436187744,
          0.127640500664711,
          0.1989685446023941,
          0.18788571655750275,
          -0.0864589512348175,
          -0.18864013254642487,
          -0.034347325563430786,
          0.17373980581760406,
          0.13300655782222748,
          0.19865967333316803,
          0.05725683271884918,
          -0.13596811890602112,
          0.15096957981586456,
          0.033534854650497437,
          0.024556949734687805,
          0.12735332548618317,
          0.0821220725774765,
          -0.13351376354694366,
          0.16937176883220673,
          0.026914745569229126,
          0.2068563550710678,
          0.030205905437469482,
          -0.04309363663196564,
          0.06622229516506195,
          -0.0838911309838295,
          -0.11768314242362976,
          -0.024038806557655334,
          0.1391303390264511,
          -0.20443867146968842,
          0.12424959242343903,
          -0.063494011759758,
          0.12998472154140472,
          0.04480169713497162,
          -0.1742667406797409,
          -0.12008896470069885,
          -0.03540407121181488,
          0.0683504194021225,
          -0.06732626259326935,
          -0.13758692145347595,
          -0.09655306488275528,
          0.003034248948097229,
          -0.05714207887649536,
          -0.131308913230896,
          0.1045716255903244,
          0.09804864227771759,
          0.010014161467552185,
          0.19085510075092316,
          -0.19152165949344635,
          0.16138891875743866,
          -0.050443291664123535,
          -0.028627052903175354,
          -0.06851449608802795,
          -0.1579264998435974,
          -0.19967707991600037,
          -0.027568146586418152,
          0.016804352402687073,
          0.07589875161647797,
          -0.008851245045661926,
          0.16797535121440887,
          0.16081099212169647,
          -0.12974345684051514,
          0.18436233699321747,
          -0.13911879062652588,
          0.011038124561309814,
          0.14069347083568573,
          0.1342259794473648,
          0.19125919044017792,
          -0.1384108066558838,
          0.04598464071750641,
          -0.08781306445598602
        ],
        [
          0.20490969717502594,
          0.17884866893291473,
          -0.04055805504322052,
          -0.14375433325767517,
          0.17507825791835785,
          0.18256469070911407,
          -0.092256560921669,
          -0.011114031076431274,
          0.029600679874420166,
          0.10486771166324615,
          -0.11631110310554504,
          -0.12471602112054825,
          -0.003973960876464844,
          -0.08222216367721558,
          -0.07118181884288788,
          0.17961223423480988,
          0.08826275169849396,
          -0.20273634791374207,
          0.17380036413669586,
          -0.12773752212524414,
          0.037865862250328064,
          0.20214326679706573,
          0.02954515814781189,
          -0.10077933967113495,
          -0.06958919763565063,
          -0.021917909383773804,
          0.0773322731256485,
          0.07651378214359283,
          0.10590924322605133,
          -0.01494811475276947,
          -0.17985665798187256,
          -0.09986410290002823,
          -0.03338855504989624,
          -0.020172148942947388,
          0.15410743653774261,
          -0.0932355597615242,
          -0.04613257944583893,
          -0.04319778084754944,
          0.10453952848911285,
          0.033010780811309814,
          -0.04800952970981598,
          -0.12127191573381424,
          0.04849620163440704,
          -0.17917399108409882,
          -0.11926735937595367,
          -0.12193892896175385,
          -0.08447887748479843,
          -0.20046788454055786,
          -0.166839599609375,
          -0.03052183985710144,
          -0.0055507272481918335,
          0.06950272619724274,
          0.008930563926696777,
          -0.04000057280063629,
          0.021502912044525146,
          -0.12474340945482254,
          -0.11848470568656921,
          -0.13499701023101807,
          -0.18740077316761017,
          -0.1732867956161499,
          -0.16393688321113586,
          -0.17840199172496796,
          0.04649968445301056,
          -0.03109961748123169,
          0.0391705185174942,
          0.10101009905338287,
          -0.10576353967189789,
          0.023732393980026245,
          -0.16904191672801971,
          -0.011389851570129395,
          -0.16172824800014496,
          0.16428722441196442,
          0.17205660045146942,
          0.187092587351799,
          0.005793362855911255,
          -0.07137548923492432,
          -0.1958727091550827,
          0.1840680092573166,
          -0.1941845864057541,
          0.14859525859355927,
          -0.02796521782875061,
          -0.09426411986351013,
          -0.11225911229848862,
          0.028356924653053284,
          0.11318279802799225,
          -0.12534847855567932,
          -0.18706563115119934,
          0.0012275129556655884,
          -0.08473005890846252,
          0.11576662957668304,
          -0.18176209926605225,
          -0.16683396697044373,
          0.10356052219867706,
          -0.15470626950263977,
          -0.07114583253860474,
          0.1611035317182541,
          -0.1539115309715271,
          0.08131773769855499,
          -0.17951790988445282,
          0.19614337384700775,
          -0.039859458804130554,
          0.17034904658794403,
          0.03947219252586365,
          -0.11373011022806168,
          0.13708703219890594,
          -0.01785130798816681,
          -0.062383681535720825,
          -0.003045305609703064,
          0.16765473783016205,
          -0.029869824647903442,
          -0.022336319088935852,
          0.12631233036518097,
          0.14879421889781952,
          0.06931601464748383,
          0.12433122098445892,
          -0.09435079246759415,
          0.16139380633831024,
          0.06934647262096405,
          -0.02427162230014801,
          0.04434026777744293,
          0.07180120050907135,
          -0.16477635502815247,
          0.05543871223926544,
          -0.02525906264781952,
          -0.06286229193210602,
          -0.2046823501586914,
          0.007301926612854004,
          -0.17516301572322845
        ],
        [
          -0.12183582037687302,
          -0.009108051657676697,
          0.007949784398078918,
          -0.1428915560245514,
          -0.05432683229446411,
          0.19165261089801788,
          -0.13944119215011597,
          0.18860884010791779,
          0.04035806655883789,
          0.16964603960514069,
          0.033005937933921814,
          0.14254693686962128,
          -0.15276667475700378,
          0.15423087775707245,
          0.16860125958919525,
          -0.009703800082206726,
          0.14179803431034088,
          0.057079240679740906,
          -0.036003902554512024,
          -0.0436987578868866,
          -0.12138064950704575,
          0.09844256937503815,
          -0.13321930170059204,
          0.027312874794006348,
          -0.009216994047164917,
          -0.03782786428928375,
          0.1739557832479477,
          -0.182980477809906,
          0.17315204441547394,
          -0.11909234523773193,
          0.19218336045742035,
          -0.13211053609848022,
          0.10017935931682587,
          -0.024968549609184265,
          -0.17554257810115814,
          -0.09767772257328033,
          -0.024786457419395447,
          -0.08050037920475006,
          0.028233826160430908,
          -0.16782185435295105,
          -0.08305802941322327,
          0.19771622121334076,
          0.09240104258060455,
          0.04785652458667755,
          -0.06212444603443146,
          0.12271414697170258,
          0.012065649032592773,
          0.007354840636253357,
          -0.06788089871406555,
          -0.001535847783088684,
          0.15726254880428314,
          0.15133048593997955,
          0.045520439743995667,
          0.07238508760929108,
          -0.15217173099517822,
          0.19302915036678314,
          -0.14207419753074646,
          0.060396358370780945,
          0.05628956854343414,
          -0.1291532814502716,
          -0.19870533049106598,
          -0.09614182263612747,
          0.04026009142398834,
          0.15173353254795074,
          -0.020491987466812134,
          -0.023618221282958984,
          -0.08305082470178604,
          0.183570995926857,
          0.11842058598995209,
          -0.014174148440361023,
          -0.13332846760749817,
          0.1498381644487381,
          0.0011870861053466797,
          0.11532460153102875,
          -0.058981820940971375,
          -0.13613083958625793,
          0.14592166244983673,
          -0.14865511655807495,
          0.1968155950307846,
          0.09273459017276764,
          -0.06463643908500671,
          -0.10019885003566742,
          -0.18197980523109436,
          -0.15637844800949097,
          -0.03586407005786896,
          -0.18071728944778442,
          0.1037941724061966,
          -0.11329690366983414,
          -0.17687690258026123,
          0.17711015045642853,
          0.18071340024471283,
          0.1681801825761795,
          0.1854354590177536,
          0.14279614388942719,
          -0.11911702156066895,
          0.2011859267950058,
          -0.062498971819877625,
          0.06861893832683563,
          -0.2064313292503357,
          -0.17325930297374725,
          -0.16478702425956726,
          -0.1719762086868286,
          0.09413950145244598,
          -0.027689814567565918,
          -0.19439677894115448,
          0.19528783857822418,
          0.10872645676136017,
          0.13105128705501556,
          -0.17109942436218262,
          -0.1531199812889099,
          -0.1860177367925644,
          0.18785889446735382,
          0.04410417377948761,
          0.1485791653394699,
          0.049050137400627136,
          0.07301633059978485,
          0.06886808574199677,
          -0.06440135836601257,
          -0.17915666103363037,
          -0.17832233011722565,
          -0.13064339756965637,
          -0.17188410460948944,
          -0.027204975485801697,
          0.035381704568862915,
          0.11466391384601593,
          0.1678713709115982,
          -0.14054995775222778,
          -0.12891361117362976
        ],
        [
          0.1490313559770584,
          -0.014717966318130493,
          0.013782933354377747,
          -0.18494781851768494,
          0.11653245985507965,
          -0.024475112557411194,
          0.19158779084682465,
          0.0028467774391174316,
          -0.024992182850837708,
          -0.1450960636138916,
          -0.05378207564353943,
          -0.10948039591312408,
          -0.11904599517583847,
          0.050397589802742004,
          -0.016591757535934448,
          0.1354243904352188,
          0.14474664628505707,
          0.12050469219684601,
          0.07361052930355072,
          -0.09296039491891861,
          -0.06676694750785828,
          0.17868970334529877,
          0.18657101690769196,
          -0.005746379494667053,
          -0.09903796017169952,
          0.18645305931568146,
          0.08875046670436859,
          -0.10175024718046188,
          -0.07541657984256744,
          0.13838984072208405,
          -0.20694750547409058,
          -0.07998307049274445,
          -0.10361965745687485,
          0.10885746777057648,
          0.07878683507442474,
          -0.055486083030700684,
          -0.19992199540138245,
          -0.0716789960861206,
          -0.10117138177156448,
          0.05255381762981415,
          -0.18713681399822235,
          0.14085493981838226,
          0.03471779823303223,
          -0.19843998551368713,
          0.03075563907623291,
          -0.17211362719535828,
          0.18608741462230682,
          -0.16224339604377747,
          0.18328742682933807,
          0.07963337004184723,
          0.060473158955574036,
          0.02936623990535736,
          0.1323690563440323,
          -0.009208694100379944,
          -0.0177060067653656,
          -0.20095829665660858,
          -0.06189049780368805,
          0.08920668065547943,
          -0.0312887579202652,
          0.1780894547700882,
          0.09266559779644012,
          -0.12811096012592316,
          -0.002139732241630554,
          0.1648413985967636,
          0.012989461421966553,
          -0.14932869374752045,
          -0.03467299044132233,
          -0.19548387825489044,
          -0.048158198595047,
          0.03962051868438721,
          0.14720933139324188,
          -0.16228963434696198,
          0.1450800746679306,
          0.045114174485206604,
          -0.18958887457847595,
          0.14061595499515533,
          0.13563929498195648,
          -0.13691601157188416,
          0.1091919094324112,
          -0.034495994448661804,
          -0.023340940475463867,
          0.19849322736263275,
          0.02074854075908661,
          -0.049544647336006165,
          -0.11529592424631119,
          -0.15211324393749237,
          -0.10097281634807587,
          0.06550814211368561,
          0.1960083395242691,
          -0.017373934388160706,
          0.14964328706264496,
          0.03240284323692322,
          -0.18443681299686432,
          -0.17800959944725037,
          0.06276418268680573,
          -0.1300821453332901,
          -0.11951340734958649,
          0.11102493107318878,
          -0.1967039406299591,
          0.16086344420909882,
          -0.04285721480846405,
          -0.14009496569633484,
          -0.18348442018032074,
          -0.12164530158042908,
          -0.007340282201766968,
          0.17520709335803986,
          0.026806414127349854,
          0.20677737891674042,
          0.1061660498380661,
          -0.015554919838905334,
          0.19208161532878876,
          -0.05949603021144867,
          -0.18668049573898315,
          -0.0034978538751602173,
          -0.1043258085846901,
          -0.10437210649251938,
          0.05513407289981842,
          -0.09536464512348175,
          -0.08482818305492401,
          -0.03705422580242157,
          -0.03734889626502991,
          -0.05425673723220825,
          0.09533704817295074,
          -0.14804363250732422,
          0.02837701141834259,
          0.10281072556972504,
          -0.017562136054039,
          0.05742202699184418
        ],
        [
          0.09907595813274384,
          -0.10571398586034775,
          0.1725417822599411,
          -0.09839913249015808,
          -0.1551256626844406,
          0.011134028434753418,
          0.05265025794506073,
          0.08777259290218353,
          0.1313241869211197,
          0.0076866596937179565,
          -0.12598060071468353,
          0.0766589492559433,
          -0.19406938552856445,
          0.1901109367609024,
          -0.06524096429347992,
          0.16188381612300873,
          -0.15439146757125854,
          -0.05534176528453827,
          -0.05975021421909332,
          0.1705329567193985,
          0.15994571149349213,
          0.029642432928085327,
          -0.16492754220962524,
          -0.02586822211742401,
          0.00590689480304718,
          0.1249905377626419,
          -0.17541109025478363,
          0.0600421279668808,
          0.18468226492404938,
          -0.06639508903026581,
          -0.11850518733263016,
          -0.0339120477437973,
          0.04793880879878998,
          0.0508338063955307,
          -0.052126675844192505,
          -0.10208138823509216,
          -0.04056520760059357,
          0.10571981966495514,
          0.021355390548706055,
          -0.13844481110572815,
          0.15319706499576569,
          0.1650935262441635,
          -0.02100031077861786,
          0.10947401821613312,
          0.15234191715717316,
          -0.013133153319358826,
          0.1245405524969101,
          -0.13118493556976318,
          0.09530417621135712,
          -0.09523937106132507,
          0.08923618495464325,
          0.09329123795032501,
          -0.11027924716472626,
          0.15282313525676727,
          0.007063969969749451,
          -0.04313609004020691,
          0.1779579371213913,
          0.171672061085701,
          0.16374365985393524,
          0.09367223083972931,
          -0.08167365193367004,
          0.06883813440799713,
          -0.038873493671417236,
          -0.05905576050281525,
          0.03798358142375946,
          0.10798980295658112,
          0.01703830063343048,
          -0.19533881545066833,
          -0.07955425977706909,
          0.10210265219211578,
          -0.09528473019599915,
          0.19708286225795746,
          -0.1325199007987976,
          -0.14580038189888,
          0.1862465888261795,
          -0.1756712943315506,
          0.15615229308605194,
          -0.05130152404308319,
          0.17666850984096527,
          0.18432022631168365,
          0.13667456805706024,
          0.008684813976287842,
          0.1645674854516983,
          -0.09265314787626266,
          -0.20125286281108856,
          -0.1127467155456543,
          -0.04181854426860809,
          -0.06206335127353668,
          -0.1368606835603714,
          -0.18790371716022491,
          0.01571725308895111,
          0.17986799776554108,
          0.025664672255516052,
          0.04656599462032318,
          -0.1558026522397995,
          -0.0759773701429367,
          0.12525402009487152,
          0.1657833307981491,
          -0.027923569083213806,
          -0.18927733600139618,
          -0.08102396130561829,
          0.013466611504554749,
          0.1862485259771347,
          0.16229890286922455,
          0.11781339347362518,
          0.19283427298069,
          0.0442662388086319,
          0.057554587721824646,
          -0.1720142662525177,
          -0.04340331256389618,
          0.19696389138698578,
          0.04601575434207916,
          0.0814526230096817,
          -0.026545122265815735,
          0.15183116495609283,
          -0.06547670066356659,
          -0.1974092572927475,
          0.16623477637767792,
          -0.03652961552143097,
          0.19305948913097382,
          0.09013824164867401,
          -0.1298716962337494,
          0.0392640084028244,
          0.007802307605743408,
          -0.0027129799127578735,
          0.20001749694347382,
          0.13918577134609222,
          -0.18832415342330933
        ]
      ],
      "bias": [
        0.0,
        0.0,
        0.0,
        0.0,
        0.0,
        0.0,
        0.0,
        0.0,
        0.0,
        0.0,
        0.0,
        0.0,
        0.0,
        0.0,
        0.0,
        0.0,
        0.0,
        0.0,
        0.0,
        0.0,
        0.0,
        0.0,
        0.0,
        0.0,
        0.0,
        0.0,
        0.0,
        0.0,
        0.0,
        0.0,
        0.0,
        0.0,
        0.0,
        0.0,
        0.0,
        0.0,
        0.0,
        0.0,
        0.0,
        0.0,
        0.0,
        0.0,
        0.0,
        0.0,
        0.0,
        0.0,
        0.0,
        0.0,
        0.0,
        0.0,
        0.0,
        0.0,
        0.0,
        0.0,
        0.0,
        0.0,
        0.0,
        0.0,
        0.0,
        0.0,
        0.0,
        0.0,
        0.0,
        0.0,
        0.0,
        0.0,
        0.0,
        0.0,
        0.0,
        0.0,
        0.0,
        0.0,
        0.0,
        0.0,
        0.0,
        0.0,
        0.0,
        0.0,
        0.0,
        0.0,
        0.0,
        0.0,
        0.0,
        0.0,
        0.0,
        0.0,
        0.0,
        0.0,
        0.0,
        0.0,
        0.0,
        0.0,
        0.0,
        0.0,
        0.0,
        0.0,
        0.0,
        0.0,
        0.0,
        0.0,
        0.0,
        0.0,
        0.0,
        0.0,
        0.0,
        0.0,
        0.0,
        0.0,
        0.0,
        0.0,
        0.0,
        0.0,
        0.0,
        0.0,
        0.0,
        0.0,
        0.0,
        0.0,
        0.0,
        0.0,
        0.0,
        0.0,
        0.0,
        0.0,
        0.0,
        0.0,
        0.0,
        0.0
      ]
    },
    {
      "name": "dense_2",
      "weights": [
        [
          -0.20034092664718628,
          0.031393036246299744,
          0.04374091327190399,
          0.05386117100715637,
          0.021136373281478882,
          -0.20117191970348358,
          -0.15049336850643158,
          0.008023440837860107,
          -0.16799791157245636,
          -0.16821321845054626,
          0.04213792085647583,
          -0.15467892587184906,
          -0.10487721860408783,
          -0.1664353609085083,
          -0.0751459151506424,
          0.0672692060470581
        ],
        [
          -0.061424702405929565,
          0.028784871101379395,
          -0.11889238655567169,
          -0.18252865970134735,
          -0.045666664838790894,
          0.13253599405288696,
          0.17661824822425842,
          0.16403335332870483,
          0.11114168167114258,
          0.00962856411933899,
          -0.03236690163612366,
          0.19097593426704407,
          0.18828129768371582,
          0.17005667090415955,
          -0.10709088295698166,
          0.08375468850135803
        ],
        [
          0.11769616603851318,
          -0.16175758838653564,
          -0.04381309449672699,
          -0.12120182812213898,
          0.19784387946128845,
          -0.07336641848087311,
          0.1921386420726776,
          -0.025722980499267578,
          0.04976049065589905,
          0.12751919031143188,
          0.026004329323768616,
          -0.1965646594762802,
          0.034286677837371826,
          0.06074291467666626,
          0.09262895584106445,
          0.12158560752868652
        ],
        [
          0.09547671675682068,
          0.007175952196121216,
          0.03450216352939606,
          -0.1650959551334381,
          0.019214317202568054,
          0.12552767992019653,
          0.016388848423957825,
          -0.17567241191864014,
          0.15371546149253845,
          -0.18808209896087646,
          -0.061673879623413086,
          0.10613623261451721,
          -0.002447858452796936,
          -0.1371993124485016,
          -0.08749151974916458,
          0.07714799046516418
        ],
        [
          0.026827439665794373,
          -0.028149321675300598,
          -0.20338188111782074,
          0.023154541850090027,
          0.14832505583763123,
          -0.1938602328300476,
          -0.009446948766708374,
          -0.19982564449310303,
          0.09445801377296448,
          -0.10733602195978165,
          0.1807658076286316,
          0.06776964664459229,
          -0.04412101209163666,
          0.11436504125595093,
          -0.019061356782913208,
          0.01636086404323578
        ],
        [
          0.017090871930122375,
          -0.1655009537935257,
          -0.12586617469787598,
          -0.18329750001430511,
          -0.0045552849769592285,
          -0.09484369307756424,
          0.060021668672561646,
          -0.028755128383636475,
          -0.1502150446176529,
          -0.030554845929145813,
          0.18056470155715942,
          -0.004149883985519409,
          -0.14301978051662445,
          0.14289811253547668,
          -0.12376521527767181,
          -0.007823213934898376
        ],
        [
          -0.17761792242527008,
          0.14491140842437744,
          -0.07063677906990051,
          0.20213285088539124,
          0.17323434352874756,
          -0.02874857187271118,
          0.13364669680595398,
          -0.12489351630210876,
          -0.12446290999650955,
          -0.09859737753868103,
          -0.17734675109386444,
          -0.15345481038093567,
          0.17636168003082275,
          0.06400322914123535,
          0.12480303645133972,
          -0.07197599112987518
        ],
        [
          0.09021809697151184,
          0.003371790051460266,
          0.19946804642677307,
          -0.11822662502527237,
          0.16758054494857788,
          0.18877512216567993,
          -0.11357805132865906,
          -0.056068554520606995,
          -0.010442674160003662,
          -0.064530149102211,
          0.1959536373615265,
          0.07089155912399292,
          -0.023451849818229675,
          0.01644851267337799,
          0.03134119510650635,
          -0.0690537840127945
        ],
        [
          0.07038760185241699,
          -0.18913787603378296,
          -0.1220536008477211,
          0.14363965392112732,
          0.1829950511455536,
          0.09198129177093506,
          -0.10306894779205322,
          -0.09479404985904694,
          -0.19000615179538727,
          -0.030075088143348694,
          -0.11065759509801865,
          -0.02510608732700348,
          0.04372364282608032,
          0.027909591794013977,
          0.024964705109596252,
          -0.002731725573539734
        ],
        [
          -0.19299927353858948,
          0.02617812156677246,
          0.12827295064926147,
          0.17634767293930054,
          0.031808897852897644,
          -0.1234140396118164,
          -0.00433175265789032,
          -0.140438973903656,
          0.1272958517074585,
          -0.15988975763320923,
          -0.08164559304714203,
          -0.001520603895187378,
          0.12158513069152832,
          -0.12865956127643585,
          -0.019836172461509705,
          -0.07007764279842377
        ],
        [
          0.16321077942848206,
          -0.1227419450879097,
          -0.0399453341960907,
          0.0212763249874115,
          0.19316890835762024,
          -0.16389727592468262,
          0.18604052066802979,
          0.08891800045967102,
          0.15484774112701416,
          0.04279784858226776,
          0.03854212164878845,
          -0.10077055543661118,
          -0.011285439133644104,
          -0.14588616788387299,
          0.10702446103096008,
          -0.11918492615222931
        ],
        [
          0.11881822347640991,
          -0.08574631810188293,
          -0.08666043728590012,
          -0.16757996380329132,
          0.0037641972303390503,
          -0.15557965636253357,
          -0.10135859251022339,
          -0.1383076012134552,
          0.051810383796691895,
          -0.10430212318897247,
          -0.028868377208709717,
          -0.16176776587963104,
          0.18684256076812744,
          -0.04420320689678192,
          -0.1796148717403412,
          -0.00028201937675476074
        ],
        [
          -0.1983758509159088,
          0.002947181463241577,
          -0.1674536168575287,
          -0.1009373813867569,
          0.11077907681465149,
          -0.1391516774892807,
          -0.0023328065872192383,
          -0.10595071315765381,
          0.1403975486755371,
          -0.17155689001083374,
          -0.16168580949306488,
          0.06608524918556213,
          -0.004009082913398743,
          0.19970518350601196,
          0.05157741904258728,
          0.1024215817451477
        ],
        [
          -0.10534967482089996,
          0.0799638032913208,
          0.17868125438690186,
          0.09170952439308167,
          -0.13068322837352753,
          -0.04487510025501251,
          0.17845314741134644,
          0.17875263094902039,
          -0.1795101910829544,
          -0.2023671269416809,
          -0.1088365688920021,
          0.0858176052570343,
          0.18857407569885254,
          0.1461533010005951,
          -0.024703174829483032,
          -0.07045918703079224
        ],
        [
          0.14438599348068237,
          0.061217427253723145,
          -0.08261922746896744,
          -0.042219534516334534,
          -0.07243546843528748,
          -0.036137714982032776,
          -0.09388787299394608,
          -0.015371471643447876,
          0.07948175072669983,
          0.002292454242706299,
          0.08440783619880676,
          0.0015211403369903564,
          0.031096607446670532,
          0.14218807220458984,
          -0.19981995224952698,
          -0.18897786736488342
        ],
        [
          -0.14424604177474976,
          0.1353417932987213,
          -0.00040952861309051514,
          -0.03846143186092377,
          0.05927571654319763,
          -0.029720157384872437,
          0.11486116051673889,
          -0.15723885595798492,
          0.1458221673965454,
          -0.005120694637298584,
          0.15663248300552368,
          0.19912639260292053,
          0.13267478346824646,
          -0.12478985637426376,
          -0.1565944105386734,
          0.03723272681236267
        ],
        [
          -0.1476866900920868,
          0.02599814534187317,
          -0.03181512653827667,
          -0.005164742469787598,
          0.03463570773601532,
          0.15543249249458313,
          -0.09424518793821335,
          -0.1793132871389389,
          -0.11150887608528137,
          -0.04440605640411377,
          -0.08639135211706161,
          0.11315786838531494,
          -0.02554836869239807,
          0.19633126258850098,
          0.13957104086875916,
          -0.13919278979301453
        ],
        [
          0.021291375160217285,
          -0.19455909729003906,
          0.14957964420318604,
          0.19913309812545776,
          -0.13266713917255402,
          0.15298566222190857,
          -0.07857304811477661,
          0.02485699951648712,
          -0.05010382831096649,
          0.0370512455701828,
          -0.1827806532382965,
          -0.1529427319765091,
          -0.08711858838796616,
          -0.0685199648141861,
          0.1685173511505127,
          -0.13824602961540222
        ],
        [
          0.048302024602890015,
          0.08366405963897705,
          0.027006536722183228,
          -0.04413580894470215,
          0.008462995290756226,
          0.030815601348876953,
          0.10781058669090271,
          0.01740121841430664,
          -0.032283589243888855,
          -0.04179857671260834,
          -0.009128272533416748,
          -0.05116778612136841,
          -0.06373701989650726,
          -0.02621150016784668,
          -0.04787138104438782,
          0.19030171632766724
        ],
        [
          -0.020871028304100037,
          -0.0919298529624939,
          -0.10174598544836044,
          0.11419364809989929,
          0.06902250647544861,
          0.1372038722038269,
          0.014467090368270874,
          0.20214048027992249,
          -0.07038240134716034,
          0.18532106280326843,
          0.05356839299201965,
          0.07844257354736328,
          0.008508890867233276,
          -0.08976621180772781,
          0.027944043278694153,
          0.028943434357643127
        ],
        [
          0.09539791941642761,
          0.18972846865653992,
          0.20256972312927246,
          0.17045584321022034,
          0.07686951756477356,
          -0.1705806702375412,
          0.20406749844551086,
          0.203614741563797,
          -0.10963446646928787,
          -0.17109712958335876,
          -0.007500797510147095,
          0.0950007438659668,
          -0.19573016464710236,
          0.1455146074295044,
          0.10175037384033203,
          0.07859456539154053
        ],
        [
          0.11571171879768372,
          -0.17783108353614807,
          -0.03894980251789093,
          0.06739726662635803,
          -0.0882241502404213,
          -0.147455096244812,
          0.07312121987342834,
          0.06115713715553284,
          -0.13816651701927185,
          0.06001383066177368,
          0.19519498944282532,
          -0.02483193576335907,
          0.17050275206565857,
          -0.1400970220565796,
          0.06973722577095032,
          -0.18830913305282593
        ],
        [
          0.08566659688949585,
          0.12117993831634521,
          0.11300352215766907,
          -0.01735951006412506,
          0.09000322222709656,
          0.12125161290168762,
          0.2026769518852234,
          0.07918089628219604,
          0.15608292818069458,
          0.19441723823547363,
          0.19089087843894958,
          -0.025374427437782288,
          -0.039176106452941895,
          0.17599087953567505,
          0.07201060652732849,
          -0.035559698939323425
        ],
        [
          0.031268730759620667,
          0.06229117512702942,
          0.17190304398536682,
          0.09707808494567871,
          -0.12780550122261047,
          0.061264872550964355,
          -0.03158390522003174,
          -0.05266912281513214,
          0.09283667802810669,
          0.04807513952255249,
          0.05619776248931885,
          -0.06429649889469147,
          -0.05893231928348541,
          -0.017292842268943787,
          -0.20050396025180817,
          0.1266283094882965
        ],
        [
          -0.20177839696407318,
          0.14374375343322754,
          -0.09250621497631073,
          0.026384815573692322,
          0.15334811806678772,
          -0.03207238018512726,
          0.09791293740272522,
          0.14988741278648376,
          0.05151590704917908,
          -0.03998786211013794,
          0.1152975857257843,
          -0.1086907610297203,
          -0.016943171620368958,
          0.04758569598197937,
          -0.19968533515930176,
          -0.1773325353860855
        ],
        [
          -0.19715148210525513,
          -0.09536228328943253,
          0.081759512424469,
          -0.08439454436302185,
          -0.06048786640167236,
          0.1857297420501709,
          0.08418351411819458,
          -0.00956997275352478,
          -0.0856238305568695,
          0.07041674852371216,
          0.13322067260742188,
          0.012759506702423096,
          0.14492124319076538,
          -0.09638585150241852,
          0.15731951594352722,
          0.14541423320770264
        ],
        [
          0.1850108802318573,
          -0.06510329246520996,
          0.12743237614631653,
          0.16516700387001038,
          -0.041132763028144836,
          -0.14788880944252014,
          -0.16250166296958923,
          0.009794473648071289,
          -0.06664365530014038,
          -0.03316909074783325,
          -0.09111253917217255,
          -0.17228952050209045,
          0.12814834713935852,
          0.09102460741996765,
          -0.19981950521469116,
          0.14693865180015564
        ],
        [
          0.133855938911438,
          -0.06815919280052185,
          0.030418768525123596,
          0.08208876848220825,
          -0.08749853074550629,
          0.18212038278579712,
          0.00483335554599762,
          -0.061830878257751465,
          0.08224749565124512,
          0.10579639673233032,
          -0.017979338765144348,
          0.07666948437690735,
          0.07697847485542297,
          -0.022807195782661438,
          -0.09663526713848114,
          -0.1632574051618576
        ],
        [
          -0.11820521205663681,
          0.007286950945854187,
          -0.18740645051002502,
          0.15595731139183044,
          0.034732505679130554,
          0.031752824783325195,
          0.1808648705482483,
          0.03323410451412201,
          -4.45246696472168e-05,
          -0.19380879402160645,
          0.0959901511669159,
          0.1640375554561615,
          -0.1841820776462555,
          -0.026061564683914185,
          0.1696048080921173,
          -0.1757558286190033
        ],
        [
          -0.19147272408008575,
          -0.16876056790351868,
          0.05314561724662781,
          0.1734480857849121,
          0.10178476572036743,
          0.132980614900589,
          0.12860718369483948,
          0.07733973860740662,
          -0.04947037994861603,
          0.005136892199516296,
          0.04173140227794647,
          -0.03533865511417389,
          0.17148694396018982,
          -0.12043532729148865,
          0.050350725650787354,
          -0.19520319998264313
        ],
        [
          -0.04840749502182007,
          0.19141432642936707,
          -0.0639551430940628,
          0.13928478956222534,
          0.017526298761367798,
          -0.04261140525341034,
          -0.05778270959854126,
          -0.08088891953229904,
          0.06917127966880798,
          -0.1374475061893463,
          0.11988148093223572,
          -0.18414752185344696,
          0.05476880073547363,
          0.051798075437545776,
          0.15220531821250916,
          0.0851704478263855
        ],
        [
          -0.1652851700782776,
          0.10594972968101501,
          0.18285593390464783,
          0.12060311436653137,
          0.1806800365447998,
          0.021767526865005493,
          0.0389644056558609,
          -0.027234002947807312,
          -0.09163658320903778,
          -0.17830942571163177,
          0.08434295654296875,
          0.18740218877792358,
          0.11403200030326843,
          -0.0530426949262619,
          0.021203815937042236,
          0.14435115456581116
        ],
        [
          0.07193204760551453,
          0.05321052670478821,
          -0.11006317287683487,
          0.1435541808605194,
          0.03141152858734131,
          -0.16797718405723572,
          -0.08549344539642334,
          -0.1375427544116974,
          0.06504693627357483,
          0.09143397212028503,
          0.03902173042297363,
          0.15030157566070557,
          -0.14101211726665497,
          -0.08649258315563202,
          -0.1957169771194458,
          -0.06268614530563354
        ],
        [
          0.00515592098236084,
          0.06098255515098572,
          0.08268404006958008,
          0.019761383533477783,
          0.05063891410827637,
          0.030893802642822266,
          0.03914840519428253,
          0.11586606502532959,
          0.1438829004764557,
          -0.1394740492105484,
          0.1441669464111328,
          0.1788962185382843,
          -0.05918489396572113,
          -0.0432782918214798,
          0.10376790165901184,
          -0.07439202070236206
        ],
        [
          0.16524910926818848,
          -0.16327551007270813,
          -0.059872373938560486,
          -0.08228011429309845,
          -0.00627492368221283,
          0.1499495804309845,
          0.05737990140914917,
          -0.027453824877738953,
          0.07240274548530579,
          -0.04017382860183716,
          -0.0018803924322128296,
          -0.1491054892539978,
          -0.19575561583042145,
          -0.08027327805757523,
          -0.0630020946264267,
          -0.1954895555973053
        ],
        [
          -0.12056993693113327,
          0.011145323514938354,
          -0.15750570595264435,
          -0.024713337421417236,
          -0.09817046672105789,
          -0.04991661012172699,
          0.10981681942939758,
          0.09895303845405579,
          -0.0547620952129364,
          0.010111495852470398,
          -0.04664503037929535,
          0.15667426586151123,
          0.17651644349098206,
          -0.10567355901002884,
          0.1432628333568573,
          -0.10194265097379684
        ],
        [
          0.05466529726982117,
          -0.040223851799964905,
          -0.023725152015686035,
          0.0902320146560669,
          -0.01822209358215332,
          -0.1891196370124817,
          -0.027345597743988037,
          -0.08570452034473419,
          -0.009869709610939026,
          0.1927008330821991,
          -0.0331474244594574,
          0.09769415855407715,
          -0.1278277337551117,
          0.06479328870773315,
          0.011772587895393372,
          -0.02114585041999817
        ],
        [
          0.015449196100234985,
          -0.1521884948015213,
          -0.06385035812854767,
          -0.17069819569587708,
          -0.16394507884979248,
          -0.14837008714675903,
          0.19078686833381653,
          0.059001147747039795,
          0.19675621390342712,
          -0.08894024044275284,
          0.014004170894622803,
          -0.19377979636192322,
          -0.13985608518123627,
          -0.14298784732818604,
          -0.07488507032394409,
          0.17152345180511475
        ],
        [
          0.12952744960784912,
          0.017941176891326904,
          0.17894619703292847,
          -0.08780157566070557,
          -0.08860024809837341,
          0.0012900233268737793,
          0.06854408979415894,
          0.16124975681304932,
          -0.06736445426940918,
          -0.09658786654472351,
          0.20286396145820618,
          -0.0027137696743011475,
          0.0959913432598114,
          0.1409858763217926,
          -0.2020931839942932,
          -0.15307623147964478
        ],
        [
          0.06429046392440796,
          -0.0256279855966568,
          -0.009470894932746887,
          0.20046788454055786,
          -0.03489106893539429,
          -0.047044575214385986,
          0.15756550431251526,
          0.04742291569709778,
          0.05240681767463684,
          -0.058002591133117676,
          0.12284481525421143,
          0.19375881552696228,
          0.020958736538887024,
          -0.04697766900062561,
          0.18263515830039978,
          0.03403735160827637
        ],
        [
          -0.19600674510002136,
          -0.02265356481075287,
          -0.2026675045490265,
          0.14399641752243042,
          0.1801944077014923,
          0.18236133456230164,
          -0.053537189960479736,
          0.16474175453186035,
          0.037425696849823,
          -0.09057778865098953,
          0.197466641664505,
          0.12497377395629883,
          -0.15282759070396423,
          -0.13244152069091797,
          0.18208229541778564,
          0.0421006977558136
        ],
        [
          0.09121546149253845,
          0.07618448138237,
          -0.11587026715278625,
          0.10266044735908508,
          0.029940366744995117,
          0.18916940689086914,
          -0.17176809906959534,
          -0.07482238113880157,
          0.027036309242248535,
          0.14311015605926514,
          -0.1841266006231308,
          -0.0662827342748642,
          -0.09746324270963669,
          0.17966479063034058,
          0.17067226767539978,
          0.046557992696762085
        ],
        [
          0.07306638360023499,
          -0.12282219529151917,
          0.09153729677200317,
          0.1793198585510254,
          0.1286783516407013,
          0.0032065659761428833,
          0.053949832916259766,
          0.06686621904373169,
          -0.1429492086172104,
          0.2031213343143463,
          0.058704257011413574,
          -0.10133202373981476,
          -0.19534531235694885,
          -0.0015380680561065674,
          0.1263771653175354,
          -0.13952213525772095
        ],
        [
          -0.09780950844287872,
          -0.09191199392080307,
          0.10501524806022644,
          0.010559916496276855,
          -0.17751382291316986,
          -0.006898596882820129,
          -0.09355702996253967,
          -0.025807082653045654,
          -0.041587844491004944,
          0.18545660376548767,
          -0.17879045009613037,
          0.005013629794120789,
          -0.0381656289100647,
          0.18391507863998413,
          0.09118124842643738,
          -0.023759469389915466
        ],
        [
          -0.1014276072382927,
          -0.0522538423538208,
          -0.20161546766757965,
          -0.12323801219463348,
          0.09649723768234253,
          -0.17801465094089508,
          -0.07374946773052216,
          0.14018511772155762,
          0.143840491771698,
          -0.1269839107990265,
          0.1454375982284546,
          -0.19195039570331573,
          -0.15421220660209656,
          -0.04233604669570923,
          0.1948319673538208,
          0.04359710216522217
        ],
        [
          0.20018270611763,
          0.1830993890762329,
          0.028858110308647156,
          -0.049918174743652344,
          0.005346998572349548,
          -0.18083982169628143,
          0.008771196007728577,
          -0.04938186705112457,
          0.14575698971748352,
          0.02417825162410736,
          0.15283960103988647,
          0.11635017395019531,
          -0.19125109910964966,
          0.02417805790901184,
          0.055008262395858765,
          -0.0724647045135498
        ],
        [
          0.07244294881820679,
          -0.006869107484817505,
          0.04781940579414368,
          -0.13215675950050354,
          -0.1351521760225296,
          0.08955758810043335,
          0.035070210695266724,
          -0.14424705505371094,
          -0.008905917406082153,
          0.03619349002838135,
          0.14478623867034912,
          -0.13435573875904083,
          0.0031925588846206665,
          0.1436939537525177,
          -0.0007604211568832397,
          0.18541431427001953
        ],
        [
          0.02124616503715515,
          0.04717379808425903,
          0.12349268794059753,
          -0.1720481812953949,
          -0.09133032709360123,
          0.08686912059783936,
          0.033963531255722046,
          -0.0677771121263504,
          -0.15113484859466553,
          0.009059160947799683,
          -0.19992107152938843,
          0.1633680760860443,
          -0.15805676579475403,
          0.13280078768730164,
          0.19067248702049255,
          -0.10247764736413956
        ],
        [
          0.17505288124084473,
          -0.017566397786140442,
          0.08109530806541443,
          -0.08713731914758682,
          0.11227717995643616,
          0.14674106240272522,
          0.06365194916725159,
          -0.16052982211112976,
          -0.09937731176614761,
          0.06845560669898987,
          -0.013784587383270264,
          -0.14585015177726746,
          0.12056589126586914,
          -0.08813051879405975,
          0.08540263772010803,
          0.1613388955593109
        ],
        [
          -0.16954347491264343,
          0.16034936904907227,
          0.19667541980743408,
          -0.057568714022636414,
          0.17695176601409912,
          0.1817483901977539,
          0.11442840099334717,
          0.029029712080955505,
          0.12218284606933594,
          0.0422033816576004,
          -0.17263373732566833,
          -0.012895345687866211,
          -0.06425799429416656,
          -0.09559126198291779,
          -0.07871769368648529,
          -0.06416334211826324
        ],
        [
          0.022895678877830505,
          -0.18817032873630524,
          0.08502805233001709,
          -0.1417260617017746,
          0.0013204365968704224,
          -0.15016409754753113,
          -0.19155210256576538,
          0.12939098477363586,
          -0.030942082405090332,
          0.04685512185096741,
          -0.14414870738983154,
          -0.07779112458229065,
          0.07164189219474792,
          0.005809128284454346,
          -0.018345028162002563,
          -0.09641675651073456
        ],
        [
          -0.13480684161186218,
          -0.05177345871925354,
          -0.015284746885299683,
          0.030984953045845032,
          0.12598925828933716,
          -0.18911145627498627,
          0.024342358112335205,
          -0.13128364086151123,
          -0.19839206337928772,
          0.18876197934150696,
          0.017605826258659363,
          -0.18326669931411743,
          -0.1143026053905487,
          -0.02569909393787384,
          -0.014021441340446472,
          0.07424727082252502
        ],
        [
          0.009014055132865906,
          -0.06827929615974426,
          -0.023469269275665283,
          -0.18114379048347473,
          0.0024330615997314453,
          0.1795821189880371,
          0.0308978408575058,
          -0.18938671052455902,
          0.07619956135749817,
          0.006554275751113892,
          -0.0026229023933410645,
          0.150959312915802,
          -0.06307436525821686,
          -0.16501949727535248,
          0.01902821660041809,
          -0.0050595104694366455
        ],
        [
          -0.15740860998630524,
          -0.06352044641971588,
          -0.12061325460672379,
          -0.10732243955135345,
          0.12680768966674805,
          -0.11459421366453171,
          -0.02332092821598053,
          0.1883004605770111,
          0.003954634070396423,
          0.18219396471977234,
          0.16647303104400635,
          0.12263044714927673,
          -0.17415958642959595,
          -0.023411497473716736,
          -0.10877403616905212,
          -0.060690224170684814
        ],
        [
          -0.0647316724061966,
          0.10371524095535278,
          -0.16260235011577606,
          0.06763353943824768,
          -0.13413181900978088,
          -0.12551601231098175,
          0.09427717328071594,
          0.04811200499534607,
          -0.1197412833571434,
          -0.16881756484508514,
          -0.17040805518627167,
          0.016274288296699524,
          0.19973325729370117,
          0.09664615988731384,
          0.1335834562778473,
          -0.07942219078540802
        ],
        [
          -0.005266249179840088,
          0.1210651695728302,
          0.10034650564193726,
          0.046916693449020386,
          0.1539316475391388,
          -0.1826595813035965,
          -0.0413815975189209,
          0.06373438239097595,
          -0.15321901440620422,
          -0.2015949785709381,
          -0.14225921034812927,
          -0.06891342997550964,
          0.11662629246711731,
          0.1251032054424286,
          0.17894744873046875,
          -0.109360471367836
        ],
        [
          -0.06305533647537231,
          0.11369505524635315,
          0.03899724781513214,
          -0.2027856707572937,
          0.05519765615463257,
          -0.20049923658370972,
          -0.0264713317155838,
          -0.04930204153060913,
          -0.03521206974983215,
          -0.05565698444843292,
          -0.05186426639556885,
          0.061919450759887695,
          0.09860998392105103,
          -0.13398927450180054,
          0.16246861219406128,
          0.07154491543769836
        ],
        [
          -0.10842742770910263,
          -0.08881540596485138,
          0.11202362179756165,
          0.14183735847473145,
          -0.058467358350753784,
          0.049150288105010986,
          0.005651891231536865,
          0.12604385614395142,
          0.033397823572158813,
          -0.1336374133825302,
          0.026284456253051758,
          0.15157577395439148,
          -0.09988958388566971,
          0.05076634883880615,
          0.04696953296661377,
          0.05378583073616028
        ],
        [
          -0.007263943552970886,
          0.0672328770160675,
          0.10216248035430908,
          0.12688034772872925,
          -0.1844877004623413,
          -0.03775930404663086,
          -0.07825963199138641,
          0.031527742743492126,
          0.12484833598136902,
          0.14715492725372314,
          -0.09277232736349106,
          0.046901315450668335,
          -0.058708593249320984,
          0.13121944665908813,
          -0.15644237399101257,
          0.005577966570854187
        ],
        [
          -0.05000002682209015,
          0.1861012578010559,
          0.19548511505126953,
          -0.16954688727855682,
          0.11677658557891846,
          -0.014999359846115112,
          -0.1370334029197693,
          -0.19179262220859528,
          0.16802147030830383,
          0.017676636576652527,
          0.035865187644958496,
          0.11439749598503113,
          0.1454232931137085,
          -0.01331976056098938,
          -0.1550305038690567,
          0.11334618926048279
        ],
        [
          0.15362519025802612,
          0.0327816903591156,
          -0.05866806209087372,
          0.19033688306808472,
          0.15776899456977844,
          -0.037527889013290405,
          0.10976597666740417,
          -0.029043391346931458,
          0.0696851909160614,
          0.06470036506652832,
          -0.1493074595928192,
          -0.03602229058742523,
          0.035464510321617126,
          0.13291075825691223,
          -0.14741450548171997,
          -0.008231580257415771
        ],
        [
          0.12500786781311035,
          -0.16716386377811432,
          -0.10422376543283463,
          -0.05199351906776428,
          0.20010289549827576,
          0.0238787978887558,
          0.03947374224662781,
          -0.15410956740379333,
          0.11382341384887695,
          -0.10283875465393066,
          0.05636337399482727,
          -0.11964400112628937,
          -0.08829126507043839,
          0.06041252613067627,
          0.1356809437274933,
          0.13712796568870544
        ],
        [
          -0.17651380598545074,
          0.1845501959323883,
          -0.1987871378660202,
          -0.09010396152734756,
          0.07164373993873596,
          -0.1637158989906311,
          0.1734888255596161,
          0.12991109490394592,
          -0.05394302308559418,
          -0.05783657729625702,
          -0.012316495180130005,
          -0.1709003746509552,
          -0.048002690076828,
          0.07057186961174011,
          0.10727310180664062,
          0.15787085890769958
        ],
        [
          -0.1892252415418625,
          -0.010888412594795227,
          -0.10252645611763,
          0.03768445551395416,
          -0.10862603783607483,
          -0.1956794112920761,
          -0.013900309801101685,
          0.1286112368106842,
          0.19261503219604492,
          0.12843233346939087,
          -0.01312611997127533,
          -0.06431630253791809,
          0.018742635846138,
          0.115782231092453,
          0.18931147456169128,
          0.09830942749977112
        ],
        [
          -0.14205597341060638,
          -0.11237164586782455,
          -0.17749513685703278,
          0.010699629783630371,
          0.12780705094337463,
          -0.10272935032844543,
          -0.039206668734550476,
          -0.042192041873931885,
          -0.09105145931243896,
          0.02976936101913452,
          -0.12841543555259705,
          -0.007560119032859802,
          0.04851013422012329,
          -0.18857315182685852,
          -0.05426719784736633,
          -0.08689213544130325
        ],
        [
          -0.02488406002521515,
          0.1506786048412323,
          0.19308793544769287,
          0.05939251184463501,
          -0.14105260372161865,
          -0.056625500321388245,
          0.08479270339012146,
          0.08309420943260193,
          0.11023092269897461,
          -0.09538666903972626,
          -0.06872951984405518,
          -0.0012581348419189453,
          -0.0860750675201416,
          -0.19141271710395813,
          0.14178252220153809,
          -0.02619233727455139
        ],
        [
          0.015058830380439758,
          0.13862290978431702,
          0.12574440240859985,
          0.2007918655872345,
          -0.15853777527809143,
          -0.11139076203107834,
          0.18807610869407654,
          0.034343421459198,
          0.04928496479988098,
          -0.17690062522888184,
          0.18750256299972534,
          -0.007323220372200012,
          -0.19858035445213318,
          -0.19908522069454193,
          -0.19843001663684845,
          0.002414613962173462
        ],
        [
          0.09898597002029419,
          0.10079163312911987,
          -0.17486560344696045,
          -0.16746574640274048,
          0.03376004099845886,
          0.06267082691192627,
          0.04047390818595886,
          -0.0016970187425613403,
          0.14578571915626526,
          0.06114476919174194,
          -0.03644198179244995,
          0.1766289472579956,
          0.17459765076637268,
          0.13827210664749146,
          0.11291638016700745,
          -0.14664044976234436
        ],
        [
          -0.014592558145523071,
          -0.05280333757400513,
          0.0015295594930648804,
          0.14062941074371338,
          0.1508733630180359,
          0.16057363152503967,
          -0.18374577164649963,
          -0.011436015367507935,
          -0.0009210705757141113,
          0.048148542642593384,
          0.02123972773551941,
          0.10350248217582703,
          0.07481163740158081,
          0.17374593019485474,
          -0.1949732005596161,
          -0.16722479462623596
        ],
        [
          -0.044300392270088196,
          -0.12842965126037598,
          0.14513549208641052,
          -0.17677243053913116,
          -0.021482199430465698,
          0.15928199887275696,
          0.08013924956321716,
          0.10377049446105957,
          -0.017058849334716797,
          -0.13605591654777527,
          -0.16219758987426758,
          -0.13841626048088074,
          -0.14560288190841675,
          0.18184587359428406,
          -0.015232235193252563,
          -0.1811065673828125
        ],
        [
          0.1829727590084076,
          -0.175613135099411,
          -0.06938272714614868,
          0.15373507142066956,
          -0.13275586068630219,
          0.15876725316047668,
          0.20032399892807007,
          -0.056718260049819946,
          0.17822012305259705,
          -0.11519646644592285,
          0.12551358342170715,
          0.09429165720939636,
          0.053414613008499146,
          -0.043070971965789795,
          -0.04288214445114136,
          0.05674630403518677
        ],
        [
          0.179056316614151,
          0.1472339928150177,
          -0.1330259144306183,
          0.13703489303588867,
          -0.11343968659639359,
          0.07650446891784668,
          0.153679758310318,
          -0.17062710225582123,
          -0.1424351930618286,
          0.13665559887886047,
          -0.01744838058948517,
          -0.11044515669345856,
          -0.1683369278907776,
          -0.039402589201927185,
          0.1765722632408142,
          0.1816081404685974
        ],
        [
          -0.12960822880268097,
          -0.03362412750720978,
          -0.2020823359489441,
          0.14241820573806763,
          0.14089223742485046,
          -0.10594404488801956,
          0.08957856893539429,
          -0.09513958543539047,
          0.023732170462608337,
          -0.1702282726764679,
          -0.07621148228645325,
          0.10360053181648254,
          -0.043832600116729736,
          0.13683480024337769,
          0.20287615060806274,
          0.007741659879684448
        ],
        [
          0.16914057731628418,
          0.13830536603927612,
          0.17610695958137512,
          -0.10573005676269531,
          -0.03235137462615967,
          0.12564736604690552,
          -0.13252869248390198,
          -0.19620968401432037,
          0.18555614352226257,
          0.03837844729423523,
          0.17452439665794373,
          0.0820435881614685,
          0.04369916021823883,
          -0.06906142830848694,
          -0.06173276901245117,
          -0.1225949227809906
        ],
        [
          0.10099402070045471,
          0.014071717858314514,
          0.19164833426475525,
          0.029403671622276306,
          0.10944616794586182,
          0.0883379876613617,
          -0.1499379277229309,
          0.14514735341072083,
          0.12159433960914612,
          -0.20196425914764404,
          -0.11485078930854797,
          0.002435922622680664,
          -0.20036880671977997,
          -0.18496638536453247,
          0.17693698406219482,
          0.15101158618927002
        ],
        [
          -0.13048817217350006,
          0.10995051264762878,
          -0.046487003564834595,
          0.10615447163581848,
          0.04568915069103241,
          -0.057968854904174805,
          0.035232022404670715,
          0.09274950623512268,
          0.009716466069221497,
          0.06905242800712585,
          -0.15181702375411987,
          0.002811148762702942,
          -0.1831795871257782,
          -0.05311475694179535,
          -0.06947164237499237,
          0.12394091486930847
        ],
        [
          0.09889775514602661,
          0.0772462785243988,
          -0.1632794588804245,
          -0.20351314544677734,
          0.17094427347183228,
          -0.20352891087532043,
          0.09467431902885437,
          -0.18387220799922943,
          -0.10938655585050583,
          -0.05309991538524628,
          -0.19353461265563965,
          0.03643020987510681,
          0.10294517874717712,
          0.0459112823009491,
          0.08348855376243591,
          -0.05505506694316864
        ],
        [
          0.055892735719680786,
          -0.07064227759838104,
          -0.1907743513584137,
          0.07807713747024536,
          -0.17215096950531006,
          0.1195671558380127,
          -0.08571108430624008,
          0.12419751286506653,
          -0.16670483350753784,
          0.14777147769927979,
          0.09675249457359314,
          0.037964388728141785,
          0.16490015387535095,
          0.05677714943885803,
          -0.04926058650016785,
          0.1606694459915161
        ],
        [
          -0.09338407218456268,
          -0.07480588555335999,
          -0.1686798334121704,
          -0.1904083788394928,
          0.04429362714290619,
          0.10850924253463745,
          0.1438295543193817,
          -0.06436759233474731,
          -0.06737512350082397,
          0.10166549682617188,
          0.07344710826873779,
          0.03862002491950989,
          0.09766563773155212,
          0.043389782309532166,
          -0.05151259899139404,
          -0.17164181172847748
        ],
        [
          -0.09466109424829483,
          0.1318061351776123,
          -0.1015433818101883,
          0.15445885062217712,
          0.023823469877243042,
          0.1376434862613678,
          -0.17448654770851135,
          0.039759278297424316,
          0.10284984111785889,
          0.023981481790542603,
          -0.08905178308486938,
          -0.12411990016698837,
          -0.012202516198158264,
          0.10645496845245361,
          -0.1478765904903412,
          -0.014569148421287537
        ],
        [
          -0.19547787308692932,
          0.07831579446792603,
          0.144388347864151,
          -0.030429959297180176,
          0.13572829961776733,
          0.07968485355377197,
          0.02250346541404724,
          0.10505932569503784,
          0.02783912420272827,
          0.13440296053886414,
          -0.10624782741069794,
          0.02888031303882599,
          -0.1895616203546524,
          0.11427953839302063,
          0.14361414313316345,
          -0.04671365022659302
        ],
        [
          0.08970499038696289,
          -0.09411806613206863,
          0.11689090728759766,
          -0.11331130564212799,
          -0.028597891330718994,
          0.0421430766582489,
          0.07257509231567383,
          -0.0817631259560585,
          -0.031004175543785095,
          -0.018641889095306396,
          -0.1051417738199234,
          0.12980324029922485,
          -0.1030404269695282,
          -0.04544626176357269,
          -0.16211524605751038,
          0.00776277482509613
        ],
        [
          -0.10756358504295349,
          -0.013859331607818604,
          0.024867326021194458,
          -0.17803271114826202,
          0.12242099642753601,
          0.06541851162910461,
          0.17491650581359863,
          0.027685925364494324,
          0.12176626920700073,
          0.14936420321464539,
          -0.06752647459506989,
          -0.18664559721946716,
          0.13905444741249084,
          0.16683554649353027,
          -0.011077731847763062,
          -0.02581612765789032
        ],
        [
          0.14875122904777527,
          0.10673707723617554,
          0.17907112836837769,
          -0.13644039630889893,
          -0.14263112843036652,
          -0.13575997948646545,
          0.15839529037475586,
          0.19699254631996155,
          0.19038307666778564,
          0.1376233994960785,
          -0.01824982464313507,
          -0.11717960238456726,
          0.014505535364151001,
          0.18372508883476257,
          0.17023488879203796,
          -0.020976349711418152
        ],
        [
          -0.0055267661809921265,
          -0.10580208897590637,
          -0.17197994887828827,
          0.1695231795310974,
          0.1800568699836731,
          -0.09241258352994919,
          -0.1925005316734314,
          0.04278212785720825,
          0.017528250813484192,
          0.1438015103340149,
          -0.19338981807231903,
          -0.07714653015136719,
          0.19408103823661804,
          -0.1526043564081192,
          -0.041020140051841736,
          -0.1775720715522766
        ],
        [
          0.16239887475967407,
          0.052904337644577026,
          -0.02865317463874817,
          -0.015362903475761414,
          -0.07018762826919556,
          0.15577110648155212,
          -0.0709637701511383,
          0.18204179406166077,
          -0.11751320958137512,
          0.19228410720825195,
          -0.15478287637233734,
          0.15947744250297546,
          0.09100678563117981,
          -0.006436064839363098,
          -0.13720032572746277,
          -0.1916418969631195
        ],
        [
          0.20333170890808105,
          0.1590125858783722,
          0.17025801539421082,
          -0.11712966859340668,
          -0.06593754887580872,
          -0.06471936404705048,
          -0.07974796742200851,
          -0.014592021703720093,
          -0.17908760905265808,
          0.10270857810974121,
          -0.056599125266075134,
          0.08103185892105103,
          0.20404252409934998,
          0.14671510457992554,
          0.15348151326179504,
          -0.15172401070594788
        ],
        [
          0.1795218288898468,
          -0.19309985637664795,
          -0.20047178864479065,
          0.09295257925987244,
          -0.19444569945335388,
          0.056236058473587036,
          -0.08438418060541153,
          0.20125508308410645,
          -0.07009293138980865,
          0.1538303792476654,
          0.07547855377197266,
          0.18222498893737793,
          0.056668490171432495,
          0.19308841228485107,
          0.1114635169506073,
          0.0284910649061203
        ],
        [
          -0.024577602744102478,
          0.08768945932388306,
          0.15964579582214355,
          0.02411128580570221,
          0.15162941813468933,
          -0.19832377135753632,
          -0.17120370268821716,
          0.14145508408546448,
          0.13980945944786072,
          -0.0170784592628479,
          -0.15671034157276154,
          0.18173149228096008,
          0.08809816837310791,
          -0.01945638656616211,
          0.13228073716163635,
          -0.0879673883318901
        ],
        [
          -0.08485080301761627,
          -0.146895170211792,
          0.17150232195854187,
          -0.18450814485549927,
          0.1913781762123108,
          0.0695832371711731,
          0.18589842319488525,
          -0.20387834310531616,
          0.168868750333786,
          -0.19666998088359833,
          -0.06584468483924866,
          -0.013485044240951538,
          -0.11738594621419907,
          0.07724857330322266,
          -0.090743787586689,
          -0.15635111927986145
        ],
        [
          0.14434516429901123,
          0.08794182538986206,
          0.11893269419670105,
          0.05468028783798218,
          0.12293091416358948,
          0.1816977560520172,
          0.07602435350418091,
          0.022000834345817566,
          -0.09612241387367249,
          0.059205204248428345,
          -0.16931182146072388,
          0.029268428683280945,
          -0.19756267964839935,
          -0.07217085361480713,
          0.17165982723236084,
          -0.0783006101846695
        ],
        [
          0.09479999542236328,
          -0.12531930208206177,
          0.17872971296310425,
          0.11228838562965393,
          -0.15522369742393494,
          0.09877359867095947,
          0.066491037607193,
          0.1470920741558075,
          0.11029374599456787,
          -0.15145906805992126,
          -0.07602553069591522,
          0.09286892414093018,
          0.14236891269683838,
          0.13048392534255981,
          -0.0366634726524353,
          -0.02582576870918274
        ],
        [
          0.0034132152795791626,
          -0.10714650899171829,
          -0.02895486354827881,
          0.11384168267250061,
          -0.06525664031505585,
          -0.12293768674135208,
          0.09887439012527466,
          -0.16850492358207703,
          0.10851779580116272,
          0.049087077379226685,
          -0.13147908449172974,
          -0.03586237132549286,
          0.08360639214515686,
          -0.19432909786701202,
          -0.19425570964813232,
          -0.18273817002773285
        ],
        [
          0.01951497793197632,
          -0.17725257575511932,
          0.07479891180992126,
          0.03354187309741974,
          -0.008946061134338379,
          -0.19252845644950867,
          0.19550594687461853,
