{
  "input_features": [
    "queue_len",
    "io_type",
    "size",
    "prev_queue_len_1",
    "prev_queue_len_2",
    "prev_queue_len_3",
    "prev_latency_1",
    "prev_latency_2",
    "prev_latency_3",
    "prev_throughput_1",
    "prev_throughput_2",
    "prev_throughput_3"
  ],
  "scaler_min": [
    1.0,
    0.0,
    512.0,
    1.0,
    1.0,
    1.0,
    16.0,
    16.0,
    16.0,
    1.0,
    1.0,
    1.0
  ],
  "scaler_scale": [
    9.0,
    1.0,
    523776.0,
    8.0,
    8.0,
    9.0,
    1133.0,
    954.0,
    1133.0,
    5212.0,
    5212.0,
    5212.0
  ],
  "layers": [
    {
      "name": "dense_1",
      "weights": [
        [
          0.02614009380340576,
          -0.07331424951553345,
          0.17541562020778656,
          -0.11002667993307114,
          -0.1624852418899536,
          0.15730063617229462,
          -0.07734334468841553,
          -0.1846616417169571,
          0.16993238031864166,
          -0.15555024147033691,
          -0.13549497723579407,
          -0.06452646851539612,
          0.12282006442546844,
          -0.026882722973823547,
          -0.16329075396060944,
          0.11618746817111969,
          -0.007591992616653442,
          0.14276815950870514,
          -0.06413981318473816,
          0.07658456265926361,
          0.058216825127601624,
          -0.15288040041923523,
          -0.11817888915538788,
          -0.012793958187103271,
          0.19162921607494354,
          -0.15450593829154968,
          -0.012176409363746643,
          -0.025193214416503906,
          -0.07910825312137604,
          -0.01085856556892395,
          0.06472711265087128,
          0.09673894941806793,
          -0.18659871816635132,
          0.02052144706249237,
          -0.01130416989326477,
          0.06287600100040436,
          0.05477340519428253,
          0.05284111201763153,
          -0.1680953949689865,
          -0.011097550392150879,
          0.19321279227733612,
          0.14501233398914337,
          0.07496757805347443,
          0.12757419049739838,
          0.07816962897777557,
          0.003614097833633423,
          -0.11480279266834259,
          -0.034407153725624084,
          -0.11259474605321884,
          0.1161319762468338,
          -0.04905141890048981,
          0.14314530789852142,
          -0.03832884132862091,
          -0.06693625450134277,
          -0.09698445349931717,
          0.1662682443857193,
          0.12223424017429352,
          -0.0772378146648407,
          0.016163349151611328,
          -0.051646873354911804,
          -0.1681068390607834,
          -0.07858891785144806,
          0.11716048419475555,
          -0.10283689945936203,
          0.04990215599536896,
          -0.1453482210636139,
          0.15650133788585663,
          -0.09369907528162003,
          -0.1711321473121643,
          -0.16236095130443573,
          -0.13607412576675415,
          -0.10275930911302567,
          -0.17158351838588715,
          -0.002838343381881714,
          -0.17296172678470612,
          -0.14856286346912384,
          0.18613006174564362,
          -0.0932372435927391,
          -0.13254141807556152,
          -0.012632176280021667,
          -0.006647542119026184,
          0.1611354500055313,
          0.01524016261100769,
          0.11167620122432709,
          0.005538478493690491,
          0.08316542208194733,
          0.14464931190013885,
          -0.037058666348457336,
          -0.19792784750461578,
          0.057798370718955994,
          0.1255880743265152,
          -0.025458022952079773,
          0.16531218588352203,
          -0.025790497660636902,
          -0.04321880638599396,
          0.025292322039604187,
          -0.20417150855064392,
          0.1866757720708847,
          -0.17243745923042297,
          -0.10850563645362854,
          -0.18929876387119293,
          -0.0793772041797638,
          0.11916939914226532,
          -0.11697733402252197,
          -0.1389930248260498,
          -0.18624389171600342,
          -0.05340966582298279,
          -0.14331015944480896,
          -0.18281172215938568,
          -0.116037517786026,
          0.13924436271190643,
          0.015489071607589722,
          0.10458467900753021,
          0.20295192301273346,
          -0.02285313606262207,
          0.039114996790885925,
          0.06311683356761932,
          -0.0004149526357650757,
          -0.13204658031463623,
          0.12743772566318512,
          -0.06828898191452026,
          0.14036782085895538,
          0.09174279868602753,
          0.013761863112449646,
          0.10149987041950226,
          -0.09354764968156815,
          -0.0974765419960022,
          -0.16000187397003174
        ],
        [
          -0.11934322863817215,
          -0.07682350277900696,
          0.19303293526172638,
          -0.005855858325958252,
          -0.12928399443626404,
          -0.03835804760456085,
          0.07681752741336823,
          -0.07312086224555969,
          -0.0967458114027977,
          -0.137473464012146,
          -0.2004736065864563,
          -0.19386506080627441,
          -0.13221222162246704,
          -0.05875329673290253,
          0.0008934140205383301,
          -0.1951352208852768,
          -0.14314959943294525,
          0.1153990775346756,
          0.13929040729999542,
          0.14267636835575104,
          -0.12163730710744858,
          0.03001721203327179,
          0.038371533155441284,
          0.043830856680870056,
          0.10454900562763214,
          -0.1484130620956421,
          0.1868068128824234,
          -0.043220341205596924,
          -0.14039650559425354,
          0.18562589585781097,
          -0.08221422135829926,
          0.09234504401683807,
          0.1930893510580063,
          0.1902582198381424,
          -0.19364802539348602,
          -0.17964939773082733,
          0.15401296317577362,
          -0.08062919974327087,
          0.1608901470899582,
          0.06384493410587311,
          -0.15622836351394653,
          0.04573430120944977,
          -0.10240428149700165,
          -0.06303943693637848,
          -0.07064880430698395,
          0.16620437800884247,
          -0.02285417914390564,
          0.1849946528673172,
          -0.11975313723087311,
          0.05315275490283966,
          -0.06998489797115326,
          0.11038477718830109,
          -0.0011351704597473145,
          0.11689116060733795,
          0.132176473736763,
          -0.09100944548845291,
          -0.07106459140777588,
          0.10444431006908417,
          -0.0629088431596756,
          0.18441464006900787,
          0.03637981414794922,
          -0.05253712832927704,
          0.18507184088230133,
          0.09991826117038727,
          0.20065997540950775,
          -0.12155971676111221,
          -0.12446627020835876,
          0.1876162737607956,
          -0.20327092707157135,
          -0.09977012872695923,
          0.12891055643558502,
          0.1683502346277237,
          0.13382433354854584,
          -0.06433719396591187,
          -0.1280546933412552,
          0.12290100753307343,
          0.10478700697422028,
          0.19136624038219452,
          0.1699996441602707,
          0.0012483000755310059,
          0.12277643382549286,
          0.11809419095516205,
          0.17783205211162567,
          -0.17886283993721008,
          -0.11399195343255997,
          0.1812366396188736,
          -0.0812462717294693,
          0.01979944109916687,
          -0.05646039545536041,
          0.08946938812732697,
          0.040698230266571045,
          0.14620180428028107,
          0.08735744655132294,
          -0.1565423607826233,
          0.12126006186008453,
          -0.17430710792541504,
          -0.08881343901157379,
          -0.07439355552196503,
          0.161664679646492,
          -0.17710009217262268,
          0.06596203148365021,
          0.13976244628429413,
          0.19471152126789093,
          0.13838566839694977,
          0.019771814346313477,
          -0.18315303325653076,
          -0.07458154857158661,
          0.17498226463794708,
          -0.19004365801811218,
          -0.033682629466056824,
          0.021147355437278748,
          0.12023378908634186,
          0.20291458070278168,
          -0.10408687591552734,
          0.18305771052837372,
          0.11477886140346527,
          0.15575991570949554,
          -0.11667052656412125,
          0.015554025769233704,
          -0.022276148200035095,
          -0.19340923428535461,
          0.06766916811466217,
          -0.08688608556985855,
          -0.19585198163986206,
          0.10057486593723297,
          -0.12761926651000977,
          0.11631713807582855,
          0.15608735382556915
        ],
        [
          0.19494251906871796,
          -0.17648380994796753,
          -0.07808281481266022,
          -0.203852117061615,
          -0.04456952214241028,
          0.09587801992893219,
          -0.15745794773101807,
          0.18130658566951752,
          0.1307007521390915,
          -0.1807752400636673,
          -0.15618443489074707,
          -0.17876304686069489,
          -0.047430962324142456,
          0.13114683330059052,
          -0.01296764612197876,
          -0.16792085766792297,
          0.018131613731384277,
          0.09274668991565704,
          -0.016392812132835388,
          0.024321168661117554,
          -0.20406770706176758,
          0.07043646275997162,
          0.15412281453609467,
          0.18924842774868011,
          -0.1343557983636856,
          0.1764317899942398,
          -0.10766641795635223,
          -0.03228650987148285,
          0.09610791504383087,
          -0.062485456466674805,
          0.016799703240394592,
          0.14535020291805267,
          0.12413887679576874,
          -0.060659125447273254,
          -0.013291344046592712,
          -0.011317834258079529,
          -0.07005400955677032,
          -0.1363987922668457,
          0.1899113804101944,
          -0.045210227370262146,
          0.037026047706604004,
          -0.1670735478401184,
          0.04572246968746185,
          -0.015348896384239197,
          0.0596357136964798,
          -0.021392598748207092,
          -0.0487709641456604,
          0.13215546309947968,
          0.15453366935253143,
          -0.051861926913261414,
          -0.12185615301132202,
          0.06384505331516266,
          0.1742912083864212,
          -0.1851203590631485,
          0.15056414902210236,
          0.17789949476718903,
          0.07280902564525604,
          -0.04687066376209259,
          0.20315538346767426,
          0.07697232067584991,
          0.13198749721050262,
          0.10872744023799896,
          -0.1798296570777893,
          -0.04787503182888031,
          0.05766455829143524,
          0.04991023242473602,
          0.04384855926036835,
          0.11100830137729645,
          -0.013870060443878174,
          -0.019756600260734558,
          0.0266360342502594,
          0.11624668538570404,
          0.037274911999702454,
          0.1280316561460495,
          0.07399384677410126,
          0.0072159916162490845,
          -0.18313343822956085,
          0.20027752220630646,
          0.1096043735742569,
          0.08965517580509186,
          -0.00243222713470459,
          0.20697851479053497,
          0.0028779804706573486,
          -0.04902254045009613,
          0.15576918423175812,
          -0.11205808073282242,
          0.04976607859134674,
          -0.03926381468772888,
          0.033264175057411194,
          -0.16301646828651428,
          0.13730870187282562,
          0.10343001782894135,
          -0.03125789761543274,
          0.10306592285633087,
          -0.11919485777616501,
          -0.10996720939874649,
          0.20074720680713654,
          -0.12081274390220642,
          0.00587579607963562,
          -0.18539035320281982,
          0.0691705197095871,
          -0.11075495183467865,
          0.19874022901058197,
          -0.15020059049129486,
          0.04894830286502838,
          -0.12483195960521698,
          0.11844177544116974,
          0.037929341197013855,
          -0.1156470999121666,
          0.05255042016506195,
          0.11587287485599518,
          -0.08233623206615448,
          -0.034257739782333374,
          0.06447912752628326,
          -0.07691057026386261,
          0.1930076628923416,
          -0.1197541281580925,
          -0.18640799820423126,
          -0.1924847811460495,
          0.04590009152889252,
          -0.04996828734874725,
          -0.16002866625785828,
          0.06125037372112274,
          0.14983786642551422,
          -0.15598353743553162,
          0.08446694910526276,
          -0.08140930533409119,
          0.1360313445329666
        ],
        [
          -0.2053411304950714,
          -0.07887287437915802,
          0.15057091414928436,
          0.16140417754650116,
          0.1061052531003952,
          0.022139623761177063,
          0.16120319068431854,
          0.014871999621391296,
          0.16268227994441986,
          -0.07214413583278656,
          0.01575244963169098,
          0.05161257088184357,
          0.13128156960010529,
          0.05102311074733734,
          0.17494697868824005,
          0.13950316607952118,
          -0.10354635864496231,
          0.053306177258491516,
          0.168110653758049,
          -0.15823829174041748,
          0.04830075800418854,
          -0.17390094697475433,
          -0.06556430459022522,
          0.15564687550067902,
          0.12540076673030853,
          0.004904001951217651,
          -0.19856777787208557,
          0.028027161955833435,
          -0.13476236164569855,
          -0.12446621805429459,
          -0.0711146891117096,
          -0.06474384665489197,
          -0.0773547887802124,
          -0.15466748178005219,
          -0.03563466668128967,
          0.11598287522792816,
          0.0388568639755249,
          0.14318834245204926,
          -0.1777699738740921,
          -0.19704969227313995,
          -0.11713774502277374,
          0.05138774216175079,
          0.17611466348171234,
          -0.13269956409931183,
          -0.1550612449645996,
          -0.1886935830116272,
          0.17248518764972687,
          -0.08698578923940659,
          0.1340993493795395,
          0.14206837117671967,
          -0.17096087336540222,
          0.03463369607925415,
          0.09634532034397125,
          0.004343494772911072,
          -0.03930443525314331,
          -0.02465289831161499,
          -0.0168427973985672,
          -0.09167532622814178,
          0.15838457643985748,
          0.03659100830554962,
          -0.07667484879493713,
          -0.05179198086261749,
          0.06773878633975983,
          0.17156969010829926,
          -0.02886633574962616,
          -0.17347943782806396,
          -0.046817660331726074,
          0.12445344030857086,
          -0.09312169253826141,
          0.1897761970758438,
          -0.16356103122234344,
          0.01278039813041687,
          -0.15494650602340698,
          0.1321173459291458,
          0.10816828906536102,
          -0.017396196722984314,
          -0.18129907548427582,
          0.11844708025455475,
          0.11098109185695648,
          -0.159651979804039,
          -0.05076855421066284,
          0.028931692242622375,
          0.18778719007968903,
          -0.04892900586128235,
          0.12515930831432343,
          -0.1717468947172165,
          -0.03014257550239563,
          0.1781056970357895,
          -0.0360591858625412,
          -0.1485963761806488,
          -0.002621665596961975,
          -0.0962006077170372,
          0.10126303136348724,
          -0.057570695877075195,
          -0.15886038541793823,
          -0.11980526149272919,
          0.1574261635541916,
          -0.0623016357421875,
          -0.064287930727005,
          -0.024982169270515442,
          0.1856924146413803,
          0.13316239416599274,
          0.024638786911964417,
          -0.048664405941963196,
          0.10247807204723358,
          -0.09493419528007507,
          0.17352740466594696,
          0.15282808244228363,
          -0.029563605785369873,
          -0.05049477517604828,
          0.1660832017660141,
          -0.07826943695545197,
          -0.05050879716873169,
          -0.13090261816978455,
          -0.02789829671382904,
          -0.07722108066082001,
          0.1209813803434372,
          0.029834136366844177,
          -0.1959550380706787,
          0.17408426105976105,
          0.10912446677684784,
          0.08479522168636322,
          0.004607453942298889,
          -0.0712529867887497,
          -0.19294004142284393,
          0.14847739040851593,
          0.18515698611736298,
          -0.15608492493629456
        ],
        [
          0.13155506551265717,
          -0.09570614248514175,
          -0.11182007938623428,
          0.07632933557033539,
          0.06004621088504791,
          -0.06033006310462952,
          -0.04549117386341095,
          0.05019433796405792,
          0.1895148605108261,
          -0.16571177542209625,
          0.04601140320301056,
          0.01867598295211792,
          0.14749984443187714,
          0.06151576340198517,
          0.056116268038749695,
          0.11497525870800018,
          0.16486115753650665,
          -0.12485910207033157,
          0.10016591846942902,
          0.12146471440792084,
          0.052015289664268494,
          -0.20129886269569397,
          -0.03712920844554901,
          0.04329703748226166,
          -0.09420385211706161,
          0.013951048254966736,
          0.20246531069278717,
          0.1647004932165146,
          -0.12213926762342453,
          -0.14724567532539368,
          -0.049738869071006775,
          -0.03160196542739868,
          -0.024062782526016235,
          0.14801441133022308,
          0.09448035061359406,
          0.08313868939876556,
          -0.15233677625656128,
          0.19424940645694733,
          0.1875728815793991,
          0.13946102559566498,
          -0.0890335738658905,
          -0.07613146305084229,
          -0.05666458606719971,
          0.20225729048252106,
          -0.009367674589157104,
          0.10850568115711212,
          -0.02083200216293335,
          -0.12770387530326843,
          0.07176883518695831,
          -0.03790663182735443,
          -0.09607953578233719,
          -0.14857880771160126,
          -0.1103709489107132,
          -0.06004516780376434,
          0.14306233823299408,
          -0.17412739992141724,
          0.056539520621299744,
          0.13613085448741913,
          0.0434214323759079,
          -0.012830838561058044,
          -0.06818804144859314,
          0.12366826832294464,
          0.16940124332904816,
          -0.12521570920944214,
          -0.06189705431461334,
          0.059701189398765564,
          0.08058296144008636,
          -0.024899691343307495,
          -0.062166452407836914,
          -0.038661062717437744,
          0.10751236975193024,
          -0.02025437355041504,
          -0.1586102396249771,
          0.1709521859884262,
          -0.15165776014328003,
          -0.03306591510772705,
          0.046634986996650696,
          -0.18153327703475952,
          -0.12373874336481094,
          0.18093882501125336,
          -0.09200602024793625,
          0.03230614960193634,
          -0.15565863251686096,
          0.029744908213615417,
          0.12276314198970795,
          0.03409856557846069,
          -0.10650084167718887,
          -0.12502633035182953,
          -0.1370338350534439,
          0.20159311592578888,
          -0.017596080899238586,
          0.1004164069890976,
          0.1273762732744217,
          -0.07287368178367615,
          0.011424452066421509,
          0.05255480110645294,
          0.11600951850414276,
          -0.19871476292610168,
          -0.130926251411438,
          -0.12395438551902771,
          0.06968267261981964,
          0.0736333578824997,
          -0.10851950943470001,
          0.12892667949199677,
          -0.1897244155406952,
          -0.05554783344268799,
          0.17476801574230194,
          -0.07929769158363342,
          0.1001565009355545,
          -0.03093564510345459,
          0.0546751469373703,
          0.041599392890930176,
          -0.17412257194519043,
          -0.14093413949012756,
          0.1077498346567154,
          -0.09581241011619568,
          0.024517610669136047,
          0.13813011348247528,
          -0.03713640570640564,
          0.025020718574523926,
          -0.042805299162864685,
          0.010729745030403137,
          -0.17520591616630554,
          -0.06366272270679474,
          -0.16030576825141907,
          -0.1966371089220047,
          -0.17623263597488403,
          0.16202257573604584
        ],
        [
          -0.04048757255077362,
          -0.11995881050825119,
          -0.0933941975235939,
          0.1039363294839859,
          -0.1025639995932579,
          0.1785985380411148,
          0.1679002195596695,
          -0.04199148714542389,
          -0.14309392869472504,
          -0.10836511850357056,
          0.1193440705537796,
          0.12870202958583832,
          0.13302241265773773,
          -0.10446114838123322,
          -0.03486301004886627,
          -0.07398709654808044,
          -0.14368212223052979,
          0.09455834329128265,
          -0.07538923621177673,
          -0.11482732743024826,
          0.14834870398044586,
          -0.14350664615631104,
          0.15218733251094818,
          0.10354624688625336,
          0.019730836153030396,
          -0.038207367062568665,
          -0.10127883404493332,
          0.1922069936990738,
          0.17138876020908356,
          0.04062721133232117,
          -0.19482667744159698,
          -0.00047694146633148193,
          0.022263363003730774,
          0.10972140729427338,
          -0.19542691111564636,
          -0.043529659509658813,
          -0.1345214545726776,
          -0.06417298316955566,
          -0.10177437961101532,
          -0.1589597910642624,
          0.18024246394634247,
          -0.007976293563842773,
          0.1333036869764328,
          -0.2040746659040451,
          -0.11057746410369873,
          -0.20305795967578888,
          -0.17540594935417175,
          -0.1862446814775467,
          -0.094563327729702,
          0.16928111016750336,
          0.13201121985912323,
          -0.05395309627056122,
          0.08168880641460419,
          0.13216467201709747,
          -0.12612980604171753,
          -0.19295579195022583,
          -0.19537128508090973,
          -0.09177695214748383,
          0.05774487555027008,
          0.06777985394001007,
          0.01969742774963379,
          -0.014677345752716064,
          -0.02756592631340027,
          0.032742276787757874,
          0.20457156002521515,
          0.20484040677547455,
          0.18228916823863983,
          0.15699325501918793,
          0.0445639044046402,
          -0.1635877788066864,
          0.016801193356513977,
          0.08496396243572235,
          0.055686965584754944,
          0.04065854847431183,
          0.037253931164741516,
          -0.10815855860710144,
          -0.16129083931446075,
          -0.16722330451011658,
          0.05826820433139801,
          0.14983002841472626,
          -0.16188855469226837,
          -0.1977159082889557,
          -0.030168727040290833,
          -0.012037813663482666,
          -0.05534526705741882,
          -0.04204672574996948,
          0.1530926376581192,
          0.06907568871974945,
          0.20311225950717926,
          -0.059534281492233276,
          0.11112581193447113,
          0.015539467334747314,
          -0.11575953662395477,
          -0.1401461958885193,
          -0.16904088854789734,
          0.0935039073228836,
          -0.018225744366645813,
          -0.15411941707134247,
          -0.20373380184173584,
          -0.1128666028380394,
          -0.1355019211769104,
          0.1250099390745163,
          -0.19442565739154816,
          -0.053275659680366516,
          0.11520160734653473,
          0.1975916177034378,
          0.053788140416145325,
          0.1897670477628708,
          -0.09458667039871216,
          -0.02570381760597229,
          -0.012938231229782104,
          -0.2031663954257965,
          0.18033863604068756,
          0.08827520906925201,
          -0.020664095878601074,
          0.04833538830280304,
          0.12131325900554657,
          -0.037152305245399475,
          -0.1995919793844223,
          0.09359775483608246,
          0.022675305604934692,
          -0.19069992005825043,
          -0.02090790867805481,
          0.11519365012645721,
          0.009622365236282349,
          -0.07969121634960175,
          0.2043289989233017,
          -0.12422274053096771
        ],
        [
          -0.09596862643957138,
          -0.09205345809459686,
          -0.04937046766281128,
          -0.17249056696891785,
          -0.19827434420585632,
          -0.09754470735788345,
          0.05634753406047821,
          -0.0002597719430923462,
          0.2052869349718094,
          -0.06283119320869446,
          -0.19509927928447723,
          -0.19115395843982697,
          0.13798870146274567,
          0.06958140432834625,
          0.049013808369636536,
          0.17929191887378693,
          -0.0803275853395462,
          -0.03526073694229126,
          0.19437555968761444,
          -0.054474204778671265,
          -0.09343412518501282,
          0.09628109633922577,
          0.012731581926345825,
          -0.11189539730548859,
          -0.15384918451309204,
          0.1078968197107315,
          -0.03401826322078705,
          0.06722231209278107,
          0.04764319956302643,
          -0.1340087205171585,
          -0.03433622419834137,
          0.06383718550205231,
          -0.15437577664852142,
          0.09388302266597748,
          -0.17441722750663757,
          0.1469566375017166,
          0.10145346820354462,
          -0.06546489894390106,
          -0.11987584084272385,
          -0.16789460182189941,
          0.18657828867435455,
          0.1063535064458847,
          -0.1561461240053177,
          -0.10299721360206604,
          -0.11056872457265854,
          -0.1817542016506195,
          0.05706147849559784,
          0.16841013729572296,
          -0.10298486799001694,
          0.14122314751148224,
          0.09794662892818451,
          -0.0063795894384384155,
          -0.043848663568496704,
          0.16861684620380402,
          0.045294150710105896,
          0.04687871038913727,
          0.15686772763729095,
          -0.051151975989341736,
          -0.0027385354042053223,
          0.09139735996723175,
          0.15316756069660187,
          0.12329886853694916,
          0.08614124357700348,
          -0.17552450299263,
          0.029844805598258972,
          -0.1257508397102356,
          -0.19648030400276184,
          -0.11670443415641785,
          -0.1921149343252182,
          -0.03298734128475189,
          0.00017146766185760498,
          0.0018821358680725098,
          0.020555555820465088,
          -0.12459597736597061,
          0.1726463884115219,
          0.15905772149562836,
          -0.05837535858154297,
          0.12557952105998993,
          -0.19559822976589203,
          0.015236660838127136,
          0.024583011865615845,
          -0.031087860465049744,
          -0.015592768788337708,
          -0.09163154661655426,
          -0.1256214678287506,
          -0.19376787543296814,
          -0.010368049144744873,
          -0.11870671063661575,
          0.0982712060213089,
          0.008778244256973267,
          -0.06771303713321686,
          -0.18124403059482574,
          0.16661308705806732,
          -0.03672678768634796,
          0.038836777210235596,
          0.2061963826417923,
          0.06927050650119781,
          0.16722501814365387,
          0.15132923424243927,
          -0.04125329852104187,
          -0.17032012343406677,
          -0.05872802436351776,
          -0.18476518988609314,
          0.2049456685781479,
          -0.03941750526428223,
          0.19352726638317108,
          -0.10311926901340485,
          -0.07082821428775787,
          0.15377528965473175,
          -0.023590385913848877,
          -0.0847650021314621,
          -0.19755534827709198,
          0.08574281632900238,
          0.1629839986562729,
          0.02311547100543976,
          0.011528298258781433,
          -0.14407673478126526,
          0.1360706239938736,
          -0.020303040742874146,
          0.04140448570251465,
          0.19467075169086456,
          0.06882007420063019,
          -0.1197715476155281,
          0.0013308674097061157,
          0.06480865180492401,
          -0.018030241131782532,
          -0.1194983571767807,
          0.01734490692615509
        ],
        [
          -0.035201504826545715,
          -0.15725922584533691,
          -0.19205522537231445,
          0.0343373566865921,
          0.055033132433891296,
          0.10894016921520233,
          0.15260030329227448,
          0.10675127804279327,
          0.05065031349658966,
          0.015108972787857056,
          -0.00504554808139801,
          -0.14888867735862732,
          0.15296150743961334,
          -0.1823410987854004,
          -0.037126049399375916,
          0.06464917957782745,
          0.17382489144802094,
          0.10557578504085541,
          -0.1255735456943512,
          0.10517953336238861,
          0.15021412074565887,
          -0.05437825620174408,
          0.16660864651203156,
          0.10218162834644318,
          -0.042108818888664246,
          -0.13736921548843384,
          -0.020519420504570007,
          0.08473868668079376,
          -0.03193672001361847,
          0.20263125002384186,
          -0.026430606842041016,
          -0.1709897518157959,
          0.030713632702827454,
          0.024228721857070923,
          0.1699325293302536,
          0.01793956756591797,
          0.15203328430652618,
          -0.13235075771808624,
          0.0697995275259018,
          0.1777152270078659,
          -0.11562962830066681,
          -0.15408945083618164,
          0.196888729929924,
          -0.13355442881584167,
          0.10331039130687714,
          0.19058476388454437,
          -0.193754643201828,
          -0.07269324362277985,
          -0.02368500828742981,
          -0.13226044178009033,
          0.03510002791881561,
          0.09884048998355865,
          -0.02001020312309265,
          0.00944492220878601,
          -0.09225828945636749,
          0.029202014207839966,
          -0.04980890452861786,
          0.08251570165157318,
          -0.11581254750490189,
          -0.017369091510772705,
          -0.20013733208179474,
          0.1196822077035904,
          0.14510346949100494,
          0.04218877851963043,
          0.02704930305480957,
          0.18027381598949432,
          0.10075940191745758,
          -0.022779405117034912,
          0.133821502327919,
          -0.085907481610775,
          0.13612861931324005,
          -0.0595136433839798,
          -0.17575080692768097,
          0.16185851395130157,
          -0.1066679134964943,
          -0.02673928439617157,
          -0.008176490664482117,
          -0.09649645537137985,
          -0.11447935551404953,
          -0.07224343717098236,
          0.0054331570863723755,
          0.056021109223365784,
          -0.02021084725856781,
          0.0925651341676712,
          0.10671891272068024,
          0.12893123924732208,
          -0.026580601930618286,
          0.05595032870769501,
          -0.04285648465156555,
          -0.18734653294086456,
          0.1631668657064438,
          0.010569825768470764,
          0.0044966042041778564,
          -0.020262226462364197,
          0.11815051734447479,
          0.0016682744026184082,
          -0.1139218658208847,
          -0.005101531744003296,
          -0.16945616900920868,
          -0.08271835744380951,
          -0.069118931889534,
          -0.1514955312013626,
          0.07008276879787445,
          -0.1837199479341507,
          0.1146036833524704,
          0.1239468902349472,
          -0.022765979170799255,
          0.14461974799633026,
          -0.15117782354354858,
          0.005909457802772522,
          0.07752497494220734,
          -0.0745043009519577,
          0.006571292877197266,
          0.02364221215248108,
          -0.12169993668794632,
          -0.11467007547616959,
          0.18499444425106049,
          -0.14466945827007294,
          -0.006285756826400757,
          0.19935263693332672,
          0.14470772445201874,
          0.12293802201747894,
          -0.2037656456232071,
          -0.16712285578250885,
          0.07534767687320709,
          -0.14529728889465332,
          0.06070642173290253,
          -0.1970030516386032
        ],
        [
          -0.03749953210353851,
          0.006899222731590271,
          0.14539359509944916,
          -0.015057981014251709,
          0.17310161888599396,
          -0.19702205061912537,
          -0.11813697963953018,
          0.018178656697273254,
          -0.16059169173240662,
          0.20632003247737885,
          0.18582512438297272,
          -0.17701347172260284,
          -0.01942230761051178,
          -0.10181080549955368,
          -0.012315988540649414,
          0.11693413555622101,
          -0.012727335095405579,
          0.09698276221752167,
          -0.09692245721817017,
          0.05070872604846954,
          -0.013015329837799072,
          -0.20022307336330414,
          0.09344823658466339,
          -0.16566810011863708,
          0.12124748528003693,
          -0.04095371067523956,
          0.03174392879009247,
          0.1284821778535843,
          0.11795894801616669,
          -0.1131947785615921,
          -0.1973973661661148,
          -0.0057382285594940186,
          0.09308497607707977,
          -0.1351536214351654,
          -0.1929658055305481,
          -0.07239201664924622,
          0.19823436439037323,
          -0.17883777618408203,
          -0.17350460588932037,
          0.17629186809062958,
          0.09098364412784576,
          -0.1533316671848297,
          0.20382283627986908,
          -0.009168818593025208,
          -0.10474870353937149,
          0.0771491676568985,
          0.05823563039302826,
          0.009479865431785583,
          -0.06358829140663147,
          -0.02964550256729126,
          -0.09012407809495926,
          0.11432214081287384,
          0.03403124213218689,
          -0.0983971580862999,
          0.12237168848514557,
          0.038307517766952515,
          0.0024716705083847046,
          0.02167631685733795,
          0.14432425796985626,
          0.13455618917942047,
          0.17776666581630707,
          0.14458037912845612,
          0.12112186849117279,
          -0.03142991662025452,
          0.1610565334558487,
          0.0813138335943222,
          0.1338854879140854,
          -0.14691877365112305,
          -0.020821496844291687,
          0.07708106935024261,
          -0.0075478702783584595,
          0.09057845175266266,
          -0.1839544028043747,
          0.14735139906406403,
          -0.04988566040992737,
          -0.008617594838142395,
          0.15114997327327728,
          -0.01670706272125244,
          0.17952443659305573,
          -0.13628405332565308,
          -0.04122266173362732,
          -0.16967418789863586,
          -0.0880202203989029,
          0.11039455235004425,
          0.1866253763437271,
          -0.06480677425861359,
          -0.08042748272418976,
          -0.01449546217918396,
          -0.165513813495636,
          -0.10434698313474655,
          -0.07229107618331909,
          -0.12071279436349869,
          0.08749018609523773,
          -0.1287059187889099,
          0.10526375472545624,
          -0.06339007616043091,
          0.11493848264217377,
          -0.15038450062274933,
          0.16963715851306915,
          0.11708413064479828,
          -0.009854733943939209,
          0.07535751163959503,
          -0.003712266683578491,
          -0.07182060182094574,
          -0.11445970833301544,
          0.04755978286266327,
          -0.01696115732192993,
          -0.061714887619018555,
          -0.1038348525762558,
          -0.010703042149543762,
          0.15997759997844696,
          -0.02560979127883911,
          0.027168497443199158,
          -0.02180597186088562,
          -0.15022270381450653,
          -0.02083486318588257,
          0.056587591767311096,
          0.19737745821475983,
          -0.042408764362335205,
          -0.11876998841762543,
          -0.0031743645668029785,
          -0.03876866400241852,
          -0.01007126271724701,
          0.14130111038684845,
          0.07303045690059662,
          -0.1513020098209381,
          0.16827185451984406,
          -0.004429474472999573
        ],
        [
          0.1672847419977188,
          0.09762491285800934,
          0.06685204803943634,
          0.14109207689762115,
          -0.1962001919746399,
          -0.12269952148199081,
          -0.14423339068889618,
          0.012815877795219421,
          0.02694930136203766,
          0.1916346400976181,
          0.18629048764705658,
          -0.1824897676706314,
          0.1270129531621933,
          0.08671797811985016,
          0.1552271991968155,
          -0.0008028894662857056,
          -0.12234123796224594,
          -0.19067879021167755,
          -0.042839258909225464,
          0.15000100433826447,
          -0.18109345436096191,
          -0.19589956104755402,
          -0.06706985831260681,
          0.1834261268377304,
          -0.18977737426757812,
          0.19948743283748627,
          -0.012992382049560547,
          0.14365042746067047,
          -0.10768265277147293,
          0.07967992126941681,
          -0.08315102010965347,
          -0.20658275485038757,
          -0.19724662601947784,
          -0.09584138542413712,
          0.10410691797733307,
          0.14800585806369781,
          -0.08155027031898499,
          0.18262825906276703,
          -0.1566278040409088,
          0.09866727888584137,
          0.04490165412425995,
          -0.08027279376983643,
          -0.030960872769355774,
          0.11076103150844574,
          0.03490002453327179,
          -0.03864945471286774,
          -0.03786575794219971,
          -0.11919525265693665,
          -0.03679797053337097,
          -0.029574722051620483,
          -0.008770063519477844,
          -0.13030537962913513,
          -0.08258143812417984,
          -0.11112581938505173,
          -0.16451683640480042,
          0.05297379195690155,
          -0.16027823090553284,
          -0.03155073523521423,
          -0.13214203715324402,
          -0.08595772832632065,
          0.006704062223434448,
          0.0904107540845871,
          0.0027678608894348145,
          -0.19321921467781067,
          0.06546930968761444,
          -0.10516103357076645,
          -0.04929983615875244,
          0.04515396058559418,
          0.028732135891914368,
          -0.16696012020111084,
          0.20212139189243317,
          0.2008218616247177,
          -0.1899322122335434,
          -0.07218964397907257,
          0.033337175846099854,
          0.025591835379600525,
          -0.022311493754386902,
          0.04700492322444916,
          0.004492253065109253,
          0.13104264438152313,
          -0.012285441160202026,
          -0.1923317164182663,
          -0.0974399670958519,
          0.1224604994058609,
          -0.186507448554039,
          0.18830810487270355,
          -0.19184046983718872,
          -0.07648555934429169,
          0.15584523975849152,
          0.059454724192619324,
          0.0067610591650009155,
          -0.19195601344108582,
          0.10902096331119537,
          4.7534704208374023e-05,
          -0.1594410240650177,
          -0.20163902640342712,
          -0.04330390691757202,
          0.043733611702919006,
          -0.07505898177623749,
          0.09973137080669403,
          0.005466669797897339,
          0.17927373945713043,
          0.15551795065402985,
          -0.1861555278301239,
          -0.07439211010932922,
          -0.12262124568223953,
          0.0869707316160202,
          -0.07705973088741302,
          -0.1358661949634552,
          0.07786180078983307,
          -0.10018660873174667,
          0.03227929770946503,
          0.16910286247730255,
          0.07904897630214691,
          0.16627798974514008,
          -0.16346418857574463,
          -0.10053462535142899,
          0.20588435232639313,
          0.08633674681186676,
          -0.026563331484794617,
          -0.076480433344841,
          -0.09234634041786194,
          -0.061775341629981995,
          0.18267308175563812,
          -0.08429478108882904,
          0.19095821678638458,
          0.03847339749336243,
          -0.19660626351833344
        ],
        [
          0.10659308731555939,
          0.10454387962818146,
          0.1166122704744339,
          0.07916264235973358,
          0.156597301363945,
          -0.19817107915878296,
          -0.08555452525615692,
          -0.00797446072101593,
          -0.07765014469623566,
          -0.015345394611358643,
          -0.017986014485359192,
          0.05088020861148834,
          -0.20581737160682678,
          0.14437060058116913,
          -0.10982510447502136,
          -0.032839611172676086,
          0.1902446299791336,
          0.054688021540641785,
          0.17266173660755157,
          -0.05892476439476013,
          -0.12187589704990387,
          0.10203419625759125,
          0.02719515562057495,
          0.06381849944591522,
          0.15250717103481293,
          -0.06625418365001678,
          0.08353383839130402,
          0.020758315920829773,
          0.16925372183322906,
          -0.14916956424713135,
          0.025473564863204956,
          -0.06651438772678375,
          0.06995834410190582,
          0.12432520091533661,
          -0.14265134930610657,
          -0.12550687789916992,
          -0.1379147171974182,
          -0.20482657849788666,
          0.08221514523029327,
          -0.1742936372756958,
          0.10658736526966095,
          0.10077323019504547,
          -0.01900327205657959,
          -0.1529742330312729,
          -0.1776890754699707,
          -0.10496430099010468,
          0.10282109677791595,
          -0.15839889645576477,
          -0.11396662890911102,
          -0.029781877994537354,
          0.15282325446605682,
          -0.1337580382823944,
          0.10240556299686432,
          -0.12931247055530548,
          -0.03408345580101013,
          -0.12966004014015198,
          0.05711226165294647,
          -0.07362845540046692,
          0.0484936386346817,
          0.18178044259548187,
          -0.0651201456785202,
          0.12263648211956024,
          0.15377618372440338,
          -0.13429000973701477,
          -0.1855810135602951,
          0.04668779671192169,
          0.18984805047512054,
          -0.10643795877695084,
          0.014969542622566223,
          -0.0017112642526626587,
          -0.013640090823173523,
          0.045161172747612,
          0.047597095370292664,
          -0.16158664226531982,
          -0.15844237804412842,
          0.11873935163021088,
          0.0511050671339035,
          -0.09815629571676254,
          -0.12402032315731049,
          0.02836678922176361,
          -0.05771896243095398,
          -0.20563904941082,
          -0.12244977802038193,
          0.12256057560443878,
          0.12020884454250336,
          -0.0749141275882721,
          -0.16146211326122284,
          0.021138519048690796,
          -0.20531274378299713,
          -0.03545209765434265,
          0.18466497957706451,
          -0.1688573658466339,
          -0.0381215363740921,
          -0.08999629318714142,
          0.08468948304653168,
          0.009738937020301819,
          -0.03843390941619873,
          0.05615951120853424,
          0.05054135620594025,
          0.19744019210338593,
          0.13257528841495514,
          -0.037203580141067505,
          -0.1823185384273529,
          -0.08053512871265411,
          0.0649745911359787,
          -0.19423286616802216,
          0.012302115559577942,
          0.1318487972021103,
          -0.12501215934753418,
          0.11956439912319183,
          0.04632757604122162,
          0.15112222731113434,
          -0.18935739994049072,
          -0.15520502626895905,
          -0.1578018218278885,
          -0.0007474720478057861,
          -0.1057252362370491,
          0.14718477427959442,
          -0.029162481427192688,
          0.08464334905147552,
          0.026965782046318054,
          -0.02912437915802002,
          0.15764258801937103,
          -0.017490074038505554,
          0.030150920152664185,
          -0.040902331471443176,
          -0.10707185417413712,
          -0.1960463523864746
        ],
        [
          0.03281724452972412,
          0.20163942873477936,
          0.07983730733394623,
          -0.014394223690032959,
          -0.12858203053474426,
          0.07347245514392853,
          0.0017018914222717285,
          0.09414981305599213,
          -0.13651922345161438,
          0.18576417863368988,
          0.0247480571269989,
          -0.07982240617275238,
          0.0559530109167099,
          -0.01093532145023346,
          0.13006378710269928,
          -0.11822562664747238,
          -0.18261997401714325,
          0.10561205446720123,
          -0.030728444457054138,
          -0.05434390902519226,
          0.05708421766757965,
          0.1725989133119583,
          0.1329418569803238,
          0.07141946256160736,
          0.1457941085100174,
          -0.12222584336996078,
          -0.2015700340270996,
          -0.08910085260868073,
          0.11046461760997772,
          -0.19858865439891815,
          -0.04607458412647247,
          -0.05226399004459381,
          -0.1895933747291565,
          -0.09034090489149094,
          -0.13830621540546417,
          -0.07938343286514282,
          -0.10000931471586227,
          -0.1677819788455963,
          -0.15444853901863098,
          -0.16967423260211945,
          -0.15160387754440308,
          -0.12931522727012634,
          -0.08225533366203308,
          0.058863863348960876,
          0.1123848706483841,
          0.14439626038074493,
          0.05851416289806366,
          -0.07695095241069794,
          0.12401597201824188,
          -0.15259605646133423,
          -0.190459743142128,
          0.07616646587848663,
          -0.003354370594024658,
          -0.1882074624300003,
          -0.16708099842071533,
          0.14511920511722565,
          -0.03712022304534912,
          0.11512391269207001,
          0.09879545867443085,
          -0.13956591486930847,
          0.15486522018909454,
          -0.20045273005962372,
          0.04315350949764252,
          0.11766122281551361,
          0.11001957952976227,
          -0.15386679768562317,
          0.045590147376060486,
          0.05158640444278717,
          0.010991975665092468,
          0.19464321434497833,
          -0.13878172636032104,
          0.13207633793354034,
          -0.0890214815735817,
          -0.08576276153326035,
          -0.049428701400756836,
          0.1750873476266861,
          0.0003140568733215332,
          0.15949560701847076,
          -0.20426474511623383,
          0.023573562502861023,
          -0.20633478462696075,
          0.06385929882526398,
          0.025783970952033997,
          0.18575386703014374,
          -0.16077090799808502,
          0.1690366417169571,
          -0.17003902792930603,
          0.10339052975177765,
          -0.04221932590007782,
          0.1341637521982193,
          0.01410701870918274,
          0.1420980840921402,
          0.06316514313220978,
          0.0527120977640152,
          0.1514267772436142,
          0.023905828595161438,
          -0.1812904328107834,
          -0.16163061559200287,
          -0.09918435662984848,
          -0.17519648373126984,
          0.044280990958213806,
          -0.02568669617176056,
          -0.11511586606502533,
          -0.08443480730056763,
          -0.1777166724205017,
          -0.01906353235244751,
          -0.019650384783744812,
          0.14522866904735565,
          -0.08152469992637634,
          -0.11650552600622177,
          -0.03041122853755951,
          0.061637625098228455,
          0.12976033985614777,
          -0.027537792921066284,
          0.20170165598392487,
          -0.03494781255722046,
          -0.028912484645843506,
          0.13695915043354034,
          -0.1721828281879425,
          0.06057108938694,
          0.049817875027656555,
          -0.09312979131937027,
          0.016752272844314575,
          0.15835358202457428,
          0.17422260344028473,
          -0.0323086678981781,
          0.14214153587818146,
          0.15947015583515167
        ]
      ],
      "bias": [
        0.0,
        0.0,
        0.0,
        0.0,
        0.0,
        0.0,
        0.0,
        0.0,
        0.0,
        0.0,
        0.0,
        0.0,
        0.0,
        0.0,
        0.0,
        0.0,
        0.0,
        0.0,
        0.0,
        0.0,
        0.0,
        0.0,
        0.0,
        0.0,
        0.0,
        0.0,
        0.0,
        0.0,
        0.0,
        0.0,
        0.0,
        0.0,
        0.0,
        0.0,
        0.0,
        0.0,
        0.0,
        0.0,
        0.0,
        0.0,
        0.0,
        0.0,
        0.0,
        0.0,
        0.0,
        0.0,
        0.0,
        0.0,
        0.0,
        0.0,
        0.0,
        0.0,
        0.0,
        0.0,
        0.0,
        0.0,
        0.0,
        0.0,
        0.0,
        0.0,
        0.0,
        0.0,
        0.0,
        0.0,
        0.0,
        0.0,
        0.0,
        0.0,
        0.0,
        0.0,
        0.0,
        0.0,
        0.0,
        0.0,
        0.0,
        0.0,
        0.0,
        0.0,
        0.0,
        0.0,
        0.0,
        0.0,
        0.0,
        0.0,
        0.0,
        0.0,
        0.0,
        0.0,
        0.0,
        0.0,
        0.0,
        0.0,
        0.0,
        0.0,
        0.0,
        0.0,
        0.0,
        0.0,
        0.0,
        0.0,
        0.0,
        0.0,
        0.0,
        0.0,
        0.0,
        0.0,
        0.0,
        0.0,
        0.0,
        0.0,
        0.0,
        0.0,
        0.0,
        0.0,
        0.0,
        0.0,
        0.0,
        0.0,
        0.0,
        0.0,
        0.0,
        0.0,
        0.0,
        0.0,
        0.0,
        0.0,
        0.0,
        0.0
      ]
    },
    {
      "name": "dense_2",
      "weights": [
        [
          0.17558547854423523,
          0.1026918888092041,
          -0.05342993140220642,
          0.04207552969455719,
          -0.02964651584625244,
          -0.049148350954055786,
          0.06555873155593872,
          0.027538076043128967,
          0.17622888088226318,
          -0.035974979400634766,
          -0.17524175345897675,
          0.014089003205299377,
          0.1722741723060608,
          0.09283730387687683,
          0.09191524982452393,
          0.12494096159934998
        ],
        [
          -0.10288717597723007,
          0.0958198606967926,
          -0.09437770396471024,
          -0.010472938418388367,
          0.014679327607154846,
          -0.08063005656003952,
          -0.1536960005760193,
          -0.07084858417510986,
          0.17187795042991638,
          -0.05477644503116608,
          0.05542731285095215,
          -0.06841818988323212,
          -0.19902613759040833,
          0.1147211492061615,
          -0.06473556160926819,
          -0.010286986827850342
        ],
        [
          0.017168208956718445,
          0.05525806546211243,
          0.1518441140651703,
          -0.1566312611103058,
          -0.058615103363990784,
          0.0263364315032959,
          -0.04342794418334961,
          -0.13059329986572266,
          0.08408761024475098,
          -0.06428024172782898,
          0.09946748614311218,
          0.1915901005268097,
          0.1263805329799652,
          0.16673091053962708,
          -0.06555847823619843,
          -0.01382322609424591
        ],
        [
          0.019251152873039246,
          0.16455501317977905,
          -0.0411204993724823,
          -0.001512274146080017,
          -0.07196363806724548,
          0.1189856231212616,
          0.14875587821006775,
          0.13366374373435974,
          -0.08627883344888687,
          0.10186788439750671,
          0.19299635291099548,
          -0.025042667984962463,
          0.1389746367931366,
          -0.03472711145877838,
          -0.09891439229249954,
          -0.010326504707336426
        ],
        [
          -0.050799429416656494,
          -0.03475120663642883,
          -0.0830131322145462,
          0.1577235758304596,
          0.12352031469345093,
          0.04560725390911102,
          -0.13938692212104797,
          -0.11659988015890121,
          0.19592580199241638,
          0.008775100111961365,
          -0.058774545788764954,
          0.15363940596580505,
          0.08010908961296082,
          -0.04551512002944946,
          0.19926223158836365,
          0.19855758547782898
        ],
        [
          0.0025553107261657715,
          -0.1393219232559204,
          -0.10122140496969223,
          -0.018374517560005188,
          0.008571818470954895,
          -0.1821509152650833,
          -0.06439587473869324,
          0.10866987705230713,
          -0.06122700870037079,
          -0.07398337125778198,
          -0.17457516491413116,
          -0.10040827095508575,
          0.17666754126548767,
          -0.1634080410003662,
          0.03277979791164398,
          0.14473462104797363
        ],
        [
          -0.20100809633731842,
          -0.010252773761749268,
          0.17332348227500916,
          -0.18642202019691467,
          -0.01163521409034729,
          0.05734884738922119,
          -0.14276465773582458,
          -0.011461853981018066,
          -0.01235981285572052,
          0.028847113251686096,
          -0.038974568247795105,
          -0.129430890083313,
          0.007054626941680908,
          -0.14561022818088531,
          -0.13460145890712738,
          0.05056306719779968
        ],
        [
          -0.015294626355171204,
          0.16885918378829956,
          0.07435035705566406,
          0.18008223176002502,
          -0.029193773865699768,
          0.19127431511878967,
          -0.12379957735538483,
          0.11832809448242188,
          -0.037041276693344116,
          0.09036582708358765,
          -0.07611176371574402,
          0.09473204612731934,
          0.07450464367866516,
          0.10919353365898132,
          0.09014451503753662,
          -0.16283906996250153
        ],
        [
          -0.12442290037870407,
          0.060799092054367065,
          -0.09710690379142761,
          -0.10502535849809647,
          0.0012379437685012817,
          -0.09997183084487915,
          -0.1749780774116516,
          0.1626785695552826,
          0.006286412477493286,
          0.020573332905769348,
          0.06711465120315552,
          -0.16267554461956024,
          -0.05214546620845795,
          -0.07443796098232269,
          -0.15909332036972046,
          0.05839899182319641
        ],
        [
          -0.01783236861228943,
          -0.14769896864891052,
          -0.148933544754982,
          -0.1374392807483673,
          -0.16922417283058167,
          0.08589163422584534,
          -0.12729015946388245,
          0.1682816445827484,
          -0.07708169519901276,
          -0.16076336801052094,
          -0.0738736242055893,
          0.18515783548355103,
          0.11107748746871948,
          -0.09262968599796295,
          0.03292463719844818,
          -0.1994127482175827
        ],
        [
          0.10991808772087097,
          -0.05244047939777374,
          -0.04306197166442871,
          0.1623188555240631,
          0.09463465213775635,
          0.034164026379585266,
          0.07701420783996582,
          -0.0055287182331085205,
          0.04875954985618591,
          -0.08852656930685043,
          -0.20010016858577728,
          -0.0622805655002594,
          0.09451785683631897,
          -0.07076895236968994,
          0.05099180340766907,
          -0.18531128764152527
        ],
        [
          0.14373692870140076,
          0.1324838101863861,
          0.01625584065914154,
          0.024291887879371643,
          0.18050771951675415,
          -0.06689292192459106,
          0.10441327095031738,
          0.01232282817363739,
          -0.19462522864341736,
          0.18537777662277222,
          0.09902706742286682,
          0.10300812125205994,
          0.009693831205368042,
          0.10250899195671082,
          0.07393723726272583,
          -0.16586503386497498
        ],
        [
          -0.06608447432518005,
          0.06381309032440186,
          0.009220153093338013,
          -0.1772170513868332,
          0.1888009011745453,
          0.07513082027435303,
          0.01431719958782196,
          -0.1390751302242279,
          0.19896546006202698,
          -0.08193608373403549,
          0.1176522970199585,
          -0.168490469455719,
          0.15686970949172974,
          -0.15041089057922363,
          0.11998042464256287,
          -0.14821945130825043
        ],
        [
          -0.04061596095561981,
          0.15206873416900635,
          -0.10799341648817062,
          0.06574097275733948,
          -0.052535280585289,
          0.017374753952026367,
          -0.12768808007240295,
          -0.02300405502319336,
          -0.1510537713766098,
          0.059726864099502563,
          0.15763068199157715,
          0.15781238675117493,
          -0.18152481317520142,
          0.051430702209472656,
          -0.09152834862470627,
          -0.04908742010593414
        ],
        [
          0.12212756276130676,
          -0.10397809743881226,
          0.16425806283950806,
          0.14273712038993835,
          -0.06141074001789093,
          -0.12255389988422394,
          -0.16825200617313385,
          0.04149450361728668,
          -0.1662840098142624,
          0.08110114932060242,
          -0.170948788523674,
          0.13512146472930908,
          0.08680176734924316,
          0.07785385847091675,
          -0.12305516749620438,
          0.03507740795612335
        ],
        [
          -0.12397988885641098,
          -0.11262402683496475,
          -0.18651653826236725,
          0.023266911506652832,
          0.13053011894226074,
          -0.09761697798967361,
          0.036194026470184326,
          -0.06758403778076172,
          -0.03661665320396423,
          0.02637745440006256,
          -0.09484359622001648,
          -0.15819156169891357,
          -0.12505348026752472,
          0.03321298956871033,
          0.09164592623710632,
          -0.02191406488418579
        ],
        [
          -0.1204320639371872,
          -0.003926888108253479,
          -0.14376609027385712,
          0.05468776822090149,
          0.10971304774284363,
          0.1294851005077362,
          0.03088383376598358,
          -0.18682172894477844,
          -0.11368891596794128,
          -0.12456661462783813,
          0.1885831356048584,
          0.00527539849281311,
          -0.05389873683452606,
          -0.18946585059165955,
          -0.16978710889816284,
          -0.13591161370277405
        ],
        [
          -0.0578346848487854,
          0.11825188994407654,
          -0.12987428903579712,
          0.0276462584733963,
          -0.011360183358192444,
          -0.1544683426618576,
          -0.11256397515535355,
          -0.17805247008800507,
          -0.12483228743076324,
          -0.034770235419273376,
          0.019413694739341736,
          0.09303584694862366,
          -0.07105040550231934,
          0.03237128257751465,
          0.17586302757263184,
          0.08183607459068298
        ],
        [
          -0.09429268538951874,
          0.08171620965003967,
          -0.10567477345466614,
          -0.04410514235496521,
          0.015141814947128296,
          0.08854982256889343,
          -0.09479453414678574,
          -0.04485403001308441,
          0.05763170123100281,
          -0.1063060313463211,
          -0.0658615231513977,
          0.1309918761253357,
          -0.20074918866157532,
          -0.09854092448949814,
          0.13196247816085815,
          -0.052761584520339966
        ],
        [
          -0.11472045630216599,
          -0.17274683713912964,
          0.11260625720024109,
          0.08355951309204102,
          -0.014359533786773682,
          0.13429778814315796,
          0.13531821966171265,
          -0.02652117609977722,
          -0.1917605996131897,
          0.13626211881637573,
          -0.15246550738811493,
          0.008818656206130981,
          0.1947919726371765,
          0.15274840593338013,
          -0.17718376219272614,
          -0.16895203292369843
        ],
        [
          -0.05871015787124634,
          0.1682337522506714,
          -0.07773792743682861,
          -0.08553632348775864,
          -0.16780704259872437,
          0.03490547835826874,
          -0.08614154905080795,
          -0.1913890689611435,
          -0.1446552872657776,
          0.08400851488113403,
          0.11160504817962646,
          -0.13081121444702148,
          0.08580228686332703,
          0.011988043785095215,
          -0.18517984449863434,
          -0.1979925036430359
        ],
        [
          -0.17515741288661957,
          -0.0703311562538147,
          -0.011090129613876343,
          0.14950773119926453,
          -0.17998863756656647,
          0.20355865359306335,
          -0.03945589065551758,
          0.01959863305091858,
          -0.17908479273319244,
          0.1055057942867279,
          0.08730566501617432,
          0.15268748998641968,
          -0.09658859670162201,
          -0.15271234512329102,
          -0.1214069128036499,
          0.18523699045181274
        ],
        [
          0.08355674147605896,
          0.09835875034332275,
          -0.09123595803976059,
          0.09042564034461975,
          0.17100486159324646,
          0.18198075890541077,
          0.11839750409126282,
          -0.13041087985038757,
          0.1929730772972107,
          0.20270872116088867,
          0.05048680305480957,
          -0.17754414677619934,
          0.1260758340358734,
          0.09665122628211975,
          0.03367955982685089,
          -0.015412256121635437
        ],
        [
          -0.16391941905021667,
          0.07036459445953369,
          -0.011845454573631287,
          0.19147989153862,
          -0.11650843173265457,
          0.1370241641998291,
          -0.06931576132774353,
          0.11715331673622131,
          0.026509150862693787,
          0.16111519932746887,
          -0.1981489211320877,
          -0.06421984732151031,
          0.07890194654464722,
          -0.13132509589195251,
          0.14323124289512634,
          0.1399100124835968
        ],
        [
          0.14839932322502136,
          0.07608461380004883,
          -0.039045676589012146,
          -0.20076555013656616,
          -0.015037119388580322,
          0.02658049762248993,
          -0.021691113710403442,
          0.04652667045593262,
          0.11055588722229004,
          -0.04826591908931732,
          0.19020572304725647,
          0.06722530722618103,
          0.04572673141956329,
          -0.08826620131731033,
          0.09803643822669983,
          0.004007682204246521
        ],
        [
          0.12418350577354431,
          0.18901538848876953,
          0.12151554226875305,
          -0.03828272223472595,
          -0.18038693070411682,
          0.06838738918304443,
          -0.1599467396736145,
          -0.1246645376086235,
          0.15698933601379395,
          0.050094395875930786,
          -0.02196638286113739,
          -0.12181372195482254,
          -0.20061171054840088,
          -0.17906460165977478,
          0.2023376226425171,
          0.15636387467384338
        ],
        [
          0.08912965655326843,
          0.02844834327697754,
          -0.19471439719200134,
          -0.06841026246547699,
          -0.08471355587244034,
          0.15765243768692017,
          0.17503419518470764,
          -0.19230343401432037,
          0.02965162694454193,
          0.05798870325088501,
          -0.011343404650688171,
          -0.1578797996044159,
          -0.16797396540641785,
          -0.008907854557037354,
          -0.1837826669216156,
          0.12174388766288757
        ],
        [
          0.07607564330101013,
          0.1257321536540985,
          0.040259674191474915,
          0.10022753477096558,
          0.002727106213569641,
          0.07110685110092163,
          -0.030612066388130188,
          0.12791022658348083,
          0.1114908754825592,
          0.1956586241722107,
          -0.1300332248210907,
          0.05172887444496155,
          -0.009914875030517578,
          -0.17899379134178162,
          -0.038345545530319214,
          0.04480862617492676
        ],
        [
          -0.06898166239261627,
          0.10786360502243042,
          -0.11694274097681046,
          0.08319920301437378,
          -0.1336466670036316,
          -0.15258444845676422,
          -0.18605409562587738,
          0.03718431293964386,
          -0.18375298380851746,
          -0.04257631301879883,
          -0.1188897117972374,
          -0.17461112141609192,
          -0.08298962563276291,
          0.07390758395195007,
          -0.17125973105430603,
          0.044035300612449646
        ],
        [
          -0.0183069109916687,
          0.04535490274429321,
          -0.12960131466388702,
          0.10871216654777527,
          -0.03181079030036926,
          -0.11797881126403809,
          0.043434709310531616,
          -0.11207818239927292,
          -0.07203784584999084,
          -0.18131588399410248,
          0.06446477770805359,
          0.05874377489089966,
          0.05230867862701416,
          -0.08852408826351166,
          0.13174539804458618,
          -0.07033728063106537
        ],
        [
          -0.16443145275115967,
          0.16767564415931702,
          -0.11491984874010086,
          0.04544396698474884,
          0.023681938648223877,
          0.025771647691726685,
          -0.14970102906227112,
          0.04003798961639404,
          -0.16100938618183136,
          -0.11431627720594406,
          0.12871834635734558,
          0.020677685737609863,
          -0.13350889086723328,
          -0.10717371851205826,
          0.04195132851600647,
          -0.09944865852594376
        ],
        [
          0.1122119128704071,
          -0.1364172250032425,
          0.0891551673412323,
          0.19728142023086548,
          -0.061403676867485046,
          0.06616368889808655,
          -0.0630725622177124,
          -0.04414227604866028,
          -0.015923991799354553,
          0.15722396969795227,
          0.14730948209762573,
          0.056446075439453125,
          0.10039862990379333,
          -0.13429611921310425,
          0.14518234133720398,
          0.016169458627700806
        ],
        [
          -0.0862496867775917,
          -0.09224224835634232,
          -0.04742218554019928,
          -0.0666676014661789,
          -0.19839127361774445,
          -0.05787619948387146,
          -0.043685004115104675,
          -0.031300947070121765,
          -0.0625622421503067,
          -0.06207168102264404,
          -0.1525348573923111,
          0.12828496098518372,
          0.02727513015270233,
          0.18090221285820007,
          -0.18787312507629395,
          0.159271240234375
        ],
        [
          -0.05459098517894745,
          -0.1584947109222412,
          -0.1369994729757309,
          0.0029725730419158936,
          -0.19582979381084442,
          -0.18041612207889557,
          0.05310603976249695,
          -0.15367843210697174,
          -0.17595399916172028,
          0.04975235462188721,
          -0.015832096338272095,
          -0.036491572856903076,
          -0.054604366421699524,
          0.108172208070755,
          -0.1284741461277008,
          0.15019208192825317
        ],
        [
          -0.18393158912658691,
          0.05105450749397278,
          0.019169390201568604,
          0.15305748581886292,
          0.0550517737865448,
          -0.05762653052806854,
          0.1906568706035614,
          0.05305257439613342,
          -0.17554017901420593,
          0.06797230243682861,
          -0.08921467512845993,
          -0.16630007326602936,
          -0.06687627732753754,
          0.037063658237457275,
          0.1025632917881012,
          -0.052322909235954285
        ],
        [
          0.17226991057395935,
          -0.10362379997968674,
          0.1283564269542694,
          0.13130980730056763,
          -0.07163605093955994,
          0.07413139939308167,
          0.1611572802066803,
          0.13743966817855835,
          -0.18222551047801971,
          -0.16429902613162994,
          0.14082416892051697,
          0.06743058562278748,
          0.1729142963886261,
          0.16654452681541443,
          -0.007572785019874573,
          -0.13571730256080627
        ],
        [
          -0.10859815031290054,
          -0.14202633500099182,
          0.11996239423751831,
          0.14408168196678162,
          0.16253674030303955,
          0.1148790717124939,
          -0.03461892902851105,
          -0.036468371748924255,
          0.16723594069480896,
          0.1210567057132721,
          -0.09472056478261948,
          -0.17803791165351868,
          -0.1870846152305603,
          0.08362522721290588,
          0.036648377776145935,
          0.19454801082611084
        ],
        [
          0.034971460700035095,
          -0.02682432532310486,
          -0.0872979685664177,
          0.016099289059638977,
          0.10148054361343384,
          -0.028982698917388916,
          -0.10152289271354675,
          0.010149747133255005,
          -0.1510397046804428,
          -0.0882747694849968,
          -0.03376379609107971,
          -0.07964134216308594,
          0.07338455319404602,
          0.12219759821891785,
          0.0754736065864563,
          -0.18009959161281586
        ],
        [
          0.16855311393737793,
          0.05865558981895447,
          0.08210340142250061,
          -0.08958595246076584,
          0.00641903281211853,
          -0.199069544672966,
          0.1519216001033783,
          0.1499384641647339,
          0.10156473517417908,
          -0.17052938044071198,
          -0.15290652215480804,
          0.08085203170776367,
          -0.03940853476524353,
          -0.11738346517086029,
          -0.10070494562387466,
          0.016465306282043457
        ],
        [
          0.08271729946136475,
          0.13275650143623352,
          0.014820516109466553,
          -0.0037278980016708374,
          -0.04291504621505737,
          -0.12186715751886368,
          -0.10390762239694595,
          0.16594374179840088,
          0.18684494495391846,
          0.19619786739349365,
          0.011288508772850037,
          -0.17069527506828308,
          0.11014664173126221,
          -0.000846371054649353,
          -0.09026018530130386,
          -0.19309747219085693
        ],
        [
          -0.0004784911870956421,
          0.15245285630226135,
          0.11999154090881348,
          -0.1671438068151474,
          -0.1799963265657425,
          -0.10687222331762314,
          -0.08188425749540329,
          0.07216322422027588,
          0.10641160607337952,
          0.07764935493469238,
          0.17736995220184326,
          0.19934728741645813,
          -0.07113002240657806,
          0.0777147114276886,
          0.02849140763282776,
          0.19972437620162964
        ],
        [
          -0.1920124888420105,
          0.06934568285942078,
          -0.12726983428001404,
          0.1727822721004486,
          -0.06485529243946075,
          0.05181783437728882,
          0.1449444591999054,
          0.1178259551525116,
          -0.16324719786643982,
          -0.08653229475021362,
          0.011162549257278442,
          -0.12773104012012482,
          -0.09259498119354248,
          0.1939927637577057,
          -0.02236233651638031,
          0.06641349196434021
        ],
        [
          -0.04984326660633087,
          0.12644779682159424,
          -0.010261237621307373,
          0.1842125952243805,
          0.16776835918426514,
          -0.017559871077537537,
          -0.17203061282634735,
          -0.17997953295707703,
          -0.0914515033364296,
          -0.12364252656698227,
          -0.13518473505973816,
          0.19149142503738403,
          0.1699163317680359,
          0.0170564204454422,
          -0.11385457217693329,
          0.05898430943489075
        ],
        [
          -0.12338989973068237,
          -0.06955710053443909,
          0.14065700769424438,
          -0.08844918757677078,
          0.14495059847831726,
          0.13468560576438904,
          -0.16994056105613708,
          0.1360737681388855,
          -0.08406273275613785,
          -0.18914498388767242,
          -0.19341722130775452,
          0.1373821496963501,
          -0.10099504888057709,
          0.06444087624549866,
          0.18322527408599854,
          0.0977623462677002
        ],
        [
          -0.06500454246997833,
          0.007755964994430542,
          0.07707864046096802,
          0.12762388586997986,
          0.11108347773551941,
          0.06577923893928528,
          0.15622708201408386,
          0.044842496514320374,
          -0.16371385753154755,
          -0.10341005772352219,
          -0.14927563071250916,
          0.1669209599494934,
          0.039548590779304504,
          -0.11486504971981049,
          0.17244428396224976,
          0.11418396234512329
        ],
        [
          -0.0463385134935379,
          -0.16747760772705078,
          0.05523878335952759,
          -0.06790679693222046,
          0.1794506311416626,
          0.03036099672317505,
          -0.09197068214416504,
          -0.0020398348569869995,
          0.1464466154575348,
          -0.16072171926498413,
          0.19624322652816772,
          -0.06290368735790253,
          0.1680547595024109,
          0.06710627675056458,
          -0.15909624099731445,
          -0.05382657051086426
        ],
        [
          -0.11103753745555878,
          0.13261714577674866,
          0.17576977610588074,
          -0.12351652979850769,
          -0.10665760189294815,
          0.14876729249954224,
          -0.10661701112985611,
          0.11167269945144653,
          -0.06598129868507385,
          -0.073198601603508,
          -0.01450568437576294,
          -0.19383355975151062,
          -0.07861247658729553,
          -0.08425730466842651,
          -0.08103968948125839,
          0.041659191250801086
        ],
        [
          0.12514376640319824,
          -0.11240965127944946,
          -0.19027040898799896,
          0.01028241217136383,
          0.11982500553131104,
          -0.001591503620147705,
          -0.1284061074256897,
          -0.19543665647506714,
          -0.13607577979564667,
          -0.16495861113071442,
          0.16444182395935059,
          0.010025739669799805,
          0.1950351893901825,
          0.09514892101287842,
          0.20114153623580933,
          -0.13232052326202393
        ],
        [
          -0.09426504373550415,
          0.1676711142063141,
          -0.07402078807353973,
          -0.03117772936820984,
          -0.12183844298124313,
          0.016051635146141052,
          0.045528843998909,
          -0.16735361516475677,
          0.15313449501991272,
          0.11762914061546326,
          0.163618266582489,
          0.07595506310462952,
          -0.049570292234420776,
          -0.14080217480659485,
          -0.1532215029001236,
          0.05254817008972168
        ],
        [
          -0.11026426404714584,
          0.1946938931941986,
          0.10346534848213196,
          -0.15796735882759094,
          0.12326478958129883,
          -0.03943583369255066,
          0.03025616705417633,
          0.1976076066493988,
          0.17969754338264465,
          0.17704063653945923,
          -0.10115516930818558,
          -0.07607273757457733,
          -0.17509347200393677,
          0.013019442558288574,
          0.14118078351020813,
          -0.09626379609107971
        ],
        [
          -0.002201259136199951,
          0.15343806147575378,
          0.07084476947784424,
          -0.0045914798974990845,
          0.09721162915229797,
          -0.061050355434417725,
          0.180926114320755,
          0.055757224559783936,
          0.008743420243263245,
          -0.15841445326805115,
          -0.14956879615783691,
          -0.1465619057416916,
          -0.005450263619422913,
          -0.04054379463195801,
          0.16990473866462708,
          0.08584603667259216
        ],
        [
          -0.05318537354469299,
          0.17314088344573975,
          -0.11806300282478333,
          0.15130957961082458,
          -0.11650468409061432,
          0.024783670902252197,
          -0.11147116124629974,
          -0.1830584555864334,
          -0.18429560959339142,
          0.06712982058525085,
          0.06397709250450134,
          0.19210052490234375,
          0.17883318662643433,
          0.15142759680747986,
          0.17555931210517883,
          -0.1234511211514473
        ],
        [
          0.06425020098686218,
          0.005506277084350586,
          0.1366819143295288,
          0.19257816672325134,
          -0.1677228957414627,
          0.12328755855560303,
          -0.130164235830307,
          -0.06262210011482239,
          0.19277533888816833,
          0.1861901581287384,
          -0.008932292461395264,
          -0.1599626988172531,
          0.07908031344413757,
          0.0792461633682251,
          0.16085326671600342,
          0.0034222155809402466
        ],
        [
          0.07851716876029968,
          0.1692391037940979,
          -0.19746515154838562,
          0.1998414695262909,
          -0.03303271532058716,
          -0.15014968812465668,
          0.09205663204193115,
          -0.00514492392539978,
          -0.09084725379943848,
          -0.05615188181400299,
          0.13239386677742004,
          0.08919262886047363,
          0.02726072072982788,
          0.20329564809799194,
          -0.1183183565735817,
          0.03546208143234253
        ],
        [
          -0.1710532307624817,
          -0.14957551658153534,
          0.16801145672798157,
          -0.04940006136894226,
          0.16852915287017822,
          0.0662153959274292,
          0.08660563826560974,
          0.07467174530029297,
          -0.039624422788619995,
          0.051690906286239624,
          -0.08212306350469589,
          0.16304445266723633,
          -0.06669504940509796,
          -0.12179113924503326,
          -0.19392704963684082,
          -0.05447500944137573
        ],
        [
          0.15472987294197083,
          -0.1274494081735611,
          0.13485953211784363,
          0.0442047119140625,
          -0.11545440554618835,
          -0.11400242149829865,
          0.043191954493522644,
          -0.004283815622329712,
          0.12652885913848877,
          -0.05529859662055969,
          0.18327969312667847,
          -0.11250197142362595,
          -0.07027289271354675,
          -0.09105885773897171,
          0.08103370666503906,
          -0.12378896772861481
        ],
        [
          0.051953673362731934,
          -0.020538881421089172,
          -0.09122087061405182,
          0.13230252265930176,
          -0.16368183493614197,
          -0.07000122964382172,
          0.17076724767684937,
          -0.09208587557077408,
          -0.14182820916175842,
          -0.09377798438072205,
          0.14160579442977905,
          -0.04332466423511505,
          -0.18121373653411865,
          0.0763673186302185,
          0.09410843253135681,
          -0.15663281083106995
        ],
        [
          0.13807642459869385,
          0.19490814208984375,
          0.07486730813980103,
          -0.12572766840457916,
          -0.12709110975265503,
          -0.10511486232280731,
          0.11937877535820007,
          0.07412037253379822,
          0.020713835954666138,
          0.05241021513938904,
          -0.19079187512397766,
          -0.10822989046573639,
          0.12394145131111145,
          -0.14290595054626465,
          0.061097651720047,
          -0.029325321316719055
        ],
        [
          0.19028767943382263,
          -0.11743539571762085,
          -0.08785948902368546,
          0.05301252007484436,
          -0.09710636734962463,
          -0.19364210963249207,
          -0.10231957584619522,
          -0.027055978775024414,
          0.15505394339561462,
          0.07131928205490112,
          0.05234631896018982,
          0.1635579764842987,
          -0.07320274412631989,
          0.050619035959243774,
          0.08893659710884094,
          -0.0463380366563797
        ],
        [
          0.10969510674476624,
          -0.03934010863304138,
          0.20015770196914673,
          -0.10458390414714813,
          -0.10242863744497299,
          0.20024114847183228,
          0.09644833207130432,
          -0.1774856448173523,
          0.16860231757164001,
          -0.04098081588745117,
          -0.06855280697345734,
          -0.08622749149799347,
          -0.02289801836013794,
          0.16815346479415894,
          -0.1745351105928421,
          -0.18452493846416473
        ],
        [
          0.19009622931480408,
          -0.13207758963108063,
          -0.161078542470932,
          0.13909688591957092,
          0.18923211097717285,
          -0.18111702799797058,
          -0.1241355761885643,
          0.0888541042804718,
          -0.0366552472114563,
          -0.13689255714416504,
          0.11525914072990417,
          -0.004417598247528076,
          -0.07476267218589783,
          0.1811516284942627,
          -0.18394458293914795,
          -0.14833274483680725
        ],
        [
          -0.03122590482234955,
          0.025025442242622375,
          -0.004590511322021484,
          0.10118761658668518,
          -0.18422047793865204,
          0.10848435759544373,
          0.12539902329444885,
          -0.07281404733657837,
          -0.13881085813045502,
          -0.15572215616703033,
          -0.14269784092903137,
          0.15768906474113464,
          -0.11212237179279327,
          0.14902159571647644,
          -0.07620082795619965,
          -0.12119545787572861
        ],
        [
          -0.03209792077541351,
          -0.10137168318033218,
          0.144018292427063,
          0.17950353026390076,
          0.05261027812957764,
          -0.04241035878658295,
          -0.14687970280647278,
          0.00958135724067688,
          -0.1363694816827774,
          -0.03066590428352356,
          -0.1698424518108368,
          -0.14041584730148315,
          0.19800442457199097,
          0.15183448791503906,
          -0.11975666135549545,
          0.11958774924278259
        ],
        [
          0.019888252019882202,
          0.0915021300315857,
          -0.10226871818304062,
          0.07786056399345398,
          0.023030728101730347,
          -0.18753892183303833,
          0.16445884108543396,
          -0.09341064095497131,
          -0.14619013667106628,
          0.0032051056623458862,
          -0.04681277275085449,
          -0.1334492266178131,
          0.16529971361160278,
          -0.11031857877969742,
          0.07599291205406189,
          0.14156746864318848
        ],
        [
          0.16181457042694092,
          -0.11042248457670212,
          0.015599861741065979,
          -0.10586851835250854,
          -0.08744694292545319,
          -0.1081511452794075,
          -0.12273698300123215,
          -0.008209481835365295,
          -0.12097397446632385,
          -0.12687212228775024,
          -0.10702762007713318,
          0.03111007809638977,
          0.09358033537864685,
          -0.09739243239164352,
          0.19758599996566772,
          0.1355079710483551
        ],
        [
          -0.05221797525882721,
          -0.02038845419883728,
          0.007831096649169922,
          0.16807299852371216,
          0.17024993896484375,
          -0.1590902954339981,
          -0.12448719143867493,
          0.08358779549598694,
          0.1775803565979004,
          0.07919564843177795,
          0.16783341765403748,
          0.04257962107658386,
          0.02712264657020569,
          0.18127086758613586,
          0.04636046290397644,
          0.1902058720588684
        ],
        [
          -0.1394892781972885,
          0.1793876588344574,
          0.133253812789917,
          -0.09507403522729874,
          -0.12532123923301697,
          -0.024906933307647705,
          0.1302873194217682,
          -0.06080658733844757,
          0.0283544659614563,
          0.06469181180000305,
          -0.1209825873374939,
          -0.12754124402999878,
          -0.00344635546207428,
          -0.10676812380552292,
          -0.14688646793365479,
          0.06500828266143799
        ],
        [
          -0.15336205065250397,
          -0.10673435032367706,
          -0.05736038088798523,
          -0.053263142704963684,
          0.14633828401565552,
          0.1674397885799408,
          -0.023819178342819214,
          -0.004669055342674255,
          -0.11211906373500824,
          -0.07508543133735657,
          -0.1482124924659729,
          0.07063117623329163,
          -0.0180770605802536,
          0.09482899308204651,
          -0.013314902782440186,
          -0.16505463421344757
        ],
        [
          -0.18974202871322632,
          -0.14330117404460907,
          0.060069262981414795,
          0.040084660053253174,
          0.17695045471191406,
          -0.20118772983551025,
          -0.14487753808498383,
          -0.0427045077085495,
          0.0779232382774353,
          -0.05811870098114014,
          -0.07597009837627411,
          0.1853366494178772,
          0.10746806859970093,
          -0.08499003946781158,
          0.13873839378356934,
          0.011271417140960693
        ],
        [
          -0.09011764079332352,
          0.11938592791557312,
          0.11212369799613953,
          0.10155224800109863,
          -0.015871718525886536,
          -0.02232082188129425,
          -0.1052793562412262,
          -0.02370592951774597,
          0.12777704000473022,
          0.07232660055160522,
          0.02597065269947052,
          0.15227088332176208,
          0.03792297840118408,
          -0.1521635353565216,
          0.0363636314868927,
          -0.04344525933265686
        ],
        [
          -0.17737478017807007,
          0.1778707504272461,
          -0.1475045382976532,
          0.05335068702697754,
          0.15475976467132568,
          0.19013544917106628,
          -0.08580087870359421,
          0.08560624718666077,
          -0.08110334724187851,
          -0.042994752526283264,
          -0.10763531923294067,
          0.06676667928695679,
          -0.1400408148765564,
          0.16186469793319702,
          0.06895655393600464,
          0.014055803418159485
        ],
        [
          0.049124568700790405,
          0.12696555256843567,
          -0.09929083287715912,
          0.14137282967567444,
          0.007152006030082703,
          0.14565908908843994,
          -0.05117057263851166,
          -0.17886535823345184,
          0.12420150637626648,
          -0.07947120070457458,
          -0.12468264251947403,
          -0.038847506046295166,
          -0.022356197237968445,
          0.053732722997665405,
          -0.020514056086540222,
          -0.037698566913604736
        ],
        [
          0.11470487713813782,
          0.16681531071662903,
          0.07405626773834229,
          0.11192941665649414,
          0.14629459381103516,
          -0.0015748590230941772,
          -0.16199353337287903,
          -0.0754002034664154,
          -0.16024112701416016,
          0.09580588340759277,
          0.03832520544528961,
          0.056415021419525146,
          -0.0752561092376709,
          -0.14367260038852692,
          0.16680237650871277,
          0.011320814490318298
        ],
        [
          -0.053301259875297546,
          0.14021027088165283,
          -0.12546485662460327,
          0.18371963500976562,
          0.1290178894996643,
          0.14291563630104065,
          0.0384027361869812,
          -0.08849766105413437,
          0.16638261079788208,
          0.036830976605415344,
          0.03676275908946991,
          -0.17713090777397156,
          -0.1537623405456543,
          -0.1059943214058876,
          -0.16103196144104004,
          -0.11718296259641647
        ],
        [
          0.008375152945518494,
          -0.03957901895046234,
          -0.060847848653793335,
          -0.20126506686210632,
          0.10355871915817261,
          -0.15262173116207123,
          -0.10254932940006256,
          0.033336833119392395,
          0.16941684484481812,
          0.08475881814956665,
          -0.10411153733730316,
          -0.13905449211597443,
          0.08679956197738647,
          0.09830161929130554,
          -0.14952047169208527,
          -0.03673544526100159
        ],
        [
          0.17388901114463806,
          0.17323997616767883,
          0.08317306637763977,
          0.11646604537963867,
          -0.14163359999656677,
          0.12715360522270203,
          0.08340713381767273,
          -0.193189799785614,
          -0.14512179791927338,
          0.035395547747612,
          0.06532371044158936,
          0.16204890608787537,
          0.07581907510757446,
          -0.07808205485343933,
          -0.11797170341014862,
          0.09228077530860901
        ],
        [
          0.19975078105926514,
          0.031811222434043884,
          -0.10572470724582672,
          0.10324046015739441,
          -0.11324506998062134,
          -0.14147041738033295,
          -0.1250166893005371,
          0.021660760045051575,
          -0.13765141367912292,
          -0.1290803849697113,
          -0.1598336398601532,
          0.11120456457138062,
          0.09094980359077454,
          0.042942240834236145,
          0.08189436793327332,
          0.09188786149024963
        ],
        [
          -0.17765817046165466,
          0.00180131196975708,
          -0.019438713788986206,
          0.20182478427886963,
          -0.03013460338115692,
          0.018346235156059265,
          0.1428396999835968,
          0.11739066243171692,
          0.1519077718257904,
          -0.08416644483804703,
          -0.05560198426246643,
          -0.0564517080783844,
          -0.18470923602581024,
          0.08003243803977966,
          0.018153607845306396,
          -0.1211494654417038
        ],
        [
          0.18355292081832886,
          0.05658453702926636,
          0.02934454381465912,
          -0.045639410614967346,
          0.16893738508224487,
          -0.08112227916717529,
          -0.05170916020870209,
          0.03176592290401459,
          0.12891268730163574,
          0.008355051279067993,
          -0.11926756054162979,
          -0.1885579228401184,
          -0.17132961750030518,
          0.011411190032958984,
          -0.1806170642375946,
          -0.15686003863811493
        ],
        [
          0.11003631353378296,
          0.07185608148574829,
          -0.1688491553068161,
          -0.08418581634759903,
          -0.02667972445487976,
          0.045889854431152344,
          0.0697273313999176,
          -0.01650954782962799,
          -0.01801198720932007,
          0.13311141729354858,
          -0.1435297578573227,
          -0.16485291719436646,
          0.10799583792686462,
          -0.11288269609212875,
          -0.1021302118897438,
          0.07575035095214844
        ],
        [
          -0.1239490807056427,
          0.014109626412391663,
          -0.1121487021446228,
          0.05426403880119324,
          0.024287015199661255,
          0.05762249231338501,
          0.13923674821853638,
          0.19148704409599304,
          -0.07035630941390991,
          0.019991382956504822,
          -0.05082687735557556,
          0.13572490215301514,
          -0.13221293687820435,
          -0.07660947740077972,
          -0.0319787859916687,
          -0.00584043562412262
        ],
        [
          0.02698194980621338,
          -0.02786773443222046,
          -0.015230193734169006,
          -0.18094737827777863,
          0.04410679638385773,
          0.1524675488471985,
          -0.11710577458143234,
          0.1741628646850586,
          -0.07247906923294067,
          -0.016289278864860535,
          -0.04185493290424347,
          -0.1733129918575287,
          -0.20175616443157196,
          0.08470922708511353,
          0.02695479989051819,
          0.10789903998374939
        ],
        [
          -0.12447760254144669,
          -0.05989183485507965,
          0.06175270676612854,
          -0.1842985302209854,
          0.19599711894989014,
          0.182594895362854,
          0.09069910645484924,
          -0.16249343752861023,
          -0.18714798986911774,
          0.007298633456230164,
          0.006693214178085327,
          0.007233858108520508,
          0.14266762137413025,
          -0.07538847625255585,
          -0.1384364664554596,
          -0.02528342604637146
        ],
        [
          0.05905836820602417,
          0.18298643827438354,
          -0.14746657013893127,
          -0.14143440127372742,
          0.07341703772544861,
          0.1920376718044281,
          -0.1612728238105774,
          -0.13429325819015503,
          -0.02482454478740692,
          0.16018575429916382,
          0.1991712749004364,
          0.034663498401641846,
          -0.1948356181383133,
          -0.18735924363136292,
          -0.0776902288198471,
          0.1973176896572113
        ],
        [
          -0.1863785684108734,
          0.17418700456619263,
          0.12438437342643738,
          -0.041140586137771606,
          -0.1104755774140358,
          0.15340182185173035,
          0.15096929669380188,
          0.14416885375976562,
          0.19185438752174377,
          0.18209391832351685,
          -0.19384661316871643,
          -0.09272433817386627,
          0.10912740230560303,
          -0.18170322477817535,
          0.08197915554046631,
          0.08780056238174438
        ],
        [
          -0.13003653287887573,
          -0.10961753129959106,
          -0.17665353417396545,
          -0.08716170489788055,
          0.1760328710079193,
          -0.003954336047172546,
          -0.186067134141922,
          0.0020525753498077393,
          -0.09055213630199432,
          0.10256350040435791,
          -0.0472884476184845,
          -0.038751959800720215,
          0.13953113555908203,
          0.09798985719680786,
          0.025254368782043457,
          -0.03770962357521057
        ],
        [
          0.12753623723983765,
          0.07258614897727966,
          -0.17895105481147766,
          -0.15294453501701355,
          -0.10999012738466263,
          -0.03672917187213898,
          -0.1848258376121521,
          -0.1482473462820053,
          -0.19399723410606384,
          -0.17880724370479584,
          0.021266058087348938,
          0.12668362259864807,
          -0.08776172250509262,
          0.03803408145904541,
          -0.1665250062942505,
          -0.035581305623054504
        ],
        [
          -0.03445398807525635,
          -0.06532783806324005,
          -0.08211065083742142,
          0.05742326378822327,
          -0.1878090798854828,
          0.07215169072151184,
          0.013503149151802063,
          0.015584394335746765,
          0.14718040823936462,
          0.1353643238544464,
          -0.04615047574043274,
          -0.08227529376745224,
          -0.12320277094841003,
          -0.17545336484909058,
          0.015191882848739624,
          0.07939937710762024
        ],
        [
          0.11691820621490479,
          -0.12903060019016266,
          -0.10225538164377213,
          -0.19309046864509583,
          -0.04054334759712219,
          0.0038744211196899414,
          0.00656108558177948,
          0.17931240797042847,
          -0.035487622022628784,
          0.1832452416419983,
          0.006533488631248474,
          0.054726362228393555,
          0.1602022349834442,
          0.03611893951892853,
          0.012903183698654175,
          -0.13585016131401062
        ],
        [
          0.06136313080787659,
          -0.07657498121261597,
          -0.16264522075653076,
          -0.028789788484573364,
          0.006241440773010254,
          -0.03985218703746796,
          -0.039983734488487244,
          -0.0015176385641098022,
          0.027942106127738953,
          -0.0058447569608688354,
          0.16076654195785522,
          -0.12131357192993164,
          -0.1919754594564438,
          -0.05655372142791748,
          0.19212666153907776,
          -0.06424714624881744
        ],
        [
          -0.06927600502967834,
          0.17974966764450073,
          0.17648041248321533,
          0.18177399039268494,
          -0.014538481831550598,
          -0.14523008465766907,
          0.061477839946746826,
          0.050145626068115234,
          -0.04560287296772003,
          0.13728153705596924,
          0.17040234804153442,
          -0.10729348659515381,
          0.1741160750389099,
          -0.13491973280906677,
          -0.18608173727989197,
          0.05490201711654663
        ],
        [
          0.0737258791923523,
          -0.16800624132156372,
          0.18742114305496216,
          0.12250718474388123,
          0.01246488094329834,
          -0.0830364003777504,
          -0.09302695095539093,
          0.12136417627334595,
          -0.004715591669082642,
          0.14442670345306396,
          0.023583978414535522,
          0.1288135051727295,
          -0.016747772693634033,
          -0.17556679248809814,
          -0.06659930944442749,
          -0.003391742706298828
        ],
        [
          -0.01869158446788788,
          -0.006836399435997009,
          -0.13593731820583344,
          -0.11585337668657303,
          0.17075932025909424,
          0.026882529258728027,
          0.058081090450286865,
          -0.1833370178937912,
          -0.11800484359264374,
          0.18585807085037231,
          0.17010879516601562,
          0.06738495826721191,
          0.061784595251083374,
          0.06098675727844238,
          -0.05822138488292694,
          0.02668289840221405
        ],
        [
          0.1457901895046234,
          -0.1699894666671753,
          0.12373265624046326,
          -0.16441023349761963,
          -0.04805096983909607,
          0.1569715440273285,
          0.1718822717666626,
