{
  "input_features": [
    "queue_len",
    "io_type",
    "size",
    "prev_queue_len_1",
    "prev_queue_len_2",
    "prev_queue_len_3",
    "prev_latency_1",
    "prev_latency_2",
    "prev_latency_3",
    "prev_throughput_1",
    "prev_throughput_2",
    "prev_throughput_3"
  ],
  "scaler_min": [
    1.0,
    0.0,
    1024.0,
    1.0,
    1.0,
    1.0,
    17.0,
    17.0,
    17.0,
    1.0,
    0.0,
    0.0
  ],
  "scaler_scale": [
    12.0,
    1.0,
    130048.0,
    12.0,
    12.0,
    11.0,
    3917.0,
    3917.0,
    3917.0,
    2912.0,
    2913.0,
    2979.0
  ],
  "layers": [
    {
      "name": "dense_1",
      "weights": [
        [
          -0.06389711797237396,
          -0.1687452346086502,
          -0.19496670365333557,
          0.10398988425731659,
          -0.10876945406198502,
          -0.15255005657672882,
          0.12811042368412018,
          0.05891959369182587,
          0.1819971352815628,
          -0.030963480472564697,
          -0.038195475935935974,
          0.06942214071750641,
          -0.0911940485239029,
          -0.06498609483242035,
          -0.15163052082061768,
          -0.17257456481456757,
          -0.14209547638893127,
          -0.16897113621234894,
          -1.609325408935547e-05,
          -0.1566893458366394,
          -0.0009877830743789673,
          -0.07425490021705627,
          0.1339353770017624,
          0.08768413960933685,
          0.1999451369047165,
          -0.0059423744678497314,
          0.12559984624385834,
          -0.18519474565982819,
          0.1681455820798874,
          0.15195642411708832,
          0.11604125797748566,
          0.0037807226181030273,
          -0.14968840777873993,
          0.0322381854057312,
          -0.14771875739097595,
          -0.07447370886802673,
          0.1907982975244522,
          0.039813458919525146,
          -0.06961363554000854,
          -0.19560110569000244,
          -0.11714889854192734,
          0.06665830314159393,
          0.16720183193683624,
          0.02170439064502716,
          0.06609629094600677,
          0.05947355926036835,
          0.0707806795835495,
          0.20063604414463043,
          0.016635045409202576,
          0.07488657534122467,
          -0.10873060673475266,
          0.145204558968544,
          0.14615567028522491,
          -0.1385168731212616,
          -0.1641962081193924,
          -0.05790059268474579,
          -0.086370550096035,
          0.021884456276893616,
          -0.12153913080692291,
          -0.1449526697397232,
          0.12299473583698273,
          -0.1278420090675354,
          0.12475566565990448,
          -0.09039292484521866,
          0.13302715122699738,
          0.01639610528945923,
          -0.18628203868865967,
          -0.129418283700943,
          0.03463725745677948,
          -0.0660124272108078,
          0.1146678477525711,
          -0.010578066110610962,
          -0.03403617441654205,
          0.14613912999629974,
          0.12089310586452484,
          -0.09132212400436401,
          0.07382909953594208,
          0.09914915263652802,
          0.07294674217700958,
          -0.18020358681678772,
          0.0020173341035842896,
          -0.19746582210063934,
          0.11306236684322357,
          0.02657724916934967,
          -0.1023457944393158,
          0.025097116827964783,
          -0.09150993078947067,
          0.1655707210302353,
          -0.17070037126541138,
          0.06829230487346649,
          -0.16210335493087769,
          -0.1737166941165924,
          0.13760875165462494,
          0.15311090648174286,
          0.07830004394054413,
          -0.15217098593711853,
          -0.1850770264863968,
          -0.14576059579849243,
          0.1659034937620163,
          0.1988985687494278,
          0.15096835792064667,
          -0.106746144592762,
          -0.16345855593681335,
          0.07500602304935455,
          0.022607192397117615,
          0.12432901561260223,
          -0.09510837495326996,
          -0.17458829283714294,
          -0.04294171929359436,
          0.05619363486766815,
          -0.1369670033454895,
          0.16898851096630096,
          0.1056966632604599,
          0.14370955526828766,
          0.11414135992527008,
          0.038316935300827026,
          0.16338063776493073,
          0.2055608183145523,
          0.13907738029956818,
          -0.19128380715847015,
          -0.14096440374851227,
          0.031490862369537354,
          -0.1268085241317749,
          0.18357296288013458,
          -0.0008369982242584229,
          0.06501339375972748,
          -0.0050522685050964355,
          -0.20496690273284912
        ],
        [
          -0.09880341589450836,
          -0.1909339725971222,
          -0.15131103992462158,
          -0.0921139195561409,
          0.10617582499980927,
          0.1866314858198166,
          0.16153596341609955,
          -0.1424705982208252,
          0.18622417747974396,
          0.18755866587162018,
          -0.17907439172267914,
          0.19940300285816193,
          0.07061026990413666,
          0.051595255732536316,
          -0.030329987406730652,
          0.16788823902606964,
          0.1702616959810257,
          0.06383739411830902,
          -0.1281045377254486,
          0.03002174198627472,
          -0.057959139347076416,
          0.08523489534854889,
          0.10518433153629303,
          -0.18263275921344757,
          -0.16549821197986603,
          -0.041420385241508484,
          -0.07805433869361877,
          0.013826519250869751,
          -0.13473975658416748,
          -0.08841295540332794,
          -0.176767036318779,
          0.2045336812734604,
          -0.025928497314453125,
          -0.07558563351631165,
          -0.11540979146957397,
          -0.1341850757598877,
          0.07237137854099274,
          0.1749114841222763,
          0.004948124289512634,
          -0.006995216012001038,
          0.021221637725830078,
          0.20199306309223175,
          -0.043140724301338196,
          0.08163999021053314,
          0.19540716707706451,
          -0.18509109318256378,
          0.022335126996040344,
          -0.17184092104434967,
          0.08494319021701813,
          -0.16574276983737946,
          0.09258221089839935,
          0.03900107741355896,
          0.025090903043746948,
          0.15283696353435516,
          -0.05414623022079468,
          -0.10016197711229324,
          0.1932424157857895,
          -0.07478712499141693,
          -0.018536940217018127,
          -0.20031172037124634,
          -0.052356183528900146,
          -0.007988974452018738,
          0.15980853140354156,
          0.1633840948343277,
          -0.07849134504795074,
          0.10502146184444427,
          0.17892123758792877,
          -0.2039617896080017,
          -0.14105403423309326,
          0.18044321238994598,
          0.18245364725589752,
          -0.14951260387897491,
          -0.015924707055091858,
          0.1747736781835556,
          -0.14091633260250092,
          0.0653151124715805,
          0.12453325092792511,
          -0.12878641486167908,
          0.057592615485191345,
          -0.021325528621673584,
          0.026649698615074158,
          -0.17820751667022705,
          0.09529681503772736,
          -0.17044375836849213,
          0.012239187955856323,
          -0.04101407527923584,
          0.09771598875522614,
          -0.054498642683029175,
          -0.026204556226730347,
          0.17934150993824005,
          0.11675561964511871,
          -0.08005385100841522,
          0.17451466619968414,
          0.03272257745265961,
          0.03125321865081787,
          -0.12843653559684753,
          0.0008410066366195679,
          0.04035390913486481,
          -0.01696041226387024,
          -0.12529394030570984,
          -0.13621455430984497,
          -0.20593257248401642,
          -0.050613582134246826,
          0.17701183259487152,
          -0.11059917509555817,
          -0.047411516308784485,
          0.18897666037082672,
          -0.05849066376686096,
          -0.10947076976299286,
          -0.17869463562965393,
          0.19843558967113495,
          -0.1541646271944046,
          -0.15585008263587952,
          0.11348716914653778,
          -0.1544506996870041,
          -0.13295137882232666,
          -0.11619319021701813,
          -0.01508137583732605,
          -0.09459950774908066,
          -0.02540421485900879,
          -0.13512948155403137,
          0.0835651308298111,
          0.1679696887731552,
          0.08203743398189545,
          -0.06761939823627472,
          0.006789997220039368,
          -0.1190759539604187,
          -0.05263896286487579
        ],
        [
          -0.17418569326400757,
          0.06096993386745453,
          0.10377912223339081,
          0.10444070398807526,
          0.09213636815547943,
          -0.0326082706451416,
          0.11388130486011505,
          -0.08774806559085846,
          0.16567669808864594,
          0.015147030353546143,
          0.20349161326885223,
          0.07430984079837799,
          -0.13659213483333588,
          -0.09290531277656555,
          0.06589816510677338,
          0.07564930617809296,
          0.04872511327266693,
          -0.058523938059806824,
          -0.18651150166988373,
          0.16179294884204865,
          0.13574369251728058,
          0.1318245679140091,
          -0.040242522954940796,
          -0.17658203840255737,
          -0.019363179802894592,
          0.1785336285829544,
          -0.02477249503135681,
          0.0948733240365982,
          0.10833154618740082,
          0.12961606681346893,
          0.1986583024263382,
          0.1337340921163559,
          -0.010384291410446167,
          0.060313090682029724,
          -0.1178559884428978,
          0.17983685433864594,
          0.0868348628282547,
          0.16730962693691254,
          -0.14203959703445435,
          -0.11406593769788742,
          -0.051548898220062256,
          -0.1945631206035614,
          -0.06842046976089478,
          -0.10207027941942215,
          0.02929362654685974,
          0.007858827710151672,
          0.10030655562877655,
          0.1385151892900467,
          -0.11537223309278488,
          -0.12817266583442688,
          -0.16461071372032166,
          -0.014511197805404663,
          0.08532418310642242,
          0.07520605623722076,
          -0.14763642847537994,
          -0.20657560229301453,
          -0.03455778956413269,
          0.0589703768491745,
          0.1912539154291153,
          -0.17122623324394226,
          -0.1351584494113922,
          -0.057911068201065063,
          0.025705888867378235,
          -0.07917794585227966,
          0.036421820521354675,
          0.031061798334121704,
          0.15578557550907135,
          -0.15787896513938904,
          -0.01670849323272705,
          0.020349934697151184,
          0.12975342571735382,
          -0.01081918179988861,
          -0.1760290414094925,
          -0.06230489909648895,
          0.16647444665431976,
          0.12107636034488678,
          0.13872866332530975,
          -0.048137515783309937,
          0.061899080872535706,
          0.04004943370819092,
          0.1478632241487503,
          -0.12712682783603668,
          0.04337720572948456,
          -0.01669536530971527,
          -0.036945149302482605,
          0.19220705330371857,
          -0.12095414847135544,
          -0.13176266849040985,
          -0.14724349975585938,
          -0.11638859659433365,
          0.15811805427074432,
          0.02746671438217163,
          0.11890508234500885,
          0.0816323310136795,
          0.1456632763147354,
          -0.04215298593044281,
          0.051689520478248596,
          0.18782173097133636,
          0.20362530648708344,
          -0.12190724164247513,
          -0.10361851751804352,
          -0.11186060309410095,
          0.13353858888149261,
          -0.04840819537639618,
          -0.16122084856033325,
          -0.03888361155986786,
          -0.047473907470703125,
          -0.02567322552204132,
          -0.02260836958885193,
          0.1359211653470993,
          -0.037696510553359985,
          -0.06641818583011627,
          -0.10942407697439194,
          0.12272493541240692,
          -0.08578033745288849,
          -0.17437003552913666,
          -0.00320298969745636,
          -0.0830712616443634,
          -0.07344520092010498,
          -0.10285155475139618,
          0.05601485073566437,
          0.08823083341121674,
          -0.07368941605091095,
          -0.005134835839271545,
          -0.07199181616306305,
          -0.053768694400787354,
          -0.18128693103790283,
          0.10166530311107635
        ],
        [
          0.06837476789951324,
          0.07221673429012299,
          0.18600977957248688,
          0.07952316105365753,
          -0.14869025349617004,
          0.034629642963409424,
          0.0309077650308609,
          -0.1767350435256958,
          0.09829346835613251,
          0.17220543324947357,
          0.1947198361158371,
          -0.08087155222892761,
          0.20291851460933685,
          0.07484413683414459,
          -0.14642347395420074,
          -0.11310771852731705,
          0.008941173553466797,
          0.020273670554161072,
          0.15960587561130524,
          -0.1702055186033249,
          0.0015918761491775513,
          -0.09837089478969574,
          0.07948584854602814,
          -0.13618966937065125,
          0.07175935804843903,
          0.17621062695980072,
          -0.1692415177822113,
          0.1995580643415451,
          -0.13416217267513275,
          0.19763655960559845,
          -0.09506218135356903,
          0.1954343169927597,
          -0.17735452950000763,
          0.18496759235858917,
          0.033662497997283936,
          0.023630619049072266,
          -0.1383095681667328,
          -0.06450603902339935,
          0.08549301326274872,
          -0.07717877626419067,
          -0.02548244595527649,
          0.15834777057170868,
          0.07638965547084808,
          -0.1399526745080948,
          0.0899580866098404,
          -0.12230871617794037,
          0.05052854120731354,
          0.19670449197292328,
          -0.1838347613811493,
          -0.020553186535835266,
          0.17256809771060944,
          -0.19382615387439728,
          -0.07130180299282074,
          0.14499931037425995,
          0.14288713037967682,
          -0.09208770841360092,
          -0.11297499388456345,
          0.0165717750787735,
          0.17779164016246796,
          0.17068935930728912,
          -0.03805351257324219,
          0.16332854330539703,
          -0.1323830485343933,
          0.06561629474163055,
          0.0023485273122787476,
          -0.1845090240240097,
          -0.16001416742801666,
          0.1863684505224228,
          0.1397610753774643,
          -0.1764991134405136,
          0.03739726543426514,
          -0.022746816277503967,
          -0.14209754765033722,
          -0.1309456080198288,
          0.051045164465904236,
          -0.17537614703178406,
          0.07984329760074615,
          0.11596481502056122,
          0.1033153086900711,
          0.03293891251087189,
          -0.16962358355522156,
          0.05930294096469879,
          -0.11513087153434753,
          0.053325727581977844,
          -0.13342654705047607,
          -0.029533758759498596,
          0.19772444665431976,
          -0.011362552642822266,
          -0.1337924301624298,
          -0.0934944897890091,
          0.035527512431144714,
          -0.10987688601016998,
          0.12845541536808014,
          0.0018228590488433838,
          0.021913379430770874,
          0.023302480578422546,
          -0.15606676042079926,
          -0.013705790042877197,
          0.05853833258152008,
          -0.16820131242275238,
          -0.16923195123672485,
          0.0958247035741806,
          -0.10922324657440186,
          -0.15706604719161987,
          -0.011835992336273193,
          -0.04861554503440857,
          -0.16272225975990295,
          0.15537269413471222,
          -0.056011587381362915,
          -0.10252885520458221,
          -0.03169673681259155,
          -0.034852102398872375,
          0.09360115230083466,
          0.15536989271640778,
          0.10398589074611664,
          -0.07566410303115845,
          -0.06480573117733002,
          -0.06913357973098755,
          -0.04217110574245453,
          0.1114407628774643,
          0.13822995126247406,
          -0.1780465692281723,
          -0.01028113067150116,
          0.11497555673122406,
          0.1620514839887619,
          0.12618686258792877,
          -0.071479931473732,
          0.0033330023288726807
        ],
        [
          -0.12038160115480423,
          0.1850317269563675,
          0.09896580874919891,
          0.11894644796848297,
          0.09439615905284882,
          0.11942999064922333,
          -0.1417345255613327,
          0.07310901582241058,
          -0.06303252279758453,
          -0.15270587801933289,
          -0.11991078406572342,
          -0.06767542660236359,
          0.13910554349422455,
          -0.13299793004989624,
          0.008612215518951416,
          0.04338039457798004,
          -0.09841077774763107,
          0.18315757811069489,
          -0.07873383164405823,
          0.19453828036785126,
          0.058670952916145325,
          -0.05108267068862915,
          0.14843972027301788,
          -0.138948455452919,
          0.20174024999141693,
          -0.18000151216983795,
          0.14755572378635406,
          0.10510759055614471,
          0.19367597997188568,
          -0.03478926420211792,
          0.085929736495018,
          0.12483187019824982,
          0.14589782059192657,
          -0.015576973557472229,
          0.11881385743618011,
          0.023101508617401123,
          -0.17963868379592896,
          0.13946299254894257,
          0.1471192091703415,
          0.16498874127864838,
          -0.14756658673286438,
          -0.040366992354393005,
          0.19139902293682098,
          0.010937586426734924,
          0.17282383143901825,
          -0.015257924795150757,
          0.200363889336586,
          -0.04610705375671387,
          0.14736120402812958,
          0.2023484855890274,
          -0.07934537529945374,
          -0.1043371632695198,
          0.1578953117132187,
          -0.13211804628372192,
          0.20185373723506927,
          -0.13211245834827423,
          -0.2023446410894394,
          -0.009300008416175842,
          -0.1678415983915329,
          -0.028850987553596497,
          0.12766991555690765,
          0.16529051959514618,
          0.13517306745052338,
          0.10206465423107147,
          0.09163342416286469,
          -0.16071809828281403,
          0.11528708040714264,
          -0.029797762632369995,
          0.2059534639120102,
          0.08630608022212982,
          -0.129582017660141,
          0.0842745453119278,
          0.038324639201164246,
          -0.09849325567483902,
          0.024396687746047974,
          0.051457539200782776,
          0.0778694897890091,
          0.017509818077087402,
          -0.071883425116539,
          0.0849156528711319,
          -0.02756330370903015,
          0.0028711706399917603,
          -0.1337515115737915,
          -0.12873458862304688,
          0.09901811182498932,
          -0.11197911202907562,
          0.020510584115982056,
          0.1491815596818924,
          0.10148964822292328,
          -0.03446918725967407,
          -0.062147900462150574,
          0.1962641030550003,
          -0.035853311419487,
          -0.0024887025356292725,
          -0.1559295505285263,
          0.1874515563249588,
          -0.15265913307666779,
          -0.1337122917175293,
          -0.19041645526885986,
          0.027756690979003906,
          0.20126159489154816,
          0.16182605922222137,
          -0.13561415672302246,
          -0.08072209358215332,
          0.19323571026325226,
          -0.19788436591625214,
          0.06982143223285675,
          0.14197809994220734,
          0.002393096685409546,
          -0.08407963067293167,
          0.16868220269680023,
          0.14171572029590607,
          0.10256828367710114,
          0.022525355219841003,
          0.005324810743331909,
          -0.05497761070728302,
          0.056622281670570374,
          -0.13590893149375916,
          0.10023458302021027,
          -0.07563522458076477,
          -0.0003433823585510254,
          -0.17956213653087616,
          0.060591116547584534,
          -0.1811632364988327,
          -0.20286743342876434,
          0.14648689329624176,
          0.005844056606292725,
          0.05305857956409454
        ],
        [
          0.04733718931674957,
          0.01400633156299591,
          0.10399417579174042,
          -0.17242531478405,
          -0.1293874979019165,
          -0.0071728527545928955,
          -0.05263510346412659,
          0.04504720866680145,
          -0.13767462968826294,
          -0.08740024268627167,
          0.0734202116727829,
          0.07064925134181976,
          0.1053638905286789,
          -0.07390081882476807,
          -0.007060512900352478,
          0.1717153638601303,
          -0.14888176321983337,
          -0.1738385111093521,
          0.015474408864974976,
          0.18038339912891388,
          0.20660977065563202,
          -0.10234949737787247,
          -0.15296652913093567,
          -0.02416233718395233,
          0.11959223449230194,
          0.1717289835214615,
          0.12385393679141998,
          -0.10619818419218063,
          -0.11861268430948257,
          -0.05708122253417969,
          -0.027618691325187683,
          -0.20653365552425385,
          0.0324731320142746,
          -0.07837313413619995,
          0.015582993626594543,
          -0.1417873352766037,
          0.032161787152290344,
          0.0872473269701004,
          0.1017627865076065,
          0.13321618735790253,
          0.17745907604694366,
          -0.1020197868347168,
          -0.17943395674228668,
          -0.13278278708457947,
          -0.12322285771369934,
          -0.14389416575431824,
          -0.021787315607070923,
          -0.19849136471748352,
          -0.08718203753232956,
          -0.1627310812473297,
          -0.05208680033683777,
          0.13975469768047333,
          -0.11107389628887177,
          -0.02348792552947998,
          0.06514503061771393,
          -0.1991613358259201,
          -0.09399166703224182,
          0.01241070032119751,
          -0.10196875035762787,
          -0.19745342433452606,
          0.1947900503873825,
          -0.09258157759904861,
          0.11702252924442291,
          -0.11755752563476562,
          -0.04411035776138306,
          0.01541207730770111,
          -0.011980846524238586,
          -0.02640746533870697,
          0.19668398797512054,
          -0.11578219383955002,
          -0.08895938843488693,
          0.07168601453304291,
          0.10771508514881134,
          0.1282588392496109,
          0.005500331521034241,
          0.1276288479566574,
          0.1547616571187973,
          0.03225797414779663,
          0.14896415174007416,
          -0.090723916888237,
          -0.05631755292415619,
          0.08092598617076874,
          -0.08728642761707306,
          -0.16904620826244354,
          -0.11406885087490082,
          0.20038668811321259,
          0.07325126230716705,
          0.05150659382343292,
          -0.04092128574848175,
          -0.1833972930908203,
          0.1291397660970688,
          0.1451110988855362,
          -0.10644842684268951,
          -0.1251797378063202,
          0.10423518717288971,
          0.14704616367816925,
          0.12059612572193146,
          0.17038138210773468,
          0.14572905004024506,
          -0.1564134955406189,
          0.05349297821521759,
          0.15878166258335114,
          -0.0425368994474411,
          -0.1859084516763687,
          -0.12346594780683517,
          0.15430085361003876,
          -0.10124616324901581,
          0.015198901295661926,
          0.0673644095659256,
          0.04470120370388031,
          0.1549852341413498,
          -0.04117019474506378,
          -0.03386525809764862,
          0.14438791573047638,
          -0.10433829575777054,
          -0.05120636522769928,
          0.08984477818012238,
          -0.003967389464378357,
          -0.13945940136909485,
          0.10179249942302704,
          0.10574324429035187,
          0.13205520808696747,
          -0.19427363574504852,
          -0.023598328232765198,
          -0.07664157450199127,
          -0.049318939447402954,
          0.10776998102664948,
          0.03258970379829407
        ],
        [
          0.13392339646816254,
          0.05471940338611603,
          -0.18236592411994934,
          -0.0677662342786789,
          -0.1956670880317688,
          0.03622621297836304,
          0.1967383772134781,
          0.0077192336320877075,
          -0.14454631507396698,
          -0.12655630707740784,
          0.18959741294384003,
          0.08737806975841522,
          -0.1991448551416397,
          0.024037718772888184,
          -0.08903732895851135,
          0.025444641709327698,
          -0.03712861239910126,
          -0.09535373002290726,
          -0.13285553455352783,
          -0.1172943040728569,
          -0.15410806238651276,
          0.12580080330371857,
          0.1490900069475174,
          -0.13228777050971985,
          0.1730170100927353,
          0.17218296229839325,
          -0.0998849868774414,
          -0.11663508415222168,
          0.04120439291000366,
          0.1384335607290268,
          0.012720227241516113,
          -0.18431851267814636,
          -0.06539018452167511,
          -0.15169449150562286,
          0.13214443624019623,
          0.06305690109729767,
          -0.13587191700935364,
          -0.0732656866312027,
          -0.17302224040031433,
          -0.12526501715183258,
          -0.0896301120519638,
          0.09267796576023102,
          -0.03748399019241333,
          -0.1114034578204155,
          -0.13079442083835602,
          -0.11018847674131393,
          0.081966832280159,
          -0.12338386476039886,
          0.14308007061481476,
          0.0979536920785904,
          0.04235367476940155,
          0.16051115095615387,
          -0.09519030898809433,
          0.1258736401796341,
          0.13670654594898224,
          -0.049390509724617004,
          -0.19721601903438568,
          -0.17083555459976196,
          -0.13098371028900146,
          -0.17909373342990875,
          0.15080960094928741,
          0.1414695829153061,
          0.12844718992710114,
          -0.06469784677028656,
          0.054693564772605896,
          0.19083605706691742,
          0.05965052545070648,
          0.11937041580677032,
          0.10151220858097076,
          0.11406861245632172,
          -0.08936510980129242,
          -0.03324759006500244,
          -0.16977541148662567,
          0.2023160606622696,
          -0.052247509360313416,
          0.04374472796916962,
          0.07980959117412567,
          -0.1499965935945511,
          0.0914137214422226,
          0.11764596402645111,
          -0.1011248379945755,
          -0.08128155767917633,
          -0.05189608037471771,
          0.03029009699821472,
          -0.1830500215291977,
          0.14278839528560638,
          0.0934770256280899,
          0.11179055273532867,
          0.048443421721458435,
          0.09743340313434601,
          -0.006878197193145752,
          0.047136202454566956,
          0.08901126682758331,
          -0.027583688497543335,
          0.14946122467517853,
          -0.15492571890354156,
          0.01998947560787201,
          0.05443821847438812,
          0.0469733327627182,
          -0.08175288140773773,
          0.13518713414669037,
          -0.0031807273626327515,
          -0.004868760704994202,
          -0.15637050569057465,
          0.04887549579143524,
          -0.16634690761566162,
          0.07739655673503876,
          -0.1437399685382843,
          0.02297450602054596,
          0.0324365496635437,
          0.15179316699504852,
          -0.07332748174667358,
          -0.05055582523345947,
          -0.06178466975688934,
          -0.1258331686258316,
          0.10184051096439362,
          0.047874972224235535,
          -0.0788809210062027,
          0.17240877449512482,
          0.0016602277755737305,
          0.1323922723531723,
          0.15003441274166107,
          0.1801474243402481,
          -0.004003465175628662,
          -0.024031147360801697,
          -0.18310248851776123,
          -0.06848518550395966,
          -0.020618289709091187
        ],
        [
          0.07711349427700043,
          -0.146347314119339,
          0.06162051856517792,
          -0.08819711953401566,
          0.15038828551769257,
          -0.041178375482559204,
          0.010386615991592407,
          0.09492181241512299,
          -0.02665938436985016,
          -0.15433254837989807,
          0.19238759577274323,
          0.09992600977420807,
          -0.01045408844947815,
          0.17927409708499908,
          -0.1609864979982376,
          -0.12299517542123795,
          0.20425330102443695,
          0.07818295061588287,
          -0.1268693208694458,
          0.1508106142282486,
          -0.11059601604938507,
          -0.045809581875801086,
          -0.12038466334342957,
          0.10667072236537933,
          -0.06172505021095276,
          -0.0398930162191391,
          -0.19080135226249695,
          -0.11734336614608765,
          -0.18651613593101501,
          -0.1995673030614853,
          -0.168770894408226,
          -0.20283052325248718,
          0.09945650398731232,
          -0.15751327574253082,
          -0.1281771957874298,
          -0.09244002401828766,
          -0.10521167516708374,
          0.11517031490802765,
          0.14171241223812103,
          -0.11059029400348663,
          0.043132439255714417,
          -0.13644371926784515,
          0.01922754943370819,
          0.03718635439872742,
          0.00026015937328338623,
          0.16144029796123505,
          -0.1952095925807953,
          0.10871915519237518,
          -0.09816616028547287,
          0.05694381892681122,
          0.19693876802921295,
          0.11417387425899506,
          -2.175569534301758e-06,
          -0.17555856704711914,
          -0.17419704794883728,
          -0.029781371355056763,
          0.18378807604312897,
          0.16957123577594757,
          0.10923530161380768,
          0.13857866823673248,
          -0.17441827058792114,
          0.17599408328533173,
          0.1377202421426773,
          0.0732155293226242,
          0.05097128450870514,
          0.18631283938884735,
          -0.1106288880109787,
          -0.07374948263168335,
          -0.05870749056339264,
          -0.0690557062625885,
          0.08104385435581207,
          0.1409614533185959,
          -0.17830199003219604,
          -0.1802830547094345,
          0.0981656163930893,
          0.16869176924228668,
          0.00690855085849762,
          0.15019960701465607,
          0.19086353480815887,
          0.07760690152645111,
          0.0896531194448471,
          0.13500292599201202,
          -0.004216998815536499,
          0.1357588917016983,
          -0.1684095561504364,
          0.08207304775714874,
          -0.09314548969268799,
          0.03986872732639313,
          0.015314057469367981,
          0.15913240611553192,
          0.13270045816898346,
          0.008042484521865845,
          0.026109933853149414,
          -0.15606676042079926,
          0.1882943958044052,
          -0.03587864339351654,
          -0.058384597301483154,
          -0.03728823363780975,
          -0.14802828431129456,
          0.1967020183801651,
          0.02146264910697937,
          -0.010696128010749817,
          0.04890607297420502,
          -0.1901843249797821,
          -0.08231639117002487,
          -0.16225680708885193,
          0.12396396696567535,
          -0.021396353840827942,
          -0.05138374865055084,
          0.07998527586460114,
          0.12031368911266327,
          -0.1090211272239685,
          -0.07979294657707214,
          0.0005690455436706543,
          0.13978509604930878,
          0.020281970500946045,
          0.12279127538204193,
          -0.02666965126991272,
          0.18076740205287933,
          -0.139730766415596,
          0.024213522672653198,
          0.13799209892749786,
          -0.07418264448642731,
          -0.050248533487319946,
          0.16536475718021393,
          -0.08707354962825775,
          0.09925775229930878,
          -0.08401906490325928
        ],
        [
          0.08986879885196686,
          0.09791474044322968,
          5.345046520233154e-05,
          0.08700646460056305,
          -0.1468689739704132,
          0.15325097739696503,
          -0.19745472073554993,
          0.09437234699726105,
          -0.06679834425449371,
          0.18481020629405975,
          0.05101950466632843,
          -0.15572194755077362,
          -0.10464653372764587,
          0.07438655197620392,
          -0.13970288634300232,
          -0.12026496976613998,
          -0.09082140028476715,
          0.08397887647151947,
          -0.13373887538909912,
          0.20620720088481903,
          -0.08504155278205872,
          -0.01960378885269165,
          0.16150234639644623,
          0.03751148283481598,
          -0.05369654297828674,
          0.15700919926166534,
          -0.09188371896743774,
          -0.004870578646659851,
          -0.17885440587997437,
          -0.19029271602630615,
          -0.15950676798820496,
          -0.04165482521057129,
          0.13548322021961212,
          0.06401784718036652,
          0.2032640129327774,
          0.07926882803440094,
          -0.09322317689657211,
          0.00596696138381958,
          0.14924640953540802,
          -0.19921676814556122,
          -0.006682395935058594,
          -0.14193491637706757,
          -0.1770121455192566,
          0.10196821391582489,
          0.206736758351326,
          0.19501720368862152,
          0.07276366651058197,
          0.05068771541118622,
          0.18261997401714325,
          0.10347138345241547,
          -0.1018025130033493,
          -0.06997483968734741,
          -0.1338748037815094,
          -0.09152320772409439,
          -0.161859929561615,
          -0.030754506587982178,
          -0.1764480322599411,
          -0.05318401753902435,
          -0.010899141430854797,
          0.07288627326488495,
          0.12618078291416168,
          0.08165143430233002,
          0.12733472883701324,
          0.11947156488895416,
          0.12049068510532379,
          -0.08128467202186584,
          0.04034498333930969,
          0.025139912962913513,
          0.16366936266422272,
          -0.09141097217798233,
          0.1457020789384842,
          0.0822363942861557,
          0.014572858810424805,
          -0.07471950352191925,
          -0.017401471734046936,
          0.12945042550563812,
          -0.0541464239358902,
          0.055805668234825134,
          -0.06879642605781555,
          0.09870253503322601,
          -0.06809085607528687,
          -0.10797988623380661,
          0.13068453967571259,
          0.19815005362033844,
          -0.2050228714942932,
          0.05763743817806244,
          -0.0557623952627182,
          0.17319010198116302,
          0.015997692942619324,
          -0.19475674629211426,
          0.06115250289440155,
          0.02552376687526703,
          -0.19981469213962555,
          0.051385775208473206,
          -0.17301557958126068,
          -0.1587435007095337,
          -0.16197562217712402,
          -0.011890128254890442,
          0.12119258940219879,
          -0.1838708370923996,
          -0.18980994820594788,
          0.11304755508899689,
          -0.16366784274578094,
          0.038678526878356934,
          -0.062195777893066406,
          0.1287742704153061,
          0.13490311801433563,
          0.19032464921474457,
          -0.20162811875343323,
          0.07355625927448273,
          -0.1350584626197815,
          -0.005432024598121643,
          0.15749551355838776,
          0.11575569212436676,
          -0.20174376666545868,
          0.13444043695926666,
          0.1571834832429886,
          -0.17139650881290436,
          -0.10112957656383514,
          0.16510681807994843,
          -0.13528046011924744,
          0.09772978723049164,
          -0.17435050010681152,
          -0.07693900167942047,
          0.022004589438438416,
          -0.18785831332206726,
          0.16829819977283478,
          -0.01654985547065735
        ],
        [
          0.17177344858646393,
          -0.0949728935956955,
          -0.15908882021903992,
          0.0025347471237182617,
          0.052990272641181946,
          0.14690886437892914,
          -0.04183429479598999,
          0.011369556188583374,
          0.1886516958475113,
          0.04811902344226837,
          0.07506565749645233,
          0.023105546832084656,
          0.1382044404745102,
          -0.032735273241996765,
          -0.11351629346609116,
          -0.1808987855911255,
          0.0721488744020462,
          -0.05478876829147339,
          -0.06639188528060913,
          -0.06073163449764252,
          -0.05391138792037964,
          0.17700518667697906,
          0.11733527481555939,
          0.170523539185524,
          -0.03786797821521759,
          -0.1619933843612671,
          0.18008936941623688,
          -0.11079719662666321,
          0.12917529046535492,
          -0.07847495377063751,
          -0.023354366421699524,
          0.02207989990711212,
          0.20324735343456268,
          0.0783674567937851,
          0.14981742203235626,
          0.10591940581798553,
          0.15123532712459564,
          0.1834930032491684,
          0.14085863530635834,
          -0.040363386273384094,
          -0.14080196619033813,
          -0.04585359990596771,
          0.19724534451961517,
          -0.19425354897975922,
          0.1500120609998703,
          0.026933416724205017,
          -0.11423405259847641,
          -0.13982824981212616,
          0.18759922683238983,
          0.08904127776622772,
          0.029045119881629944,
          0.1567574292421341,
          0.09790976345539093,
          -0.001476675271987915,
          -0.059003934264183044,
          -0.12963807582855225,
          -0.0879855751991272,
          0.16597174108028412,
          -0.0708688497543335,
          0.012267768383026123,
          -0.023244693875312805,
          -0.09192507714033127,
          0.044013962149620056,
          0.16881074011325836,
          0.14321617782115936,
          0.05092842876911163,
          0.08046750724315643,
          0.1999313086271286,
          0.20339803397655487,
          0.19004277884960175,
          -0.11590834707021713,
          -0.027082175016403198,
          0.20164071023464203,
          -0.02167437970638275,
          -0.11945497244596481,
          0.01866699755191803,
          0.20502875745296478,
          -0.1242452934384346,
          -0.10383189469575882,
          0.07414878904819489,
          -0.12825503945350647,
          0.12268392741680145,
          -0.05235801637172699,
          -0.1294957399368286,
          0.13088710606098175,
          -0.008123576641082764,
          0.1628604382276535,
          -0.041062891483306885,
          -0.06381770968437195,
          -0.12904879450798035,
          -0.04390162229537964,
          -0.1635439544916153,
          0.039001330733299255,
          -0.17758813500404358,
          0.10725165903568268,
          -0.02580273151397705,
          0.04217366874217987,
          0.13234595954418182,
          -0.1810166984796524,
          -0.06738801300525665,
          -0.11762163788080215,
          0.07611803710460663,
          0.16089390218257904,
          0.09939391911029816,
          -0.10830164700746536,
          0.16606374084949493,
          -0.06406557559967041,
          0.07946200668811798,
          -0.20541086792945862,
          -0.10211046040058136,
          0.035547345876693726,
          0.04073263704776764,
          0.19578032195568085,
          0.11324562132358551,
          0.07313741743564606,
          -0.1667582094669342,
          0.1779724806547165,
          -0.1986025720834732,
          0.17580045759677887,
          -0.09523315727710724,
          -0.04811151325702667,
          -0.10349221527576447,
          0.027243077754974365,
          -0.06314392387866974,
          -0.19758836925029755,
          0.14939580857753754,
          -0.17713533341884613,
          -0.06468752026557922
        ],
        [
          0.1527882069349289,
          -0.08896837383508682,
          -0.11338801681995392,
          0.19198067486286163,
          -0.19542652368545532,
          -0.013005957007408142,
          -0.14407159388065338,
          0.13162674009799957,
          -0.0881844311952591,
          -0.1010701060295105,
          -0.07915736734867096,
          0.2033824771642685,
          0.10457797348499298,
          0.013606682419776917,
          0.05057854950428009,
          0.14693601429462433,
          -0.006716206669807434,
          0.13283847272396088,
          0.12507228553295135,
          0.007759362459182739,
          -0.09627705812454224,
          -0.1829657256603241,
          0.201009139418602,
          0.19790886342525482,
          0.10175858438014984,
          0.014705568552017212,
          0.05358518660068512,
          0.13849268853664398,
          0.17523996531963348,
          -0.08543369919061661,
          -0.16792446374893188,
          0.14726249873638153,
          -0.05219310522079468,
          0.022162631154060364,
          0.1973029524087906,
          -0.08977986127138138,
          0.06667150557041168,
          -0.12874174118041992,
          -0.1555999368429184,
          0.10541753470897675,
          0.001850709319114685,
          -0.1672510802745819,
          0.2054293304681778,
          0.04635138809680939,
          -0.029362037777900696,
          0.17393480241298676,
          0.022884726524353027,
          0.11626969277858734,
          0.039124518632888794,
          -0.1686016023159027,
          0.05002562701702118,
          0.10581980645656586,
          -0.0682159811258316,
          0.1733572632074356,
          -0.0893910676240921,
          0.12481985986232758,
          -0.13540330529212952,
          -0.2013644576072693,
          -0.16927029192447662,
          -0.18932121992111206,
          -0.006756231188774109,
          -0.07725326716899872,
          -0.14958500862121582,
          -0.1185695007443428,
          0.07246969640254974,
          0.16363032162189484,
          0.024053409695625305,
          -0.16501915454864502,
          0.1902691274881363,
          0.036184608936309814,
          0.06764979660511017,
          -0.008072435855865479,
          -0.16341882944107056,
          0.19286324083805084,
          0.008125543594360352,
          -0.11024513840675354,
          0.1665067821741104,
          0.08594201505184174,
          0.019343286752700806,
          -0.04992474615573883,
          0.1862659603357315,
          0.1287059634923935,
          -0.15610665082931519,
          -0.14462119340896606,
          0.03928191959857941,
          -0.2015988528728485,
          0.1746908277273178,
          -0.0935402438044548,
          0.09858788549900055,
          0.038020059466362,
          0.16535596549510956,
          -0.06109623610973358,
          0.044409558176994324,
          -0.12878607213497162,
          0.16305847465991974,
          -0.20635493099689484,
          0.009037971496582031,
          -0.12583208084106445,
          0.1476544588804245,
          0.0955120176076889,
          -0.04994295537471771,
          0.007093831896781921,
          -0.13842472434043884,
          0.1648726612329483,
          -0.1380704939365387,
          0.16978411376476288,
          0.17627529799938202,
          -0.19601032137870789,
          0.13255150616168976,
          0.01905202865600586,
          0.17026375234127045,
          0.11373381316661835,
          -0.1527024209499359,
          -0.09284534305334091,
          -0.116459921002388,
          -0.12072286009788513,
          0.02518334984779358,
          0.032189518213272095,
          0.18176506459712982,
          0.15761317312717438,
          0.100266233086586,
          -0.029563605785369873,
          0.18381811678409576,
          -0.14493313431739807,
          0.08241929113864899,
          -0.08214349299669266,
          0.19639234244823456,
          0.04606844484806061
        ],
        [
          -0.17370367050170898,
          -0.1560400128364563,
          -0.012897372245788574,
          -0.17829889059066772,
          0.024076461791992188,
          0.16176609694957733,
          0.046031489968299866,
          -0.1578483134508133,
          0.1370382159948349,
          -0.06663654744625092,
          -0.10303901880979538,
          0.1616615206003189,
          0.04025144875049591,
          0.005629703402519226,
          -0.1296650767326355,
          -0.008347705006599426,
          -0.16610124707221985,
          -0.06690925359725952,
          0.045559629797935486,
          -0.1927960216999054,
          -0.0755678117275238,
          -0.18180236220359802,
          -0.1590954214334488,
          0.1861509531736374,
          0.16424788534641266,
          0.13909469544887543,
          -0.15050360560417175,
          -0.02623431384563446,
          -0.08788715302944183,
          -0.10899235308170319,
          0.06662671267986298,
          -0.17243577539920807,
          -0.02895389497280121,
          -0.11247757077217102,
          0.1220136433839798,
          -0.024030402302742004,
          0.09461642801761627,
          0.14346612989902496,
          0.006098449230194092,
          -0.013111233711242676,
          0.034142494201660156,
          -0.12518516182899475,
          0.1061670333147049,
          -0.19278718531131744,
          -0.1982484757900238,
          0.05204932391643524,
          0.005580931901931763,
          -0.033759087324142456,
          0.07958133518695831,
          -0.03423163294792175,
          -0.10899072140455246,
          0.029886707663536072,
          0.010754168033599854,
          -0.19523900747299194,
          -0.07146291434764862,
          -0.1846659779548645,
          0.16796307265758514,
          0.06773243844509125,
          0.14324821531772614,
          -0.1482849419116974,
          0.01958109438419342,
          -0.1717001050710678,
          -0.19536368548870087,
          0.0020267069339752197,
          -0.1048455461859703,
          0.19225452840328217,
          -0.11763225495815277,
          0.02189496159553528,
          0.18937619030475616,
          0.1718154102563858,
          -0.13243989646434784,
          0.10518507659435272,
          0.08614553511142731,
          -0.006241336464881897,
          0.1804056614637375,
          0.11074493825435638,
          0.1513453871011734,
          -0.051123037934303284,
          0.09028138220310211,
          0.16798408329486847,
          -0.023641973733901978,
          0.07545720040798187,
          -0.01273888349533081,
          0.13504107296466827,
          -0.05778554081916809,
          -0.03759439289569855,
          0.09076862037181854,
          0.007064163684844971,
          -0.12811031937599182,
          -0.14580729603767395,
          0.11816789209842682,
          -0.20515544712543488,
          0.12126381695270538,
          -0.14035621285438538,
          0.1434134691953659,
          -0.1322026401758194,
          0.029854580760002136,
          -0.008379891514778137,
          0.004631593823432922,
          0.10550926625728607,
          -0.06816820800304413,
          -0.14329278469085693,
          0.1851862519979477,
          0.14271534979343414,
          0.07253386080265045,
          0.045020416378974915,
          -0.026170343160629272,
          -0.14454719424247742,
          -0.03274326026439667,
          -0.14892402291297913,
          0.08486370742321014,
          0.02850879728794098,
          0.1433083862066269,
          -0.037242040038108826,
          0.17428727447986603,
          0.09187038242816925,
          -0.12879160046577454,
          0.18493498861789703,
          -0.02730393409729004,
          0.07651664316654205,
          0.0747484415769577,
          0.11251775920391083,
          -0.14470593631267548,
          -0.08218080550432205,
          0.09163491427898407,
          -0.08241105824708939,
          -0.027087107300758362,
          -0.007086724042892456
        ]
      ],
      "bias": [
        0.0,
        0.0,
        0.0,
        0.0,
        0.0,
        0.0,
        0.0,
        0.0,
        0.0,
        0.0,
        0.0,
        0.0,
        0.0,
        0.0,
        0.0,
        0.0,
        0.0,
        0.0,
        0.0,
        0.0,
        0.0,
        0.0,
        0.0,
        0.0,
        0.0,
        0.0,
        0.0,
        0.0,
        0.0,
        0.0,
        0.0,
        0.0,
        0.0,
        0.0,
        0.0,
        0.0,
        0.0,
        0.0,
        0.0,
        0.0,
        0.0,
        0.0,
        0.0,
        0.0,
        0.0,
        0.0,
        0.0,
        0.0,
        0.0,
        0.0,
        0.0,
        0.0,
        0.0,
        0.0,
        0.0,
        0.0,
        0.0,
        0.0,
        0.0,
        0.0,
        0.0,
        0.0,
        0.0,
        0.0,
        0.0,
        0.0,
        0.0,
        0.0,
        0.0,
        0.0,
        0.0,
        0.0,
        0.0,
        0.0,
        0.0,
        0.0,
        0.0,
        0.0,
        0.0,
        0.0,
        0.0,
        0.0,
        0.0,
        0.0,
        0.0,
        0.0,
        0.0,
        0.0,
        0.0,
        0.0,
        0.0,
        0.0,
        0.0,
        0.0,
        0.0,
        0.0,
        0.0,
        0.0,
        0.0,
        0.0,
        0.0,
        0.0,
        0.0,
        0.0,
        0.0,
        0.0,
        0.0,
        0.0,
        0.0,
        0.0,
        0.0,
        0.0,
        0.0,
        0.0,
        0.0,
        0.0,
        0.0,
        0.0,
        0.0,
        0.0,
        0.0,
        0.0,
        0.0,
        0.0,
        0.0,
        0.0,
        0.0,
        0.0
      ]
    },
    {
      "name": "dense_2",
      "weights": [
        [
          -0.07611984014511108,
          -0.10873027890920639,
          0.17318132519721985,
          -0.10295554995536804,
          -0.19030895829200745,
          -0.06276747584342957,
          -0.15635019540786743,
          -0.07777106761932373,
          0.1652899980545044,
          -0.19385108351707458,
          -0.10819961875677109,
          -0.17019012570381165,
          0.021687716245651245,
          -0.14143221080303192,
          0.18399262428283691,
          0.004211395978927612
        ],
        [
          -0.039063096046447754,
          0.18979677557945251,
          0.02688087522983551,
          -0.1454799920320511,
          -0.15699464082717896,
          0.1571129560470581,
          -0.04876822233200073,
          0.16195303201675415,
          0.0645652711391449,
          -0.0020255744457244873,
          0.10678744316101074,
          0.08180922269821167,
          -0.09531016647815704,
          0.16455653309822083,
          -0.20319528877735138,
          -0.03625626862049103
        ],
        [
          0.05898624658584595,
          -0.18769752979278564,
          -0.0020842552185058594,
          -0.0903639942407608,
          0.03531801700592041,
          -0.0691845566034317,
          -0.0908961147069931,
          -0.06321905553340912,
          0.11984992027282715,
          -0.17081481218338013,
          -0.06119883060455322,
          -0.01496821641921997,
          -0.02049960196018219,
          -0.009861931204795837,
          0.11963245272636414,
          0.19878751039505005
        ],
        [
          0.03201557695865631,
          0.01081828773021698,
          0.08285892009735107,
          -0.10607457160949707,
          0.16198891401290894,
          -0.022366568446159363,
          -0.060893744230270386,
          0.19022083282470703,
          0.1124407947063446,
          0.018068403005599976,
          -0.06713679432868958,
          0.10393226146697998,
          0.12728577852249146,
          0.18760204315185547,
          -0.08669090270996094,
          -0.1485576033592224
        ],
        [
          -0.196219801902771,
          -0.1073431745171547,
          0.15294045209884644,
          0.0815243124961853,
          0.04282909631729126,
          0.11586949229240417,
          -0.06648913025856018,
          0.039115503430366516,
          0.15328797698020935,
          0.020477846264839172,
          0.027057483792304993,
          -0.13191986083984375,
          0.005499124526977539,
          -0.03955380618572235,
          -0.08669610321521759,
          0.049729883670806885
        ],
        [
          -0.06954221427440643,
          -0.02236691117286682,
          0.17679277062416077,
          0.18145877122879028,
          -0.028097882866859436,
          0.09874185919761658,
          -0.1658240109682083,
          0.05623474717140198,
          -0.047168537974357605,
          -0.10747754573822021,
          0.0601782500743866,
          -0.10192133486270905,
          -0.1420108675956726,
          -0.02596062421798706,
          -0.1725035011768341,
          -0.04992137849330902
        ],
        [
          0.09269598126411438,
          -0.11919159442186356,
          0.07702884078025818,
          0.014927968382835388,
          -0.10627498477697372,
          0.18304935097694397,
          0.14624524116516113,
          -0.09017589688301086,
          -0.14819148182868958,
          -0.12473977357149124,
          -0.046409666538238525,
          0.11845672130584717,
          -0.03498879075050354,
          0.026691988110542297,
          0.09551286697387695,
          0.0395188182592392
        ],
        [
          -0.12000778317451477,
          -0.05891956388950348,
          0.04986366629600525,
          -0.037856146693229675,
          -0.11454448103904724,
          -0.025004222989082336,
          0.17192226648330688,
          0.05184471607208252,
          -0.09880202263593674,
          0.09768962860107422,
          -0.12280706316232681,
          0.11922633647918701,
          0.1276354193687439,
          0.09711757302284241,
          -0.19172677397727966,
          0.1749468743801117
        ],
        [
          0.028364673256874084,
          0.1139754056930542,
          -0.09251707047224045,
          0.08684730529785156,
          0.011337310075759888,
          0.02206045389175415,
          0.16091853380203247,
          -0.2036910206079483,
          -0.10009890049695969,
          -0.15973129868507385,
          0.1808096468448639,
          0.01945526897907257,
          0.1991388499736786,
          0.11985960602760315,
          0.040576547384262085,
          0.026891574263572693
        ],
        [
          -0.030107393860816956,
          0.11214211583137512,
          0.19371876120567322,
          -0.015882954001426697,
          -0.12481705844402313,
          -0.043888822197914124,
          -0.06285673379898071,
          0.10557904839515686,
          -0.008709833025932312,
          0.1298416256904602,
          -0.08684488385915756,
          0.16687673330307007,
          -0.15567490458488464,
          -0.11715463548898697,
          0.008896037936210632,
          0.05801337957382202
        ],
        [
          0.020927831530570984,
          -0.0526469349861145,
          0.06390458345413208,
          -0.10317382216453552,
          -0.02085891366004944,
          0.1347355842590332,
          -0.14410850405693054,
          0.002663835883140564,
          -0.0157860666513443,
          0.14411374926567078,
          0.11664056777954102,
          -0.14393939077854156,
          0.16785547137260437,
          0.13854485750198364,
          0.06990805268287659,
          -0.024636253714561462
        ],
        [
          -0.07740387320518494,
          -0.042154476046562195,
          -0.04523596167564392,
          -0.04720839858055115,
          0.1862671971321106,
          -0.025441542267799377,
          -0.12776651978492737,
          0.02143031358718872,
          0.0648011565208435,
          0.04984337091445923,
          0.1966836154460907,
          -0.11065749078989029,
          0.030252858996391296,
          0.18783554434776306,
          -0.1735837161540985,
          0.11653414368629456
        ],
        [
          0.200142502784729,
          0.17969337105751038,
          -0.14059270918369293,
          -0.18830709159374237,
          -0.16027596592903137,
          0.10500466823577881,
          -0.06605926156044006,
          0.10773086547851562,
          -0.05920480191707611,
          -0.11383301764726639,
          0.14625588059425354,
          0.09905537962913513,
          0.1597665250301361,
          -0.048193901777267456,
          -0.026505693793296814,
          -0.1171058714389801
        ],
        [
          0.14792963862419128,
          -0.027235552668571472,
          0.18322265148162842,
          0.09165629744529724,
          0.0127878338098526,
          -0.1357799768447876,
          -0.15681613981723785,
          -0.03333523869514465,
          -0.06162944436073303,
          -0.011766508221626282,
          -0.013073503971099854,
          0.012328803539276123,
          -0.18477489054203033,
          -0.13013485074043274,
          0.07560354471206665,
          0.13896828889846802
        ],
        [
          -0.032542258501052856,
          0.17200776934623718,
          -0.16810128092765808,
          0.06513610482215881,
          -0.06969307363033295,
          -0.19672346115112305,
          0.1441977620124817,
          0.110541433095932,
          -0.06119883060455322,
          -0.06334899365901947,
          0.04875817894935608,
          0.12620201706886292,
          0.014267757534980774,
          0.06165853142738342,
          -0.12938767671585083,
          0.04933115839958191
        ],
        [
          -0.02157042920589447,
          0.1658908724784851,
          -0.051390305161476135,
          -0.0925636887550354,
          0.14771848917007446,
          -0.10346018522977829,
          0.0025783777236938477,
          0.07711395621299744,
          -0.18775330483913422,
          0.17723730206489563,
          -0.1173156276345253,
          -0.11620558053255081,
          -0.02821531891822815,
          -0.013551712036132812,
          -0.05341970920562744,
          0.10316252708435059
        ],
        [
          -0.07351957261562347,
          -0.1481628119945526,
          -0.07312653958797455,
          -0.13387641310691833,
          0.0005910098552703857,
          0.058122843503952026,
          0.04934018850326538,
          -0.09878941625356674,
          -0.04672147333621979,
          -0.13574445247650146,
          0.10167902708053589,
          -0.015532895922660828,
          -0.016538023948669434,
          -0.16920159757137299,
          -0.014447033405303955,
          -0.09111419320106506
        ],
        [
          -0.004628226161003113,
          0.1666792333126068,
          0.12182310223579407,
          0.09629172086715698,
          0.12484979629516602,
          -0.008494392037391663,
          -0.11509645730257034,
          0.042426079511642456,
          0.12403258681297302,
          0.10956811904907227,
          -0.023097112774848938,
          0.08883219957351685,
          -0.025376811623573303,
          0.13984927535057068,
          -0.15153440833091736,
          -0.07310307025909424
        ],
        [
          -0.14664863049983978,
          -0.10232701897621155,
          -0.14568288624286652,
          -0.19547724723815918,
          0.09048905968666077,
          0.025545746088027954,
          -0.10353824496269226,
          0.07452750205993652,
          -0.15694564580917358,
          0.0969533920288086,
          0.093608558177948,
          0.011963710188865662,
          0.05779165029525757,
          0.01209530234336853,
          -0.09599699825048447,
          -0.06210365891456604
        ],
        [
          0.15545809268951416,
          -0.15815263986587524,
          -0.10068003088235855,
          -0.08858555555343628,
          0.12345662713050842,
          -0.013264670968055725,
          -0.0970834419131279,
          0.09052911400794983,
          -0.07414104044437408,
          0.19293838739395142,
          0.1893157660961151,
          -0.07752087712287903,
          -0.15572600066661835,
          -0.09677951782941818,
          0.019392430782318115,
          0.060108065605163574
        ],
        [
          -0.15426018834114075,
          -0.11787836253643036,
          -0.14082717895507812,
          0.18439981341362,
          -0.16274699568748474,
          0.13112303614616394,
          0.1791757047176361,
          -0.17235025763511658,
          -0.0834483653306961,
          -0.20100761950016022,
          -0.2003193199634552,
          -0.10103437304496765,
          0.12235495448112488,
          0.10718759894371033,
          -0.045433416962623596,
          0.07192417979240417
        ],
        [
          -0.10841141641139984,
          -0.07609079778194427,
          -0.1838611215353012,
          0.0273759663105011,
          0.11913889646530151,
          -0.08861231803894043,
          -0.11825504153966904,
          -0.05639846622943878,
          0.06584623456001282,
          -0.17784962058067322,
          -0.12083220481872559,
          0.07389995455741882,
          -0.1520715057849884,
          -0.19000381231307983,
          -0.12384074926376343,
          -0.15793398022651672
        ],
        [
          0.02435310184955597,
          -0.024889469146728516,
          0.15766945481300354,
          -0.013056531548500061,
          0.0477902889251709,
          -0.14115242660045624,
          0.113457590341568,
          -0.0077838897705078125,
          -0.19175660610198975,
          0.13682514429092407,
          0.18742844462394714,
          0.034497156739234924,
          -0.16792312264442444,
          0.13389402627944946,
          0.029887959361076355,
          0.16445720195770264
        ],
        [
          0.19210857152938843,
          0.017804577946662903,
          -0.12769094109535217,
          0.07424271106719971,
          0.08648315072059631,
          0.06774786114692688,
          0.10329228639602661,
          0.013454034924507141,
          0.03215666115283966,
          -0.12752483785152435,
          0.047380417585372925,
          0.047514498233795166,
          -0.02173297107219696,
          -0.14161363244056702,
          0.17507681250572205,
          -0.11175615340471268
        ],
        [
          -0.14678829908370972,
          -0.14583365619182587,
          -0.08358190953731537,
          0.042890071868896484,
          -0.0441005676984787,
          0.06890943646430969,
          -0.13913241028785706,
          0.19288888573646545,
          -0.1714644730091095,
          -0.11371606588363647,
          -0.1831161230802536,
          0.05410206317901611,
          0.005320370197296143,
          -0.13725292682647705,
          0.03352084755897522,
          0.09905451536178589
        ],
        [
          -0.0004841834306716919,
          0.14467096328735352,
          0.07690352201461792,
          0.12215662002563477,
          -0.10638409107923508,
          -0.03235901892185211,
          -0.19353508949279785,
          0.12864083051681519,
          0.05007043480873108,
          -0.048252880573272705,
          -0.05270634591579437,
          0.0008850544691085815,
          -0.034912675619125366,
          0.039036720991134644,
          -0.19964367151260376,
          0.05764779448509216
        ],
        [
          -0.18457865715026855,
          0.10163560509681702,
          -0.14063358306884766,
          -0.1218361034989357,
          -0.15524974465370178,
          -0.026182696223258972,
          -0.1915244162082672,
          0.17436322569847107,
          0.03462378680706024,
          -0.14857038855552673,
          0.17677655816078186,
          -0.17701391875743866,
          -0.14524327218532562,
          0.08215969800949097,
          -0.009068414568901062,
          -0.19491630792617798
        ],
        [
          0.1884947121143341,
          -0.09250811487436295,
          -0.0584699809551239,
          -0.08541407436132431,
          0.02365449070930481,
          -0.15283429622650146,
          -0.1992914229631424,
          0.08583539724349976,
          -0.10095582902431488,
          0.004634648561477661,
          -0.03486420214176178,
          -0.1703891158103943,
          -0.10296519100666046,
          0.1625221073627472,
          0.14582324028015137,
          -0.011256814002990723
        ],
        [
          -0.16936254501342773,
          0.17068397998809814,
          0.2030465304851532,
          -0.09129849821329117,
          0.1737457811832428,
          0.07368221879005432,
          -0.1621905267238617,
          0.19242435693740845,
          0.1651458740234375,
          0.12263011932373047,
          0.10178160667419434,
          0.047673940658569336,
          0.0318850576877594,
          -0.08761041611433029,
          -0.06360960006713867,
          0.15694665908813477
        ],
        [
          -0.16266459226608276,
          0.08671429753303528,
          0.10862582921981812,
          -0.06534336507320404,
          0.06664890050888062,
          -0.12616950273513794,
          -0.05423279106616974,
          -0.12250790745019913,
          0.014784201979637146,
          -0.12497323006391525,
          -0.16745387017726898,
          0.16525396704673767,
          -0.06291191279888153,
          0.06555050611495972,
          0.060009509325027466,
          0.11240693926811218
        ],
        [
          -0.09632934629917145,
          -0.11672408133745193,
          0.16998684406280518,
          0.023638293147087097,
          -0.16335275769233704,
          -0.003669053316116333,
          0.143112450838089,
          0.08868405222892761,
          -0.09337350726127625,
          -0.02872370183467865,
          -0.20148606598377228,
          -0.0768408477306366,
          -0.18086662888526917,
          -0.10006488114595413,
          0.0032834112644195557,
          -0.07556542754173279
        ],
        [
          -0.19010689854621887,
          0.191423237323761,
          0.08090615272521973,
          -0.09057106822729111,
          0.19378021359443665,
          -0.16689035296440125,
          0.004825860261917114,
          -0.1284627914428711,
          -0.12653052806854248,
          0.16113874316215515,
          -0.17315754294395447,
          -0.11478659510612488,
          -0.02732764184474945,
          -0.1621406525373459,
          -0.19300325214862823,
          -0.004759684205055237
        ],
        [
          -0.024367615580558777,
          0.19832843542099,
          0.07604601979255676,
          0.07037314772605896,
          0.15170586109161377,
          -0.019783660769462585,
          -0.20035873353481293,
          0.023311927914619446,
          -0.08515443652868271,
          0.0035849064588546753,
          0.03011561930179596,
          -0.16607357561588287,
          0.02020123600959778,
          -0.09117887169122696,
          0.2010280191898346,
          0.07440763711929321
        ],
        [
          0.03190881013870239,
          -0.053037241101264954,
          0.030762359499931335,
          -0.08357349038124084,
          -0.006404772400856018,
          -0.14430566132068634,
          -0.14644160866737366,
          0.07774913311004639,
          0.13038119673728943,
          -0.18959297239780426,
          -0.09818964451551437,
          -0.1315004974603653,
          0.19965729117393494,
          0.06411111354827881,
          -0.1532163918018341,
          -0.0328218936920166
        ],
        [
          -0.05808570981025696,
          0.06428539752960205,
          -0.15045268833637238,
          -0.13702493906021118,
          0.11472493410110474,
          -0.020446956157684326,
          0.06279006600379944,
          0.10095170140266418,
          -0.1310562640428543,
          0.09341961145401001,
          0.0019019097089767456,
          -0.1979902684688568,
          -0.1816120147705078,
          -0.06828401982784271,
          -0.1946704387664795,
          -0.057930365204811096
        ],
        [
          0.05661290884017944,
          -0.08776795119047165,
          0.10684096813201904,
          -0.09690789878368378,
          0.08725938200950623,
          0.0009442418813705444,
          0.019306674599647522,
          0.055327028036117554,
          -0.01843126118183136,
          -0.13686087727546692,
          0.13233211636543274,
          -0.08560796082019806,
          -0.1828416883945465,
          0.18129169940948486,
          -0.15750940144062042,
          0.046124428510665894
        ],
        [
          -0.048264071345329285,
          -0.1643984019756317,
          -0.10512872785329819,
          -0.14225687086582184,
          -0.06955613195896149,
          0.15978741645812988,
          -0.01729460060596466,
          -0.19794923067092896,
          -0.12037989497184753,
          -0.023114293813705444,
          -0.19104154407978058,
          0.062061458826065063,
          -0.02303306758403778,
          -0.06728421151638031,
          0.039073601365089417,
          -0.19926178455352783
        ],
        [
          -0.1061951220035553,
          -0.1376173049211502,
          0.1697995662689209,
          0.08617579936981201,
          0.157154381275177,
          -0.021161139011383057,
          -0.19381044805049896,
          0.07276225090026855,
          0.19399362802505493,
          -0.0791313573718071,
          0.010801836848258972,
          -0.16326695680618286,
          -0.0686405599117279,
          0.0733671486377716,
          0.09228506684303284,
          0.010841503739356995
        ],
        [
          0.03867916762828827,
          0.04380248486995697,
          0.13721048831939697,
          0.008727937936782837,
          -0.060486748814582825,
          -0.18218585848808289,
          0.09699049592018127,
          -0.18857622146606445,
          0.0809834897518158,
          0.08467599749565125,
          0.0912332832813263,
          0.04246413707733154,
          0.06285744905471802,
          -0.10245116800069809,
          0.15333378314971924,
          0.16014307737350464
        ],
        [
          0.12793850898742676,
          0.0014743208885192871,
          0.15536025166511536,
          0.0703301727771759,
          0.08505767583847046,
          -0.19054114818572998,
          -0.13573068380355835,
          0.09600046277046204,
          -0.04239775240421295,
          -0.054724037647247314,
          -0.08118446916341782,
          0.07655107975006104,
          -0.11296138912439346,
          0.09630554914474487,
          -0.06536833941936493,
          -0.08205346763134003
        ],
        [
          -0.1372709423303604,
          -0.08114402741193771,
          -0.07541018724441528,
          0.17372938990592957,
          -0.04703207314014435,
          0.10791385173797607,
          0.11566504836082458,
          -0.05367438495159149,
          -0.030329659581184387,
          0.08241945505142212,
          0.07144814729690552,
          0.11574795842170715,
          -0.09115429222583771,
          -0.05964967608451843,
          -0.019850149750709534,
          0.1043078601360321
        ],
        [
          0.14561426639556885,
          0.09468066692352295,
          -0.2035188376903534,
          0.18200832605361938,
          -0.05793766677379608,
          -0.18909335136413574,
          0.0690397322177887,
          0.16412904858589172,
          -0.15979918837547302,
          0.09427890181541443,
          0.09046819806098938,
          0.06041267514228821,
          0.19989445805549622,
          -0.15360231697559357,
          -0.13901667296886444,
          0.11755505204200745
        ],
        [
          0.00878731906414032,
          -0.0822218582034111,
          -0.08611283451318741,
          0.19792738556861877,
          -0.03818508982658386,
          0.1682651937007904,
          -0.12644287943840027,
          0.09263113141059875,
          -0.15938541293144226,
          0.15330657362937927,
          0.07375824451446533,
          -0.047759056091308594,
          -0.036589935421943665,
          -0.0873498022556305,
          -0.1786709725856781,
          0.1947793960571289
        ],
        [
          0.12488868832588196,
          0.02937529981136322,
          0.012545481324195862,
          0.18036016821861267,
          0.10584509372711182,
          -0.022839084267616272,
          0.15090203285217285,
          0.08579197525978088,
          0.03674989938735962,
          0.11068198084831238,
          -0.10528134554624557,
          -0.14261506497859955,
          -0.03018765151500702,
          -0.003972887992858887,
          -0.09834931790828705,
          0.09868216514587402
        ],
        [
          -0.1992446482181549,
          0.1139521598815918,
          -0.001301690936088562,
          -0.18065965175628662,
          0.0993148684501648,
          0.12360107898712158,
          -0.08372070640325546,
          -0.04580231010913849,
          0.06300696730613708,
          -0.004552215337753296,
          0.030092701315879822,
          0.10184386372566223,
          -0.10835311561822891,
          -0.08044332265853882,
          -0.08616850525140762,
          -0.12272349745035172
        ],
        [
          0.011672288179397583,
          -0.04588620364665985,
          -0.09849230200052261,
          -0.05962669849395752,
          -0.11253287643194199,
          0.15475359559059143,
          0.18912485241889954,
          -0.16636665165424347,
          0.04862067103385925,
          0.08474928140640259,
          0.1423620879650116,
          -0.04832276701927185,
          -0.006498545408248901,
          0.2040252685546875,
          -0.037527114152908325,
          -0.04283629357814789
        ],
        [
          -0.14702190458774567,
          -0.19527600705623627,
          0.11517807841300964,
          -0.17968378961086273,
          -0.16751104593276978,
          0.006854206323623657,
          0.18583160638809204,
          0.1513288915157318,
          0.1849766969680786,
          -0.0056878626346588135,
          -0.005132853984832764,
          0.048270344734191895,
          -0.1994723677635193,
          0.1592426896095276,
          0.09742650389671326,
          0.024430543184280396
        ],
        [
          0.14888843894004822,
          0.1247502863407135,
          -0.08443956077098846,
          -0.0027650147676467896,
          -0.05570535361766815,
          -0.11521272361278534,
          -0.18646767735481262,
          0.16865861415863037,
          -0.14975255727767944,
          0.16011303663253784,
          -0.1370238959789276,
          -0.14823205769062042,
          0.12476587295532227,
          0.03201630711555481,
          0.13236618041992188,
          0.036117181181907654
        ],
        [
          -0.0908643826842308,
          -0.015820860862731934,
          0.11112105846405029,
          -0.01366107165813446,
          0.14583340287208557,
          0.13623467087745667,
          -0.09453669935464859,
          -0.05372597277164459,
          0.1476370096206665,
          -0.12291150540113449,
          0.10972756147384644,
          0.10839655995368958,
          -0.20271509885787964,
          -0.05788154900074005,
          0.09498408436775208,
          0.18723252415657043
        ],
        [
          -0.10435175895690918,
          0.07349425554275513,
          -0.03386428952217102,
          0.12765610218048096,
          0.0009998083114624023,
          0.1577543318271637,
          -0.008378356695175171,
          -0.09263474494218826,
          0.17438486218452454,
          -0.17866790294647217,
          0.007325261831283569,
          0.09320089221000671,
          -0.05742408335208893,
          -0.10775217413902283,
          0.17739814519882202,
          0.011389389634132385
        ],
        [
          0.04982262849807739,
          0.17620092630386353,
          0.08665207028388977,
          0.18724516034126282,
          -0.0973091572523117,
          -0.14270544052124023,
          -0.1566615253686905,
          0.09390592575073242,
          -0.13720130920410156,
          -0.041076257824897766,
          -0.19508017599582672,
          0.2017078399658203,
          0.06878051161766052,
          -0.07991791516542435,
          -0.02157631516456604,
          -0.19151107966899872
        ],
        [
          0.05190479755401611,
          -0.155508890748024,
          -0.17245936393737793,
          -0.0597609281539917,
          0.027215898036956787,
          0.16457992792129517,
          0.09049490094184875,
          0.07536989450454712,
          0.15708467364311218,
          0.18163293600082397,
          -0.00932401418685913,
          0.15014928579330444,
          0.12775123119354248,
          0.16689643263816833,
          0.011947646737098694,
          -0.05759119987487793
        ],
        [
          -0.07562616467475891,
          0.16300177574157715,
          -0.09387200325727463,
          -0.022896945476531982,
          0.08768722414970398,
          0.006853669881820679,
          0.06943538784980774,
          0.021262213587760925,
          0.10092687606811523,
          -0.17314094305038452,
          -0.13478133082389832,
          0.13462939858436584,
          -0.15094685554504395,
          0.035501107573509216,
          -0.194915771484375,
          -0.16932356357574463
        ],
        [
          -0.0786438137292862,
          -0.17367297410964966,
          0.18741974234580994,
          -0.15445467829704285,
          0.054008543491363525,
          -0.19587747752666473,
          -0.058139100670814514,
          -0.1779792308807373,
          -0.042571648955345154,
          0.1482023298740387,
          0.07506746053695679,
          -0.017682522535324097,
          0.12474337220191956,
          -0.0033369511365890503,
          0.08799561858177185,
          -0.15911385416984558
        ],
        [
          -0.15500479936599731,
          -0.18853440880775452,
          0.13965445756912231,
          -0.006812453269958496,
          -0.18642479181289673,
          -0.1603574901819229,
          0.024046123027801514,
          0.12575861811637878,
          -0.03819283843040466,
          0.05545681715011597,
          0.017533794045448303,
          -0.10448028892278671,
          0.06871923804283142,
          0.15455254912376404,
          0.06961101293563843,
          0.09402507543563843
        ],
        [
          0.03953413665294647,
          -0.06187117099761963,
          -0.13234809041023254,
          0.18330907821655273,
          0.18033519387245178,
          -0.07974033057689667,
          0.027636677026748657,
          -0.1149706095457077,
          -0.023788079619407654,
          0.16682785749435425,
          -0.17254638671875,
          -0.12219785153865814,
          -0.10503879189491272,
          0.07341718673706055,
          -0.04248608648777008,
          0.023623690009117126
        ],
        [
          -0.04182523488998413,
          0.11326900124549866,
          0.05183321237564087,
          0.08580905199050903,
          0.011019080877304077,
          0.10388720035552979,
          -0.14320199191570282,
          -0.06607313454151154,
          -0.15429046750068665,
          -0.07653507590293884,
          -0.041812434792518616,
          0.19253000617027283,
          -0.07847854495048523,
          -0.11963377892971039,
          -0.09949776530265808,
          -0.0841689258813858
        ],
        [
          0.080159991979599,
          0.11360648274421692,
          0.06958410143852234,
          0.029715240001678467,
          0.032804667949676514,
          0.009409859776496887,
          0.12590375542640686,
          -0.07924231886863708,
          -0.16313768923282623,
          0.04043617844581604,
          0.14890998601913452,
          0.11906379461288452,
          0.010846808552742004,
          -0.08407324552536011,
          -0.005589693784713745,
          -0.09318137168884277
        ],
        [
          -0.05776163935661316,
          -0.1299116611480713,
          0.051874250173568726,
          -0.18639042973518372,
          0.020832926034927368,
          -0.16638100147247314,
          -0.09117746353149414,
          0.00875091552734375,
          -0.08022013306617737,
          -0.1826009303331375,
          -0.11201871186494827,
          -0.1450844705104828,
          0.10323148965835571,
          0.15990561246871948,
          0.1961168646812439,
          0.028793632984161377
        ],
        [
          0.0035427063703536987,
          0.1661452054977417,
          0.17137685418128967,
          0.075665682554245,
          -0.08905879408121109,
          0.018149137496948242,
          0.18673357367515564,
          -0.026813611388206482,
          0.09230929613113403,
          0.1963272988796234,
          0.0400400310754776,
          -0.07697924971580505,
          -0.194574236869812,
          -0.19388175010681152,
          0.13550394773483276,
          -0.12383398413658142
        ],
        [
          -0.030700743198394775,
          0.04800224304199219,
          0.08762943744659424,
          0.12710925936698914,
          -0.08908259123563766,
          -0.12988021969795227,
          -0.17571859061717987,
          0.17679637670516968,
          -0.09187933802604675,
          0.16242310404777527,
          0.09441742300987244,
          0.01577228307723999,
          -0.17637594044208527,
          -0.1721680909395218,
          0.08988043665885925,
          -0.020767658948898315
        ],
        [
          0.17272138595581055,
          -0.15132178366184235,
          -0.08228332549333572,
          0.021322861313819885,
          0.13607534766197205,
          0.19864362478256226,
          -0.13771292567253113,
          -0.07319578528404236,
          -0.17602208256721497,
          -0.025560587644577026,
          -0.1507788598537445,
          0.030513674020767212,
          0.17286601662635803,
          -0.1289205551147461,
          0.10070106387138367,
          0.018133416771888733
        ],
        [
          0.06627130508422852,
          0.18524038791656494,
          -0.17173592746257782,
          0.10860896110534668,
          0.054337531328201294,
          0.038802966475486755,
          -0.07522237300872803,
          0.08960333466529846,
          0.03151990473270416,
          -0.038755714893341064,
          0.16012144088745117,
          0.1375330686569214,
          -0.12754382193088531,
          0.14907005429267883,
          -0.03145270049571991,
          -0.05908079445362091
        ],
        [
          0.18125948309898376,
          -0.10275110602378845,
          -0.12040602415800095,
          0.009230375289916992,
          -0.05314134061336517,
          0.04050441086292267,
          0.008783221244812012,
          0.18764230608940125,
          0.16637113690376282,
          -0.009537070989608765,
          0.05520427227020264,
          -0.15656588971614838,
          0.02136199176311493,
          0.025186672806739807,
          0.004124969244003296,
          0.12816277146339417
        ],
        [
          -0.11787018179893494,
          -0.14889299869537354,
          -0.030440136790275574,
          -0.1225924864411354,
          0.06882902979850769,
          -0.1690550148487091,
          -0.04902440309524536,
          0.16675320267677307,
          0.08657583594322205,
          0.1296493411064148,
          -0.02833552658557892,
          -0.04485982656478882,
          -0.11914131790399551,
          0.02243596315383911,
          -0.013388782739639282,
          -0.08589636534452438
        ],
        [
          0.11312222480773926,
          0.19505691528320312,
          -0.2005264014005661,
          -0.16013357043266296,
          0.11900299787521362,
          0.06481298804283142,
          -0.06578268110752106,
          0.09270191192626953,
          -0.12239986658096313,
          -0.12265302985906601,
          -0.19881881773471832,
          -0.127707839012146,
          -0.16300749778747559,
          -0.16711266338825226,
          -0.15864971280097961,
          0.1076529324054718
        ],
        [
          -0.0647914856672287,
          0.15726640820503235,
          0.1743183434009552,
          -0.0545889288187027,
          0.07196086645126343,
          0.12088680267333984,
          -0.1726372390985489,
          -0.03559936583042145,
          0.01691800355911255,
          -0.14483767747879028,
          0.15133929252624512,
          0.041615188121795654,
          0.09129410982131958,
          -0.17400449514389038,
          -0.013987034559249878,
          0.03410296142101288
        ],
        [
          0.16196611523628235,
          0.18138226866722107,
          0.17234456539154053,
          0.0325833261013031,
          0.06147930026054382,
          -0.10627702623605728,
          0.11987608671188354,
          -0.03733605146408081,
          0.10048070549964905,
          -0.05646558105945587,
          0.0669359564781189,
          -0.1818544864654541,
          -0.14177103340625763,
          0.16205957531929016,
          -0.006362423300743103,
          -0.03890205919742584
        ],
        [
          -0.10906199365854263,
          -0.02818763256072998,
          0.06275704503059387,
          -0.17203211784362793,
          -0.03157883882522583,
          -0.010077625513076782,
          -0.0008023232221603394,
          0.09207314252853394,
          0.04025810956954956,
          -0.05253519117832184,
          -0.17020384967327118,
          0.08690088987350464,
          0.10789749026298523,
          -0.04945091903209686,
          -0.1552020013332367,
          0.18269124627113342
        ],
        [
          -0.011559486389160156,
          0.16112643480300903,
          0.09915947914123535,
          0.030278891324996948,
          -0.19501879811286926,
          0.032975390553474426,
          -0.15559303760528564,
          -0.04532863199710846,
          -0.18525411188602448,
          0.04863205552101135,
          0.12628579139709473,
          -0.09309752285480499,
          -0.09944286942481995,
          0.19743779301643372,
          0.11511126160621643,
          -0.09478217363357544
        ],
        [
          -0.16562315821647644,
          0.08243083953857422,
          -0.17091628909111023,
          0.09463837742805481,
          -0.018073946237564087,
          0.021264895796775818,
          -0.0986429750919342,
          -0.09036048501729965,
          0.17245399951934814,
          0.02919761836528778,
          -0.06861846148967743,
          -0.009134650230407715,
          0.13449755311012268,
          -0.17536453902721405,
          -0.2032959908246994,
          -0.037059471011161804
        ],
        [
          -0.16441558301448822,
          0.07065746188163757,
          0.11189037561416626,
          -0.024472832679748535,
          0.04248000681400299,
          0.11224612593650818,
          -0.060893937945365906,
          0.053018540143966675,
          0.12930482625961304,
          0.14222478866577148,
          -0.07231369614601135,
          0.1080862283706665,
          0.012330904603004456,
          0.18790695071220398,
          0.14619234204292297,
          0.18410509824752808
        ],
        [
          0.16629618406295776,
          -0.13939501345157623,
          -0.06148149073123932,
          -0.09786294400691986,
          0.1344778835773468,
          -0.014811456203460693,
          0.11296188831329346,
          0.018482357263565063,
          0.023400500416755676,
          -0.14111967384815216,
          0.039307788014411926,
          0.00542120635509491,
          0.09361407160758972,
          -0.011969596147537231,
          -0.049903661012649536,
          -0.08290300518274307
        ],
        [
          0.1708238124847412,
          0.011446088552474976,
          0.161627858877182,
          0.08335384726524353,
          0.16050627827644348,
          0.15865755081176758,
          -0.08838246762752533,
          -0.08609643578529358,
          -0.0347377210855484,
          -0.04996538162231445,
          -0.13128125667572021,
          0.12417319416999817,
          -0.11871368438005447,
          0.08678385615348816,
          0.0988939106464386,
          -0.06044328212738037
        ],
        [
          -0.1774606704711914,
          -0.19800987839698792,
          0.19309201836585999,
          -0.0924825668334961,
          0.0755302906036377,
          -0.05484400689601898,
          0.0229509174823761,
          0.061699479818344116,
          0.14544713497161865,
          -0.0004065185785293579,
          -0.06960056722164154,
          -0.09411212801933289,
          0.057649850845336914,
          -0.046523645520210266,
          -0.13079819083213806,
          -0.12262441217899323
        ],
        [
          -0.18118257820606232,
          0.08004105091094971,
          0.09423366189002991,
          -0.1402057558298111,
          -0.06223364174365997,
          -0.07264088094234467,
          -0.17264454066753387,
          -0.014797002077102661,
          -0.16475173830986023,
          0.061939120292663574,
          -0.18862055242061615,
          -0.1879182904958725,
          0.06065869331359863,
          0.06274840235710144,
          -0.11582650989294052,
          0.18424534797668457
        ],
        [
          0.01283976435661316,
          0.0027826279401779175,
          0.14604413509368896,
          0.09003204107284546,
          -0.16724766790866852,
          -0.0003667473793029785,
          0.12416157126426697,
          -0.10953036695718765,
          -0.07009901106357574,
          -0.06450137495994568,
          0.09730765223503113,
          0.1574811339378357,
          -0.09281695634126663,
          0.12688744068145752,
          -0.17674225568771362,
          -0.02915780246257782
        ],
        [
          -0.09441114217042923,
          0.11873391270637512,
          -0.03259266912937164,
          -0.2015751749277115,
          -0.06878349184989929,
          0.07264235615730286,
          0.013681650161743164,
          -0.0477432906627655,
          -0.08962327986955643,
          0.017313525080680847,
          0.11062249541282654,
          -0.01339729130268097,
          0.1824420690536499,
          0.1415758728981018,
          0.19002532958984375,
          0.09095528721809387
        ],
        [
          -0.09838888794183731,
          0.03271882236003876,
          0.006797268986701965,
          0.1867847740650177,
          -0.17845235764980316,
          0.033724427223205566,
          -0.17277249693870544,
          -0.13910996913909912,
          0.011091738939285278,
          -0.1792600452899933,
          -0.17199167609214783,
          0.04238048195838928,
          0.015439942479133606,
          -0.07319486141204834,
          -0.19568437337875366,
          0.05353766679763794
        ],
        [
          0.1752673089504242,
          0.16749843955039978,
          -0.18661999702453613,
          -0.1943710893392563,
          -0.07870697975158691,
          0.14383754134178162,
          0.077574223279953,
          0.19542351365089417,
          -0.09206733852624893,
          0.05651006102561951,
          0.0061435699462890625,
          0.024270325899124146,
          0.05597788095474243,
          -0.12056107819080353,
          -0.13569894433021545,
          -0.005914151668548584
        ],
        [
          0.025040388107299805,
          -0.15376082062721252,
          -0.03979729115962982,
          -0.17267252504825592,
          0.06279730796813965,
          -0.12484806030988693,
          0.04452820122241974,
          -0.14320510625839233,
          -0.022082597017288208,
          -0.03418023884296417,
          -0.06286835670471191,
          0.03462846577167511,
          0.04929205775260925,
          -0.10050458461046219,
          0.012872859835624695,
          0.10284212231636047
        ],
        [
          -0.09730803966522217,
          -0.15761762857437134,
          -0.1387965977191925,
          0.04336199164390564,
          0.10549041628837585,
          -0.12092209607362747,
          0.017042115330696106,
          -0.19183607399463654,
          -0.06678920984268188,
          -0.14812305569648743,
          0.16731327772140503,
          -0.12365221232175827,
          -0.1299615502357483,
          -0.0872846394777298,
          0.019165843725204468,
          -0.11187134683132172
        ],
        [
          -0.03664487600326538,
          -0.06307105720043182,
          -0.053937673568725586,
          -0.08398647606372833,
          -0.17321506142616272,
          0.027143776416778564,
          -0.06727656722068787,
          -0.16922986507415771,
          -0.1674979031085968,
          0.05878341197967529,
          -0.15062955021858215,
          -0.178489550948143,
          0.17950722575187683,
          -0.19224877655506134,
          -0.11296640336513519,
          0.18844327330589294
        ],
        [
          -0.028886541724205017,
          0.18551424145698547,
          -0.07510527968406677,
          0.19295093417167664,
          0.10472625494003296,
          -0.11232205480337143,
          0.06654524803161621,
          0.19934988021850586,
          -0.04656870663166046,
          -0.015294179320335388,
          -0.17341791093349457,
          0.006388172507286072,
          -0.01643688976764679,
          -0.029979348182678223,
          0.20298010110855103,
          0.0438714474439621
        ],
        [
          -0.0647173672914505,
          0.02634480595588684,
          0.09598731994628906,
          0.1513235867023468,
          -0.14855140447616577,
          -0.18503938615322113,
          0.08351191878318787,
          0.18181243538856506,
          -0.10175527632236481,
          0.10231947898864746,
          0.0022828280925750732,
          -0.11685065925121307,
          0.05831629037857056,
          -0.07122497260570526,
          0.05826461315155029,
          0.1586029827594757
        ],
        [
          0.052003294229507446,
          -0.07834859192371368,
          -0.035168856382369995,
          -0.19002215564250946,
          0.13701319694519043,
          0.07532384991645813,
          0.047210872173309326,
          0.07198140025138855,
          -0.14670483767986298,
          0.15875741839408875,
          0.1318826675415039,
          0.011482879519462585,
          -0.10938796401023865,
          -0.12680292129516602,
          -0.125941663980484,
          -0.16070200502872467
        ],
        [
          0.1729797124862671,
          0.04197084903717041,
          0.15825477242469788,
          0.007653564214706421,
          0.015390247106552124,
          -0.016934752464294434,
          0.047243088483810425,
          0.12048077583312988,
          -0.09018918126821518,
          0.12560248374938965,
          -0.11878765374422073,
          0.13866236805915833,
          0.1310243308544159,
          0.1659955084323883,
          -0.04667314887046814,
          -0.17515084147453308
        ],
        [
          0.13163787126541138,
          0.09259527921676636,
          0.17097333073616028,
          0.1108170747756958,
          0.11986815929412842,
          -0.09793900698423386,
          -0.043164998292922974,
          -0.16854619979858398,
          0.16832324862480164,
          -0.11706464737653732,
          -0.09537454694509506,
          0.05785068869590759,
          -0.06886602938175201,
          0.20142436027526855,
          -0.15038138628005981,
          -0.15549039840698242
        ],
        [
          -0.20069727301597595,
          0.1903337836265564,
          -0.13375066220760345,
          -0.02703903615474701,
          0.18460634350776672,
          -0.0006022602319717407,
          -0.1517011821269989,
          -0.16339921951293945,
          0.16211694478988647,
          0.19861510396003723,
          -0.19793131947517395,
          -0.07478456199169159,
          -0.0721718817949295,
          -0.13139785826206207,
          0.027618765830993652,
          0.11168023943901062
        ],
        [
          0.03276519477367401,
          -0.11971043050289154,
          -0.1927027851343155,
          0.02899681031703949,
          0.06483197212219238,
          -0.01580810546875,
          -0.009860023856163025,
          0.09394904971122742,
          -0.1903384029865265,
          0.03204108774662018,
          -0.06034371256828308,
          0.17393216490745544,
          0.15365853905677795,
          0.19796842336654663,
          0.013058185577392578,
          -0.057169109582901
        ],
        [
          -0.16916456818580627,
          -0.03804892301559448,
          -0.04597464203834534,
          0.12012749910354614,
          0.08308568596839905,
          0.1430845558643341,
          -0.11562065035104752,
          0.02565227448940277,
          0.11470100283622742,
          -0.03467591106891632,
          0.12383520603179932,
          -0.10718081891536713,
          0.09990456700325012,
          -0.1221894770860672,
          -0.15980930626392365,
          -0.19065240025520325
        ],
        [
          -0.2024800330400467,
          0.10784265398979187,
          0.06729587912559509,
          0.19397670030593872,
          0.17417150735855103,
          -0.09384110569953918,
          -0.1593836545944214,
          0.04479071497917175,
          -0.022607281804084778,
          -0.1513335108757019,
          -0.11718125641345978,
          -0.13286691904067993,
          0.04617777466773987,
          -0.18235915899276733,
          -0.13598042726516724,
          -0.027759790420532227
        ],
        [
          0.0015243887901306152,
          0.07420289516448975,
          -0.1690531075000763,
          0.08389019966125488,
          0.0018305182456970215,
          -0.016893625259399414,
          0.031065404415130615,
          0.1116940975189209,
          0.13319450616836548,
          0.03712731599807739,
          0.03175467252731323,
          0.15345525741577148,
          0.14459800720214844,
          0.00328044593334198,
          -0.1370949149131775,
          -0.006968438625335693
        ],
        [
          -0.0884074792265892,
          0.09640789031982422,
          0.06581538915634155,
          0.1754370927810669,
          0.07161810994148254,
          0.09540632367134094,
          0.004803285002708435,
