{
  "input_features": [
    "queue_len",
    "io_type",
    "size",
    "prev_queue_len_1",
    "prev_queue_len_2",
    "prev_queue_len_3",
    "prev_latency_1",
    "prev_latency_2",
    "prev_latency_3",
    "prev_throughput_1",
    "prev_throughput_2",
    "prev_throughput_3"
  ],
  "scaler_min": [
    1.0,
    0.0,
    512.0,
    1.0,
    1.0,
    1.0,
    16.0,
    16.0,
    16.0,
    2.0,
    2.0,
    2.0
  ],
  "scaler_scale": [
    7.0,
    1.0,
    523776.0,
    7.0,
    7.0,
    7.0,
    1038.0,
    1038.0,
    1038.0,
    5294.0,
    5294.0,
    5294.0
  ],
  "layers": [
    {
      "name": "dense_1",
      "weights": [
        [
          0.10305006802082062,
          0.0908120721578598,
          -0.19329804182052612,
          0.0060339272022247314,
          0.13893289864063263,
          -0.1370631456375122,
          0.05720697343349457,
          0.1623801440000534,
          0.1233743280172348,
          0.033421874046325684,
          -0.15404760837554932,
          -0.05934153497219086,
          -0.01598486304283142,
          -0.1339615285396576,
          0.12932594120502472,
          0.1899413913488388,
          -0.08453386276960373,
          -0.13471339643001556,
          -0.13674232363700867,
          0.14468590915203094,
          -0.029728621244430542,
          -0.09591423720121384,
          -0.09778270870447159,
          -0.1360425353050232,
          0.00823715329170227,
          0.0950949639081955,
          0.07227455079555511,
          0.12764419615268707,
          -0.20150527358055115,
          0.16462309658527374,
          0.03671199083328247,
          -0.17871733009815216,
          0.10852329432964325,
          0.06817303597927094,
          0.15945927798748016,
          0.12496133148670197,
          0.10663573443889618,
          -0.17584553360939026,
          0.055911704897880554,
          0.19584481418132782,
          0.0461382120847702,
          0.15913619101047516,
          0.04821358621120453,
          -0.1624598652124405,
          -0.027547910809516907,
          -0.16097313165664673,
          0.02240172028541565,
          -0.06538356840610504,
          0.1424909383058548,
          -0.05497923493385315,
          -0.05419421195983887,
          0.19782839715480804,
          0.05241502821445465,
          -0.1069648489356041,
          0.1756553202867508,
          -0.15618665516376495,
          -0.19518408179283142,
          0.02501508593559265,
          -0.13863162696361542,
          0.05320562422275543,
          -0.1688753366470337,
          -0.009117528796195984,
          0.13525064289569855,
          -0.09839710593223572,
          -0.20513422787189484,
          0.02667596936225891,
          0.03446963429450989,
          -0.18605691194534302,
          0.16364248096942902,
          -0.1885880082845688,
          -0.04348909854888916,
          0.1828659325838089,
          -0.06355255842208862,
          0.11473621428012848,
          -0.08712615817785263,
          -0.022690609097480774,
          -0.0992906242609024,
          0.0192374587059021,
          -0.11574339866638184,
          -0.04957525432109833,
          -0.14493529498577118,
          -0.13663098216056824,
          0.04711206257343292,
          0.06826044619083405,
          -0.11010456830263138,
          -0.0879409983754158,
          -0.022061049938201904,
          0.1999346762895584,
          -0.1601206362247467,
          -0.0938245952129364,
          -0.05008772015571594,
          -0.06198111176490784,
          -0.16641369462013245,
          0.03839896619319916,
          -0.09631486982107162,
          -0.12922847270965576,
          -0.18287964165210724,
          0.029845833778381348,
          -0.092995785176754,
          0.20315177738666534,
          0.09456263482570648,
          -0.15014594793319702,
          0.10447876155376434,
          0.20342247188091278,
          -0.20377837121486664,
          -0.1529923975467682,
          0.03851155936717987,
          0.05450914800167084,
          0.15511731803417206,
          0.013275638222694397,
          -0.05248802900314331,
          -0.14581455290317535,
          -0.08380056172609329,
          0.20472969114780426,
          0.19872261583805084,
          -0.09995314478874207,
          0.05955787003040314,
          -0.20012781023979187,
          0.10157133638858795,
          0.012000009417533875,
          -0.04028293490409851,
          -0.06910273432731628,
          0.1454300433397293,
          0.15971289575099945,
          0.010940402746200562,
          0.14699463546276093,
          -0.040173858404159546,
          -0.12027869373559952
        ],
        [
          0.12575380504131317,
          -0.18146950006484985,
          -0.14174795150756836,
          0.03576280176639557,
          -0.07655589282512665,
          0.022953227162361145,
          0.05863438546657562,
          0.1290469616651535,
          0.06287644803524017,
          -0.08142538368701935,
          -0.11933612078428268,
          0.18837250769138336,
          -0.06017804145812988,
          -0.029103755950927734,
          0.189313605427742,
          -0.01825214922428131,
          -0.0426652729511261,
          -0.09847982972860336,
          -0.12095429748296738,
          -0.19954326748847961,
          -0.08609074354171753,
          0.13199730217456818,
          -0.0433586984872818,
          -0.10470996052026749,
          0.1493310183286667,
          -0.19580873847007751,
          -0.1201062873005867,
          0.05312512814998627,
          -0.07067383825778961,
          -0.1769910603761673,
          0.12177072465419769,
          -0.034103408455848694,
          -0.09932537376880646,
          0.1549893468618393,
          0.0031799525022506714,
          0.07314373552799225,
          -0.18988429009914398,
          -0.12164979428052902,
          -0.016224145889282227,
          0.06734086573123932,
          -0.11509361118078232,
          -0.01613985002040863,
          -0.02607567608356476,
          -0.20379017293453217,
          -0.09358121454715729,
          -0.20425072312355042,
          -0.19393934309482574,
          0.04636223614215851,
          0.15014071762561798,
          0.19733916223049164,
          -0.117503821849823,
          -0.09862207621335983,
          0.121879443526268,
          0.053083375096321106,
          0.15957029163837433,
          0.09603352844715118,
          0.03858904540538788,
          -0.08385021984577179,
          -0.1921166628599167,
          -0.2061414122581482,
          0.06215567886829376,
          0.12680678069591522,
          0.018030136823654175,
          -0.14209942519664764,
          0.1777373105287552,
          -0.06729097664356232,
          0.11191178858280182,
          -0.16983716189861298,
          0.1678094118833542,
          -0.12860004603862762,
          -0.16611656546592712,
          0.08213149011135101,
          0.0010410994291305542,
          -0.15038947761058807,
          -0.04872812330722809,
          0.20636223256587982,
          0.16707424819469452,
          0.04198271036148071,
          0.11770035326480865,
          -0.11051719635725021,
          -0.09773878008127213,
          0.15007691085338593,
          0.090235635638237,
          -0.14793312549591064,
          0.08907203376293182,
          0.0483480840921402,
          -0.004901334643363953,
          -0.10210029035806656,
          0.03567405045032501,
          -0.0052307844161987305,
          0.18805678188800812,
          0.18895243108272552,
          -0.08451347798109055,
          -0.01676926016807556,
          -0.025910675525665283,
          0.01842208206653595,
          0.029530644416809082,
          0.06356547772884369,
          -0.07019032537937164,
          0.09210868179798126,
          0.12735535204410553,
          0.09964798390865326,
          -0.0003003925085067749,
          0.12338130176067352,
          -0.18722762167453766,
          0.12676014006137848,
          -0.1580674648284912,
          0.19506792724132538,
          0.06087659299373627,
          -0.07873374223709106,
          -0.03174915909767151,
          -0.13571791350841522,
          0.0650293380022049,
          -0.07744640111923218,
          0.1699272245168686,
          -0.07703618705272675,
          -0.09460863471031189,
          -0.11256389319896698,
          0.025321006774902344,
          0.017731279134750366,
          -0.19301101565361023,
          0.09785102307796478,
          0.03229430317878723,
          0.07409133017063141,
          -0.11000698804855347,
          0.08591334521770477,
          0.1009008139371872,
          -0.1280064731836319
        ],
        [
          -0.01495082676410675,
          0.06787370145320892,
          0.005913451313972473,
          -0.053886860609054565,
          -0.17429961264133453,
          -0.1749516725540161,
          -0.058355674147605896,
          0.08820156753063202,
          0.09150801599025726,
          -0.13311703503131866,
          -0.05046072602272034,
          -0.07107564806938171,
          -0.12364580482244492,
          -0.17535719275474548,
          -0.15713663399219513,
          -0.036741942167282104,
          -0.12880083918571472,
          0.021146759390830994,
          -0.0844171866774559,
          -0.13665886223316193,
          -0.07178954780101776,
          0.11115385591983795,
          -0.09323491901159286,
          -0.1475890874862671,
          0.07553716003894806,
          0.12512974441051483,
          0.07716570794582367,
          0.05544091761112213,
          0.1853588968515396,
          0.04083406925201416,
          -0.08682488650083542,
          -0.053560465574264526,
          0.09422324597835541,
          -0.13296298682689667,
          0.1854458898305893,
          -0.15626755356788635,
          0.09737344086170197,
          -0.0964246392250061,
          -0.20045608282089233,
          0.16589297354221344,
          -0.09375889599323273,
          -0.03578796982765198,
          0.18830184638500214,
          0.16277362406253815,
          -0.07535158097743988,
          0.14427362382411957,
          -0.18204984068870544,
          -0.13284650444984436,
          0.14103548228740692,
          -0.02020511031150818,
          0.12040199339389801,
          0.1940368264913559,
          -0.2006298154592514,
          0.08132381737232208,
          0.023477107286453247,
          0.08495958149433136,
          0.03538990020751953,
          -0.1808704435825348,
          0.1097465306520462,
          -0.10531779378652573,
          -0.09581981599330902,
          -0.00579380989074707,
          0.19496659934520721,
          0.016586631536483765,
          0.1859620064496994,
          0.08844317495822906,
          -0.10260694473981857,
          0.1936383694410324,
          -0.03683987259864807,
          -0.08259239792823792,
          0.11275847256183624,
          -0.06814742088317871,
          -0.04493190348148346,
          0.021797239780426025,
          0.05116276443004608,
          -0.006045281887054443,
          -0.1871616393327713,
          0.06847693026065826,
          0.052319422364234924,
          0.07658456265926361,
          0.009658783674240112,
          0.17520056664943695,
          -0.09432986378669739,
          -0.016252681612968445,
          0.018155500292778015,
          0.11689712107181549,
          -0.11627798527479172,
          0.15961195528507233,
          0.20543046295642853,
          0.08175365626811981,
          0.18328674137592316,
          0.10409428179264069,
          0.13927395641803741,
          -0.13017681241035461,
          -0.1407487690448761,
          0.18483595550060272,
          0.0812002569437027,
          -0.07890599966049194,
          0.14156226813793182,
          0.11332197487354279,
          -0.09775709360837936,
          0.09719373285770416,
          -0.01936441659927368,
          0.11615695059299469,
          -0.08193115890026093,
          -0.1358993947505951,
          -0.06272068619728088,
          -0.15749788284301758,
          0.15518705546855927,
          -0.07894676923751831,
          0.05828686058521271,
          -0.12491077929735184,
          0.01761321723461151,
          0.015751302242279053,
          -0.2007942795753479,
          -0.09852859377861023,
          -0.15326173603534698,
          -0.05411750078201294,
          -0.06360101699829102,
          0.1856117695569992,
          -0.1899588704109192,
          0.08179141581058502,
          0.11856500804424286,
          0.13324867188930511,
          -0.10144452750682831,
          -0.014171332120895386,
          -0.2006228119134903,
          0.06955651938915253
        ],
        [
          0.030323073267936707,
          -0.029602214694023132,
          0.01805269718170166,
          -0.07945765554904938,
          -0.19862468540668488,
          -0.16772684454917908,
          0.04087202250957489,
          0.0002595633268356323,
          -0.0174085795879364,
          0.041662827134132385,
          -0.002001538872718811,
          -0.1340341866016388,
          0.07513074576854706,
          -0.10239317268133163,
          0.11362408101558685,
          -0.17982906103134155,
          -0.12546971440315247,
          -0.19229504466056824,
          0.14485104382038116,
          0.0774775892496109,
          0.14370788633823395,
          -0.19207510352134705,
          0.1843041032552719,
          -0.04266926646232605,
          0.03408396244049072,
          0.027942970395088196,
          -0.10740595310926437,
          0.05660460889339447,
          -0.20582315325737,
          0.03692732751369476,
          0.17744161188602448,
          -0.040449127554893494,
          0.10062997043132782,
          -0.18965837359428406,
          -0.12972450256347656,
          -0.11161229014396667,
          -0.07398995757102966,
          -0.06640614569187164,
          -0.18388134241104126,
          -0.015053346753120422,
          0.1265234798192978,
          -0.08043523132801056,
          0.16628806293010712,
          -0.17922133207321167,
          -0.052554160356521606,
          0.009753599762916565,
          -0.18937930464744568,
          0.11187620460987091,
          0.16188304126262665,
          -0.08091859519481659,
          -0.16400253772735596,
          0.0567389577627182,
          -0.14026175439357758,
          0.19735436141490936,
          -0.0019808560609817505,
          -0.03227856755256653,
          -0.0667484849691391,
          0.144903764128685,
          0.06835414469242096,
          -0.011483430862426758,
          -0.010026499629020691,
          -0.14901167154312134,
          0.038306474685668945,
          -0.20070227980613708,
          -0.1721852868795395,
          0.11753024160861969,
          0.07026003301143646,
          -0.1489262878894806,
          0.17931850254535675,
          0.0073810964822769165,
          0.14484848082065582,
          0.11224178969860077,
          0.138615682721138,
          0.09770606458187103,
          -0.18491142988204956,
          -0.1343291997909546,
          -0.04981359839439392,
          0.20647062361240387,
          0.11921019852161407,
          0.0484267920255661,
          0.18752767145633698,
          0.1678106039762497,
          -0.06520967185497284,
          -0.19256344437599182,
          0.03578673303127289,
          -0.0009231865406036377,
          0.1310490518808365,
          0.08176679909229279,
          -0.03162156045436859,
          -0.19800391793251038,
          0.18063808977603912,
          -0.13879293203353882,
          0.18654067814350128,
          -0.19903291761875153,
          0.08806182444095612,
          -0.010372832417488098,
          0.10089941322803497,
          0.03783510625362396,
          0.09465236961841583,
          -0.11296521872282028,
          -0.185431569814682,
          0.09582681953907013,
          0.14172886312007904,
          -0.0826881006360054,
          0.06134010851383209,
          -0.1388232409954071,
          0.04670660197734833,
          -0.046964287757873535,
          -0.19369067251682281,
          0.13467656075954437,
          -0.14856243133544922,
          0.14606277644634247,
          0.03580820560455322,
          -0.04196074604988098,
          -0.010182812809944153,
          -0.09083285182714462,
          -0.15333715081214905,
          -0.08820679038763046,
          -0.12371198832988739,
          -0.12877945601940155,
          0.09958060085773468,
          0.15923170745372772,
          0.11203660070896149,
          -0.1930951327085495,
          0.19039542973041534,
          0.05608151853084564,
          -0.1886046975851059,
          -0.014326214790344238
        ],
        [
          0.13586978614330292,
          -0.20011596381664276,
          -0.04573515057563782,
          -0.11188508570194244,
          -0.1851891130208969,
          0.20338021218776703,
          0.1577681452035904,
          -0.05775603652000427,
          0.018656030297279358,
          0.1422402411699295,
          0.17380879819393158,
          0.07887999713420868,
          -0.06547121703624725,
          -0.13815191388130188,
          -0.0851244255900383,
          0.049819812178611755,
          -0.0033431649208068848,
          0.13751964271068573,
          -0.12555544078350067,
          -0.06245632469654083,
          -0.1998349279165268,
          -0.07076780498027802,
          0.17591769993305206,
          -0.0627816915512085,
          -0.11722949892282486,
          0.06984250247478485,
          -0.1300993710756302,
          -0.018537327647209167,
          -0.13046181201934814,
          0.061676397919654846,
          0.1837826818227768,
          -0.12579575181007385,
          -0.15505754947662354,
          -0.09785215556621552,
          0.19848664104938507,
          0.08364270627498627,
          0.0882565826177597,
          -0.022544264793395996,
          -0.012579649686813354,
          -0.11176998168230057,
          -0.1246676966547966,
          0.012433111667633057,
          -0.1148722916841507,
          0.17223937809467316,
          0.20345573127269745,
          0.042315468192100525,
          -0.14305078983306885,
          0.13372378051280975,
          -0.11318249255418777,
          0.1861140877008438,
          -0.12280574440956116,
          0.1723814755678177,
          0.027348056435585022,
          -0.09149458259344101,
          -0.038659483194351196,
          -0.06378211081027985,
          -0.15100112557411194,
          -0.162019744515419,
          -0.14666324853897095,
          0.08075912296772003,
          -0.2045852690935135,
          0.10994885861873627,
          0.1410018652677536,
          0.03132295608520508,
          0.14447547495365143,
          0.08874045312404633,
          -0.1326393038034439,
          0.003323569893836975,
          -0.0420549213886261,
          -0.1513223946094513,
          0.028549611568450928,
          -0.02147597074508667,
          0.01710931956768036,
          0.060042306780815125,
          -0.04716992378234863,
          -0.2024954855442047,
          0.005683109164237976,
          0.05275167524814606,
          -0.07555921375751495,
          -0.14448219537734985,
          0.04625760018825531,
          0.020310744643211365,
          -0.17857666313648224,
          0.20489977300167084,
          0.18123041093349457,
          0.10275505483150482,
          0.18547387421131134,
          -0.16626334190368652,
          0.05844746530056,
          -0.0014476031064987183,
          0.1353546530008316,
          0.12287648022174835,
          0.1306857317686081,
          -0.15925583243370056,
          -0.003821447491645813,
          0.16643337905406952,
          0.1494877189397812,
          0.10100485384464264,
          -0.009411066770553589,
          0.10949639976024628,
          -0.10270141065120697,
          -0.19006147980690002,
          -0.15007281303405762,
          0.055992141366004944,
          -0.14978456497192383,
          -0.17027179896831512,
          0.07972024381160736,
          -0.1013849526643753,
          0.16248910129070282,
          -0.18527139723300934,
          -0.029200434684753418,
          0.12884663045406342,
          -0.07802827656269073,
          -0.13000351190567017,
          -0.16823512315750122,
          0.20193777978420258,
          0.12725694477558136,
          -0.07548213005065918,
          0.18116255104541779,
          -0.13731561601161957,
          -0.08807041496038437,
          0.1640171855688095,
          -0.1463577300310135,
          0.08806799352169037,
          0.116824671626091,
          0.05713565647602081,
          -0.016870975494384766,
          -0.15526539087295532
        ],
        [
          0.12688995897769928,
          0.10303108394145966,
          -0.08992363512516022,
          0.14383555948734283,
          0.13849259912967682,
          0.0721728652715683,
          0.2013455480337143,
          0.14766637980937958,
          -0.08604711294174194,
          -0.10336975753307343,
          0.029599294066429138,
          0.009688690304756165,
          0.16116689145565033,
          -0.042437538504600525,
          -0.16518443822860718,
          0.02141594886779785,
          -0.16088803112506866,
          -0.0360642671585083,
          0.034720271825790405,
          0.18542055785655975,
          0.1591210812330246,
          -0.026668161153793335,
          -0.11497998982667923,
          -0.019652754068374634,
          0.11182300746440887,
          -0.19369912147521973,
          0.07178075611591339,
          -0.09113822132349014,
          0.10077796876430511,
          0.08945824205875397,
          -0.0702747255563736,
          0.07189418375492096,
          0.1968034952878952,
          0.09728686511516571,
          0.062122270464897156,
          -0.08585639297962189,
          -0.08218494802713394,
          0.044816359877586365,
          0.07773657143115997,
          0.20694510638713837,
          -0.10695689916610718,
          0.1329478770494461,
          -0.19912803173065186,
          0.1270407885313034,
          0.08178757131099701,
          -0.1219368577003479,
          0.06046558916568756,
          -0.033499762415885925,
          0.040901973843574524,
          0.05519689619541168,
          0.1985151618719101,
          0.10406871140003204,
          0.15303997695446014,
          0.1090245395898819,
          0.11803467571735382,
          0.16248981654644012,
          -0.156296968460083,
          0.1532924324274063,
          0.015431523323059082,
          -0.18415123224258423,
          0.13204316794872284,
          0.051809653639793396,
          -0.18013235926628113,
          0.1276213377714157,
          0.04701177775859833,
          0.12173484265804291,
          -0.08169063925743103,
          0.12413294613361359,
          0.19993956387043,
          0.10714109241962433,
          -0.1711755394935608,
          0.0888480395078659,
          -0.1516231745481491,
          -0.07606883347034454,
          -0.17653213441371918,
          -0.04796338081359863,
          0.06830866634845734,
          -0.0014062821865081787,
          -0.11886273324489594,
          0.14111395180225372,
          0.022360891103744507,
          0.062485143542289734,
          -0.02848920226097107,
          -0.16007699072360992,
          0.026973828673362732,
          -0.18460531532764435,
          0.057966992259025574,
          0.029662728309631348,
          -0.1068764477968216,
          -0.04184781014919281,
          -0.20115715265274048,
          -0.10017278790473938,
          0.06187815964221954,
          0.018678784370422363,
          -0.005195796489715576,
          0.0912671834230423,
          0.1824466735124588,
          0.03129437565803528,
          0.1292840987443924,
          -0.015887781977653503,
          0.034337952733039856,
          -0.1132027804851532,
          -0.18370039761066437,
          -0.16558700799942017,
          -0.04369702935218811,
          -0.06302931904792786,
          0.05921386182308197,
          0.0020568668842315674,
          0.06750611960887909,
          -0.04863612353801727,
          -0.019327685236930847,
          -0.15623916685581207,
          -0.04483082890510559,
          -0.1180352047085762,
          0.1710294932126999,
          0.013980761170387268,
          -0.09696298092603683,
          0.17100055515766144,
          -0.09647449105978012,
          0.16095472872257233,
          -0.08558809012174606,
          -0.16480779647827148,
          -0.07292377948760986,
          0.05583257973194122,
          0.13499502837657928,
          0.1906168907880783,
          -0.14277611672878265,
          0.004478678107261658
        ],
        [
          0.07249699532985687,
          0.1618007868528366,
          -0.03362128138542175,
          0.10320751368999481,
          0.14376364648342133,
          -0.03275954723358154,
          -0.08113595843315125,
          -0.18402251601219177,
          0.10549204051494598,
          -0.10545431822538376,
          -0.10386629402637482,
          0.0047156959772109985,
          0.05729232728481293,
          -0.119913749396801,
          0.15184666216373444,
          0.10601259768009186,
          0.06749705970287323,
          -0.051094263792037964,
          -0.07323053479194641,
          0.015232712030410767,
          -0.02233143150806427,
          -0.14862747490406036,
          -0.14596271514892578,
          -0.14306993782520294,
          -0.12626579403877258,
          -0.15960489213466644,
          -0.01713632047176361,
          -0.05809581279754639,
          -0.07173417508602142,
          0.12051250040531158,
          0.09322385489940643,
          -0.10626372694969177,
          0.15824390947818756,
          0.13440732657909393,
          -0.14216476678848267,
          0.1889253705739975,
          -0.04943665862083435,
          -0.15846741199493408,
          0.16110287606716156,
          -0.07941056787967682,
          0.10032372176647186,
          0.097679004073143,
          -0.0014544576406478882,
          0.17196421325206757,
          -0.12970826029777527,
          0.04701070487499237,
          0.06724171340465546,
          -0.06904251873493195,
          -0.20405793190002441,
          0.04130522906780243,
          -0.1715051382780075,
          0.1446889489889145,
          0.14295725524425507,
          -0.19352123141288757,
          -0.13744941353797913,
          0.10570921003818512,
          0.14968891441822052,
          0.09870652854442596,
          -0.026112496852874756,
          -0.12142793089151382,
          0.07446546852588654,
          0.10578687489032745,
          -0.07413624227046967,
          0.06254281103610992,
          0.023410141468048096,
          0.054928794503211975,
          -0.03356008231639862,
          -0.004694432020187378,
          -0.0015334784984588623,
          0.1296951323747635,
          0.030413106083869934,
          -0.05926799774169922,
          0.16069914400577545,
          0.14139233529567719,
          0.07005538046360016,
          -0.13176774978637695,
          0.09111957252025604,
          -0.20152758061885834,
          -0.19130820035934448,
          -0.054212525486946106,
          0.13910655677318573,
          0.10862438380718231,
          -0.1555129736661911,
          0.040588751435279846,
          -0.006987959146499634,
          -0.14539220929145813,
          -0.04641366004943848,
          -0.01786874234676361,
          0.12081833183765411,
          0.04155236482620239,
          0.10303260385990143,
          -0.0786600410938263,
          -0.04968225955963135,
          0.021306723356246948,
          -0.02923750877380371,
          -0.08781608194112778,
          -0.19877280294895172,
          0.0007431209087371826,
          0.055520251393318176,
          0.20348508656024933,
          0.03894263505935669,
          0.04131998121738434,
          -0.08031529188156128,
          -0.0036477595567703247,
          0.09463529288768768,
          -0.04567532241344452,
          -0.1650383472442627,
          0.10536383092403412,
          0.030720248818397522,
          0.002983003854751587,
          0.08147232234477997,
          0.11787603795528412,
          -0.17851877212524414,
          -0.10794632136821747,
          0.060643091797828674,
          -0.0989784374833107,
          0.07270024716854095,
          0.17119823396205902,
          0.04073771834373474,
          -0.176229327917099,
          -0.048056527972221375,
          -0.16726984083652496,
          -0.039937689900398254,
          0.09072010219097137,
          0.042315125465393066,
          0.1519341617822647,
          0.10261265933513641,
          -0.049455657601356506
        ],
        [
          -0.11427343636751175,
          -0.1746775358915329,
          0.08417923748493195,
          -0.14718973636627197,
          0.039515674114227295,
          0.10746724903583527,
          -0.031760260462760925,
          -0.0437532514333725,
          -0.12320736050605774,
          -0.05706758797168732,
          -0.19557340443134308,
          -0.013328656554222107,
          0.15295933187007904,
          -0.10673420131206512,
          0.08831186592578888,
          0.09651966392993927,
          0.2056686133146286,
          -0.16906586289405823,
          -0.03279459476470947,
          0.047086939215660095,
          0.025881901383399963,
          0.19649668037891388,
          0.1767103224992752,
          0.10638411343097687,
          0.11755125224590302,
          -0.002515345811843872,
          -0.09036020189523697,
          0.15971387922763824,
          -0.039196282625198364,
          0.0022445321083068848,
          0.1655472069978714,
          -0.023938506841659546,
          -0.05824565887451172,
          0.17662523686885834,
          0.05126829445362091,
          -0.12415191531181335,
          0.08594800531864166,
          0.04089537262916565,
          0.16072599589824677,
          -0.12229523807764053,
          -0.15425840020179749,
          -0.14342866837978363,
          0.20303462445735931,
          -0.03677363693714142,
          0.15024833381175995,
          -0.0812126100063324,
          0.19651742279529572,
          0.182993546128273,
          -0.14571386575698853,
          -0.05757953226566315,
          -0.028547197580337524,
          0.12133075296878815,
          0.14656226336956024,
          0.1459440141916275,
          0.12489883601665497,
          0.019694656133651733,
          0.02140425145626068,
          -0.017438039183616638,
          0.10737974941730499,
          0.009121432900428772,
          -0.17653149366378784,
          -0.09807184338569641,
          0.09511019289493561,
          0.14948846399784088,
          -0.12839491665363312,
          -0.06719182431697845,
          -0.04815548658370972,
          0.07722069323062897,
          0.16262467205524445,
          -0.12483926117420197,
          0.19703368842601776,
          0.190806046128273,
          0.03249618411064148,
          0.0622435063123703,
          0.1377193182706833,
          0.12774823606014252,
          -0.18030141294002533,
          -0.10266562551259995,
          0.1658811718225479,
          -0.18645060062408447,
          -0.09468957781791687,
          0.0056264400482177734,
          0.04812256991863251,
          0.09389631450176239,
          -0.08009184896945953,
          0.07073469460010529,
          0.19732125103473663,
          -0.033509984612464905,
          -0.033476024866104126,
          0.19031955301761627,
          -0.17489831149578094,
          0.07996071875095367,
          -0.09599617123603821,
          -0.18688331544399261,
          0.14921827614307404,
          0.0567442923784256,
          0.038530945777893066,
          -0.0998152419924736,
          -0.03972376883029938,
          -0.2000621110200882,
          0.10178820788860321,
          0.08733095228672028,
          -0.1817747801542282,
          -0.1414915919303894,
          0.059583619236946106,
          0.12397147715091705,
          -0.12505623698234558,
          0.17489047348499298,
          -0.019725561141967773,
          0.1259724646806717,
          0.0128813236951828,
          0.03561274707317352,
          0.014590322971343994,
          -0.13317611813545227,
          0.08171428740024567,
          -0.17368802428245544,
          -0.14288805425167084,
          0.16134004294872284,
          0.021617576479911804,
          -0.04075232148170471,
          0.02275007963180542,
          0.044164255261421204,
          0.19965477287769318,
          -0.09701904654502869,
          -0.11370543390512466,
          -0.08332367241382599,
          -0.1964467316865921,
          -0.16276589035987854
        ],
        [
          -0.09161388128995895,
          -0.030415132641792297,
          0.04986684024333954,
          0.11358125507831573,
          -0.11072000861167908,
          0.11555598676204681,
          -0.08834454417228699,
          0.15085209906101227,
          -0.009269550442695618,
          -0.0534786731004715,
          -0.07240557670593262,
          -0.14090269804000854,
          -0.19079191982746124,
          -0.09388550370931625,
          0.05276675522327423,
          0.08091966807842255,
          -0.06229172646999359,
          0.1387173980474472,
          -0.02491869032382965,
          -0.007252365350723267,
          -0.13166680932044983,
          -0.01389719545841217,
          -0.1505679190158844,
          -0.0681072473526001,
          0.15706203877925873,
          0.15111474692821503,
          0.09479610621929169,
          0.035763487219810486,
          0.09532396495342255,
          -0.192169189453125,
          0.18207727372646332,
          0.19758985936641693,
          -0.052403271198272705,
          0.1326264590024948,
          -0.10865425318479538,
          0.1890556663274765,
          0.18709395825862885,
          0.053168222308158875,
          -0.04367181658744812,
          0.11860252916812897,
          0.2064349502325058,
          0.11462216079235077,
          0.1639508157968521,
          -0.18202091753482819,
          -0.02544039487838745,
          0.11145316064357758,
          -0.17211642861366272,
          -0.1313476264476776,
          0.2039400190114975,
          0.04506383836269379,
          0.0012058019638061523,
          -0.1192016676068306,
          0.03376126289367676,
          0.1918128877878189,
          -0.10481040179729462,
          0.17771033942699432,
          0.03377304971218109,
          0.10130099952220917,
          -0.17968621850013733,
          -0.2029716819524765,
          -0.16792111098766327,
          0.14709128439426422,
          0.18612967431545258,
          -0.20693443715572357,
          -0.11614245176315308,
          -0.07995760440826416,
          0.08489687740802765,
          -0.18873238563537598,
          0.1114685982465744,
          0.14433594048023224,
          0.08367066085338593,
          0.18196646869182587,
          -0.06637954711914062,
          0.09225083887577057,
          0.20435594022274017,
          0.08662848174571991,
          -0.1487480103969574,
          -0.0816534161567688,
          -0.08532338589429855,
          -0.09243034571409225,
          0.15958373248577118,
          -0.202896848320961,
          -0.15700079500675201,
          -0.01695255935192108,
          -0.13049784302711487,
          -0.09969381988048553,
          -0.049738720059394836,
          0.12090824544429779,
          0.04532335698604584,
          0.16129513084888458,
          -0.08126330375671387,
          -0.056382566690444946,
          0.11526922881603241,
          0.1069393903017044,
          -0.013926520943641663,
          0.05794204771518707,
          0.028800949454307556,
          -0.022398456931114197,
          0.16428013145923615,
          -0.12393335998058319,
          0.08281074464321136,
          0.06372664868831635,
          0.19496814906597137,
          0.1471160501241684,
          0.1419990211725235,
          0.1880464106798172,
          -0.05186547338962555,
          -0.1588449776172638,
          0.19380657374858856,
          -0.05128034949302673,
          0.11602358520030975,
          0.1981201022863388,
          0.14174415171146393,
          0.15720848739147186,
          0.13399414718151093,
          0.1162959486246109,
          0.10407142341136932,
          0.1276445835828781,
          -0.07186408340930939,
          0.09250985085964203,
          -0.1597636342048645,
          -0.18588919937610626,
          0.1273219734430313,
          0.09777475893497467,
          0.059910669922828674,
          -0.07321164011955261,
          -0.1762814074754715,
          -0.011743336915969849
        ],
        [
          -0.16255365312099457,
          -0.13702964782714844,
          -0.10882497578859329,
          -0.1673247218132019,
          -0.006103977560997009,
          -0.07170994579792023,
          0.035151153802871704,
          0.02885928750038147,
          0.0012442469596862793,
          0.09264709055423737,
          0.1790490597486496,
          0.15436802804470062,
          -0.16763710975646973,
          0.1685723215341568,
          -0.10634393244981766,
          -0.004872113466262817,
          -0.12389841675758362,
          0.20447994768619537,
          -0.09608190506696701,
          0.011202678084373474,
          -0.06622016429901123,
          -0.13431577384471893,
          -0.196283757686615,
          0.05916513502597809,
          -0.0656273365020752,
          0.19644446671009064,
          0.02268393337726593,
          -0.05405999720096588,
          0.03857192397117615,
          -0.1807144284248352,
          0.10471345484256744,
          -0.06720273196697235,
          -0.03954564034938812,
          0.10950551927089691,
          0.0908040851354599,
          0.01876196265220642,
          0.14568133652210236,
          0.04461447894573212,
          -0.19245895743370056,
          0.18964560329914093,
          0.11297647655010223,
          -0.014455676078796387,
          -0.04111549258232117,
          0.20313198864459991,
          0.08589370548725128,
          0.16467230021953583,
          -0.13726916909217834,
          -0.16690707206726074,
          0.1563502699136734,
          0.10033108294010162,
          0.016349121928215027,
          -0.061259716749191284,
          0.06935910880565643,
          -0.17972205579280853,
          0.05007050931453705,
          0.09712649881839752,
          0.10226984322071075,
          0.1727512627840042,
          -0.05660437047481537,
          -0.0529179722070694,
          0.01205839216709137,
          0.04899989068508148,
          -0.11580514162778854,
          -0.05501487851142883,
          0.14494635164737701,
          0.13817773759365082,
          -0.19853518903255463,
          -0.1413682997226715,
          0.176504984498024,
          -0.17435330152511597,
          -0.1664859503507614,
          -0.030723661184310913,
          -0.028698965907096863,
          -0.05590803921222687,
          -0.18484263122081757,
          -0.12343144416809082,
          0.2017134577035904,
          0.14433418214321136,
          -0.14275795221328735,
          0.2048598974943161,
          -0.10252520442008972,
          -0.043189987540245056,
          -0.17208272218704224,
          -0.18215319514274597,
          -0.13253046572208405,
          0.09777219593524933,
          0.02502782642841339,
          0.14028479158878326,
          -0.0610441118478775,
          -0.12853918969631195,
          0.10779853165149689,
          -0.10248897969722748,
          0.09070201218128204,
          0.1654856652021408,
          -0.1994471698999405,
          -0.1403309404850006,
          0.15626759827136993,
          0.1724933236837387,
          0.12733669579029083,
          -0.04941578209400177,
          0.019640415906906128,
          0.07487417757511139,
          -0.12766319513320923,
          0.16090638935565948,
          -0.06507754325866699,
          -0.09673751890659332,
          -0.04249425232410431,
          0.12245623767375946,
          -0.18718864023685455,
          -0.027788519859313965,
          0.13733313977718353,
          -0.16024041175842285,
          -0.10763413459062576,
          0.06651003658771515,
          -0.03422723710536957,
          -0.06016343832015991,
          -0.017920613288879395,
          -0.19009128212928772,
          -0.1626238375902176,
          0.1163400262594223,
          -0.029223337769508362,
          0.04122921824455261,
          -0.15700963139533997,
          -0.05662791430950165,
          0.14121957123279572,
          -0.1801721453666687,
          -0.11240723729133606,
          -0.14713485538959503
        ],
        [
          -0.0599982887506485,
          -0.12440960854291916,
          0.048457756638526917,
          -0.01631610095500946,
          -0.11046852916479111,
          0.033824726939201355,
          -0.07600951194763184,
          -0.18908612430095673,
          -0.1894780695438385,
          0.12513066828250885,
          0.024422109127044678,
          -0.10249835252761841,
          0.1494925171136856,
          -0.06664247810840607,
          -0.0262945294380188,
          -0.14368630945682526,
          0.16860224306583405,
          0.01518295705318451,
          -0.10406781733036041,
          0.032256245613098145,
          -0.13425058126449585,
          0.08615578711032867,
          0.1440652757883072,
          0.01249668002128601,
          0.18752609193325043,
          0.12653933465480804,
          -0.0799630731344223,
          -0.1600300520658493,
          0.16675741970539093,
          0.1691439002752304,
          0.15289609134197235,
          -0.18281161785125732,
          -0.11480852216482162,
          0.04875896871089935,
          -0.0998154878616333,
          -0.1839209794998169,
          0.14594776928424835,
          -0.13382694125175476,
          -0.023357316851615906,
          0.11010916531085968,
          -0.005721256136894226,
          -0.12102527171373367,
          -0.18736040592193604,
          0.1467529684305191,
          0.1882135421037674,
          -0.06060612201690674,
          -0.0545920729637146,
          -0.0460481196641922,
          0.1343257874250412,
          0.045407578349113464,
          -0.07426531612873077,
          0.17890869081020355,
          0.01601739227771759,
          -0.10146269202232361,
          -0.05088411271572113,
          -0.08514145761728287,
          -0.14462845027446747,
          -0.07996910810470581,
          0.09390769898891449,
          0.020085036754608154,
          0.1385379582643509,
          -0.01831725239753723,
          -0.02717752754688263,
          0.058081790804862976,
          -0.00885540246963501,
          0.08852539956569672,
          0.06981058418750763,
          0.133964404463768,
          0.03946010768413544,
          -0.16825802624225616,
          -0.014033675193786621,
          -0.19525747001171112,
          0.16916708648204803,
          0.06466136872768402,
          0.07991708815097809,
          -0.17225399613380432,
          -0.024347424507141113,
          -0.09174995869398117,
          -0.12851214408874512,
          -0.05112028121948242,
          -0.10276567190885544,
          -0.14614352583885193,
          0.16801251471042633,
          -0.009494975209236145,
          -0.0391526073217392,
          0.07166038453578949,
          -0.1540050506591797,
          0.1694536656141281,
          -0.02214910089969635,
          0.15827398002147675,
          0.13710401952266693,
          -0.11442501097917557,
          0.2025684267282486,
          -0.022285133600234985,
          0.030152544379234314,
          0.1823626309633255,
          -0.008728057146072388,
          0.13756601512432098,
          -0.010628759860992432,
          -0.19935284554958344,
          -0.06389844417572021,
          -0.1964300125837326,
          0.17739756405353546,
          -0.02979336678981781,
          -0.17032817006111145,
          0.14274121820926666,
          0.10600222647190094,
          -0.15903490781784058,
          0.20472760498523712,
          -0.1669975370168686,
          0.12024138867855072,
          0.20043422281742096,
          0.08066879212856293,
          0.16732747852802277,
          -0.14068129658699036,
          -0.11365967988967896,
          -0.08297304064035416,
          -0.1634884774684906,
          -0.005517706274986267,
          0.06195427477359772,
          -0.14394386112689972,
          0.10804201662540436,
          -0.08994841575622559,
          -0.14803029596805573,
          0.18465857207775116,
          -0.09672971814870834,
          -0.11453942209482193,
          0.07263614237308502
        ],
        [
          -0.024058833718299866,
          -0.15995196998119354,
          -0.13393191993236542,
          0.029016688466072083,
          -0.08148328959941864,
          0.048447027802467346,
          0.0025904178619384766,
          -0.035940587520599365,
          -0.0589209645986557,
          -0.0811784565448761,
          -0.12196557968854904,
          0.10275660455226898,
          0.03987421095371246,
          -0.18792755901813507,
          0.1613287478685379,
          0.15421955287456512,
          0.07280902564525604,
          0.05126209557056427,
          0.057701244950294495,
          0.015453189611434937,
          0.09987999498844147,
          -0.20013822615146637,
          -0.16895954310894012,
          0.11557058990001678,
          -0.054125458002090454,
          0.044020071625709534,
          0.030329346656799316,
          0.1686372309923172,
          0.15013952553272247,
          0.0250997394323349,
          -0.02894127368927002,
          0.17134438455104828,
          -0.12078899890184402,
          0.06651093065738678,
          0.1736990362405777,
          0.1280435472726822,
          0.010463908314704895,
          -0.04297672212123871,
          0.17627982795238495,
          0.12262178957462311,
          0.12276323139667511,
          0.18391035497188568,
          0.08988030254840851,
          0.13816381990909576,
          -0.10025244951248169,
          0.10666321218013763,
          -0.09551552683115005,
          0.020288139581680298,
          0.05361439287662506,
          -0.10236454755067825,
          0.0712708979845047,
          -0.04133598506450653,
          -0.1451084464788437,
          0.11134703457355499,
          -0.19643913209438324,
          -0.157400444149971,
          0.028499022126197815,
          -0.1039389967918396,
          -0.1693946272134781,
          0.0692390650510788,
          -0.00430549681186676,
          0.08680899441242218,
          -0.14635688066482544,
          -0.04152397811412811,
          -0.17737461626529694,
          0.02043166756629944,
          0.09917892515659332,
          0.1902199536561966,
          0.06599505245685577,
          -0.04566067457199097,
          0.18860574066638947,
          0.005417555570602417,
          -0.13705366849899292,
          0.20221449434757233,
          -0.15814509987831116,
          -0.14102739095687866,
          0.17333661019802094,
          -0.001802191138267517,
          0.08899335563182831,
          0.0019471943378448486,
          -0.03722861409187317,
          0.05639345943927765,
          -0.04920734465122223,
          0.08033685386180878,
          0.18755601346492767,
          0.12195225059986115,
          -0.13447055220603943,
          -0.06461097300052643,
          -0.031125277280807495,
          0.18264435231685638,
          -0.14848655462265015,
          0.11815385520458221,
          0.09699021279811859,
          0.06271566450595856,
          0.09154023230075836,
          0.15225796401500702,
          0.0890175849199295,
          0.11722822487354279,
          0.13237251341342926,
          -0.20486754179000854,
          -0.08948420733213425,
          -0.1316218078136444,
          0.060769155621528625,
          -0.12735939025878906,
          0.07034467160701752,
          0.12161026895046234,
          -0.07782259583473206,
          0.05387081205844879,
          0.06044630706310272,
          0.08085589110851288,
          0.020764335989952087,
          0.11534620821475983,
          0.0653681606054306,
          0.18069978058338165,
          -0.03405553102493286,
          0.14281229674816132,
          -0.02687615156173706,
          0.19158820807933807,
          0.02749687433242798,
          0.0415828675031662,
          5.607306957244873e-05,
          0.15669627487659454,
          -0.13627421855926514,
          -0.09667448699474335,
          -0.1052197739481926,
          -0.20277681946754456,
          0.06423945724964142,
          -0.10520733147859573
        ]
      ],
      "bias": [
        0.0,
        0.0,
        0.0,
        0.0,
        0.0,
        0.0,
        0.0,
        0.0,
        0.0,
        0.0,
        0.0,
        0.0,
        0.0,
        0.0,
        0.0,
        0.0,
        0.0,
        0.0,
        0.0,
        0.0,
        0.0,
        0.0,
        0.0,
        0.0,
        0.0,
        0.0,
        0.0,
        0.0,
        0.0,
        0.0,
        0.0,
        0.0,
        0.0,
        0.0,
        0.0,
        0.0,
        0.0,
        0.0,
        0.0,
        0.0,
        0.0,
        0.0,
        0.0,
        0.0,
        0.0,
        0.0,
        0.0,
        0.0,
        0.0,
        0.0,
        0.0,
        0.0,
        0.0,
        0.0,
        0.0,
        0.0,
        0.0,
        0.0,
        0.0,
        0.0,
        0.0,
        0.0,
        0.0,
        0.0,
        0.0,
        0.0,
        0.0,
        0.0,
        0.0,
        0.0,
        0.0,
        0.0,
        0.0,
        0.0,
        0.0,
        0.0,
        0.0,
        0.0,
        0.0,
        0.0,
        0.0,
        0.0,
        0.0,
        0.0,
        0.0,
        0.0,
        0.0,
        0.0,
        0.0,
        0.0,
        0.0,
        0.0,
        0.0,
        0.0,
        0.0,
        0.0,
        0.0,
        0.0,
        0.0,
        0.0,
        0.0,
        0.0,
        0.0,
        0.0,
        0.0,
        0.0,
        0.0,
        0.0,
        0.0,
        0.0,
        0.0,
        0.0,
        0.0,
        0.0,
        0.0,
        0.0,
        0.0,
        0.0,
        0.0,
        0.0,
        0.0,
        0.0,
        0.0,
        0.0,
        0.0,
        0.0,
        0.0,
        0.0
      ]
    },
    {
      "name": "dense_2",
      "weights": [
        [
          -0.13771191239356995,
          -0.008824840188026428,
          0.13815084099769592,
          -0.11091528087854385,
          -0.2034325897693634,
          0.10256874561309814,
          0.0033395737409591675,
          -0.14664892852306366,
          -0.06456533074378967,
          -0.12988713383674622,
          0.09425833821296692,
          0.1936919391155243,
          -0.11782779544591904,
          -0.09354958683252335,
          -0.1149001345038414,
          0.13491109013557434
        ],
        [
          -0.0013566464185714722,
          -0.1519419401884079,
          -0.13414180278778076,
          -0.15818090736865997,
          -0.019064471125602722,
          -0.1539188027381897,
          0.0899486243724823,
          0.052931010723114014,
          0.1686168611049652,
          0.18376153707504272,
          -0.035522133111953735,
          -0.051800116896629333,
          -0.1102154552936554,
          0.16232460737228394,
          0.04253801703453064,
          -0.14595790207386017
        ],
        [
          0.07128089666366577,
          -0.09125381708145142,
          0.16415703296661377,
          0.03344780206680298,
          -0.09011019021272659,
          -0.005034983158111572,
          -0.09197229146957397,
          -0.09370201081037521,
          -0.18395446240901947,
          0.01251724362373352,
          0.17713496088981628,
          0.061284393072128296,
          -0.10212232917547226,
          -0.08199920505285263,
          0.11740043759346008,
          0.08371865749359131
        ],
        [
          0.1650761365890503,
          -0.008649244904518127,
          -0.04014977812767029,
          -0.008229732513427734,
          -0.07151955366134644,
          -0.05991315841674805,
          0.1299513876438141,
          -0.05587661266326904,
          -0.10629123449325562,
          0.05744105577468872,
          0.0632253885269165,
          0.09503766894340515,
          0.03514336049556732,
          0.08104518055915833,
          -0.14143487811088562,
          -0.002988487482070923
        ],
        [
          -0.04939207434654236,
          -0.027542397379875183,
          0.11614990234375,
          0.0025676190853118896,
          -0.05704112350940704,
          0.18533167243003845,
          0.04406839609146118,
          -0.15786559879779816,
          0.120045006275177,
          0.16647011041641235,
          -0.14219924807548523,
          -0.17771048843860626,
          -0.04734480381011963,
          -0.0028973370790481567,
          -0.06054411828517914,
          0.13354447484016418
        ],
        [
          -0.04479917883872986,
          0.029914677143096924,
          0.01690247654914856,
          -0.028726711869239807,
          0.11645203828811646,
          0.04568783938884735,
          0.15420418977737427,
          0.13084688782691956,
          -0.20258729159832,
          0.05061060190200806,
          -0.06452488899230957,
          0.09549558162689209,
          -0.0003647655248641968,
          0.18541058897972107,
          0.01178257167339325,
          0.1026100218296051
        ],
        [
          -0.0963660404086113,
          0.12560760974884033,
          -0.008833304047584534,
          -0.022456511855125427,
          0.10909566283226013,
          0.15583935379981995,
          -0.16499969363212585,
          -0.1126924529671669,
          -0.11408992856740952,
          0.08140474557876587,
          -0.03214488923549652,
          -0.06487421691417694,
          0.007773086428642273,
          -0.11380984634160995,
          0.10098260641098022,
          -0.004918679594993591
        ],
        [
          0.001692444086074829,
          -0.0817117765545845,
          0.19714438915252686,
          -0.015354141592979431,
          0.014866113662719727,
          0.12329426407814026,
          -0.01839335262775421,
          -0.09670749306678772,
          0.1727275252342224,
          -0.11189334094524384,
          0.0031113773584365845,
          0.03603990375995636,
          0.09456610679626465,
          0.13236311078071594,
          -0.1913745254278183,
          -0.07256549596786499
        ],
        [
          -0.13934201002120972,
          -0.12943744659423828,
          0.101655513048172,
          0.1893908679485321,
          -0.015220507979393005,
          -0.05631588399410248,
          -0.04139906167984009,
          -0.15440917015075684,
          0.13490897417068481,
          -0.05142056941986084,
          0.1719818413257599,
          -0.18720073997974396,
          0.2038833498954773,
          0.12157553434371948,
          -0.06552334129810333,
          0.2013574242591858
        ],
        [
          -0.03546324372291565,
          -0.028189674019813538,
          0.17864990234375,
          -0.03844054043292999,
          -0.2009614259004593,
          -0.1305783987045288,
          0.09012514352798462,
          0.15095126628875732,
          -0.08235359936952591,
          0.11133328080177307,
          -0.14727799594402313,
          -0.08083377778530121,
          -0.0805390477180481,
          0.049545228481292725,
          -0.010606437921524048,
          -0.04014711081981659
        ],
        [
          -0.06590138375759125,
          -0.0467943400144577,
          -0.058283254504203796,
          0.048117250204086304,
          0.07640314102172852,
          0.01575988531112671,
          -0.16512106359004974,
          -0.08957539498806,
          -0.10074320435523987,
          0.15264606475830078,
          0.010335206985473633,
          0.13568618893623352,
          -0.19659678637981415,
          0.11695966124534607,
          0.043113306164741516,
          0.050172269344329834
        ],
        [
          0.14245563745498657,
          -0.1961972713470459,
          0.04752570390701294,
          -0.1671246886253357,
          -0.16624629497528076,
          -0.16915267705917358,
          -0.13585907220840454,
          -0.07509458065032959,
          -0.18636001646518707,
          -0.07333394885063171,
          -0.18238991498947144,
          0.15572643280029297,
          0.07752466201782227,
          0.006776884198188782,
          -0.061534345149993896,
          0.19448992609977722
        ],
        [
          0.1050216555595398,
          0.16892287135124207,
          -0.059410080313682556,
          0.0783906877040863,
          0.0781129002571106,
          0.00047688186168670654,
          -0.0113934725522995,
          0.037096649408340454,
          -0.1823798418045044,
          -0.051325321197509766,
          0.06391957402229309,
          0.04211072623729706,
          0.20221957564353943,
          -0.04100660979747772,
          0.12588676810264587,
          0.1719069480895996
        ],
        [
          -0.006614372134208679,
          -0.02189718186855316,
          -0.006489396095275879,
          0.04791891574859619,
          0.10144025087356567,
          -0.03130221366882324,
          -0.0074459463357925415,
          -0.1402949094772339,
          0.11110025644302368,
          0.15012574195861816,
          -0.05682586133480072,
          0.16041463613510132,
          -0.0058298259973526,
          -0.07021726667881012,
          -0.14167116582393646,
          0.15104126930236816
        ],
        [
          0.12045830488204956,
          -0.203696608543396,
          -0.08212807774543762,
          0.06461599469184875,
          0.15970832109451294,
          0.15362763404846191,
          0.1480366289615631,
          0.05071648955345154,
          0.11067277193069458,
          -0.10689982026815414,
          -0.06735053658485413,
          -0.19789160788059235,
          0.19215703010559082,
          0.19067293405532837,
          0.07591161131858826,
          0.1589212715625763
        ],
        [
          0.03128717839717865,
          0.07997062802314758,
          -0.12908461689949036,
          -0.1347193717956543,
          -0.09162665903568268,
          -0.09562080353498459,
          -0.03950411081314087,
          -0.12451775372028351,
          0.12054389715194702,
          0.10397064685821533,
          -0.05584532022476196,
          0.04656797647476196,
          -0.15820343792438507,
          -0.1915661245584488,
          -0.07774995267391205,
          0.15802109241485596
        ],
        [
          -0.11978308856487274,
          -0.03179506957530975,
          0.030800849199295044,
          0.02967396378517151,
          -0.1803194284439087,
          -0.11788366734981537,
          0.06930071115493774,
          0.10873812437057495,
          -0.06458556652069092,
          -0.20241457223892212,
          -0.1326371133327484,
          0.008548453450202942,
          0.04431012272834778,
          0.10983550548553467,
          0.17326265573501587,
          0.049783557653427124
        ],
        [
          -0.07203663885593414,
          -0.04781322181224823,
          -0.1985054463148117,
          0.1657799780368805,
          0.013339817523956299,
          0.08030754327774048,
          0.14022287726402283,
          0.10726383328437805,
          -0.06791108846664429,
          -0.1003519669175148,
          0.18667012453079224,
          -0.12178349494934082,
          -0.13245835900306702,
          0.018695086240768433,
          0.01717039942741394,
          0.14800497889518738
        ],
        [
          -0.17297032475471497,
          0.0032298266887664795,
          0.08631139993667603,
          -0.05825619399547577,
          -0.153319850564003,
          0.18852800130844116,
          0.18478402495384216,
          -0.08563073724508286,
          0.00753389298915863,
          -0.013192981481552124,
          0.182613343000412,
          0.14925163984298706,
          -0.007982894778251648,
          -0.173887699842453,
          0.11545684933662415,
          -0.00832444429397583
        ],
        [
          -0.03017115592956543,
          -0.2002403289079666,
          -0.15213821828365326,
          0.14601531624794006,
          -0.06722337007522583,
          -0.04003015160560608,
          -0.008463144302368164,
          -0.17005190253257751,
          -0.15659494698047638,
          0.17136675119400024,
          0.1857452094554901,
          0.056574076414108276,
          0.05485674738883972,
          -0.10077498108148575,
          0.1596483290195465,
          0.14938601851463318
        ],
        [
          -0.06888987123966217,
          -0.015738800168037415,
          -0.10463967174291611,
          0.15026304125785828,
          -0.04364144802093506,
          -0.0994378998875618,
          -0.014105051755905151,
          0.010661870241165161,
          0.15158390998840332,
          0.005416348576545715,
          0.1528608202934265,
          -0.02973884344100952,
          0.1587735116481781,
          0.06124439835548401,
          -0.11419738829135895,
          -0.09643544256687164
        ],
        [
          0.025690674781799316,
          -0.04249061644077301,
          0.2029086947441101,
          -0.07798296213150024,
          0.09695222973823547,
          -0.1851561963558197,
          -0.153081476688385,
          0.18486365675926208,
          -0.17516374588012695,
          0.19173267483711243,
          0.11360988020896912,
          0.12488007545471191,
          -0.0457451194524765,
          -0.11293540149927139,
          0.09881624579429626,
          -0.19500181078910828
        ],
        [
          -0.07554280757904053,
          0.07454332709312439,
          0.06969389319419861,
          0.0203668475151062,
          -0.08400949090719223,
          0.10324448347091675,
          -0.03821268677711487,
          0.12371665239334106,
          -0.1745322346687317,
          -0.1625620573759079,
          -0.07503141462802887,
          -0.04977305233478546,
          0.11192706227302551,
          0.1718302071094513,
          0.19873958826065063,
          0.004549294710159302
        ],
        [
          -0.10382192581892014,
          -0.10372605174779892,
          -0.05473211407661438,
          -0.1747085154056549,
          0.032883018255233765,
          -0.1332133412361145,
          0.15295106172561646,
          0.016315117478370667,
          -0.07890982925891876,
          0.08134186267852783,
          -0.1803942322731018,
          -0.12176743894815445,
          -0.04122021794319153,
          -0.036314576864242554,
          -0.0667068213224411,
          0.1647241711616516
        ],
        [
          0.1741514801979065,
          0.07990482449531555,
          0.17518988251686096,
          -0.10009817034006119,
          -0.09672646969556808,
          0.14482688903808594,
          -0.18703781068325043,
          0.11661463975906372,
          0.19197359681129456,
          0.1284181773662567,
          -0.02235722541809082,
          -0.004266530275344849,
          -0.06345796585083008,
          0.0890931487083435,
          0.1104910671710968,
          0.1889192759990692
        ],
        [
          0.024505004286766052,
          0.1177133321762085,
          -0.03425820171833038,
          -0.11005188524723053,
          0.19923135638237,
          -0.15180738270282745,
          0.12183517217636108,
          0.09787803888320923,
          -0.034158289432525635,
          0.13534510135650635,
          0.1406950056552887,
          0.19950443506240845,
          -0.19193054735660553,
          -0.09446389228105545,
          -0.03936813771724701,
          -0.005345627665519714
        ],
        [
          0.0012588649988174438,
          0.04634147882461548,
          0.1679878830909729,
          -0.07714672386646271,
          0.043629080057144165,
          -0.12822720408439636,
          -0.0818619653582573,
          0.051102250814437866,
          -0.004858091473579407,
          -0.035236939787864685,
          -0.0720822811126709,
          0.16859149932861328,
          -0.12377582490444183,
          0.1451350748538971,
          -0.14549857378005981,
          0.1901116967201233
        ],
        [
          -0.1734793782234192,
          -0.01890440285205841,
          -0.05411973595619202,
          -0.0038794875144958496,
          -0.17611995339393616,
          -0.1217089369893074,
          0.03694413602352142,
          0.19195720553398132,
          0.19757241010665894,
          0.051072657108306885,
          -0.18326440453529358,
          0.01257312297821045,
          -0.08450404554605484,
          -0.16644296050071716,
          -0.10823270678520203,
          0.18627634644508362
        ],
        [
          0.0914815366268158,
          0.1796860694885254,
          -0.013115167617797852,
          -0.0019750595092773438,
          0.14297866821289062,
          -0.09424980729818344,
          0.07545265555381775,
          0.106070876121521,
          0.1664917767047882,
          -0.00433705747127533,
          0.07311668992042542,
          0.00890280306339264,
          0.01212640106678009,
          0.17416417598724365,
          -0.06778177618980408,
          -0.047366753220558167
        ],
        [
          -0.10604571551084518,
          0.09071502089500427,
          0.15516403317451477,
          0.17090484499931335,
          0.06811836361885071,
          0.16904804110527039,
          0.16817376017570496,
          0.1503320038318634,
          -0.09861942380666733,
          -0.0499514639377594,
          -0.009517177939414978,
          0.041846707463264465,
          0.16050344705581665,
          -0.12276764214038849,
          0.0903002917766571,
          0.20182478427886963
        ],
        [
          0.08808633685112,
          0.005609109997749329,
          0.1831446886062622,
          -0.05217568576335907,
          0.06977784633636475,
          0.14233049750328064,
          -0.00290893018245697,
          -0.1494804173707962,
          -0.0648149847984314,
          -0.014241516590118408,
          -0.11269143223762512,
          -0.13000336289405823,
          0.16341659426689148,
          -0.08852851390838623,
          0.023563921451568604,
          -0.0719449520111084
        ],
        [
          -0.04214586317539215,
          -0.12844318151474,
          0.04026736319065094,
          0.11573001742362976,
          0.17746281623840332,
          -0.11813425272703171,
          -0.16779619455337524,
          -0.03627106547355652,
          -0.12789976596832275,
          -0.15262216329574585,
          0.06462007761001587,
          0.08567872643470764,
          -0.05769982933998108,
          0.004489719867706299,
          -0.08043578267097473,
          -0.080628402531147
        ],
        [
          -0.0322708934545517,
          0.18654155731201172,
          0.13993653655052185,
          0.09986579418182373,
          -0.044510096311569214,
          0.16433557868003845,
          -0.152764230966568,
          -0.029909953474998474,
          -0.12315668910741806,
          0.18331214785575867,
          -0.07166437804698944,
          -0.12360496073961258,
          -0.09188206493854523,
          -0.06764064729213715,
          -0.11476868391036987,
          0.09945440292358398
        ],
        [
          -0.16826923191547394,
          -0.2018200159072876,
          -0.07112519443035126,
          -0.15412728488445282,
          -0.024592891335487366,
          -0.1508311629295349,
          0.13488221168518066,
          -0.18699853122234344,
          -0.05183705687522888,
          0.18591442704200745,
          -0.10310987383127213,
          -0.10766320675611496,
          0.15393048524856567,
          -0.05330948531627655,
          -0.02838200330734253,
          -0.11641192436218262
        ],
        [
          0.17949506640434265,
          -0.20025931298732758,
          -0.04413969814777374,
          -0.05437888205051422,
          -0.11669307947158813,
          -0.06516802310943604,
          -0.20020675659179688,
          0.02857998013496399,
          0.1551799178123474,
          -0.020915180444717407,
          0.13980421423912048,
          -0.1419374644756317,
          -0.06776528060436249,
          0.05082625150680542,
          0.0498882532119751,
          -0.15587058663368225
        ],
        [
          0.2025052309036255,
          0.11851677298545837,
          0.07850000262260437,
          -0.10688254237174988,
          0.1448247730731964,
          0.18904712796211243,
          -0.18133145570755005,
          0.20353221893310547,
          -0.04422159492969513,
          0.18124043941497803,
          0.09288212656974792,
          -0.002378702163696289,
          0.17606475949287415,
          0.18176275491714478,
          -0.0026426613330841064,
          0.1671757698059082
        ],
        [
          -0.07056845724582672,
          0.16018208861351013,
          0.029398992657661438,
          0.152217835187912,
          0.05448025465011597,
          -0.13280437886714935,
          0.048443764448165894,
          0.13716351985931396,
          -0.11414891481399536,
          0.15963152050971985,
          -0.17503462731838226,
          -0.14497001469135284,
          -0.18490628898143768,
          -0.1287131905555725,
          0.0849800705909729,
          -0.04378807544708252
        ],
        [
          0.01928068697452545,
          0.19370293617248535,
          -0.2001660168170929,
          0.0017417371273040771,
          0.19453012943267822,
          -0.10825777053833008,
          -0.17771972715854645,
          -0.0025998353958129883,
          0.009747177362442017,
          0.15391412377357483,
          0.17386525869369507,
          0.011873573064804077,
          -0.144707590341568,
          0.09483623504638672,
          -0.0181492418050766,
          0.09248167276382446
        ],
        [
          0.04937520623207092,
          -0.049419477581977844,
          0.08467945456504822,
          -0.0147123783826828,
          0.09081527590751648,
          -0.02585117518901825,
          -0.1469007283449173,
          0.1731419563293457,
          0.0020668357610702515,
          -0.06718634068965912,
          0.16115805506706238,
          -0.1773984283208847,
          -0.18394730985164642,
          -0.09662821143865585,
          -0.14834930002689362,
          0.06328520178794861
        ],
        [
          0.14742112159729004,
          -0.19654300808906555,
          -0.02462802827358246,
          -0.16789698600769043,
          0.13222849369049072,
          -0.11910910159349442,
          -0.07300418615341187,
          0.11538374423980713,
          0.030414476990699768,
          0.11334961652755737,
          0.1505577564239502,
          0.037063419818878174,
          0.10544940829277039,
          0.04593092203140259,
          -0.10539065301418304,
          -0.08770453184843063
        ],
        [
          0.11896800994873047,
          0.004997760057449341,
          -0.10537698119878769,
          0.18036511540412903,
          0.07638391852378845,
          -0.04557766020298004,
          -0.0986950471997261,
          -0.1800702065229416,
          0.1806909441947937,
          -0.00127469003200531,
          -0.09877033531665802,
          -0.020234182476997375,
          0.07108348608016968,
          0.1490621268749237,
          -0.19076968729496002,
          0.036302462220191956
        ],
        [
          0.06169396638870239,
          0.11504977941513062,
          0.091168612241745,
          0.09634062647819519,
          0.0028405487537384033,
          0.16718405485153198,
          0.11435186862945557,
          0.1306593418121338,
          0.05997651815414429,
          -0.020340368151664734,
          0.020549103617668152,
          0.10381585359573364,
          -0.08355031907558441,
          0.11786195635795593,
          -0.1898670196533203,
          0.041336819529533386
        ],
        [
          0.09927624464035034,
          -0.08376187831163406,
          0.1244698166847229,
          0.17964306473731995,
          -0.1672740876674652,
          0.15697792172431946,
          0.11640998721122742,
          -0.1572159379720688,
          -0.1382584422826767,
          0.1696172058582306,
          0.10138881206512451,
          -0.13718733191490173,
          0.13338547945022583,
          -0.14491666853427887,
          -0.06930768489837646,
          0.18432185053825378
        ],
        [
          -0.16834472119808197,
          0.05957835912704468,
          0.15326061844825745,
          0.15817880630493164,
          0.1565060317516327,
          0.1949107050895691,
          0.17942142486572266,
          -0.15111719071865082,
          -0.05136021971702576,
          -0.14443272352218628,
          -0.16178815066814423,
          -0.004620492458343506,
          0.19789350032806396,
          0.11013120412826538,
          0.06313222646713257,
          0.1350318193435669
        ],
        [
          -0.17986458539962769,
          -0.16911736130714417,
          0.08376732468605042,
          0.143440842628479,
          0.14593687653541565,
          -0.03130294382572174,
          0.13718333840370178,
          -0.06127183139324188,
          -0.027435436844825745,
          -0.09492924809455872,
          -0.06506785750389099,
          -0.19036400318145752,
          0.0025475770235061646,
          -0.17896035313606262,
          -0.026295170187950134,
          -0.1442171335220337
        ],
        [
          0.09088054299354553,
          -0.19255027174949646,
          0.1333763301372528,
          0.18534740805625916,
          -0.1991901993751526,
          0.04134620726108551,
          -0.06915204226970673,
          0.1304953396320343,
          -0.18509535491466522,
          -0.09102007001638412,
          0.07665309309959412,
          -0.12787345051765442,
          -0.038389891386032104,
          -0.09992452710866928,
          -0.06869487464427948,
          -0.17059488594532013
        ],
        [
          -0.0315324068069458,
          -0.12532922625541687,
          0.07930907607078552,
          -0.11503606289625168,
          -0.0679568350315094,
          -0.05080153048038483,
          0.12326613068580627,
          -0.15312522649765015,
          0.10545840859413147,
          -0.13023102283477783,
          0.19949427247047424,
          -0.18025031685829163,
          -0.1470426321029663,
          0.07406049966812134,
          0.06668493151664734,
          0.09069585800170898
        ],
        [
          -0.0740494579076767,
          0.2020202875137329,
          -0.1745731234550476,
          -0.17878378927707672,
          -0.051397308707237244,
          0.005706354975700378,
          0.10956031084060669,
          -0.18298934400081635,
          0.0189506858587265,
          -0.133367657661438,
          -0.002382829785346985,
          0.08495980501174927,
          -0.189861461520195,
          -0.16875678300857544,
          0.037771761417388916,
          -0.16409993171691895
        ],
        [
          -0.12261974066495895,
          0.03841680288314819,
          0.1006142795085907,
          -0.19204320013523102,
          -0.06665542721748352,
          -0.09724516421556473,
          -0.029892727732658386,
          0.11858156323432922,
          -0.18680965900421143,
          -0.08044103533029556,
          0.03553006052970886,
          -0.1824035942554474,
          -0.18192100524902344,
          -0.07563316822052002,
          -0.0065726786851882935,
          -0.11080004274845123
        ],
        [
          -0.13706624507904053,
          0.05203664302825928,
          -0.16679993271827698,
          -0.12767629325389862,
          0.17524364590644836,
          -0.14501561224460602,
          -0.19487713277339935,
          0.14974838495254517,
          -0.04962778091430664,
          -0.09246387332677841,
          0.055606186389923096,
          -0.09904097765684128,
          -0.029563099145889282,
          -0.016653597354888916,
          -0.12123648077249527,
          -0.047908276319503784
        ],
        [
          0.1005224883556366,
          0.07806921005249023,
          0.031061559915542603,
          0.029307305812835693,
          -0.14722976088523865,
          -0.0033712536096572876,
          -0.17307257652282715,
          0.12893739342689514,
          0.14349734783172607,
          0.0026528388261795044,
          -0.14702031016349792,
          -0.15149538218975067,
          0.17194518446922302,
          -0.1592438519001007,
          0.10354885458946228,
          -0.1745988130569458
        ],
        [
          -0.16696032881736755,
          -0.18792082369327545,
          0.1678333282470703,
          0.19710472226142883,
          -0.08946705609560013,
          -0.13116922974586487,
          0.015821009874343872,
          -0.002040460705757141,
          0.10211250185966492,
          -0.1274307668209076,
          0.06212911009788513,
          0.20067036151885986,
          -0.07542926073074341,
          0.05760848522186279,
          -0.016840964555740356,
          0.1405990719795227
        ],
        [
          -0.13022425770759583,
          0.03496295213699341,
          0.04858970642089844,
          0.059767723083496094,
          0.20092618465423584,
          0.06417843699455261,
          -0.11039284616708755,
          -0.13262072205543518,
          0.08731287717819214,
          -0.14343734085559845,
          0.07619941234588623,
          -0.10280726850032806,
          -0.0727844089269638,
          -0.1811870038509369,
          -0.010370254516601562,
          0.058005690574645996
        ],
        [
          0.020755305886268616,
          -0.024406403303146362,
          -0.1737505942583084,
          -0.03137171268463135,
          -0.045602619647979736,
          -0.14501000940799713,
          0.029356077313423157,
          0.15685516595840454,
          -0.11134939640760422,
          0.08755236864089966,
          -0.13764382898807526,
          0.003121212124824524,
          0.0503980815410614,
          0.19796720147132874,
          -0.16510222852230072,
          0.03090563416481018
        ],
        [
          0.12409353256225586,
          -0.06420440971851349,
          -0.13562911748886108,
          -0.20338192582130432,
          -0.017964988946914673,
          0.1788327991962433,
          -0.01854071021080017,
          -0.19510766863822937,
          0.11638164520263672,
          0.018776312470436096,
          -0.00010083615779876709,
          -0.08574860543012619,
          0.08423507213592529,
          0.13203302025794983,
          0.2027675211429596,
          -0.11260558664798737
        ],
        [
          0.06614670157432556,
          0.023266807198524475,
          0.1413833498954773,
          0.030238747596740723,
          0.1689557433128357,
          -0.13102707266807556,
          0.07140347361564636,
          -0.1979731321334839,
          0.07047247886657715,
          -0.20303970575332642,
          0.08577883243560791,
          0.07401806116104126,
          0.10597661137580872,
          -0.03469085693359375,
          0.07278451323509216,
          0.06563177704811096
        ],
        [
          -0.1621083915233612,
          -0.08538570255041122,
          -0.042608872056007385,
          0.06886324286460876,
          -0.08106406778097153,
          -0.1862664371728897,
          -0.19367092847824097,
          -0.00804908573627472,
          -0.10945167392492294,
          0.11278897523880005,
          0.1899857521057129,
          0.08235052227973938,
          -0.11212533712387085,
          0.03735420107841492,
          0.05974578857421875,
          -0.19370192289352417
        ],
        [
          -0.07806023955345154,
          -0.14512598514556885,
          0.19514572620391846,
          0.038809582591056824,
          -0.15929237008094788,
          0.10958516597747803,
          -0.11811059713363647,
          0.12462744116783142,
          -0.16991262137889862,
          -0.008864209055900574,
          -0.040029093623161316,
          -0.13785752654075623,
          0.032735466957092285,
          0.11947143077850342,
          0.20291653275489807,
          -0.019908249378204346
        ],
        [
          0.0008378922939300537,
          -0.16273224353790283,
          0.08368551731109619,
          -0.08531970530748367,
          -0.06661893427371979,
          -0.08759298920631409,
          0.03801470994949341,
          -0.129827618598938,
          -0.14213812351226807,
          -0.1391793191432953,
          -0.12500616908073425,
          -0.05153454840183258,
          0.07524505257606506,
          0.14822369813919067,
          -0.16655036807060242,
          0.16926944255828857
        ],
        [
          0.07627129554748535,
          -0.08910556137561798,
          -0.06797230243682861,
          0.0735066831111908,
          -0.1668359935283661,
          -0.033384039998054504,
          0.036858633160591125,
          -0.09408506751060486,
          0.019829556345939636,
          -0.12571826577186584,
          0.03226791322231293,
          0.0691964328289032,
          0.18030837178230286,
          0.07734543085098267,
          0.019306287169456482,
          -0.005363255739212036
        ],
        [
          0.13720133900642395,
          0.10864093899726868,
          0.19288873672485352,
          -0.18120302259922028,
          -0.08197594434022903,
          -0.09238318353891373,
          0.0012507438659667969,
          0.1460961103439331,
          -0.07032939791679382,
          -0.035945579409599304,
          -0.16774874925613403,
          0.12103578448295593,
          0.06678971648216248,
          0.019307509064674377,
          0.1283789575099945,
          0.042764320969581604
        ],
        [
          -0.03277906775474548,
          0.02418355643749237,
          0.08216783404350281,
          0.18889674544334412,
          -0.18935322761535645,
          -0.006384178996086121,
          0.10677921772003174,
          0.03624445199966431,
          0.08250066637992859,
          0.04683244228363037,
          -0.007517978549003601,
          -0.09642162173986435,
          0.06795576214790344,
          -0.18134307861328125,
          0.06162044405937195,
          -0.19311563670635223
        ],
        [
          -0.20275291800498962,
          0.16650956869125366,
          0.1450577676296234,
          -0.03960636258125305,
          -0.021537959575653076,
          0.11305740475654602,
          -0.06722654402256012,
          -0.12697631120681763,
          0.05498066544532776,
          -0.09571054577827454,
          0.10153082013130188,
          0.1885889768600464,
          0.17922690510749817,
          0.09788912534713745,
          0.01905760169029236,
          0.18762311339378357
        ],
        [
          0.0931086540222168,
          0.18495893478393555,
          -0.13001835346221924,
          0.1004306972026825,
          0.19477713108062744,
          -0.08366371691226959,
          0.008646085858345032,
          0.137853741645813,
          -0.02074405550956726,
          -0.18782129883766174,
          0.055950164794921875,
          0.1784835159778595,
          0.04518432915210724,
          0.026619821786880493,
          -0.10313688963651657,
          0.13752853870391846
        ],
        [
          0.04126158356666565,
          -0.045576393604278564,
          0.11962935328483582,
          0.18025484681129456,
          -0.06460016965866089,
          0.01936390995979309,
          0.1646948754787445,
          0.04530702531337738,
          0.04601195454597473,
          0.0871584415435791,
          -0.04106535017490387,
          -0.04178255796432495,
          0.13359993696212769,
          -0.1396574229001999,
          0.15064647793769836,
          -0.012360095977783203
        ],
        [
          -0.1161496639251709,
          0.025881841778755188,
          0.028669536113739014,
          0.11866125464439392,
          -0.03582470118999481,
          -0.17890486121177673,
          0.191777765750885,
          -0.07111307978630066,
          -0.07441897690296173,
          0.039500415325164795,
          0.20120689272880554,
          -0.12048827856779099,
          -0.07795469462871552,
          -0.17908021807670593,
          -0.16001632809638977,
          -0.09471657127141953
        ],
        [
          -0.20245254039764404,
          0.19704324007034302,
          -0.10924527794122696,
          -0.19682902097702026,
          -0.04023435711860657,
          -0.08055131882429123,
          0.01711346209049225,
          -0.08283944427967072,
          0.14910516142845154,
          0.0660785436630249,
          -0.1916046142578125,
          -0.007559105753898621,
          0.06296205520629883,
          -0.06473609805107117,
          -0.18836179375648499,
          0.006607949733734131
        ],
        [
          0.20339730381965637,
          -0.14142146706581116,
          0.02331461012363434,
          -0.19045665860176086,
          0.13351935148239136,
          -0.04143430292606354,
          -0.1381893754005432,
          -0.03974121809005737,
          -0.05219510197639465,
          0.12107717990875244,
          -0.1269569993019104,
          -0.0325196236371994,
          -0.1365470290184021,
          0.010238602757453918,
          -0.12168669700622559,
          -0.050454869866371155
        ],
        [
          -0.13229785859584808,
          -0.026509150862693787,
          0.12816768884658813,
          -0.13605013489723206,
          0.11895537376403809,
          0.07852369546890259,
          -0.08838728815317154,
          0.16721764206886292,
          -0.14838546514511108,
          -0.029887571930885315,
          -0.09899275004863739,
          0.0724751353263855,
          0.04983532428741455,
          0.017602309584617615,
          0.0876610279083252,
          0.007885068655014038
        ],
        [
          0.10026177763938904,
          0.2004636526107788,
          0.022902444005012512,
          0.006269961595535278,
          0.02113446593284607,
          -0.10335082560777664,
          0.0010329633951187134,
          0.10142448544502258,
          -0.001424342393875122,
          0.011279895901679993,
          -0.08532155305147171,
          0.005611062049865723,
          0.11648601293563843,
          -0.1155569925904274,
          -0.021776244044303894,
          -0.05300511419773102
        ],
        [
          0.05246126651763916,
          -0.148071750998497,
          0.05645224452018738,
          -0.12045308947563171,
          -0.19927677512168884,
          0.1390133500099182,
          -0.17240694165229797,
          -0.03983640670776367,
          -0.17278620600700378,
          0.03280232846736908,
          -0.09435410052537918,
          -0.1195436492562294,
          0.14747080206871033,
          0.05420023202896118,
          -0.18662779033184052,
          -0.04696729779243469
        ],
        [
          0.172051340341568,
          -0.12130977213382721,
          -0.02672348916530609,
          -0.007004544138908386,
          -0.11210762709379196,
          -0.14252954721450806,
          0.03641021251678467,
          -0.07802993059158325,
          0.004640251398086548,
          0.19235891103744507,
          0.13124072551727295,
          -0.1029314175248146,
          0.09148600697517395,
          0.1863677203655243,
          0.1666162610054016,
          -0.1310306191444397
        ],
        [
          0.07435351610183716,
          -0.1447896957397461,
          0.13068503141403198,
          -0.03600749373435974,
          -0.0755295604467392,
          0.16116812825202942,
          0.13514769077301025,
          -0.05151386559009552,
          0.17578274011611938,
          -0.08850802481174469,
          -0.18281696736812592,
          -0.10218413174152374,
          0.03248856961727142,
          0.1401185393333435,
          -0.08908843249082565,
          -0.1613566279411316
        ],
        [
          -0.060032919049263,
          0.10844305157661438,
          -0.162638857960701,
          -0.13381513953208923,
          0.0008083581924438477,
          -0.16850438714027405,
          -0.10565997660160065,
          0.15299910306930542,
          0.007613807916641235,
          -0.08271344006061554,
          -0.1416386514902115,
          0.19810530543327332,
          0.008770763874053955,
          0.11842226982116699,
          -0.1756550818681717,
          -0.03626766800880432
        ],
        [
          0.19258174300193787,
          -0.19267280399799347,
          0.027817323803901672,
          -0.028286904096603394,
          -0.19301815330982208,
          0.09067374467849731,
          0.025914832949638367,
          0.0078058987855911255,
          -0.10108907520771027,
          -0.02036532759666443,
          0.11179348826408386,
          -0.036273255944252014,
          0.06708380579948425,
          0.17032554745674133,
          -0.1401408314704895,
          0.10960352420806885
        ],
        [
          -0.09939108788967133,
          0.0692303478717804,
          0.10746946930885315,
          0.0380924791097641,
          -0.05990190804004669,
          0.0987463891506195,
          -0.09513973444700241,
          0.17511749267578125,
          -0.11282478272914886,
          -0.06690192222595215,
          -0.06986536085605621,
          0.09581133723258972,
          -0.11584705114364624,
          0.028477147221565247,
          -0.0810762345790863,
          -0.11768613010644913
        ],
        [
          0.031377121806144714,
          -0.11423514783382416,
          -0.028096869587898254,
          0.135159432888031,
          -0.17387571930885315,
          0.07111769914627075,
          0.06665825843811035,
          -0.09161224961280823,
          0.01942571997642517,
          -0.18905670940876007,
          -0.03256021440029144,
          0.07620355486869812,
          0.18680346012115479,
          -0.01856476068496704,
          0.05182051658630371,
          0.041984766721725464
        ],
        [
          0.12612757086753845,
          -0.04839533567428589,
          0.1661313772201538,
          -0.020939841866493225,
          0.05857729911804199,
          -0.14528051018714905,
          0.047068655490875244,
          0.1683146357536316,
          -0.06402610242366791,
          0.037442877888679504,
          0.07244476675987244,
          0.15047550201416016,
          0.16579535603523254,
          0.05110728740692139,
          -0.20039840042591095,
          0.031030118465423584
        ],
        [
          0.13032427430152893,
          -0.09648016840219498,
          -0.1967918425798416,
          0.04830878973007202,
          0.04486425220966339,
          0.05374276638031006,
          0.14720451831817627,
          -0.16607099771499634,
          0.06958922743797302,
          0.17074602842330933,
          0.005033329129219055,
          0.1620035171508789,
          -0.1517251878976822,
          0.05915194749832153,
          0.159674733877182,
          -0.1742265522480011
        ],
        [
          -0.1984773725271225,
          -0.01839601993560791,
          -0.04939752817153931,
          0.10537368059158325,
          -0.11998432874679565,
          -0.11817328631877899,
          -0.09224044531583786,
          0.1328549087047577,
          0.1723986268043518,
          -0.02765345573425293,
          -0.10490330308675766,
          -0.047189563512802124,
          0.005563750863075256,
          0.13467368483543396,
          -0.19338096678256989,
          -0.02628295123577118
        ],
        [
          0.20140215754508972,
          0.131466805934906,
          -0.09392539411783218,
          -0.14971470832824707,
          0.0941154956817627,
          -0.1589829921722412,
          -0.11259843409061432,
          -0.088784359395504,
          0.14068862795829773,
          0.1429782211780548,
          -0.17867599427700043,
          0.18619638681411743,
          0.12607452273368835,
          -0.11405527591705322,
          0.11875265836715698,
          0.17646875977516174
        ],
        [
          0.09377014636993408,
          -0.02101844549179077,
          -0.18508727848529816,
          0.03909428417682648,
          -0.012197121977806091,
          -0.13012930750846863,
          -0.02501721680164337,
          0.19955119490623474,
          0.042607322335243225,
          -0.1362699568271637,
          0.19801512360572815,
          0.007777035236358643,
          -0.1780596673488617,
          -0.16212138533592224,
          -0.03056389093399048,
          -0.20309430360794067
        ],
        [
          -0.20105940103530884,
          -0.13153013586997986,
          0.05669340491294861,
          0.12408345937728882,
          0.0521928071975708,
          0.020642340183258057,
          -0.09557783603668213,
          -0.06118287146091461,
          -0.011339113116264343,
          -0.11662445962429047,
          0.1578536331653595,
          -0.17920757830142975,
          -0.032841458916664124,
          -0.1131061241030693,
          0.016563668847084045,
          0.09571275115013123
        ],
        [
          0.1878664493560791,
          0.12882965803146362,
          -0.019685357809066772,
          -0.0535135418176651,
          0.17964646220207214,
          0.046077579259872437,
          0.03562818467617035,
          0.0624406635761261,
          -0.06086994707584381,
          -0.09570660442113876,
          0.07221612334251404,
          -0.16279025375843048,
          -0.1201934963464737,
          0.04467873275279999,
          0.11513957381248474,
          -0.12647494673728943
        ],
        [
          0.19825398921966553,
          0.0022974759340286255,
          0.1659718155860901,
          0.07884159684181213,
          0.07335686683654785,
          -0.16234150528907776,
          0.1903696060180664,
          -0.042056649923324585,
          0.18602052330970764,
          -0.14792916178703308,
          -0.19990867376327515,
          -0.18092066049575806,
          -0.10772336274385452,
          0.04458938539028168,
          0.039015159010887146,
          -0.01594442129135132
        ],
        [
          -0.16790515184402466,
          0.17516574263572693,
          -0.013337135314941406,
          0.0644635558128357,
          -0.06113041937351227,
          -0.1648712158203125,
          0.06521767377853394,
          -0.17184290289878845,
          0.20274683833122253,
          0.0022586286067962646,
          0.00567646324634552,
          -0.08530496060848236,
          -0.1360655128955841,
          -0.18248894810676575,
          -0.11471836268901825,
          0.132826566696167
        ],
        [
          -0.10480767488479614,
          0.12199282646179199,
          -0.04154375195503235,
          0.0016570091247558594,
          -0.1606270968914032,
          -0.061949968338012695,
          -0.1992361843585968,
          -0.1263604760169983,
          0.08338576555252075,
          0.014400079846382141,
          0.20219358801841736,
          0.08733603358268738,
          0.02239494025707245,
          0.19366586208343506,
          0.14337381720542908,
          0.18286776542663574
        ],
        [
          0.09206247329711914,
          0.1042046844959259,
          0.045524224638938904,
          0.09098324179649353,
          0.1409815549850464,
          0.001860290765762329,
          0.044504448771476746,
          -0.12621204555034637,
          0.029722094535827637,
          0.16107460856437683,
          0.20164057612419128,
          -0.11021657288074493,
          -0.05047166347503662,
          0.11331290006637573,
          0.09646838903427124,
          0.09685096144676208
        ],
        [
          0.029463723301887512,
          0.060553669929504395,
          -0.04916825890541077,
          -0.07160890102386475,
          -0.17633014917373657,
          -0.06214502453804016,
          0.08285254240036011,
          -0.011803686618804932,
          -0.17907725274562836,
          -0.18109969794750214,
          -0.035825908184051514,
          -0.11315561830997467,
          0.03354187309741974,
          -0.09420688450336456,
          -0.0750395804643631,
          -0.177576944231987
        ],
        [
          0.12760388851165771,
          0.15919926762580872,
          0.14055922627449036,
          0.12390357255935669,
          -0.06981226801872253,
          -0.01737913489341736,
          0.004753798246383667,
          0.07182002067565918,
          -0.12759891152381897,
          -0.1261730194091797,
          -0.0038976967334747314,
          -0.10291413962841034,
          -0.032167330384254456,
          -0.06198982894420624,
          0.049622803926467896,
          0.1046828031539917
        ],
        [
          -0.0675579160451889,
          -0.0299990177154541,
          0.04371488094329834,
          -0.12012818455696106,
          -0.1887078583240509,
          -0.017190441489219666,
          0.0329345166683197,
          0.016331762075424194,
          -0.06083238124847412,
          0.03564760088920593,
          -0.10209210216999054,
          0.09044507145881653,
          -0.02797640860080719,
          -0.08235043287277222,
          -0.12009188532829285,
          -0.15564443171024323
        ],
        [
          0.15244930982589722,
          0.16848555207252502,
          0.20240041613578796,
          -0.067154660820961,
          0.18462416529655457,
          0.08737656474113464,
          0.01992766559123993,
          0.05565279722213745,
          0.1533462405204773,
          0.1090344488620758,
          0.12951445579528809,
          0.1733805239200592,
          -0.04188704490661621,
          0.009554550051689148,
          -0.02824607491493225,
          0.0636950135231018
        ],
        [
          -0.14341270923614502,
          -0.009735837578773499,
          0.15901446342468262,
          0.19330614805221558,
          -0.04813125729560852,
          -0.05547827482223511,
          -0.11605879664421082,
          -0.08403149247169495,
          0.0901762843132019,
          -0.10435204952955246,
          -0.1468883603811264,
          -0.017252981662750244,
          0.19217461347579956,
          0.01845841109752655,
          -0.03441457450389862,
          -0.13380959630012512
        ],
        [
          -0.1616085171699524,
          -0.06604650616645813,
          0.19790738821029663,
          -0.017377078533172607,
          0.13296201825141907,
          -0.029622182250022888,
          0.02967679500579834,
          0.12033790349960327,
          -0.1360977292060852,
          -0.023396998643875122,
