{
  "input_features": [
    "queue_len",
    "io_type",
    "size",
    "prev_queue_len_1",
    "prev_queue_len_2",
    "prev_queue_len_3",
    "prev_latency_1",
    "prev_latency_2",
    "prev_latency_3",
    "prev_throughput_1",
    "prev_throughput_2",
    "prev_throughput_3"
  ],
  "scaler_min": [
    1.0,
    0.0,
    512.0,
    1.0,
    1.0,
    1.0,
    16.0,
    16.0,
    16.0,
    0.0,
    0.0,
    0.0
  ],
  "scaler_scale": [
    11.0,
    1.0,
    523776.0,
    11.0,
    11.0,
    11.0,
    3470.0,
    3470.0,
    3470.0,
    5243.0,
    5243.0,
    5243.0
  ],
  "layers": [
    {
      "name": "dense_1",
      "weights": [
        [
          0.06274335086345673,
          -0.13525687158107758,
          -0.0826856791973114,
          -0.08499491214752197,
          0.18219663202762604,
          -0.11670966446399689,
          0.1974100023508072,
          0.06999631226062775,
          -0.044375211000442505,
          0.01114434003829956,
          0.17776621878147125,
          -0.045874133706092834,
          0.03297622501850128,
          -0.1865188032388687,
          -0.20322641730308533,
          0.13894952833652496,
          0.10136006772518158,
          -0.1997356116771698,
          -0.04428774118423462,
          0.09265772998332977,
          -0.026125624775886536,
          0.13009695708751678,
          -0.14575019478797913,
          -0.026444628834724426,
          0.09514521062374115,
          -0.12815706431865692,
          0.1030338853597641,
          -0.13966920971870422,
          -0.11487707495689392,
          -0.19987627863883972,
          -0.08582455664873123,
          -0.04068051278591156,
          0.02344655990600586,
          -0.12625166773796082,
          -0.13227969408035278,
          -0.032791391015052795,
          0.15390388667583466,
          -0.1296270191669464,
          0.09822647273540497,
          -0.02764885127544403,
          -0.14995735883712769,
          0.10740329325199127,
          -0.03959435224533081,
          0.02334962785243988,
          0.1160467118024826,
          0.035079047083854675,
          -0.13870428502559662,
          -0.14862501621246338,
          0.05901558697223663,
          0.16698263585567474,
          0.04676593840122223,
          0.19733990728855133,
          -0.08200480043888092,
          0.14682193100452423,
          0.19044853746891022,
          0.019941255450248718,
          0.12637685239315033,
          0.0620015412569046,
          -0.08116818964481354,
          0.023384228348731995,
          0.1701318770647049,
          -0.004409089684486389,
          0.07539741694927216,
          0.19133372604846954,
          -0.06958767771720886,
          0.04009769856929779,
          0.15749679505825043,
          0.1506635695695877,
          -0.1358594298362732,
          0.09186358749866486,
          0.1873796433210373,
          0.13812102377414703,
          -0.1720559298992157,
          0.016202092170715332,
          0.1389431208372116,
          0.04029469192028046,
          -0.10134926438331604,
          0.13361360132694244,
          -0.023997098207473755,
          -0.17465098202228546,
          0.07688339054584503,
          -0.2015446573495865,
          -0.1593036651611328,
          -0.03392097353935242,
          0.0271865576505661,
          0.11837087571620941,
          0.13376246392726898,
          0.1203324943780899,
          -0.031120389699935913,
          -0.07133147120475769,
          -0.06427016854286194,
          0.10981355607509613,
          0.06801830232143402,
          0.064467653632164,
          0.12383939325809479,
          0.10230760276317596,
          0.12413324415683746,
          0.112521693110466,
          0.08533798158168793,
          -0.14270928502082825,
          0.14559169113636017,
          0.1621902734041214,
          0.11240847408771515,
          -0.07465025782585144,
          0.029377683997154236,
          -0.06960400938987732,
          -0.17638333141803741,
          0.20242352783679962,
          0.03016059100627899,
          -0.1634489893913269,
          0.07955522835254669,
          -0.17304040491580963,
          0.09168772399425507,
          -0.11637280136346817,
          0.14824886620044708,
          0.08604435622692108,
          -0.09009169787168503,
          -0.01946781575679779,
          -0.09940804541110992,
          0.14792288839817047,
          0.14838580787181854,
          -0.17563383281230927,
          -0.15855057537555695,
          -0.026331305503845215,
          -0.18539923429489136,
          -0.12937194108963013,
          0.08405138552188873,
          0.17514298856258392
        ],
        [
          0.055329516530036926,
          0.05648793280124664,
          -0.11656899750232697,
          -0.14951053261756897,
          0.04861311614513397,
          0.1552167385816574,
          0.19897423684597015,
          0.14036791026592255,
          -0.0010893642902374268,
          0.014582574367523193,
          -0.09590722620487213,
          0.08631320297718048,
          -0.06967167556285858,
          -0.03780776262283325,
          0.07501061260700226,
          -0.0839141309261322,
          -0.1826179027557373,
          -0.06810468435287476,
          0.16729043424129486,
          -0.1425030678510666,
          0.09837140142917633,
          0.11255119740962982,
          -0.194996178150177,
          0.17082859575748444,
          0.004074305295944214,
          -0.15250839293003082,
          -0.0771668404340744,
          0.18016280233860016,
          -0.15468569099903107,
          0.11475111544132233,
          -0.10555727779865265,
          -0.17879024147987366,
          -0.1171855702996254,
          0.11399917304515839,
          0.011799558997154236,
          -0.0970793142914772,
          -0.08130595088005066,
          -0.09354236721992493,
          0.1905674785375595,
          -0.14557452499866486,
          -0.17186248302459717,
          0.16268379986286163,
          -0.1793312430381775,
          -0.15653115510940552,
          0.15106810629367828,
          0.13009394705295563,
          0.1811484843492508,
          -0.07491634786128998,
          -0.15715543925762177,
          0.03931879997253418,
          -0.029612913727760315,
          -0.08827120065689087,
          0.11591698229312897,
          0.13140033185482025,
          -0.04987381398677826,
          -0.1825302392244339,
          -0.0866594910621643,
          0.027283549308776855,
          0.026470184326171875,
          0.005647614598274231,
          0.05557571351528168,
          0.154104545712471,
          0.09834922850131989,
          0.06974245607852936,
          0.18949954211711884,
          0.09351350367069244,
          -0.15255838632583618,
          0.030813097953796387,
          -0.1169845387339592,
          -0.045582592487335205,
          0.06623531877994537,
          -0.0747590959072113,
          0.18151988089084625,
          -0.18287727236747742,
          0.20521630346775055,
          0.045503661036491394,
          0.07781459391117096,
          0.10879085958003998,
          0.027232959866523743,
          -0.05145309865474701,
          0.0024262070655822754,
          -0.08449842780828476,
          -0.050996944308280945,
          -0.06474867463111877,
          -0.036646828055381775,
          0.05663911998271942,
          0.12091322243213654,
          0.05204199254512787,
          0.20617739856243134,
          -0.025760188698768616,
          -0.08918367326259613,
          0.03565174341201782,
          0.18815790116786957,
          -0.14533016085624695,
          -0.16098275780677795,
          -0.18520881235599518,
          0.03874501585960388,
          0.13123957812786102,
          -0.10918237268924713,
          0.1673889011144638,
          0.011717870831489563,
          0.009569108486175537,
          -0.057705581188201904,
          0.15575654804706573,
          -0.03859798610210419,
          0.07245613634586334,
          -0.126492440700531,
          0.11905725300312042,
          -0.15099984407424927,
          0.07004387676715851,
          0.17678071558475494,
          -0.1881590485572815,
          -0.20125049352645874,
          0.06152079999446869,
          0.12046338617801666,
          -0.20154772698879242,
          0.08386488258838654,
          0.12916286289691925,
          -0.16706588864326477,
          -0.12347226589918137,
          0.1795053631067276,
          0.19613809883594513,
          -0.1825253963470459,
          -0.0002626776695251465,
          -0.12564092874526978,
          -0.07852791249752045,
          -0.1561899036169052,
          0.015648648142814636
        ],
        [
          -0.06492868065834045,
          0.13151444494724274,
          0.18289203941822052,
          0.20559965074062347,
          0.00769476592540741,
          0.03861969709396362,
          -0.11207930743694305,
          0.08443738520145416,
          -0.030283987522125244,
          0.04190121591091156,
          0.1708919256925583,
          -0.05627131462097168,
          0.1608421951532364,
          -0.016562342643737793,
          -0.18399739265441895,
          -0.08412010222673416,
          0.0833321064710617,
          0.038427501916885376,
          0.17078693211078644,
          0.08876143395900726,
          -0.1664292812347412,
          -0.18634042143821716,
          0.002590760588645935,
          -0.03065924346446991,
          -0.07121646404266357,
          -0.048129573464393616,
          -0.19612058997154236,
          0.18793334066867828,
          -0.08793418854475021,
          -0.10656895488500595,
          0.038902416825294495,
          0.08996860682964325,
          0.024027109146118164,
          -0.13181690871715546,
          -0.0738835334777832,
          -0.07793913781642914,
          -0.09222186356782913,
          0.1201695054769516,
          0.15660534799098969,
          0.17639575898647308,
          -0.07633635401725769,
          -0.1188262552022934,
          -0.04764778912067413,
          0.05817429721355438,
          -0.08725745230913162,
          0.0727774053812027,
          0.00013084709644317627,
          0.07348088920116425,
          0.03645232319831848,
          -0.052589356899261475,
          -0.08105698227882385,
          0.07879899442195892,
          0.11990095674991608,
          0.11277885735034943,
          -0.14781677722930908,
          -0.08814524114131927,
          0.036206573247909546,
          -0.04937964677810669,
          -0.12547507882118225,
          -0.14540192484855652,
          0.1323959082365036,
          0.16534490883350372,
          0.060081347823143005,
          -0.03963477909564972,
          0.20184017717838287,
          -0.20692963898181915,
          0.07033617794513702,
          0.19079868495464325,
          0.023027867078781128,
          0.12828125059604645,
          0.18173010647296906,
          -0.06276066601276398,
          0.14899922907352448,
          -0.20398621261119843,
          -0.13813436031341553,
          0.02163870632648468,
          0.1303682178258896,
          -0.09545516222715378,
          -0.14243629574775696,
          -0.16478794813156128,
          0.1558668166399002,
          0.18106497824192047,
          -0.05857101082801819,
          0.08386482298374176,
          0.1539924293756485,
          0.09552381932735443,
          0.13618557155132294,
          -0.1325303614139557,
          0.03209179639816284,
          -0.11177383363246918,
          0.1381736546754837,
          0.05258600413799286,
          0.08148171007633209,
          0.17380322515964508,
          0.021733015775680542,
          0.03133712708950043,
          0.10256998240947723,
          -0.17696470022201538,
          -0.12206923216581345,
          0.030933469533920288,
          -0.013029247522354126,
          0.0845722109079361,
          0.17708750069141388,
          0.19819606840610504,
          0.14017440378665924,
          0.017234444618225098,
          0.024199262261390686,
          -0.17019860446453094,
          0.05665920674800873,
          -0.14218482375144958,
          -0.0844225138425827,
          -0.09421821683645248,
          0.17990733683109283,
          -0.06415051221847534,
          -0.102585569024086,
          0.15831749141216278,
          -0.048386916518211365,
          -0.12553057074546814,
          0.14934735000133514,
          -0.12261166423559189,
          -0.12122225761413574,
          -0.07283835113048553,
          0.06931938230991364,
          -0.02474096417427063,
          -0.19199608266353607,
          0.04076047241687775,
          0.009431153535842896,
          0.11493803560733795
        ],
        [
          0.101713165640831,
          -0.09399181604385376,
          -0.12316999584436417,
          -0.11405878514051437,
          -0.1365344375371933,
          0.056433990597724915,
          0.1558619886636734,
          0.14837215840816498,
          0.06950609385967255,
          -0.11866036802530289,
          -0.07137766480445862,
          0.030286744236946106,
          -0.11718675494194031,
          0.10042954981327057,
          -0.11940418183803558,
          -0.032361775636672974,
          -0.20543979108333588,
          -0.1820160299539566,
          -0.04937851428985596,
          0.10332907736301422,
          0.1771451085805893,
          0.12651295959949493,
          -0.19993999600410461,
          0.05375368893146515,
          -0.14767690002918243,
          -0.07085517048835754,
          0.10299952328205109,
          -0.06411024928092957,
          0.026068761944770813,
          -0.002329319715499878,
          -0.1127888634800911,
          -0.09094538539648056,
          0.15776698291301727,
          0.09882830083370209,
          -0.19105859100818634,
          0.09438683092594147,
          0.17324773967266083,
          -0.047174811363220215,
          0.16103996336460114,
          -0.17207477986812592,
          -0.14588040113449097,
          0.17627282440662384,
          -0.04577694833278656,
          -0.18157413601875305,
          0.1686171442270279,
          -0.15603087842464447,
          0.04641939699649811,
          0.1163782924413681,
          0.13667534291744232,
          -0.19257549941539764,
          0.1326247900724411,
          0.1147521585226059,
          -0.022877618670463562,
          -0.000835612416267395,
          -0.09330490976572037,
          0.20621441304683685,
          -0.07404035329818726,
          0.015364885330200195,
          -0.15498194098472595,
          -0.08755522221326828,
          -0.1880474090576172,
          -0.1901363581418991,
          -0.08824761211872101,
          -0.045341819524765015,
          0.17026765644550323,
          0.051462724804878235,
          -0.19023215770721436,
          -0.19158153235912323,
          -0.018296122550964355,
          -0.009781047701835632,
          -0.025919809937477112,
          0.11045677959918976,
          0.019690319895744324,
          -0.1604297012090683,
          -0.07307931780815125,
          0.17590521275997162,
          -0.17218276858329773,
          -0.07004323601722717,
          -0.06308016180992126,
          -0.0011120736598968506,
          0.08252225816249847,
          -0.06663458049297333,
          -0.12678557634353638,
          -0.17860020697116852,
          -0.20059897005558014,
          -0.012015998363494873,
          0.048726364970207214,
          -0.14952987432479858,
          0.14369119703769684,
          0.14189521968364716,
          -0.1755830943584442,
          0.083793506026268,
          0.20691706240177155,
          0.15422643721103668,
          -0.041635677218437195,
          -0.0063169002532958984,
          -0.18207161128520966,
          0.094785675406456,
          0.040498584508895874,
          -0.1435714066028595,
          -0.0541093647480011,
          -0.16188392043113708,
          -0.15985824167728424,
          0.08198101818561554,
          -0.15988174080848694,
          0.02442610263824463,
          -0.17251302301883698,
          0.09328357875347137,
          0.19582517445087433,
          -0.18771329522132874,
          0.1330026239156723,
          -0.02917546033859253,
          -0.04112270474433899,
          -0.06313025951385498,
          0.03735077381134033,
          -0.030930861830711365,
          -0.17975057661533356,
          -0.001987665891647339,
          0.14098556339740753,
          -0.17664901912212372,
          0.05888591706752777,
          -0.15104469656944275,
          -0.18712317943572998,
          -0.10558170825242996,
          0.1245075911283493,
          0.023697003722190857,
          -0.13121776282787323,
          -0.12554077804088593
        ],
        [
          0.016485750675201416,
          -0.04223605990409851,
          0.14399157464504242,
          0.10120193660259247,
          0.1566779464483261,
          0.1792861670255661,
          -0.007045909762382507,
          0.14374710619449615,
          0.06776545941829681,
          0.056680724024772644,
          0.19085170328617096,
          -0.20064221322536469,
          0.12003739178180695,
          0.09372539818286896,
          -0.008709743618965149,
          0.006369754672050476,
          0.04057203233242035,
          0.16066335141658783,
          -0.007723584771156311,
          0.10706262290477753,
          0.13235925137996674,
          0.12681268155574799,
          -0.10848876088857651,
          -0.11475101858377457,
          0.09833554923534393,
          0.18053965270519257,
          -0.06335769593715668,
          -0.09069232642650604,
          -0.09719535708427429,
          0.02298353612422943,
          -0.13578632473945618,
          -0.0371907502412796,
          0.10291148722171783,
          0.16872848570346832,
          -0.17328310012817383,
          0.09363017976284027,
          -0.09738143533468246,
          0.15692241489887238,
          0.10845895111560822,
          0.01084183156490326,
          0.1919834166765213,
          0.02800649404525757,
          -0.10899457335472107,
          0.1417228728532791,
          0.18605248630046844,
          -0.09907172620296478,
          0.09814204275608063,
          0.14445967972278595,
          0.18533547222614288,
          -0.07397188246250153,
          0.19361959397792816,
          -0.010441243648529053,
          -0.14657306671142578,
          0.1355777531862259,
          -0.18785737454891205,
          -0.14720958471298218,
          0.19935230910778046,
          -0.07219205796718597,
          0.05774669349193573,
          -0.12781471014022827,
          0.1213778704404831,
          0.028746649622917175,
          0.1914113610982895,
          0.05535800755023956,
          0.14392663538455963,
          0.07030452787876129,
          -0.11148015409708023,
          -0.1274469494819641,
          0.07986722886562347,
          -0.12052666395902634,
          0.18237371742725372,
          0.030595779418945312,
          0.13921190798282623,
          -0.11481296271085739,
          0.1245245486497879,
          0.16356755793094635,
          0.050835058093070984,
          0.10365580022335052,
          -0.005413904786109924,
          -0.05160808563232422,
          0.10491301119327545,
          0.2017032951116562,
          0.02016577124595642,
          0.048490121960639954,
          -0.18808713555335999,
          -0.19368582963943481,
          -0.15161453187465668,
          0.1208554357290268,
          -0.13727998733520508,
          -0.2010359764099121,
          -0.06677554547786713,
          0.02969782054424286,
          -0.1554259955883026,
          0.20149372518062592,
          -0.14787107706069946,
          0.09889186918735504,
          0.04213295876979828,
          0.014147043228149414,
          -0.13970105350017548,
          -0.2054198980331421,
          0.08665706217288971,
          -0.1393258422613144,
          -0.08009842038154602,
          0.08381034433841705,
          -0.18124739825725555,
          0.11177782714366913,
          -0.0356936901807785,
          0.13732366263866425,
          -0.031986311078071594,
          -0.08158165216445923,
          0.12206201255321503,
          -0.15878146886825562,
          0.16542796790599823,
          -0.04060479998588562,
          0.18265102803707123,
          -0.04544927179813385,
          -0.18971163034439087,
          -0.09393056482076645,
          -0.03845745325088501,
          0.10332693159580231,
          0.019776150584220886,
          -0.06688264012336731,
          0.022735610604286194,
          0.014450103044509888,
          0.038211360573768616,
          -0.0940336212515831,
          -0.0023492127656936646,
          0.1792699545621872
        ],
        [
          -0.14667469263076782,
          -0.03975901007652283,
          0.08597870171070099,
          -0.16317875683307648,
          -0.09254682809114456,
          -0.18430893123149872,
          -0.007765442132949829,
          -0.08228963613510132,
          -0.09037703275680542,
          -0.0987769141793251,
          -0.07698476314544678,
          0.11398272216320038,
          -0.03813451528549194,
          0.1486576348543167,
          0.026361212134361267,
          0.04348124563694,
          0.20090626180171967,
          0.08314938843250275,
          0.16440297663211823,
          0.060255035758018494,
          0.011686578392982483,
          -0.1008220836520195,
          -0.032258614897727966,
          -0.15852466225624084,
          0.0655016154050827,
          0.01771770417690277,
          0.1972721368074417,
          -0.10265358537435532,
          0.01901896297931671,
          0.17796488106250763,
          0.05780608952045441,
          -0.08620678633451462,
          0.12352032959461212,
          0.18751539289951324,
          -0.001743406057357788,
          0.011607617139816284,
          -0.17445261776447296,
          0.1250087171792984,
          -0.13449272513389587,
          0.08341394364833832,
          0.07331745326519012,
          -0.06359900534152985,
          0.04423047602176666,
          0.18077628314495087,
          -0.10318698734045029,
          -0.024144917726516724,
          0.19445715844631195,
          0.09825842082500458,
          -0.15605264902114868,
          0.10239262878894806,
          -0.09049055725336075,
          -0.052413493394851685,
          -0.1324210911989212,
          0.12235154211521149,
          0.13678999245166779,
          0.1454140692949295,
          0.12156771123409271,
          -0.10683528333902359,
          0.15786559879779816,
          -0.11372937262058258,
          0.039593711495399475,
          -0.10670246928930283,
          0.1400488168001175,
          -0.08611591905355453,
          0.20352886617183685,
          0.04743047058582306,
          -0.14623399078845978,
          0.007314369082450867,
          0.09880430996417999,
          -0.18645162880420685,
          -0.08554233610630035,
          -0.1742376685142517,
          0.0013717859983444214,
          0.16999872028827667,
          -0.06907430291175842,
          -0.08505818992853165,
          0.11421762406826019,
          0.14472661912441254,
          0.1678115278482437,
          -0.08464620262384415,
          -0.12695299088954926,
          0.008673414587974548,
          0.155671164393425,
          0.01549045741558075,
          -0.044572487473487854,
          -0.06235361099243164,
          0.17227967083454132,
          -0.07847960293292999,
          -0.037427470088005066,
          -0.13772058486938477,
          0.0040679872035980225,
          -0.03247910737991333,
          -0.14426064491271973,
          -0.0849863737821579,
          -0.18622355163097382,
          0.1017175167798996,
          -0.04765777289867401,
          -0.07214058935642242,
          0.02476613223552704,
          0.10943366587162018,
          0.14898334443569183,
          0.0832928866147995,
          -0.1254674792289734,
          0.11911256611347198,
          0.18960891664028168,
          0.17618896067142487,
          0.04240955412387848,
          0.15979759395122528,
          -0.1370866894721985,
          -0.1944875419139862,
          0.02424629032611847,
          0.1255272477865219,
          0.03959539532661438,
          -0.15114066004753113,
          -0.1478574573993683,
          -0.10570031404495239,
          0.07654048502445221,
          0.014571920037269592,
          -0.10095485299825668,
          -0.0022747814655303955,
          -0.005728110671043396,
          -0.1926000714302063,
          0.05761630833148956,
          0.15255586802959442,
          -0.07072417438030243,
          -0.01605173945426941,
          0.018983572721481323,
          0.0970752090215683
        ],
        [
          0.18224866688251495,
          -0.016064226627349854,
          -0.11356742680072784,
          -0.12674924731254578,
          -0.08690864592790604,
          0.12397600710391998,
          -0.0740484893321991,
          -0.05878309905529022,
          -0.2007717788219452,
          -0.19249746203422546,
          0.07538710534572601,
          0.019254744052886963,
          0.06336461007595062,
          0.1918245106935501,
          -0.008480176329612732,
          0.07274980843067169,
          -0.19424431025981903,
          0.16874493658542633,
          0.03412334620952606,
          -0.1200745552778244,
          0.11525233089923859,
          0.01147376000881195,
          -0.04331184923648834,
          0.060943081974983215,
          0.05391918122768402,
          -0.106484554708004,
          0.16514338552951813,
          -0.1756618618965149,
          0.15543369948863983,
          -0.044959887862205505,
          -0.09614517539739609,
          -0.04518762230873108,
          0.20084907114505768,
          -0.17001742124557495,
          0.011868074536323547,
          -0.13309389352798462,
          0.0656907707452774,
          -0.02354961633682251,
          -0.1789405792951584,
          0.06498633325099945,
          -0.20022055506706238,
          -0.06613360345363617,
          -0.08777294307947159,
          -0.19813427329063416,
          -0.13831520080566406,
          0.06032346189022064,
          0.04708881676197052,
          0.11405546963214874,
          -0.16926851868629456,
          -0.1537853628396988,
          -0.1833568811416626,
          -0.031068816781044006,
          -0.04839886724948883,
          0.11224515736103058,
          0.00036425888538360596,
          0.12311993539333344,
          0.11113296449184418,
          -0.1265830099582672,
          0.20556877553462982,
          0.1677541881799698,
          0.19436554610729218,
          0.1697751134634018,
          -0.06679019331932068,
          0.07562075555324554,
          0.17692424356937408,
          -0.0655556172132492,
          0.07754145562648773,
          -0.037101954221725464,
          -0.011122480034828186,
          -0.1948576718568802,
          0.19560755789279938,
          -0.15228283405303955,
          0.1684139519929886,
          0.16971223056316376,
          0.10117004811763763,
          -0.027518153190612793,
          0.008866101503372192,
          0.08826063573360443,
          -0.15667711198329926,
          0.040353477001190186,
          0.069334015250206,
          0.1151430755853653,
          -0.08791647106409073,
          0.008032172918319702,
          -0.18611125648021698,
          0.19559912383556366,
          0.052291139960289,
          0.1542772501707077,
          0.0971217006444931,
          0.030574604868888855,
          0.13522325456142426,
          0.12732888758182526,
          0.09785322844982147,
          -0.11184476315975189,
          -0.057095035910606384,
          -0.08415090292692184,
          0.12020508944988251,
          -0.19407245516777039,
          0.17106862366199493,
          -0.06611000001430511,
          -0.04077637195587158,
          0.07180388271808624,
          0.06314851343631744,
          -0.148868590593338,
          -0.1221693754196167,
          -0.096784308552742,
          -0.16343531012535095,
          0.13095439970493317,
          -0.02672433853149414,
          -0.1558171659708023,
          -0.013637140393257141,
          0.15196220576763153,
          0.13444478809833527,
          -0.10950053483247757,
          0.20244993269443512,
          -0.19570676982402802,
          -0.06286254525184631,
          -0.02792149782180786,
          0.11826477944850922,
          -0.12349812686443329,
          -0.11359531432390213,
          -0.019009634852409363,
          0.15842993557453156,
          -0.06964670121669769,
          -0.09047160297632217,
          0.1317114681005478,
          0.19599954783916473,
          0.17696861922740936
        ],
        [
          0.11385069787502289,
          0.10697527229785919,
          0.07994003593921661,
          0.04482175409793854,
          -0.12019453942775726,
          -0.07849524915218353,
          0.17643065750598907,
          0.07323159277439117,
          -0.10516843944787979,
          -0.01960587501525879,
          0.005969330668449402,
          -0.13575667142868042,
          -0.16371670365333557,
          -0.1878739595413208,
          -0.06306080520153046,
          -0.15973031520843506,
          -0.06104496121406555,
          0.13156379759311676,
          0.10158179700374603,
          0.1775209754705429,
          0.11687268316745758,
          0.12996448576450348,
          0.19330717623233795,
          -0.06039714813232422,
          -0.1028098538517952,
          -0.04030850529670715,
          -0.054106295108795166,
          0.023236051201820374,
          0.18451212346553802,
          0.15775813162326813,
          -0.09278517961502075,
          0.18123085796833038,
          -0.10143119841814041,
          0.20504741370677948,
          -0.0787416398525238,
          -0.1681746542453766,
          -0.022257938981056213,
          0.17469821870326996,
          0.0065631866455078125,
          -0.019105777144432068,
          0.09538377821445465,
          0.09933613240718842,
          0.09697671234607697,
          -0.17583279311656952,
          -0.1739313006401062,
          0.07060922682285309,
          -0.0347055047750473,
          -0.14444825053215027,
          0.16176678240299225,
          0.14408718049526215,
          0.19632552564144135,
          0.04323180019855499,
          0.11515466868877411,
          -0.01703415811061859,
          -0.07774713635444641,
          -0.1663399487733841,
          0.13190288841724396,
          0.0023123472929000854,
          0.04568891227245331,
          -0.02267274260520935,
          0.006143063306808472,
          0.17531774938106537,
          -0.14540237188339233,
          -0.051998451352119446,
          -0.18776611983776093,
          -0.13546860218048096,
          -0.13887372612953186,
          -0.19954662024974823,
          -0.1324053406715393,
          0.042306095361709595,
          0.1987036019563675,
          -0.044016867876052856,
          0.0059839338064193726,
          0.19863523542881012,
          0.18878860771656036,
          -0.12923838198184967,
          -0.1385614424943924,
          0.16775508224964142,
          -0.1929064840078354,
          0.09728489816188812,
          0.07051153481006622,
          -0.1263401210308075,
          -0.19335386157035828,
          0.08057008683681488,
          -0.11638297140598297,
          -0.12509173154830933,
          -0.0030859261751174927,
          -0.011870384216308594,
          -0.04435117542743683,
          -0.0494350790977478,
          -0.1362518072128296,
          -0.17987877130508423,
          -0.020297467708587646,
          -0.12381815910339355,
          -0.08046859502792358,
          -0.05429641902446747,
          0.1427183300256729,
          0.011968016624450684,
          0.00694487988948822,
          0.10002733767032623,
          -0.10824818909168243,
          0.07743223011493683,
          -0.20585060119628906,
          0.12237431108951569,
          -0.0775531530380249,
          -0.04684583842754364,
          0.13480539619922638,
          0.0021543502807617188,
          -0.1413426697254181,
          -0.13340750336647034,
          0.15414439141750336,
          0.03538580238819122,
          0.17395569384098053,
          -0.0009112805128097534,
          0.08273421227931976,
          -0.12887734174728394,
          0.08256973326206207,
          -0.13381321728229523,
          -0.20402081310749054,
          0.19994334876537323,
          0.1631595939397812,
          0.06654651463031769,
          -0.12704622745513916,
          0.12432588636875153,
          0.19755224883556366,
          0.1507975310087204,
          -0.03671959042549133,
          0.0074031054973602295
        ],
        [
          -0.16895771026611328,
          0.14684785902500153,
          -0.1963137686252594,
          -0.04159845411777496,
          0.10199441015720367,
          0.05295048654079437,
          -0.07964634895324707,
          -0.12689213454723358,
          0.06503628194332123,
          -0.11456247419118881,
          0.12146370112895966,
          -0.08414483070373535,
          -0.07701046764850616,
          -0.15046238899230957,
          -0.1569838672876358,
          0.03075958788394928,
          -0.08932838588953018,
          0.04458419978618622,
          0.09707580506801605,
          0.06601889431476593,
          -0.006685107946395874,
          -0.10288107395172119,
          -0.07447484135627747,
          -0.14441482722759247,
          0.02494189143180847,
          -0.19210857152938843,
          0.15987269580364227,
          -0.10420074313879013,
          -0.14135318994522095,
          -0.0762585699558258,
          0.11423252522945404,
          -0.1567368358373642,
          0.09622813761234283,
          -0.1417359560728073,
          0.026087075471878052,
          -0.0629010945558548,
          -0.14792358875274658,
          0.15285764634609222,
          0.05090580880641937,
          -0.12915274500846863,
          -0.17761144042015076,
          0.18083344399929047,
          0.04598356783390045,
          0.15669642388820648,
          0.09636668860912323,
          -0.04771511256694794,
          0.04829634726047516,
          -0.1248500719666481,
          -0.1628246158361435,
          0.15743182599544525,
          0.12395186722278595,
          0.099291130900383,
          -0.06723742187023163,
          -0.05438320338726044,
          0.2055521160364151,
          -0.09185844659805298,
          -0.12090444564819336,
          -0.08507812768220901,
          0.12874175608158112,
          0.00965908169746399,
          -0.09722486883401871,
          -0.15835022926330566,
          -0.16724427044391632,
          0.17319919168949127,
          0.07191057503223419,
          -0.0186627060174942,
          -0.06392969191074371,
          0.12794004380702972,
          -0.035175055265426636,
          -0.04946009814739227,
          -0.19518274068832397,
          0.01449383795261383,
          0.07894696295261383,
          -0.0019960105419158936,
          0.06461556255817413,
          0.010436862707138062,
          0.0177631676197052,
          -0.2024575173854828,
          -0.1859711855649948,
          0.15733419358730316,
          0.11167700588703156,
          -0.17955611646175385,
          0.16927661001682281,
          -0.1482347846031189,
          -0.017700031399726868,
          0.14947094023227692,
          0.04272632300853729,
          0.17279691994190216,
          0.16810907423496246,
          0.13035006821155548,
          0.15037651360034943,
          -0.015002995729446411,
          -0.009560763835906982,
          -0.13161414861679077,
          -0.03920428454875946,
          0.11840631067752838,
          -0.17297539114952087,
          0.10686688125133514,
          0.13939602673053741,
          0.09947334229946136,
          0.16449294984340668,
          -0.05077122151851654,
          -0.08604824542999268,
          0.1593116968870163,
          0.06499703228473663,
          0.14224670827388763,
          0.13526876270771027,
          -0.1366894245147705,
          -0.0029850751161575317,
          0.12475056946277618,
          -0.03619265556335449,
          -0.17496588826179504,
          -0.16365565359592438,
          -0.20502039790153503,
          -0.12507203221321106,
          -0.0010567456483840942,
          0.1550683230161667,
          0.20137299597263336,
          0.05924992263317108,
          0.1865214854478836,
          -0.07337437570095062,
          0.17309142649173737,
          0.1747565120458603,
          -0.06200051307678223,
          0.16863848268985748,
          -0.0008424371480941772,
          -0.03260639309883118,
          0.11323894560337067
        ],
        [
          0.01989041268825531,
          -0.19477777183055878,
          -0.1936207413673401,
          0.055960699915885925,
          0.043951526284217834,
          0.1425008624792099,
          0.20069779455661774,
          0.0017528831958770752,
          0.08497394621372223,
          0.14959807693958282,
          0.20020727813243866,
          -0.014602169394493103,
          -0.07977542281150818,
          0.09884734451770782,
          -0.08740123361349106,
          -0.200352281332016,
          -0.15572574734687805,
          0.0877462774515152,
          -0.19540110230445862,
          0.14465786516666412,
          0.20648814737796783,
          -0.10876313596963882,
          0.01638081669807434,
          -0.06405229866504669,
          -0.01709456741809845,
          0.10383431613445282,
          -0.1399247944355011,
          -0.0629560649394989,
          0.1210213154554367,
          0.18647147715091705,
          0.017456457018852234,
          -0.1116117462515831,
          0.010474607348442078,
          0.16218678653240204,
          -0.12749631702899933,
          0.19539912045001984,
          -0.06736062467098236,
          -0.06574106216430664,
          -0.13384120166301727,
          0.1023743599653244,
          0.15692339837551117,
          0.09210394322872162,
          -0.11814527213573456,
          -0.010909795761108398,
          0.17908801138401031,
          0.09540502727031708,
          0.09052188694477081,
          0.20281122624874115,
          -0.03523734211921692,
          0.08568798005580902,
          -0.0625913143157959,
          -0.0804079920053482,
          0.13119451701641083,
          0.10881267488002777,
          0.053305044770240784,
          0.05108089745044708,
          0.17437897622585297,
          0.0015951842069625854,
          -0.12297424674034119,
          -0.07952700555324554,
          -0.05206082761287689,
          -0.0273016095161438,
          0.04642288386821747,
          0.0065089017152786255,
          0.09303222596645355,
          -0.02265511453151703,
          -0.042867884039878845,
          -0.08593936264514923,
          0.059285953640937805,
          -0.11259499192237854,
          0.20665250718593597,
          0.06442134082317352,
          0.03983265161514282,
          -0.0652509480714798,
          0.033462896943092346,
          0.11521901190280914,
          -0.06714527308940887,
          0.023271188139915466,
          -0.062155693769454956,
          0.0734441727399826,
          -0.14664222300052643,
          0.09530095756053925,
          0.18544231355190277,
          -0.12940660119056702,
          -0.06455361843109131,
          -0.04870788753032684,
          -0.12527722120285034,
          0.1574489027261734,
          0.033201590180397034,
          -0.20014147460460663,
          -0.14078563451766968,
          0.07142661511898041,
          0.20305420458316803,
          0.031319454312324524,
          -0.10845430940389633,
          -0.001980900764465332,
          0.15153147280216217,
          -0.08708188682794571,
          -0.036526501178741455,
          -0.18546181917190552,
          0.12933985888957977,
          -0.12114758044481277,
          -0.05303400754928589,
          -0.03576299548149109,
          -0.11173947900533676,
          0.03501118719577789,
          -0.20385858416557312,
          0.18499480187892914,
          -0.17217136919498444,
          0.11555810272693634,
          -0.12801194190979004,
          -0.059160590171813965,
          0.08486346900463104,
          -0.20259685814380646,
          -0.07917217910289764,
          -0.04611070454120636,
          0.17287234961986542,
          -0.1662752330303192,
          0.012938722968101501,
          0.011005803942680359,
          -0.059375882148742676,
          0.19402946531772614,
          -0.16202735900878906,
          0.17609240114688873,
          -0.2055734097957611,
          -0.10388258099555969,
          -0.08950434625148773,
          0.19886021316051483
        ],
        [
          0.040672510862350464,
          -0.11457614600658417,
          0.007581636309623718,
          0.055092617869377136,
          -0.16054761409759521,
          -0.15275098383426666,
          -0.090822234749794,
          -0.18159402906894684,
          0.11477158963680267,
          -0.0539783239364624,
          0.002328425645828247,
          0.11615394055843353,
          0.1822175532579422,
          0.027344167232513428,
          0.16488100588321686,
          -0.12078100442886353,
          -0.15308330953121185,
          0.18150366842746735,
          -0.17723602056503296,
          0.08059169352054596,
          -0.1726345419883728,
          -0.17396506667137146,
          0.055290743708610535,
          0.05766551196575165,
          -0.10641851276159286,
          -0.14212465286254883,
          -0.06869153678417206,
          -0.16429457068443298,
          -0.11211588233709335,
          0.18605361878871918,
          0.03941914439201355,
          0.1669432371854782,
          -0.20530080795288086,
          0.07365663349628448,
          -0.15595783293247223,
          -0.09916944801807404,
          0.05185304582118988,
          0.09883145987987518,
          0.16000454127788544,
          -0.16812807321548462,
          -0.036117926239967346,
          -0.0617251992225647,
          0.03751641511917114,
          -0.0999644473195076,
          0.08899705111980438,
          0.18885324895381927,
          -0.0021052807569503784,
          -0.01265057921409607,
          -0.04410536587238312,
          0.08661441504955292,
          0.15413828194141388,
          -0.17187882959842682,
          -0.05328075587749481,
          -0.1603655368089676,
          -0.04343061149120331,
          0.02407778799533844,
          0.083253875374794,
          0.1473945826292038,
          -0.12538450956344604,
          -0.04751196503639221,
          -0.16393423080444336,
          0.17479188740253448,
          -0.04314142465591431,
          -0.01976504921913147,
          0.08978261053562164,
          0.08008430898189545,
          0.08042378723621368,
          0.01898159086704254,
          0.0329609215259552,
          0.08751095831394196,
          0.08547298610210419,
          0.11451421678066254,
          0.00621265172958374,
          -0.027992218732833862,
          0.12010712921619415,
          0.05514250695705414,
          -0.1800662726163864,
          0.18932591378688812,
          -0.1614416241645813,
          -0.18120795488357544,
          -0.13991165161132812,
          -0.14394943416118622,
          0.1763375848531723,
          -0.17889675498008728,
          -0.18784469366073608,
          -0.10085712373256683,
          0.08108334243297577,
          0.196232870221138,
          -0.08295245468616486,
          -0.1811276525259018,
          0.19471518695354462,
          -0.1618286818265915,
          -0.12879642844200134,
          -0.1683565378189087,
          0.11898510158061981,
          -0.13380175828933716,
          0.18469233810901642,
          -0.05923354625701904,
          -0.19167912006378174,
          0.08757053315639496,
          0.06210885941982269,
          0.022274181246757507,
          -0.09563872218132019,
          0.05121307075023651,
          0.0379338264465332,
          -0.18530422449111938,
          -0.1234523206949234,
          0.0763980895280838,
          -0.08793947100639343,
          -0.1578902155160904,
          0.14813680946826935,
          -0.05208615958690643,
          -0.14001668989658356,
          0.10988582670688629,
          0.1742960661649704,
          0.08150909841060638,
          0.12215052545070648,
          -0.0610729455947876,
          0.16403724253177643,
          0.03390266001224518,
          0.08299554884433746,
          -0.050379231572151184,
          0.16424916684627533,
          0.055058613419532776,
          0.14379672706127167,
          -0.15276974439620972,
          0.00545249879360199,
          0.09629829227924347
        ],
        [
          -0.09582643210887909,
          -0.03257307410240173,
          -0.17041218280792236,
          -0.04917936027050018,
          -0.11825642734766006,
          0.03430911898612976,
          0.13768135011196136,
          -0.12514127790927887,
          -0.04083746671676636,
          0.17480365931987762,
          -0.14552995562553406,
          0.19440029561519623,
          0.17657558619976044,
          -0.19046330451965332,
          -0.1720287799835205,
          0.07860945165157318,
          0.15253637731075287,
          -0.06869573891162872,
          0.060189202427864075,
          -0.10536418855190277,
          0.12691734731197357,
          -0.14986516535282135,
          -0.15952424705028534,
          0.03934080898761749,
          -0.08179768919944763,
          0.19374136626720428,
          -0.16985240578651428,
          -0.19779285788536072,
          -0.1277552843093872,
          0.19775687158107758,
          0.09121684730052948,
          0.022551119327545166,
          0.15224693715572357,
          -0.06482177972793579,
          -0.15290266275405884,
          0.01373136043548584,
          -0.14982177317142487,
          0.013731405138969421,
          0.0735837072134018,
          -0.15121765434741974,
          -0.06030707061290741,
          -0.1076417863368988,
          0.20177190005779266,
          0.08160130679607391,
          -0.11686035245656967,
          -0.11286428570747375,
          -0.11939959228038788,
          -0.17515067756175995,
          -0.18912358582019806,
          -0.20697036385536194,
          -0.09302598983049393,
          -0.025996550917625427,
          0.007277935743331909,
          0.1198352724313736,
          0.11762909591197968,
          -0.20104214549064636,
          -0.08020493388175964,
          -0.1829095482826233,
          -0.20392729341983795,
          -0.054713934659957886,
          0.1275094598531723,
          0.11373074352741241,
          0.18853096663951874,
          -0.10063580423593521,
          -0.14360551536083221,
          0.044456735253334045,
          0.005976825952529907,
          0.013878881931304932,
          -0.16609306633472443,
          0.10280255973339081,
          0.13642604649066925,
          -0.16353368759155273,
          0.13169090449810028,
          0.1864355355501175,
          -0.011508852243423462,
          0.10396097600460052,
          -0.10923829674720764,
          0.18665434420108795,
          -0.12372418493032455,
          -0.03479672968387604,
          0.05673758685588837,
          -0.1722079962491989,
          -0.16392044723033905,
          0.1433960348367691,
          0.15887795388698578,
          -0.011738806962966919,
          -0.013410434126853943,
          0.06323231756687164,
          -0.15704892575740814,
          0.13595788180828094,
          0.14484338462352753,
          0.19013191759586334,
          -0.0809950977563858,
          -0.13554224371910095,
          -0.03056265413761139,
          -0.07746070623397827,
          0.06468625366687775,
          -0.1934254765510559,
          0.011120215058326721,
          -0.07490335404872894,
          0.02746976912021637,
          0.06710301339626312,
          -0.1691025197505951,
          0.1570635288953781,
          -0.14958801865577698,
          -0.08547654002904892,
          -0.1919049769639969,
          -0.18320989608764648,
          0.10517920553684235,
          -0.004551097750663757,
          0.03750501573085785,
          0.01054544746875763,
          -0.01689876616001129,
          -0.09126368910074234,
          -0.14591598510742188,
          -0.20500080287456512,
          0.2060730904340744,
          -0.12068692594766617,
          0.08412884175777435,
          -0.08450227975845337,
          0.14825038611888885,
          -0.08462265878915787,
          -0.16567362844944,
          -0.1315028965473175,
          0.12315641343593597,
          0.09218631684780121,
          -0.12388098984956741,
          0.03536023199558258
        ]
      ],
      "bias": [
        0.0,
        0.0,
        0.0,
        0.0,
        0.0,
        0.0,
        0.0,
        0.0,
        0.0,
        0.0,
        0.0,
        0.0,
        0.0,
        0.0,
        0.0,
        0.0,
        0.0,
        0.0,
        0.0,
        0.0,
        0.0,
        0.0,
        0.0,
        0.0,
        0.0,
        0.0,
        0.0,
        0.0,
        0.0,
        0.0,
        0.0,
        0.0,
        0.0,
        0.0,
        0.0,
        0.0,
        0.0,
        0.0,
        0.0,
        0.0,
        0.0,
        0.0,
        0.0,
        0.0,
        0.0,
        0.0,
        0.0,
        0.0,
        0.0,
        0.0,
        0.0,
        0.0,
        0.0,
        0.0,
        0.0,
        0.0,
        0.0,
        0.0,
        0.0,
        0.0,
        0.0,
        0.0,
        0.0,
        0.0,
        0.0,
        0.0,
        0.0,
        0.0,
        0.0,
        0.0,
        0.0,
        0.0,
        0.0,
        0.0,
        0.0,
        0.0,
        0.0,
        0.0,
        0.0,
        0.0,
        0.0,
        0.0,
        0.0,
        0.0,
        0.0,
        0.0,
        0.0,
        0.0,
        0.0,
        0.0,
        0.0,
        0.0,
        0.0,
        0.0,
        0.0,
        0.0,
        0.0,
        0.0,
        0.0,
        0.0,
        0.0,
        0.0,
        0.0,
        0.0,
        0.0,
        0.0,
        0.0,
        0.0,
        0.0,
        0.0,
        0.0,
        0.0,
        0.0,
        0.0,
        0.0,
        0.0,
        0.0,
        0.0,
        0.0,
        0.0,
        0.0,
        0.0,
        0.0,
        0.0,
        0.0,
        0.0,
        0.0,
        0.0
      ]
    },
    {
      "name": "dense_2",
      "weights": [
        [
          -0.07119879126548767,
          0.14336365461349487,
          -0.1563810110092163,
          0.16290497779846191,
          -0.0506923645734787,
          0.1581154465675354,
          -0.10874517261981964,
          -0.021069109439849854,
          0.03770962357521057,
          0.19944536685943604,
          -0.1427876353263855,
          0.1261945366859436,
          0.15379878878593445,
          0.10214626789093018,
          -0.07260000705718994,
          0.14682140946388245
        ],
        [
          -0.016080886125564575,
          0.03981563448905945,
          0.09155574440956116,
          -0.04598042368888855,
          0.06538805365562439,
          0.08094051480293274,
          0.1646886169910431,
          -0.09979419410228729,
          0.04197026789188385,
          -0.003438219428062439,
          0.1934126913547516,
          0.05483028292655945,
          0.0028976798057556152,
          -0.14195133745670319,
          0.006835669279098511,
          -0.04673169553279877
        ],
        [
          0.03194861114025116,
          0.048524826765060425,
          0.03575967252254486,
          0.1877005398273468,
          0.1464175581932068,
          0.03997813165187836,
          0.048571616411209106,
          0.20276716351509094,
          0.15822306275367737,
          -0.18560421466827393,
          -0.1706784963607788,
          -0.1193232387304306,
          0.20302161574363708,
          -0.141217440366745,
          -0.012647241353988647,
          -0.1708202064037323
        ],
        [
          -0.174078568816185,
          -0.033612146973609924,
          -0.0453389436006546,
          0.04638469219207764,
          0.08050766587257385,
          0.20335248112678528,
          0.02895866334438324,
          -0.0036176592111587524,
          -0.022384241223335266,
          0.09974777698516846,
          0.08253663778305054,
          0.17646411061286926,
          -0.13260328769683838,
          0.11028924584388733,
          0.039170458912849426,
          -0.04762473702430725
        ],
        [
          0.006009504199028015,
          -0.18178021907806396,
          -0.1489557921886444,
          0.17208653688430786,
          0.16410768032073975,
          -0.0019539743661880493,
          0.11342030763626099,
          -0.11615214496850967,
          0.0474931001663208,
          0.09052640199661255,
          -0.0661061704158783,
          -0.054177939891815186,
          -0.18356531858444214,
          -0.15827040374279022,
          0.11302632093429565,
          -0.025587260723114014
        ],
        [
          0.0628156065940857,
          -0.13204249739646912,
          -0.15393280982971191,
          0.08629250526428223,
          0.10772716999053955,
          -0.18421156704425812,
          0.08978411555290222,
          -0.18141676485538483,
          -0.04633870720863342,
          0.10853362083435059,
          0.04845154285430908,
          0.0964614748954773,
          0.1477494239807129,
          0.001441851258277893,
          0.12073439359664917,
          0.20293721556663513
        ],
        [
          0.17611119151115417,
          -0.08124195039272308,
          0.08903363347053528,
          -0.16630323231220245,
          -0.14243023097515106,
          0.12120461463928223,
          0.15076011419296265,
          -0.11135946959257126,
          -0.05220629274845123,
          -0.057510897517204285,
          -0.18313981592655182,
          -0.012004300951957703,
          0.10997706651687622,
          0.18865159153938293,
          -0.16787531971931458,
          -0.20097480714321136
        ],
        [
          0.14141616225242615,
          0.2013458013534546,
          0.07190275192260742,
          0.07882693409919739,
          -0.08850257843732834,
          0.08235198259353638,
          0.1715693473815918,
          0.024251878261566162,
          0.10744220018386841,
          -0.1942339539527893,
          0.15335187315940857,
          -0.07322853803634644,
          0.014579564332962036,
          0.15524381399154663,
          -0.18584789335727692,
          0.19577565789222717
        ],
        [
          0.10756772756576538,
          0.12093785405158997,
          0.03061854839324951,
          0.1736133098602295,
          0.018667593598365784,
          0.0013768821954727173,
          -0.19542288780212402,
          -0.1717132031917572,
          -0.034536585211753845,
          -0.013227835297584534,
          0.1362505853176117,
          -0.1032024398446083,
          -0.07209108769893646,
          0.1359233558177948,
          -0.05565737187862396,
          0.07360318303108215
        ],
        [
          -0.12521106004714966,
          -0.09398262947797775,
          0.002507716417312622,
          -0.13975942134857178,
          0.04523007571697235,
          -0.037332743406295776,
          0.0854402482509613,
          0.033920496702194214,
          -0.15547697246074677,
          -0.1508181244134903,
          -0.19991376996040344,
          0.09372830390930176,
          0.1870127022266388,
          0.09433531761169434,
          -0.09386572986841202,
          -0.14405277371406555
        ],
        [
          -0.02527277171611786,
          0.0875062644481659,
          0.03900673985481262,
          -0.022688791155815125,
          0.10313904285430908,
          -0.1556950956583023,
          -0.14790895581245422,
          -0.16109518706798553,
          0.07458475232124329,
          0.018257617950439453,
          0.1818731129169464,
          -0.08810891211032867,
          -0.02515411376953125,
          -0.16440576314926147,
          0.008066743612289429,
          0.11757853627204895
        ],
        [
          -0.132420152425766,
          -0.024393945932388306,
          -0.035085439682006836,
          -0.19579538702964783,
          -0.19079013168811798,
          0.02924160659313202,
          -0.11828920990228653,
          0.027073100209236145,
          0.03911107778549194,
          0.07768440246582031,
          0.05304950475692749,
          0.19889205694198608,
          -0.03787966072559357,
          0.16161367297172546,
          0.011730104684829712,
          -0.1521974503993988
        ],
        [
          -0.1740020513534546,
          -0.10766243189573288,
          0.004093870520591736,
          0.17956134676933289,
          0.12620317935943604,
          -0.09035961329936981,
          0.08825632929801941,
          -0.18126721680164337,
          -0.03926852345466614,
          0.10932230949401855,
          -0.09059340506792068,
          0.03670142590999603,
          0.1242540180683136,
          -0.198639914393425,
          0.04944348335266113,
          -0.022719606757164
        ],
        [
          0.022256001830101013,
          0.06325989961624146,
          0.057227522134780884,
          -0.14414028823375702,
          0.05832943320274353,
          0.0961550772190094,
          0.030377686023712158,
          0.06735289096832275,
          0.13202643394470215,
          -0.006796926259994507,
          -0.0900624543428421,
          -0.17182546854019165,
          -0.007729783654212952,
          -0.14101967215538025,
          -0.1721978783607483,
          -0.11404014378786087
        ],
        [
          -0.05312688648700714,
          -0.15264834463596344,
          -0.17943768203258514,
          -0.17794553935527802,
          -0.0398404598236084,
          -0.0940530002117157,
          -0.15413731336593628,
          0.03742438554763794,
          -0.08071877807378769,
          0.155660480260849,
          -0.06311485171318054,
          -0.10114465653896332,
          0.15300586819648743,
          0.08847516775131226,
          0.04043005406856537,
          0.2019566297531128
        ],
        [
          0.14344751834869385,
          -0.04065240919589996,
          -0.06015293300151825,
          -0.07775895297527313,
          -0.19700028002262115,
          -0.010032549500465393,
          -0.1787957102060318,
          0.061453551054000854,
          0.01701393723487854,
          0.08754956722259521,
          0.1764812469482422,
          0.13240915536880493,
          -0.12612128257751465,
          -0.15559619665145874,
          0.009712368249893188,
          -0.13373687863349915
        ],
        [
          -0.04474784433841705,
          -0.20208992063999176,
          0.1842452585697174,
          0.19248685240745544,
          -0.048731327056884766,
          -0.03521202504634857,
          0.11777704954147339,
          -0.0626455545425415,
          0.1731187403202057,
          0.05915769934654236,
          0.05475446581840515,
          0.016484975814819336,
          -0.10738259553909302,
          -0.18098928034305573,
          -0.15404674410820007,
          -0.12054263800382614
        ],
        [
          -0.09020081162452698,
          -0.012010037899017334,
          0.16914445161819458,
          0.16835391521453857,
          -0.14022697508335114,
          -0.07953816652297974,
          0.19687515497207642,
          -0.1503008008003235,
          -0.10752879083156586,
          -0.18167869746685028,
          -0.09477200359106064,
          -0.0744546502828598,
          0.12195822596549988,
          -0.04153071343898773,
          0.05837872624397278,
          0.1814466118812561
        ],
        [
          0.021240994334220886,
          0.14960971474647522,
          0.07523688673973083,
          0.17854386568069458,
          0.03384307026863098,
          0.004476293921470642,
          0.1931922435760498,
          -0.1262117624282837,
          -0.08302335441112518,
          -0.06405967473983765,
          -0.1863270252943039,
          -0.1895652711391449,
          -0.17602354288101196,
          0.06708797812461853,
          0.06528013944625854,
          0.06937441229820251
        ],
        [
          0.14344438910484314,
          0.11785447597503662,
          0.1984615921974182,
          -0.13616420328617096,
          0.10504463315010071,
          -0.1270788609981537,
          -0.0008836984634399414,
          -0.0846879631280899,
          -0.1903381049633026,
          -0.17816221714019775,
          0.10319274663925171,
          0.135189026594162,
          -0.14071515202522278,
          -0.05201557278633118,
          0.09786522388458252,
          -0.053482785820961
        ],
        [
          0.17363622784614563,
          -0.03494654595851898,
          0.013088107109069824,
          0.06556066870689392,
          -0.040892094373703,
          0.16093161702156067,
          -0.18810443580150604,
          -0.17419886589050293,
          -0.1889352798461914,
          0.14656618237495422,
          0.1731450855731964,
          -0.06556221842765808,
          0.020967349410057068,
          0.02114279568195343,
          -0.1268862783908844,
          0.04333055019378662
        ],
        [
          0.020914196968078613,
          -0.16845685243606567,
          -0.08583611249923706,
          -0.16650977730751038,
          0.05561983585357666,
          -0.055839285254478455,
          -0.1684490144252777,
          0.026623129844665527,
          -0.050005435943603516,
          0.008505672216415405,
          0.17747917771339417,
          0.06782031059265137,
          0.09897887706756592,
          -0.08597350120544434,
          -0.20363110303878784,
          0.15752944350242615
        ],
        [
          -0.1609533131122589,
          0.15409603714942932,
          0.09100863337516785,
          -0.14690962433815002,
          -6.161630153656006e-05,
          0.18791255354881287,
          -0.17672814428806305,
          0.13492587208747864,
          0.13888531923294067,
          -0.1959892213344574,
          -0.08029347658157349,
          -0.13083180785179138,
          -0.19268716871738434,
          0.09368574619293213,
          -0.007226511836051941,
          -0.19695588946342468
        ],
        [
          0.08447125554084778,
          -0.1507403552532196,
          -0.11680500954389572,
          -0.08718360215425491,
          -0.17370417714118958,
          0.1218964159488678,
          0.08144611120223999,
          0.0673728883266449,
          0.11707040667533875,
          0.04925873875617981,
          0.07658836245536804,
          -0.07304579019546509,
          0.05813932418823242,
          0.12501001358032227,
          -0.15072289109230042,
          -0.13412505388259888
        ],
        [
          -0.12173224985599518,
          -0.10302460938692093,
          0.06039115786552429,
          0.05838024616241455,
          0.1685979664325714,
          0.0502772331237793,
          0.012070193886756897,
          -0.16597409546375275,
          -0.09454759955406189,
          0.04324860870838165,
          0.18627941608428955,
          0.1431577503681183,
          0.07943606376647949,
          0.1431528925895691,
          -0.15377512574195862,
          -0.1951173096895218
        ],
        [
          0.007747828960418701,
          0.007690846920013428,
          -0.11700225621461868,
          -0.06452040374279022,
          -0.041529878973960876,
          0.03935125470161438,
          -0.1628522127866745,
          -0.19582337141036987,
          0.1516568660736084,
          -0.19247978925704956,
          0.011448964476585388,
          0.046438783407211304,
          0.15381202101707458,
          -0.025399252772331238,
          -0.11041094362735748,
          -0.09134282916784286
        ],
        [
          -0.08374727517366409,
          -0.19329297542572021,
          0.14921799302101135,
          0.008901044726371765,
          -0.1904025375843048,
          0.03259982168674469,
          -0.04984195530414581,
          0.08623173832893372,
          0.1568368375301361,
          -0.11507407575845718,
          0.08500292897224426,
          -0.07603015005588531,
          -0.14146535098552704,
          -0.10854948312044144,
          -0.07785145938396454,
          0.06330257654190063
        ],
        [
          0.08629363775253296,
          0.1714039146900177,
          -0.19184157252311707,
          -0.11826492100954056,
          0.0063320547342300415,
          -0.1659243106842041,
          0.031955525279045105,
          -0.1343994438648224,
          0.10286006331443787,
          -0.16305164992809296,
          -0.060270756483078,
          -0.05800710618495941,
          -0.05139482021331787,
          0.025432780385017395,
          0.0642087459564209,
          0.05011984705924988
        ],
        [
          0.05082377791404724,
          0.1910114288330078,
          -0.06339377164840698,
          0.053379565477371216,
          0.09998929500579834,
          0.060333579778671265,
          0.2011268436908722,
          0.04673510789871216,
          0.12957227230072021,
          0.1618974208831787,
          0.0936678946018219,
          0.09652498364448547,
          -0.1207539513707161,
          0.16531217098236084,
          -0.0717872679233551,
          0.03553231060504913
        ],
        [
          -0.020407527685165405,
          -0.006139636039733887,
          0.07444459199905396,
          0.17974647879600525,
          0.08808335661888123,
          -0.13651587069034576,
          -0.031226441264152527,
          0.10085493326187134,
          0.006379127502441406,
          0.0675877034664154,
          0.17981863021850586,
          -0.16293694078922272,
          0.022767484188079834,
          -0.12396558374166489,
          0.1453653872013092,
          -0.005434304475784302
        ],
        [
          -0.003600865602493286,
          -0.18859606981277466,
          0.04302224516868591,
          0.008129671216011047,
          0.18191716074943542,
          -0.1537178009748459,
          -0.18526098132133484,
          0.08992424607276917,
          0.07702812552452087,
          -0.05971001088619232,
          0.09936851263046265,
          0.12804821133613586,
          0.07118132710456848,
          0.07960435748100281,
          -0.1616520881652832,
          -0.06358522176742554
        ],
        [
          -0.16380827128887177,
          0.06963014602661133,
          0.006896212697029114,
          -0.14537101984024048,
          0.184256911277771,
          0.10596799850463867,
          -0.18638357520103455,
          0.112181156873703,
          0.18338826298713684,
          -0.14688700437545776,
          0.17429789900779724,
          0.07395488023757935,
          -0.07383687794208527,
          -0.03732879459857941,
          0.14808791875839233,
          -0.15251553058624268
        ],
        [
          0.1600170135498047,
          -0.035224199295043945,
          -0.07546727359294891,
          0.1587214171886444,
          0.10318171977996826,
          -0.027585819363594055,
          0.1313038468360901,
          -0.06823627650737762,
          -0.10015564411878586,
          0.10533443093299866,
          0.15677174925804138,
          0.09563097357749939,
          -0.13720932602882385,
          -0.1612243950366974,
          0.1824820339679718,
          0.18671470880508423
        ],
        [
          0.0018315762281417847,
          -0.016208931803703308,
          0.18071606755256653,
          0.11474108695983887,
          -0.1849343180656433,
          0.1399620771408081,
          -0.11860174685716629,
          0.1371806561946869,
          0.1360834240913391,
          0.10416087508201599,
          0.16204005479812622,
          -0.11747807264328003,
          -0.17885468900203705,
          0.06664913892745972,
          0.07668453454971313,
          0.09659779071807861
        ],
        [
          -0.15884613990783691,
          0.18845391273498535,
          0.11425399780273438,
          -0.022903457283973694,
          0.20230308175086975,
          0.055312514305114746,
          -0.16930603981018066,
          0.06949257850646973,
          -0.0638430118560791,
          -0.14300848543643951,
          0.018056035041809082,
          -0.0937630906701088,
          0.16599678993225098,
          0.11795097589492798,
          -0.014073088765144348,
          0.06785663962364197
        ],
        [
          -0.14988751709461212,
          0.05220332741737366,
          -0.1728653460741043,
          -0.10943570733070374,
          0.16446521878242493,
          0.009740740060806274,
          0.15832847356796265,
          0.0886152982711792,
          -0.016948863863945007,
          -0.1422702521085739,
          -0.015700548887252808,
          -0.12204182147979736,
          0.1515274941921234,
          0.13404077291488647,
          -0.06524978578090668,
          0.015958398580551147
        ],
        [
          -0.04244190454483032,
          -0.16832637786865234,
          -0.06801138818264008,
          -0.12208683788776398,
          0.14297455549240112,
          -0.11266982555389404,
          -0.0850643515586853,
          0.07203352451324463,
          -0.0695267766714096,
          -0.0003943443298339844,
          0.06095409393310547,
          -0.1806119680404663,
          -0.08358146995306015,
          -0.05558261275291443,
          -0.15203145146369934,
          0.07568168640136719
        ],
        [
          -0.16568458080291748,
          0.0819997787475586,
          -0.2003670185804367,
          0.11956930160522461,
          0.14103996753692627,
          -0.13352558016777039,
          -0.013004645705223083,
          0.14105820655822754,
          0.11464744806289673,
          0.19006645679473877,
          -0.16859540343284607,
          -0.0030519068241119385,
          -0.1767546683549881,
          -0.07766063511371613,
          0.1215442419052124,
          0.029073715209960938
        ],
        [
          0.12731605768203735,
          0.15164044499397278,
          0.1459021270275116,
          0.13986825942993164,
          0.11501508951187134,
          -0.17174804210662842,
          0.1894606053829193,
          -0.05257329344749451,
          -0.13141566514968872,
          -0.12936381995677948,
          0.04800683259963989,
          0.11711540818214417,
          0.059365808963775635,
          -0.08502137660980225,
          -0.198680117726326,
          -0.14598685503005981
        ],
        [
          0.08112859725952148,
          -0.1315464824438095,
          -0.1031232625246048,
          0.01718917489051819,
          -0.10530471056699753,
          0.10584700107574463,
          -0.1760917752981186,
          0.08837360143661499,
          0.005518734455108643,
          0.04601246118545532,
          0.030516788363456726,
          -0.05105513334274292,
          -0.08690128475427628,
          0.045966655015945435,
          -0.055905863642692566,
          -0.09661385416984558
        ],
        [
          -0.021728157997131348,
          -0.08577435463666916,
          -0.19267870485782623,
          -0.05642937123775482,
          -0.18817934393882751,
          -0.1315971463918686,
          -0.02057640254497528,
          -0.05947232246398926,
          -0.1512506753206253,
          -0.09636088460683823,
          -0.1861078292131424,
          0.13922452926635742,
          -0.042570531368255615,
          0.09710261225700378,
          0.18323788046836853,
          -0.030358031392097473
        ],
        [
          0.033085569739341736,
          -0.10122008621692657,
          0.20134279131889343,
          -0.03186042606830597,
          -0.12106414884328842,
          0.009604483842849731,
          -0.051986172795295715,
          -0.08719231188297272,
          0.021402522921562195,
          0.15627461671829224,
          -0.08835496753454208,
          -0.19436535239219666,
          0.15395134687423706,
          -0.15518000721931458,
          -0.04258464276790619,
          0.07978487014770508
        ],
        [
          -0.016876205801963806,
          0.11198410391807556,
          0.08200481534004211,
          -0.022105038166046143,
          0.19182533025741577,
          -0.06453369557857513,
          -0.15007756650447845,
          -0.11464264243841171,
          0.15662220120429993,
          -0.057596951723098755,
          0.10872006416320801,
          0.00883665680885315,
          -0.08751468360424042,
          0.03693030774593353,
          0.09616753458976746,
          0.06979507207870483
        ],
        [
          0.14938479661941528,
          -0.18759314715862274,
          0.05466616153717041,
          0.15308985114097595,
          -0.13651520013809204,
          0.1817578375339508,
          0.016423508524894714,
          -0.1935712993144989,
          0.03709729015827179,
          0.17898350954055786,
          -0.10639198124408722,
          -0.11810354143381119,
          -0.07887104153633118,
          0.022999241948127747,
          0.02516166865825653,
          -0.060991570353507996
        ],
        [
          -0.0004092901945114136,
          -0.08792280405759811,
          -0.03762376308441162,
          -0.13799232244491577,
          -0.18566831946372986,
          -0.02498266100883484,
          -0.11174023896455765,
          -0.16444268822669983,
          0.05055779218673706,
          0.05897727608680725,
          0.04950854182243347,
          -0.01798202097415924,
          0.004210859537124634,
          0.17825710773468018,
          0.010822027921676636,
          -0.11364433169364929
        ],
        [
          -0.16430993378162384,
          -0.13088786602020264,
          0.20390701293945312,
          -0.01814436912536621,
          -0.08130501955747604,
          -0.11648814380168915,
          -0.11729153245687485,
          0.10319465398788452,
          0.01609484851360321,
          -0.18930204212665558,
          -0.08732303231954575,
          0.04599657654762268,
          0.06769827008247375,
          0.019869908690452576,
          -0.10299268364906311,
          -0.15744774043560028
        ],
        [
          0.1219182014465332,
          0.20173874497413635,
          -0.08833958953619003,
          -0.03354814648628235,
          0.12471508979797363,
          -0.1405724138021469,
          0.16587725281715393,
          -0.005676865577697754,
          -0.07347007095813751,
          -0.07538267970085144,
          -0.15319272875785828,
          0.1531842052936554,
          -0.0644918829202652,
          -0.19701623916625977,
          -0.17632386088371277,
          -0.08420547842979431
        ],
        [
          0.10849156975746155,
          -0.11009757965803146,
          0.0946478545665741,
          0.020873025059700012,
          0.09722325205802917,
          -0.16800540685653687,
          0.057861149311065674,
          0.001352459192276001,
          0.06849250197410583,
          -0.07975901663303375,
          0.11016318202018738,
          -0.1136825829744339,
          0.0089121013879776,
          0.19417628645896912,
          -0.11855234950780869,
          0.024960234761238098
        ],
        [
          -0.1870379000902176,
          0.1512812077999115,
          -0.14186899363994598,
          -0.2012101709842682,
          -0.015839114785194397,
          -0.02803228795528412,
          -0.010061368346214294,
          0.18308371305465698,
          -0.09822449088096619,
          -0.09669245034456253,
          -0.10716179013252258,
          -0.07995076477527618,
          0.002725839614868164,
          0.09704670310020447,
          -0.15218289196491241,
          -0.05764678120613098
        ],
        [
          -0.20156417787075043,
          -0.16357389092445374,
          0.15899130702018738,
          -0.00399760901927948,
          -0.05135774612426758,
          0.13398480415344238,
          -0.0860837772488594,
          0.0974065363407135,
          0.1556718349456787,
          0.12459376454353333,
          0.017693474888801575,
          0.16447803378105164,
          -0.09159234911203384,
          0.10861727595329285,
          -0.0740152895450592,
          -0.13938206434249878
        ],
        [
          0.1423550844192505,
          -0.08303586393594742,
          0.09089186787605286,
          0.025493860244750977,
          0.13248419761657715,
          -0.20034773647785187,
          0.06624150276184082,
          0.043816015124320984,
          0.0947173535823822,
          0.16574233770370483,
          -0.11753642559051514,
          0.01011192798614502,
          0.00255681574344635,
          0.0865001380443573,
          -0.15258127450942993,
          -0.052823200821876526
        ],
        [
          -0.1762210726737976,
          -0.12734773755073547,
          0.13989970088005066,
          0.15344902873039246,
          -0.13317595422267914,
          -0.17336510121822357,
          -0.20355133712291718,
          0.14194375276565552,
          -0.06360343098640442,
          -0.012617796659469604,
          0.059438884258270264,
          -0.11624957621097565,
          -0.06261475384235382,
          -0.14149007201194763,
          0.08519253134727478,
          -0.029160574078559875
        ],
        [
          0.1421637237071991,
          -0.04352585971355438,
          -0.03368087112903595,
          0.03427037596702576,
          0.10188671946525574,
          -0.0745687335729599,
          0.161841481924057,
          0.15207552909851074,
          0.04172693192958832,
          0.16188392043113708,
          0.15353268384933472,
          -0.10690395534038544,
          -0.06404474377632141,
          0.1686432957649231,
          -0.00012201070785522461,
          -0.09942549467086792
        ],
        [
          -0.06855553388595581,
          -0.004232853651046753,
          -0.13672922551631927,
          -0.016341209411621094,
          -0.09471745043992996,
          -0.05832494795322418,
          -0.10545479506254196,
          0.09589704871177673,
          0.10676681995391846,
          0.02250365912914276,
          0.10112333297729492,
          0.10292795300483704,
          -0.08783651888370514,
          -0.038089752197265625,
          0.09112018346786499,
          -0.17981815338134766
        ],
        [
          -0.13232292234897614,
          -0.0013760626316070557,
          -0.03523382544517517,
          0.15609315037727356,
          -0.11529988795518875,
          -0.15933728218078613,
          -0.10039114207029343,
          0.12824204564094543,
          -0.06257864832878113,
          0.16905316710472107,
          -0.10665716230869293,
          0.10403367877006531,
          0.19232937693595886,
          0.13639843463897705,
          0.03626513481140137,
          0.12819835543632507
        ],
        [
          -0.17517594993114471,
          -0.1113157644867897,
          0.007002785801887512,
          -0.023515403270721436,
          0.1887170672416687,
          0.12395760416984558,
          -0.08499553799629211,
          0.0737139880657196,
          0.18631786108016968,
          -0.06908103823661804,
          -0.16382072865962982,
          -0.07580296695232391,
          0.000716090202331543,
          0.19563624262809753,
          0.16222313046455383,
          0.03381800651550293
        ],
        [
          -0.19006645679473877,
          0.04996654391288757,
          -0.04178318381309509,
          -0.1517457216978073,
          0.10579073429107666,
          -0.024935603141784668,
          -0.1566515564918518,
          -0.029486939311027527,
          -0.035860225558280945,
          0.09706154465675354,
          0.18420201539993286,
          0.1262182891368866,
          -0.09324011206626892,
          0.032392606139183044,
          -0.14173179864883423,
          0.015272766351699829
        ],
        [
          0.16128727793693542,
          -0.03937947750091553,
          0.1875147521495819,
          0.13440173864364624,
          -0.17565664649009705,
          -0.08172000199556351,
          -0.03943978250026703,
          -0.1119326651096344,
          0.0023009777069091797,
          -0.18873794376850128,
          -0.15188252925872803,
          0.07435181736946106,
          0.0916222333908081,
          -0.08998463302850723,
          -0.09936383366584778,
          -0.007651418447494507
        ],
        [
          -0.04766601324081421,
          -0.041748300194740295,
          -0.203792005777359,
          -0.1198803260922432,
          -0.07797376811504364,
          -0.01469266414642334,
          0.03821171820163727,
          -0.1930936872959137,
          -0.08082876354455948,
          0.014859437942504883,
          -0.12327825278043747,
          0.14249801635742188,
          0.10991546511650085,
          -0.09174521267414093,
          -0.12016093730926514,
          -0.008790478110313416
        ],
        [
          0.04055868089199066,
          0.07946038246154785,
          0.0048521459102630615,
          0.12179192900657654,
          -0.12780910730361938,
          -0.1071217879652977,
          -0.07262773811817169,
          0.14107689261436462,
          -0.11755053699016571,
          0.11300858855247498,
          0.006669282913208008,
          -0.0553552508354187,
          -0.1707560122013092,
          0.10451400279998779,
          0.11138281226158142,
          0.08300647139549255
        ],
        [
          0.08575192093849182,
          0.07079368829727173,
          -0.1804373413324356,
          -0.15303248167037964,
          -0.12124884128570557,
          0.11974146962165833,
          0.043548583984375,
          -0.15716688334941864,
          -0.15227964520454407,
          0.031212180852890015,
          0.1266455352306366,
          0.13837271928787231,
          0.04746544361114502,
          0.1273108422756195,
          0.11385643482208252,
          0.18898555636405945
        ],
        [
          -0.10415037721395493,
          0.04408635199069977,
          -0.14787046611309052,
          0.12497979402542114,
          -0.107029028236866,
          -0.1811482310295105,
          0.019162043929100037,
          -0.07755917310714722,
          -0.03193211555480957,
          -0.011847198009490967,
          0.0908626914024353,
          -0.10322254151105881,
          0.12007561326026917,
          -0.013584032654762268,
          -0.0023109465837478638,
          -0.04346819221973419
        ],
        [
          0.16892775893211365,
          -0.06840573251247406,
          0.04791229963302612,
          -0.024584129452705383,
          -0.04047507047653198,
          0.12562352418899536,
          -0.09710782766342163,
          -0.13381075859069824,
          0.06834608316421509,
          0.0061521828174591064,
          0.10794186592102051,
          -0.14919717609882355,
          -0.18850238621234894,
          0.06672307848930359,
          -0.1932823657989502,
          -0.0272199809551239
        ],
        [
          -0.022713124752044678,
          0.09308966994285583,
          -0.08744630962610245,
          -0.020776614546775818,
          -0.013363510370254517,
          0.017003759741783142,
          -0.05708988010883331,
          0.02131021022796631,
          -0.09992948919534683,
          0.12438493967056274,
          0.19530940055847168,
          -0.02957497537136078,
          0.1500278115272522,
          0.12503299117088318,
          0.036845192313194275,
          0.18199148774147034
        ],
        [
          -0.0013849586248397827,
          0.017786085605621338,
          0.19351717829704285,
          -0.15542684495449066,
          0.12860915064811707,
          -0.1280001699924469,
          0.15534508228302002,
          -0.11643285304307938,
          -0.0644347071647644,
          0.1767583191394806,
          0.056632936000823975,
          -0.058983564376831055,
          -0.08946603536605835,
          -0.139970600605011,
          0.0046820491552352905,
          0.044320836663246155
        ],
        [
          -0.19031615555286407,
          0.05976521968841553,
          0.1559789776802063,
          -0.04220864176750183,
          -0.07237321138381958,
          0.027878537774086,
          -0.1409706473350525,
          -0.0500352680683136,
          0.07133448123931885,
          0.052166104316711426,
          0.04217462241649628,
          0.1295168697834015,
          -0.07409043610095978,
          0.18391859531402588,
          0.024041831493377686,
          0.15308400988578796
        ],
        [
          -0.11162387579679489,
          0.06564632058143616,
          0.20050352811813354,
          -0.1567227989435196,
          0.14797905087471008,
          -0.13740229606628418,
          -0.05218970775604248,
          0.05662253499031067,
          -0.019891366362571716,
          0.08865335583686829,
          0.10141238570213318,
          0.011858731508255005,
          -0.09638195484876633,
          0.1075143814086914,
          -0.09973404556512833,
          -0.08527839183807373
        ],
        [
          0.04036124050617218,
          -0.0062741488218307495,
          0.17376947402954102,
          -0.06560412049293518,
          0.03463424742221832,
          0.03376467525959015,
          0.08723509311676025,
          0.10155412554740906,
          -0.036418333649635315,
          0.15818816423416138,
          0.0956861674785614,
          -0.007699459791183472,
          -0.1020582839846611,
          0.14039522409439087,
          0.10332280397415161,
          0.05837881565093994
        ],
        [
          0.054429322481155396,
          -0.10009028762578964,
          0.184059739112854,
          -0.06134800612926483,
          -0.006349429488182068,
          0.1647859513759613,
          -0.018535897135734558,
          -0.011254146695137024,
          -0.05860990285873413,
          0.15175911784172058,
          -0.1732064038515091,
          0.12089747190475464,
          -0.1744391918182373,
          -0.2024494707584381,
          -0.09939371049404144,
          0.0027975738048553467
        ],
        [
          -0.16621962189674377,
          0.1899174451828003,
          -0.030211791396141052,
          -0.08309202641248703,
          -0.11431214213371277,
          0.05505150556564331,
          0.06933051347732544,
          -0.17138426005840302,
          0.04062137007713318,
          0.18155044317245483,
          -0.08145365118980408,
          -0.16436395049095154,
          0.05572277307510376,
          -0.1647835075855255,
          0.09556832909584045,
          0.09555760025978088
        ],
        [
          0.0166197270154953,
          -0.19517993927001953,
          0.08095169067382812,
          0.13650721311569214,
          -0.12271109223365784,
          0.050470441579818726,
          0.1419835090637207,
          -0.1282995641231537,
          0.11376526951789856,
          0.07153964042663574,
          0.1715969741344452,
          -0.18630078434944153,
          -0.12903448939323425,
          0.1854954957962036,
          -0.18424446880817413,
          0.12358933687210083
        ],
        [
          -0.04542046785354614,
          0.04965400695800781,
          0.0749465823173523,
          0.1483495831489563,
          0.06778144836425781,
          -0.054546207189559937,
          0.03905574977397919,
          0.04244856536388397,
          0.15209949016571045,
          0.1377107799053192,
          0.045408740639686584,
          0.16817700862884521,
          0.07335740327835083,
          -0.19701147079467773,
          -0.18431240320205688,
          0.09062176942825317
        ],
        [
          0.005133777856826782,
          -0.07820849120616913,
          -0.17011229693889618,
          -0.10052400827407837,
          0.07392340898513794,
          -0.04448401927947998,
          -0.03505799174308777,
          -0.11784230172634125,
          -0.04083023965358734,
          -0.14240394532680511,
          0.11985301971435547,
          -0.1950540393590927,
          0.06144237518310547,
          0.0263872891664505,
          0.02094574272632599,
          -0.12773478031158447
        ],
        [
          0.2020416557788849,
          -0.07674267888069153,
          -0.1618618369102478,
          -0.07895761728286743,
          -0.015118300914764404,
          -0.05848155915737152,
          -0.13490961492061615,
          0.17620906233787537,
          0.15216422080993652,
          -0.13933320343494415,
          0.040043339133262634,
          0.04511483013629913,
          -0.17325584590435028,
          0.02678927779197693,
          0.012326419353485107,
          0.010868549346923828
        ],
        [
          -0.1021757647395134,
          0.11669176816940308,
          -0.004776075482368469,
          -0.17264069616794586,
          0.02186267077922821,
          0.12162995338439941,
          -0.15568317472934723,
          -0.0019827932119369507,
          -0.10059851408004761,
          -0.05535368621349335,
          -0.19347600638866425,
          0.0562933087348938,
          0.0694151520729065,
          0.08727660775184631,
          -0.06631354987621307,
          0.009431704878807068
        ],
        [
          0.0538271963596344,
          -0.03750278055667877,
          0.0551152229309082,
          -0.08906950056552887,
          0.16415974497795105,
          -0.15910227596759796,
          -0.14629580080509186,
          -0.17760516703128815,
          0.08466368913650513,
          -0.03515523672103882,
          -0.20293332636356354,
          -0.1881624460220337,
          0.13134294748306274,
          0.09197983145713806,
          0.04936060309410095,
          0.10017848014831543
        ],
        [
          0.004779443144798279,
          0.01424647867679596,
          -0.1579781174659729,
          -0.02470637857913971,
          -0.12936916947364807,
          -0.030437886714935303,
          -0.18994902074337006,
          -0.02210789918899536,
          -0.023439913988113403,
          0.06273418664932251,
          0.01615646481513977,
          -0.029827654361724854,
          0.09532812237739563,
          0.13559654355049133,
          -0.1780674159526825,
          0.20137888193130493
        ],
        [
          -0.028185978531837463,
          -0.20328770577907562,
          0.15159562230110168,
          0.07968553900718689,
          0.01366831362247467,
          -0.0945223942399025,
          -0.04750341176986694,
          0.029222294688224792,
          -0.1466546654701233,
          0.08998513221740723,
          0.19170379638671875,
          0.10345396399497986,
          0.15898051857948303,
          -0.0832853764295578,
          0.1529236137866974,
          0.008931562304496765
        ],
        [
          -0.16199547052383423,
          0.15099689364433289,
          -0.08951003104448318,
          -0.16035521030426025,
          -0.06921327114105225,
          -0.0048501938581466675,
          -0.12942245602607727,
          0.10084891319274902,
          0.07376357913017273,
          0.013453066349029541,
          -0.15767234563827515,
          -0.1551634967327118,
          0.14321932196617126,
          -0.16893500089645386,
          0.13941475749015808,
          0.02269969880580902
        ],
        [
          0.12079235911369324,
          0.0524178147315979,
          -0.10347604751586914,
          -0.0836147591471672,
          0.021123170852661133,
          -0.15736404061317444,
          -0.08366210758686066,
          0.10129263997077942,
          -0.10558853298425674,
          0.013029128313064575,
          0.17349183559417725,
          -0.16507171094417572,
          -0.044284671545028687,
          0.01725839078426361,
          0.10490593314170837,
          -0.02058359980583191
        ],
        [
          0.019398123025894165,
          -0.11211901158094406,
          -0.10430143773555756,
          0.11068227887153625,
          0.09708631038665771,
          0.15270772576332092,
          -0.10092487186193466,
          -0.1424802541732788,
          0.18124842643737793,
          0.18333613872528076,
          0.026212036609649658,
          0.010487839579582214,
          0.10660731792449951,
          0.013689681887626648,
          -0.09189174324274063,
          -0.07458731532096863
        ],
        [
          0.1885789930820465,
          -0.1631145179271698,
          0.024567052721977234,
          -0.02677847445011139,
          -0.147426038980484,
          0.09389308094978333,
          -0.03171476721763611,
          0.015370011329650879,
          0.16086304187774658,
          0.050819963216781616,
          0.19662874937057495,
          0.08269038796424866,
          -0.1927962750196457,
          0.02927786111831665,
          -0.07489572465419769,
          -0.17918135225772858
        ],
        [
          0.03598058223724365,
          0.14594972133636475,
          0.056146085262298584,
          -0.16572895646095276,
          -0.06857213377952576,
          -0.09709526598453522,
          -0.04868723452091217,
          -0.10834182053804398,
          -0.09204913675785065,
          0.11013811826705933,
          -0.14906597137451172,
          0.08233067393302917,
          0.0018609315156936646,
          -0.0023540258407592773,
          -0.0715370625257492,
          -0.020689308643341064
        ],
        [
          -0.10784497857093811,
          -0.15366047620773315,
          -0.11094681918621063,
          0.052654266357421875,
          0.03487895429134369,
          -0.1096317395567894,
          0.1595800817012787,
          0.15400132536888123,
          0.10565531253814697,
          -0.05173115432262421,
          -0.02439121901988983,
          -0.08968761563301086,
          -0.10650162398815155,
          -0.024838656187057495,
          -0.1761062741279602,
          -0.014007866382598877
        ],
        [
          -0.10372108221054077,
          0.0040391236543655396,
          0.16978719830513,
          0.11297383904457092,
          -0.06678001582622528,
          0.10069471597671509,
          0.08912605047225952,
          0.10004478693008423,
          -0.1844199150800705,
          0.18292564153671265,
          0.03472268581390381,
          -0.13509100675582886,
          0.0944044291973114,
          0.09046736359596252,
          -0.13032066822052002,
          -0.1571585088968277
        ],
        [
          -0.1828533262014389,
          0.08624354004859924,
          -0.06070554256439209,
          0.13631770014762878,
          0.09157565236091614,
          -0.1865907907485962,
          -0.11305224895477295,
          -0.06201401352882385,
          -0.04103770852088928,
          -0.09889969229698181,
          0.09079912304878235,
          0.008267015218734741,
          -0.08406911045312881,
          -0.18437893688678741,
          0.08536434173583984,
          -0.13282248377799988
        ],
        [
          -0.08843273669481277,
          0.16975083947181702,
          -0.19314098358154297,
          0.07110607624053955,
          -0.05206696689128876,
          0.12053841352462769,
          0.08944502472877502,
          -0.19533532857894897,
          0.1794748604297638,
          -0.06487372517585754,
          -0.13611480593681335,
          0.05259183049201965,
          -0.1565888673067093,
          0.19639945030212402,
          0.12586134672164917,
          -0.1011410504579544
        ],
        [
          0.09646260738372803,
          0.17843669652938843,
          -0.15192335844039917,
          0.07487013936042786,
          0.10693290829658508,
          0.04026341438293457,
          -0.08532145619392395,
          0.17198854684829712,
          0.12351629137992859,
          -0.08615785092115402,
          -0.20187778770923615,
          0.014711931347846985,
          -0.2028881013393402,
          0.010067552328109741,
          -0.035131484270095825,
          -0.005791470408439636
        ],
        [
          0.11637631058692932,
          0.1156339943408966,
          0.10509645938873291,
          -0.07021419703960419,
          0.1863977313041687,
          0.148362934589386,
          -0.1956070363521576,
          0.0456295907497406,
          0.055564314126968384,
          0.18707692623138428,
          -0.1629340648651123,
          -0.1743958741426468,
          0.16790154576301575,
          0.14595404267311096,
          0.147932231426239,
          0.0026710927486419678
        ],
        [
          0.19151571393013,
          0.06839770078659058,
          0.0002887845039367676,
          -0.0004107058048248291,
          -0.1388147473335266,
          -0.11069326102733612,
          -0.14957210421562195,
          -0.17562110722064972,
          0.10278171300888062,
          0.025693833827972412,
          0.12453001737594604,
          0.12641561031341553,
          -0.10159297287464142,
          -0.19723397493362427,
          -0.11996330320835114,
          -0.0026913881301879883
        ],
        [
          -0.02197261154651642,
          0.14134496450424194,
          -0.10798553377389908,
          -0.039532244205474854,
          -0.15423089265823364,
          0.19696012139320374,
          0.20224642753601074,
          0.004239380359649658,
          -0.19682736694812775,
          -0.14551925659179688,
          0.08309698104858398,
          -0.19512873888015747,
          0.03870481252670288,
          -0.14845962822437286,
          -0.15607289969921112,
          0.14284959435462952
        ],
        [
          0.024304494261741638,
          -0.1300216019153595,
          -0.19706778228282928,
          -0.02158580720424652,
          -0.06504882872104645,
          -0.13660405576229095,
          -0.02314436435699463,
          -0.07239151000976562,
          -0.003489077091217041,
          0.16898253560066223,
          -0.11727873235940933,
          -0.16812507808208466,
          -0.17771156132221222,
          0.09139895439147949,
          -0.02201436460018158,
          -0.18928106129169464
        ],
        [
          -0.12320642173290253,
          0.04625460505485535,
          0.009804695844650269,
          -0.1820797622203827,
          -0.03006686270236969,
          -0.13343262672424316,
          -0.10868550837039948,
          0.004197046160697937,
          0.05409198999404907,
          0.02610735595226288,
          0.1871577799320221,
          -0.053746357560157776,
          0.03179921209812164,
          -0.07237155735492706,
          0.13116708397865295,
          -0.005459606647491455
        ],
        [
          -0.1417962908744812,
          0.009394526481628418,
          -0.19359149038791656,
          -0.14730140566825867,
          -0.16369959712028503,
          0.13046032190322876,
          0.194449782371521,
          -0.1076335683465004,
          -0.04052324593067169,
