{
  "input_features": [
    "queue_len",
    "io_type",
    "size",
    "prev_queue_len_1",
    "prev_queue_len_2",
    "prev_queue_len_3",
    "prev_latency_1",
    "prev_latency_2",
    "prev_latency_3",
    "prev_throughput_1",
    "prev_throughput_2",
    "prev_throughput_3"
  ],
  "scaler_min": [
    1.0,
    0.0,
    512.0,
    1.0,
    1.0,
    1.0,
    16.0,
    16.0,
    16.0,
    0.0,
    0.0,
    0.0
  ],
  "scaler_scale": [
    12.0,
    1.0,
    523776.0,
    12.0,
    12.0,
    12.0,
    4789.0,
    4705.0,
    4789.0,
    5161.0,
    5161.0,
    5161.0
  ],
  "layers": [
    {
      "name": "dense_1",
      "weights": [
        [
          0.19640354812145233,
          0.20250312983989716,
          -0.013682544231414795,
          0.1786796897649765,
          0.08746711909770966,
          -0.04631905257701874,
          0.12967310845851898,
          0.08189015090465546,
          -0.002639681100845337,
          0.18662981688976288,
          -0.08391689509153366,
          0.0750521868467331,
          -0.17115381360054016,
          -0.13800206780433655,
          0.13534234464168549,
          0.17995448410511017,
          0.13664458692073822,
          0.20340369641780853,
          0.06751655042171478,
          0.08848507702350616,
          0.16219235956668854,
          0.10626284778118134,
          -0.011207222938537598,
          0.01950986683368683,
          0.11909465491771698,
          0.1698351949453354,
          -0.1712772101163864,
          -0.17532485723495483,
          0.053738489747047424,
          0.2065311223268509,
          -0.10874437540769577,
          0.08664734661579132,
          0.18270082771778107,
          0.1995375007390976,
          0.17633046209812164,
          -0.19426938891410828,
          0.06417219340801239,
          -0.1682754009962082,
          -0.17098368704319,
          0.200360968708992,
          0.16054417192935944,
          -0.02345520257949829,
          -0.08094726502895355,
          -0.10687556117773056,
          -0.16230227053165436,
          -0.0914565771818161,
          -0.006912589073181152,
          -0.040064141154289246,
          0.06479178369045258,
          0.14878500998020172,
          -0.07732221484184265,
          0.003512367606163025,
          -0.1718105673789978,
          0.052271828055381775,
          -0.20643888413906097,
          0.07792757451534271,
          0.19663672149181366,
          0.10746721923351288,
          0.004025876522064209,
          -0.04776369035243988,
          -0.07114183902740479,
          0.026252523064613342,
          0.19049932062625885,
          0.16831113398075104,
          0.08356837928295135,
          -0.08141082525253296,
          0.1359565705060959,
          -0.02815292775630951,
          -0.07723145186901093,
          -0.09427186846733093,
          0.08402813971042633,
          0.14134253561496735,
          -0.1969265341758728,
          -0.041626736521720886,
          -0.03474178910255432,
          0.16360999643802643,
          0.1177268773317337,
          0.010326936841011047,
          -0.2020246535539627,
          -0.08822856098413467,
          -0.028642654418945312,
          0.050322577357292175,
          0.10636831820011139,
          -0.07358857989311218,
          0.08784283697605133,
          0.18115361034870148,
          0.10017712414264679,
          -0.13513170182704926,
          0.1252342313528061,
          0.06127820909023285,
          0.19093115627765656,
          -0.1504061222076416,
          0.11642472445964813,
          0.027345389127731323,
          -0.190941721200943,
          0.12292112410068512,
          -0.09229565411806107,
          0.054226621985435486,
          0.12969942390918732,
          -0.11615089327096939,
          -0.10034124553203583,
          -0.17197038233280182,
          -0.15725034475326538,
          -0.1275719851255417,
          0.06815378367900848,
          -0.037909045815467834,
          0.11257489025592804,
          -0.11709396541118622,
          -0.012098029255867004,
          -0.1501411646604538,
          0.01430504024028778,
          -0.20440071821212769,
          -0.11425220966339111,
          0.17161501944065094,
          -0.008565574884414673,
          -0.07992646098136902,
          0.03640064597129822,
          -0.0033985525369644165,
          0.12241725623607635,
          0.07526861131191254,
          0.12795989215373993,
          0.1888008862733841,
          -0.19818313419818878,
          0.05372150242328644,
          -0.1723531037569046,
          -0.09817025810480118,
          0.12125365436077118,
          -0.007596641778945923
        ],
        [
          -0.12754671275615692,
          0.1688116043806076,
          -0.09865425527095795,
          0.17556552588939667,
          -0.20085987448692322,
          0.1612354964017868,
          0.004012554883956909,
          -0.035836681723594666,
          -0.003346279263496399,
          0.006961748003959656,
          -0.1573047935962677,
          -0.05281803011894226,
          0.1493232697248459,
          0.18129457533359528,
          0.184552863240242,
          0.053967371582984924,
          0.07238505780696869,
          -0.1452597677707672,
          -0.20602256059646606,
          0.1961192935705185,
          0.07684420049190521,
          0.0908450335264206,
          -0.1013781949877739,
          -0.06286436319351196,
          -0.04838785529136658,
          0.07528556883335114,
          -0.07698081433773041,
          0.13968418538570404,
          0.11270175874233246,
          -0.11091649532318115,
          0.04758550226688385,
          0.13156218826770782,
          0.07559807598590851,
          0.13381154835224152,
          0.15818990767002106,
          -0.08079396188259125,
          -0.1749759465456009,
          0.047156140208244324,
          0.03996311128139496,
          -0.1844799518585205,
          -0.12100997567176819,
          -0.007171034812927246,
          -0.09459960460662842,
          0.09064187109470367,
          -0.19196578860282898,
          -0.13653497397899628,
          -0.1430957019329071,
          -0.0924685001373291,
          -0.13536998629570007,
          0.017144471406936646,
          0.006469950079917908,
          0.05680491030216217,
          0.054142341017723083,
          0.061558857560157776,
          -0.19102251529693604,
          0.13894711434841156,
          0.0713685005903244,
          -0.1578739881515503,
          0.039511874318122864,
          -0.19374506175518036,
          0.17238043248653412,
          -0.06312413513660431,
          0.11904703080654144,
          -0.06293781101703644,
          -0.10905221849679947,
          -0.010930478572845459,
          0.005398556590080261,
          0.07715533673763275,
          0.024562925100326538,
          -0.10388495028018951,
          -0.08879034221172333,
          0.0767441838979721,
          -0.1339239776134491,
          0.08381412923336029,
          -0.07380284368991852,
          -0.17018631100654602,
          0.014123111963272095,
          0.09281502664089203,
          0.06609879434108734,
          -0.025686144828796387,
          -0.10768403857946396,
          -0.024795740842819214,
          0.14517320692539215,
          0.15650327503681183,
          -0.07097496092319489,
          0.14850275218486786,
          0.031054258346557617,
          0.13773377239704132,
          -0.07923506200313568,
          0.005628421902656555,
          -0.15204551815986633,
          -0.07408131659030914,
          0.08174942433834076,
          0.044665709137916565,
          0.2065410166978836,
          -0.020267009735107422,
          -0.15316568315029144,
          0.18921352922916412,
          0.20623449981212616,
          0.13314221799373627,
          -0.0998903140425682,
          0.05688740313053131,
          0.12949909269809723,
          -0.18949317932128906,
          0.033004119992256165,
          0.007702946662902832,
          0.19130973517894745,
          -0.12321318686008453,
          -0.018266260623931885,
          0.059758856892585754,
          0.03238670527935028,
          0.011556431651115417,
          0.08511979877948761,
          0.2000955194234848,
          0.09835179150104523,
          0.17437492311000824,
          0.12333165109157562,
          -0.03514893352985382,
          -0.1101040244102478,
          -0.19488191604614258,
          -0.02883124351501465,
          -0.0010043680667877197,
          -0.058492645621299744,
          0.0632881373167038,
          -0.08616235852241516,
          -0.19924336671829224,
          0.19783104956150055,
          0.1351281851530075
        ],
        [
          -0.13560059666633606,
          0.0312107652425766,
          0.12489040195941925,
          -0.18409837782382965,
          -0.17728562653064728,
          0.0816979855298996,
          -0.13997897505760193,
          0.05481459200382233,
          0.06458668410778046,
          -0.01996859908103943,
          -0.17657537758350372,
          0.19681508839130402,
          -0.05888853967189789,
          -0.151661217212677,
          -0.17394384741783142,
          0.18178968131542206,
          -0.061490461230278015,
          0.10329733788967133,
          -0.2057766616344452,
          0.19907565414905548,
          -0.045336976647377014,
          -0.01470048725605011,
          0.06723357737064362,
          -0.028832584619522095,
          -0.1088167354464531,
          0.11092568933963776,
          0.20008791983127594,
          0.19881261885166168,
          0.16838140785694122,
          0.11268170177936554,
          0.018710285425186157,
          0.04751397669315338,
          -0.02661159634590149,
          0.10736946761608124,
          0.055294618010520935,
          0.17129291594028473,
          -0.05570419132709503,
          -0.017707690596580505,
          0.14920945465564728,
          -0.12615469098091125,
          0.1782379299402237,
          0.028175339102745056,
          0.15952043235301971,
          -0.09369251132011414,
          0.1241801530122757,
          0.05842851102352142,
          -0.10359438508749008,
          -0.06952701508998871,
          0.19443069398403168,
          0.20604179799556732,
          0.11110810935497284,
          -0.13327264785766602,
          -0.1709870845079422,
          0.11110080778598785,
          0.09730212390422821,
          -0.01826547086238861,
          -0.01984366774559021,
          0.00655539333820343,
          -0.1379096806049347,
          -0.09440572559833527,
          -0.08090931177139282,
          -0.05173671245574951,
          0.07594116032123566,
          -0.079160675406456,
          0.0007334053516387939,
          -0.18655088543891907,
          -0.01422823965549469,
          0.02884669601917267,
          0.016772761940956116,
          -0.17184630036354065,
          0.08761988580226898,
          0.09439392387866974,
          -0.11995436996221542,
          0.14335669577121735,
          -0.009710907936096191,
          -0.14572206139564514,
          -0.08556637167930603,
          0.056723371148109436,
          0.03676356375217438,
          -0.05054956674575806,
          0.12580426037311554,
          0.19442026317119598,
          0.02605445683002472,
          0.07804499566555023,
          0.006210491061210632,
          0.17211012542247772,
          -0.11911435425281525,
          0.06682361662387848,
          0.20432515442371368,
          0.030927062034606934,
          -0.12525701522827148,
          0.07364313304424286,
          0.12137673795223236,
          -0.06819070875644684,
          -0.04160735011100769,
          -0.1833784431219101,
          -0.07597757875919342,
          0.12823303043842316,
          0.01936909556388855,
          -0.0027801543474197388,
          0.1509522646665573,
          -0.1134030669927597,
          -0.08585012704133987,
          -0.07399454712867737,
          0.012104347348213196,
          0.16412939131259918,
          -0.005463764071464539,
          0.16248680651187897,
          0.027017027139663696,
          0.055220797657966614,
          -0.16362139582633972,
          0.08610160648822784,
          -0.01908959448337555,
          -0.04628404974937439,
          -0.1985922008752823,
          0.11835213005542755,
          -0.04338805377483368,
          0.17694441974163055,
          -0.1417374312877655,
          -0.1766684651374817,
          -0.058216243982315063,
          -0.18557484447956085,
          0.0856616348028183,
          -0.17816689610481262,
          0.1528933197259903,
          0.17313019931316376,
          -0.041595011949539185,
          0.07425598800182343
        ],
        [
          -0.08476737141609192,
          -0.05582793056964874,
          -0.15739333629608154,
          -0.15159139037132263,
          -0.022448062896728516,
          -0.17499861121177673,
          -0.08805743604898453,
          -0.121499203145504,
          0.17914851009845734,
          -0.16413050889968872,
          0.04357047379016876,
          -0.004910901188850403,
          0.16867966949939728,
          0.10484980046749115,
          0.1692524403333664,
          -0.15169350802898407,
          -0.08884448558092117,
          -0.17735926806926727,
          0.13941152393817902,
          -0.14230293035507202,
          0.08109010756015778,
          -0.028252437710762024,
          -0.20408779382705688,
          -0.029327332973480225,
          0.18516291677951813,
          -0.023464232683181763,
          -0.11436119675636292,
          -0.04163996875286102,
          -0.14611127972602844,
          -0.0699463039636612,
          0.0680026262998581,
          -0.07463228702545166,
          0.11454032361507416,
          0.17456747591495514,
          -0.19555628299713135,
          -0.19125770032405853,
          0.07119594514369965,
          0.15597184002399445,
          0.02024109661579132,
          0.108271524310112,
          0.17102597653865814,
          0.055228039622306824,
          -0.193008154630661,
          0.16813088953495026,
          0.05768318474292755,
          0.038439735770225525,
          -0.02734173834323883,
          -0.009587317705154419,
          0.1541433185338974,
          -0.16932177543640137,
          -0.10390622168779373,
          -0.1230059340596199,
          -0.11082562804222107,
          -0.1179913803935051,
          0.10684393346309662,
          0.15229053795337677,
          0.17564840614795685,
          -0.05384056270122528,
          0.1337234228849411,
          0.02757248282432556,
          -0.032738566398620605,
          -0.0915694609284401,
          -0.00594271719455719,
          0.13777892291545868,
          0.06737689673900604,
          -0.14881354570388794,
          -0.09272244572639465,
          -0.17253795266151428,
          -0.014050453901290894,
          0.16903065145015717,
          -0.08348260074853897,
          0.1274777203798294,
          -0.09986050426959991,
          -0.017628267407417297,
          -0.08146186172962189,
          0.014108449220657349,
          -0.1875922828912735,
          0.13246063888072968,
          0.2050822526216507,
          -0.03147335350513458,
          0.009907945990562439,
          0.13140363991260529,
          -0.10207590460777283,
          -0.0561673641204834,
          -0.054880768060684204,
          -0.15885959565639496,
          -0.1246747076511383,
          -0.18534128367900848,
          0.07609410583972931,
          0.08941362798213959,
          -0.01104019582271576,
          0.16572849452495575,
          -0.07673333585262299,
          -0.1996014565229416,
          0.04744844138622284,
          0.04589413106441498,
          -0.19851313531398773,
          0.052678003907203674,
          0.10948221385478973,
          0.013843491673469543,
          0.07092277705669403,
          0.1185750812292099,
          0.15750281512737274,
          -0.1887342631816864,
          -0.18860790133476257,
          0.20276467502117157,
          -0.07380630075931549,
          -0.06561574339866638,
          0.07977063953876495,
          -0.19714869558811188,
          -0.14727848768234253,
          -0.03632596135139465,
          0.16645745933055878,
          0.19676025211811066,
          0.09295167028903961,
          -0.0018714815378189087,
          -0.15371359884738922,
          0.20568417012691498,
          -0.10074938088655472,
          -0.01887740194797516,
          -0.06403259932994843,
          0.14298735558986664,
          -0.06614628434181213,
          -0.07762561738491058,
          0.18067242205142975,
          0.14730603992938995,
          0.09670044481754303,
          0.15167035162448883
        ],
        [
          -0.15642839670181274,
          0.1886192113161087,
          0.14661113917827606,
          -0.08112780749797821,
          -0.09136704355478287,
          -0.01934877038002014,
          0.09047465026378632,
          -0.030555590987205505,
          -0.035651251673698425,
          0.11384858191013336,
          -0.025192484259605408,
          0.08051277697086334,
          -0.15467166900634766,
          -0.13190792500972748,
          0.041160762310028076,
          -0.14025163650512695,
          0.1988895684480667,
          0.15657292306423187,
          0.16479481756687164,
          -0.008681803941726685,
          -0.12019937485456467,
          0.1602635532617569,
          -0.047768667340278625,
          -0.08840372413396835,
          -0.07920622825622559,
          0.1436142474412918,
          0.1607407182455063,
          -0.08829770982265472,
          0.026492848992347717,
          -0.20472820103168488,
          0.04977993667125702,
          -0.18384729325771332,
          -0.08427592366933823,
          0.14333872497081757,
          0.13265164196491241,
          -0.07164815068244934,
          0.130404993891716,
          -0.046194955706596375,
          0.10741253197193146,
          0.05327419936656952,
          -0.06520967185497284,
          -0.20247213542461395,
          -0.07571059465408325,
          0.0032157301902770996,
          -0.05920422077178955,
          0.0044956207275390625,
          0.06964714825153351,
          -0.0490424782037735,
          0.030786439776420593,
          0.13090543448925018,
          0.12436707317829132,
          0.11744554340839386,
          0.048143789172172546,
          -0.08578077703714371,
          -0.03993675112724304,
          -0.16814948618412018,
          -0.0152207612991333,
          -0.1998019516468048,
          -0.19641688466072083,
          0.20346896350383759,
          -0.0721224695444107,
          0.05410902202129364,
          0.13376261293888092,
          -0.044298455119132996,
          -0.11222372204065323,
          0.03463907539844513,
          0.1051359623670578,
          -0.17162349820137024,
          0.13445456326007843,
          -0.17372557520866394,
          0.11161194741725922,
          -0.1281237006187439,
          -0.114681176841259,
          -0.14889410138130188,
          0.07444365322589874,
          -0.15243475139141083,
          0.09673528373241425,
          0.14256985485553741,
          -0.02015170454978943,
          -0.16029298305511475,
          -0.16429319977760315,
          0.07485221326351166,
          -0.08131912350654602,
          -0.058748796582221985,
          0.16158120334148407,
          0.07526148855686188,
          0.00046750903129577637,
          -0.20697377622127533,
          -0.08473075181245804,
          0.09055565297603607,
          0.053210899233818054,
          -0.10300959646701813,
          -0.06711718440055847,
          -0.026795610785484314,
          -0.08016341924667358,
          -0.15321430563926697,
          0.060606375336647034,
          -0.056284740567207336,
          0.15428145229816437,
          -0.20357123017311096,
          0.01425720751285553,
          0.14378590881824493,
          -0.1968912035226822,
          -0.10619048029184341,
          0.06692193448543549,
          -0.1971396654844284,
          -0.00989234447479248,
          -0.13821575045585632,
          -0.04897846281528473,
          0.1988193839788437,
          0.15163718163967133,
          -0.06005099415779114,
          0.141365185379982,
          -0.0967724621295929,
          -0.18870000541210175,
          -0.14997853338718414,
          0.11591614782810211,
          0.019547030329704285,
          0.15543709695339203,
          -0.09521879255771637,
          -0.18361535668373108,
          -0.07989852130413055,
          -0.16207951307296753,
          -0.16626685857772827,
          0.01810130476951599,
          0.1933731585741043,
          -0.16490158438682556,
          -0.07455800473690033
        ],
        [
          -0.18003779649734497,
          0.1065296083688736,
          -0.05721531808376312,
          0.09889231622219086,
          0.20602582395076752,
          -0.16269820928573608,
          -0.16713015735149384,
          -0.0188877135515213,
          0.033080026507377625,
          -0.12932312488555908,
          0.05375008285045624,
          0.17165394127368927,
          0.13770581781864166,
          0.06934060156345367,
          -0.08920637518167496,
          -0.03618653118610382,
          -0.06281372904777527,
          0.0447014719247818,
          0.09116338193416595,
          0.1221752017736435,
          0.08402977883815765,
          -0.1335630714893341,
          -0.03984123468399048,
          -0.07478179037570953,
          0.08774782717227936,
          0.14551697671413422,
          0.1893390268087387,
          0.0726497620344162,
          0.046396031975746155,
          -0.1952519416809082,
          0.014284059405326843,
          -0.004489496350288391,
          0.11830218136310577,
          0.19878701865673065,
          0.11732466518878937,
          0.07375796139240265,
          0.05461181700229645,
          0.17267243564128876,
          0.02589009702205658,
          -0.16174261271953583,
          0.019054949283599854,
          0.0419035404920578,
          0.1138203889131546,
          -0.07766352593898773,
          -0.1265910565853119,
          -0.11616673320531845,
          0.08408798277378082,
          0.0586710125207901,
          0.023559585213661194,
          0.012808620929718018,
          -0.07011386752128601,
          -0.010313555598258972,
          -0.061231523752212524,
          -0.06748425960540771,
          -0.1121387779712677,
          0.11981864273548126,
          0.07134149968624115,
          -0.06815817952156067,
          -0.1935192495584488,
          -0.11108002066612244,
          0.06832875311374664,
          0.17246226966381073,
          -0.12838716804981232,
          -0.07006590068340302,
          -0.0025058239698410034,
          0.1715603619813919,
          -0.09536118805408478,
          0.1268628090620041,
          0.17574064433574677,
          -0.07552832365036011,
          -0.017590612173080444,
          0.07902015745639801,
          -0.08364108949899673,
          -0.047147661447525024,
          -0.05290904641151428,
          -0.04852008819580078,
          -0.13389435410499573,
          -0.04145842790603638,
          -0.0012874305248260498,
          -0.006846606731414795,
          0.18406303226947784,
          -0.014847129583358765,
          -0.1944345384836197,
          0.0731201320886612,
          0.17928366363048553,
          0.014573097229003906,
          0.04835815727710724,
          -0.17492975294589996,
          -0.11031191796064377,
          0.07309995591640472,
          0.07662405073642731,
          0.07893626391887665,
          -0.15446749329566956,
          0.0327540785074234,
          -0.16020467877388,
          -0.07721343636512756,
          0.08855007588863373,
          -0.11928458511829376,
          -0.1976766735315323,
          -0.204881951212883,
          0.133883997797966,
          0.11642463505268097,
          0.00968065857887268,
          0.05196918547153473,
          0.13479478657245636,
          0.039929792284965515,
          -0.04429066181182861,
          -0.10193094611167908,
          0.11696727573871613,
          -0.03330090641975403,
          -0.03633573651313782,
          -0.0019756704568862915,
          0.053277388215065,
          0.062156036496162415,
          0.018304362893104553,
          -0.03547997772693634,
          -0.1845516711473465,
          0.12813691794872284,
          0.10361550748348236,
          0.19132794439792633,
          -0.10495896637439728,
          0.16229979693889618,
          0.1531858593225479,
          -0.1954888552427292,
          -0.08695562928915024,
          0.08380834758281708,
          -0.016494780778884888,
          0.010520905256271362
        ],
        [
          0.16180898249149323,
          -0.04782356321811676,
          0.03589215874671936,
          0.1434466391801834,
          -0.20655477046966553,
          -0.01611773669719696,
          0.13957737386226654,
          -0.13687016069889069,
          -0.11160123348236084,
          -0.20629678666591644,
          -0.10171401500701904,
          0.022767558693885803,
          0.1543072611093521,
          0.15758197009563446,
          -0.1823272407054901,
          0.0314217209815979,
          0.19344888627529144,
          -0.09008192270994186,
          -0.20065386593341827,
          0.1933121532201767,
          0.09103517234325409,
          0.031976789236068726,
          0.01619596779346466,
          -0.053193435072898865,
          0.053741708397865295,
          -0.2051253318786621,
          -0.07444339990615845,
          0.02505575120449066,
          -0.16861438751220703,
          -0.1939416080713272,
          0.0015432089567184448,
          0.12367121875286102,
          -0.0648861974477768,
          -0.03296418488025665,
          0.20115973055362701,
          0.07295246422290802,
          -0.013015925884246826,
          0.17126600444316864,
          0.042651355266571045,
          0.0880873054265976,
          -0.025647595524787903,
          -0.03357912600040436,
          0.2032664269208908,
          -0.08849883824586868,
          -0.10550940036773682,
          0.15683268010616302,
          -0.11317642033100128,
          0.05451981723308563,
          -0.05675511062145233,
          -0.03864334523677826,
          -0.03306764364242554,
          -0.016105443239212036,
          0.07878725230693817,
          -0.17327697575092316,
          0.06557552516460419,
          0.07141213119029999,
          -0.19535593688488007,
          -0.20242173969745636,
          -0.024862274527549744,
          0.14315281808376312,
          -0.05199474096298218,
          0.1884763091802597,
          0.13660310208797455,
          0.10555936396121979,
          0.20643271505832672,
          0.05556003749370575,
          0.025651946663856506,
          -0.10175281018018723,
          -0.13430599868297577,
          -0.04644426703453064,
          -0.07716955244541168,
          -0.1815819889307022,
          0.04049128293991089,
          -0.026337116956710815,
          -0.19964809715747833,
          -0.025564342737197876,
          0.13561080396175385,
          0.20637674629688263,
          -0.08420904725790024,
          -0.017345547676086426,
          -0.019330114126205444,
          0.031971707940101624,
          0.2003754824399948,
          -0.02293388545513153,
          0.20610834658145905,
          -0.10296276211738586,
          -0.07165022194385529,
          0.07799570262432098,
          0.16648812592029572,
          -0.04243333637714386,
          0.11474622786045074,
          -0.16025635600090027,
          0.03556320071220398,
          0.020387396216392517,
          -0.16720928251743317,
          -0.03016522526741028,
          -0.15403416752815247,
          -0.1630767285823822,
          -0.17820881307125092,
          -0.20339235663414001,
          0.16566865146160126,
          0.20674653351306915,
          0.15475039184093475,
          0.17307840287685394,
          -0.01422661542892456,
          -0.1860145777463913,
          0.039990007877349854,
          -0.10640474408864975,
          0.007195502519607544,
          0.021979421377182007,
          0.08658595383167267,
          0.08923597633838654,
          -0.005681619048118591,
          0.15826721489429474,
          -0.026837408542633057,
          -0.07610279321670532,
          0.11328135430812836,
          0.04028645157814026,
          0.18082232773303986,
          0.1497352570295334,
          -0.17953182756900787,
          -0.04355292022228241,
          0.03369680047035217,
          0.12803439795970917,
          -0.1291397213935852,
          -0.08186140656471252,
          0.0927552729845047,
          0.009623304009437561
        ],
        [
          0.20356185734272003,
          -0.04932786524295807,
          0.010595694184303284,
          0.09778489172458649,
          0.1705216020345688,
          -0.16598008573055267,
          0.016234517097473145,
          0.0689946860074997,
          0.13826994597911835,
          0.1634344905614853,
          0.07362358272075653,
          -0.14499324560165405,
          -0.0822686105966568,
          0.20258338749408722,
          -0.1981724202632904,
          0.130567267537117,
          -0.1794760525226593,
          0.024982109665870667,
          -0.1474951207637787,
          0.11567927896976471,
          0.1512899547815323,
          -0.045354411005973816,
          -0.09512417018413544,
          -0.012756302952766418,
          0.20426248013973236,
          -0.18913479149341583,
          -0.06993012130260468,
          -0.15416976809501648,
          0.19208265841007233,
          -0.13536091148853302,
          0.10634280741214752,
          0.00909462571144104,
          0.2059946209192276,
          0.2050940841436386,
          0.1938008815050125,
          -0.16127489507198334,
          -0.15291361510753632,
          -0.20484425127506256,
          -0.003143325448036194,
          -0.034085288643836975,
          0.002423301339149475,
          -0.15620644390583038,
          0.006698131561279297,
          -0.09691816568374634,
          -0.17495299875736237,
          0.0013871937990188599,
          0.15619410574436188,
          -0.04877457022666931,
          0.055349454283714294,
          0.08752970397472382,
          -0.006800055503845215,
          0.18445681035518646,
          -0.19758343696594238,
          -0.02941124141216278,
          0.0037806183099746704,
          0.1876080185174942,
          -0.07658319175243378,
          -0.14166003465652466,
          0.17059622704982758,
          0.2033616453409195,
          -0.1175965666770935,
          -0.0509638637304306,
          -0.017239436507225037,
          -0.07784466445446014,
          0.106856569647789,
          0.18666480481624603,
          0.18707813322544098,
          0.19346825778484344,
          -0.006615504622459412,
          0.10499005019664764,
          -0.170538529753685,
          -0.043189987540245056,
          -0.03682719171047211,
          0.18352608382701874,
          -0.006034865975379944,
          -0.1849592626094818,
          0.07672183215618134,
          -0.03049592673778534,
          0.11855365335941315,
          0.12439905107021332,
          0.037984564900398254,
          -0.141681969165802,
          -0.0678742378950119,
          -0.19330929219722748,
          -0.19953685998916626,
          -0.15256205201148987,
          0.20356084406375885,
          -0.19008634984493256,
          -0.023889586329460144,
          0.15419034659862518,
          -0.1321363002061844,
          0.10033680498600006,
          0.07715557515621185,
          0.19835878908634186,
          0.05619104206562042,
          0.10255660116672516,
          0.0025973767042160034,
          -0.036231547594070435,
          -0.026435941457748413,
          -0.10750407725572586,
          -0.11060391366481781,
          0.1364501267671585,
          0.004265263676643372,
          -0.01734870672225952,
          -0.0017445385456085205,
          0.1327304095029831,
          0.059492871165275574,
          -0.0067758709192276,
          0.11061032116413116,
          -0.19454790651798248,
          -0.16162873804569244,
          -0.08835022151470184,
          -0.17438188195228577,
          0.0873914510011673,
          0.06074203550815582,
          0.168816938996315,
          0.1884583979845047,
          0.053130313754081726,
          -0.1913067102432251,
          -0.058475807309150696,
          -0.19970619678497314,
          0.06498540937900543,
          -0.06711812317371368,
          0.07322348654270172,
          -0.010187163949012756,
          0.11356036365032196,
          -0.03066641092300415,
          0.06965039670467377
        ],
        [
          0.04691474139690399,
          0.09633494913578033,
          -0.10308195650577545,
          0.021205201745033264,
          0.02871328592300415,
          -0.1433311402797699,
          -0.032662853598594666,
          -0.1767650544643402,
          0.057987526059150696,
          -0.09045975655317307,
          -0.01923687756061554,
          -0.20452915132045746,
          -0.16993370652198792,
          -0.014317229390144348,
          -0.07675337791442871,
          -0.16426634788513184,
          0.009547188878059387,
          0.01046493649482727,
          -0.0048183053731918335,
          0.050238028168678284,
          -0.020849913358688354,
          0.05446799099445343,
          -0.1687772125005722,
          -0.10144452750682831,
          0.15411610901355743,
          0.0008586645126342773,
          0.04658488929271698,
          0.05838756263256073,
          -0.07946738600730896,
          0.010690152645111084,
          -0.20304355025291443,
          -0.12147126346826553,
          0.20319734513759613,
          0.05596940219402313,
          0.08852227032184601,
          0.07102476060390472,
          0.04641939699649811,
          0.05203269422054291,
          0.12777088582515717,
          0.04193517565727234,
          0.17586182057857513,
          0.12406651675701141,
          -0.1346561312675476,
          -0.0035306811332702637,
          0.14932997524738312,
          -0.18392418324947357,
          -0.15046223998069763,
          -0.08438623696565628,
          0.1616954356431961,
          -0.051847755908966064,
          0.09085290133953094,
          0.14088724553585052,
          0.006926611065864563,
          -0.13481241464614868,
          0.1021646112203598,
          -0.14438891410827637,
          -0.179129958152771,
          -0.04025159776210785,
          -0.1391637921333313,
          -0.2001125067472458,
          -0.056213170289993286,
          -0.1699495017528534,
          -0.14182385802268982,
          -0.17312999069690704,
          -0.025920987129211426,
          -0.1350562870502472,
          0.0691613107919693,
          -0.006600305438041687,
          0.10557623207569122,
          -0.024298325181007385,
          -0.19602616131305695,
          -0.12323909997940063,
          -0.0987851545214653,
          0.0621618777513504,
          0.1616985946893692,
          0.08912576735019684,
          -0.08311444520950317,
          0.18882925808429718,
          0.0927354246377945,
          0.0004023611545562744,
          -0.048561304807662964,
          0.026948407292366028,
          0.13850335776805878,
          -0.13104411959648132,
          -0.07663649320602417,
          -0.12839002907276154,
          -0.2067413032054901,
          0.08579672873020172,
          0.14250661432743073,
          -0.16462241113185883,
          0.20651350915431976,
          -0.1282622516155243,
          -0.07722152769565582,
          -0.14687559008598328,
          0.1850087195634842,
          0.008497849106788635,
          -0.09135948866605759,
          0.14765073359012604,
          -0.08197242021560669,
          0.01695084571838379,
          0.13390402495861053,
          0.04964567720890045,
          -0.17392592132091522,
          0.014721959829330444,
          -0.1187189519405365,
          -0.1660257875919342,
          0.1827668994665146,
          0.031074494123458862,
          -0.0657283216714859,
          0.13969309628009796,
          -0.028482094407081604,
          -0.12825365364551544,
          -0.1315404176712036,
          -0.054162219166755676,
          -0.14986565709114075,
          -0.1853548139333725,
          -0.09888036549091339,
          0.02498003840446472,
          0.10832326114177704,
          0.07811029255390167,
          0.10836468636989594,
          -0.18352261185646057,
          -0.06441596150398254,
          0.18669910728931427,
          0.10507260262966156,
          -0.15066099166870117,
          -0.0732843428850174,
          -0.04909396171569824
        ],
        [
          0.045221105217933655,
          0.015177279710769653,
          -0.030277177691459656,
          -0.1104532778263092,
          0.05136387050151825,
          -0.03421658277511597,
          -0.048745349049568176,
          0.014156520366668701,
          -0.0682818740606308,
          -0.06041081249713898,
          -0.14001145958900452,
          0.04448960721492767,
          -0.08650500327348709,
          0.1764831691980362,
          0.2020007222890854,
          0.06227962672710419,
          0.17047758400440216,
          0.2006070762872696,
          -0.02321547269821167,
          -0.06155812740325928,
          0.06804998219013214,
          0.06511907279491425,
          0.15410901606082916,
          0.03296813368797302,
          -0.17087115347385406,
          -0.07710553705692291,
          0.07460804283618927,
          -0.030662208795547485,
          -0.19199781119823456,
          -0.02670656144618988,
          -0.029264315962791443,
          0.1266859620809555,
          0.07756657898426056,
          -0.11204865574836731,
          0.04177051782608032,
          0.16824127733707428,
          0.13134248554706573,
          0.15930138528347015,
          -0.17924220860004425,
          0.02709624171257019,
          -0.17502719163894653,
          0.20495055615901947,
          -0.03668142855167389,
          -0.1479443609714508,
          0.14517997205257416,
          0.10713370144367218,
          -0.18862557411193848,
          0.1096724420785904,
          -0.11355489492416382,
          -0.08990132808685303,
          -0.18816319108009338,
          -0.08615614473819733,
          0.057227328419685364,
          -0.17717377841472626,
          0.03677758574485779,
          0.05527453124523163,
          -0.16639301180839539,
          0.148864284157753,
          -0.18634308874607086,
          -0.047176674008369446,
          0.09519718587398529,
          0.12277241051197052,
          -0.1439034342765808,
          0.08569209277629852,
          0.17267943918704987,
          -0.12824752926826477,
          -0.011786043643951416,
          -0.10387714952230453,
          -0.15409928560256958,
          0.08757747709751129,
          -0.07086227834224701,
          0.1572386473417282,
          -0.07708707451820374,
          0.05955059826374054,
          0.1360035389661789,
          -0.14944438636302948,
          -0.10297711938619614,
          -0.0736340880393982,
          -0.06878778338432312,
          -0.12387023121118546,
          0.07649897038936615,
          0.009845152497291565,
          -0.12357314676046371,
          -0.18025743961334229,
          0.019206032156944275,
          0.05930875241756439,
          -0.12992064654827118,
          -0.015695825219154358,
          -0.06659524142742157,
          0.2031027227640152,
          0.0993257611989975,
          -0.10502471029758453,
          -0.0824766531586647,
          0.07801039516925812,
          0.06635256111621857,
          0.04256428778171539,
          0.14704985916614532,
          0.015431225299835205,
          0.06566460430622101,
          -0.09312194585800171,
          -0.03263586759567261,
          -0.12970125675201416,
          -0.05597832798957825,
          0.1394776552915573,
          0.04495786130428314,
          -0.005033209919929504,
          -0.18560545146465302,
          -0.19131362438201904,
          -0.18404343724250793,
          0.0035759955644607544,
          0.012528717517852783,
          0.1730065792798996,
          0.1159488707780838,
          -0.13076406717300415,
          -0.009510710835456848,
          0.00775986909866333,
          -0.05195678770542145,
          -0.1666717827320099,
          0.1898457258939743,
          -0.12700718641281128,
          0.07494999468326569,
          0.045080557465553284,
          0.2034926563501358,
          0.15571899712085724,
          -0.13840094208717346,
          -0.05274176597595215,
          0.11885477602481842,
          0.15155474841594696
        ],
        [
          0.06542108952999115,
          -0.044546231627464294,
          0.09120459854602814,
          0.15988732874393463,
          -0.04827280342578888,
          -0.09552673250436783,
          0.04281038045883179,
          -0.18319474160671234,
          -0.09746810048818588,
          0.17570860683918,
          0.06513692438602448,
          0.15617252886295319,
          0.1549280732870102,
          0.015017569065093994,
          0.03845706582069397,
          -0.03272178769111633,
          0.05476678907871246,
          0.14836277067661285,
          -0.1717604249715805,
          0.04012326896190643,
          -0.20358775556087494,
          -0.17709970474243164,
          0.07368828356266022,
          0.08285479247570038,
          -0.16409097611904144,
          0.1528785675764084,
          0.023804351687431335,
          0.12044180929660797,
          -0.008801057934761047,
          -0.1777924746274948,
          0.034119486808776855,
          -0.0018221288919448853,
          0.01696312427520752,
          -0.029817357659339905,
          -0.20344743132591248,
          -0.06728589534759521,
          0.15740756690502167,
          0.16915641725063324,
          -0.16444170475006104,
          0.17327158153057098,
          0.11097206175327301,
          0.17021311819553375,
          0.1955331414937973,
          0.024976536631584167,
          0.1281222254037857,
          0.06349776685237885,
          0.11136560142040253,
          0.11677376925945282,
          0.09715206921100616,
          0.2010713368654251,
          0.0979902595281601,
          -0.04111979901790619,
          0.0194740891456604,
          -0.1647542417049408,
          -0.15737546980381012,
          0.1499466449022293,
          -0.023444831371307373,
          0.0553174763917923,
          0.19723935425281525,
          0.06043271720409393,
          -0.005962759256362915,
          -0.14268836379051208,
          -0.046291500329971313,
          0.05328671634197235,
          -0.15891359746456146,
          0.13735543191432953,
          -0.06205481290817261,
          0.0502859503030777,
          0.06102876365184784,
          0.030498534440994263,
          0.12056003510951996,
          -0.17987322807312012,
          0.12120591104030609,
          -0.15414878726005554,
          -0.006524398922920227,
          -0.09550891071557999,
          0.012402504682540894,
          -0.04005417227745056,
          -0.1957734078168869,
          0.11146752536296844,
          0.13711635768413544,
          0.18384133279323578,
          -0.18329961597919464,
          -0.16718322038650513,
          0.07996396720409393,
          -0.01939353346824646,
          -0.18932852149009705,
          0.06892149150371552,
          0.205682173371315,
          -0.13143879175186157,
          0.05603973567485809,
          0.004033967852592468,
          0.06510795652866364,
          0.15224264562129974,
          0.03407856822013855,
          0.11745871603488922,
          0.1143115907907486,
          0.06417925655841827,
          -0.017936646938323975,
          -0.00020799040794372559,
          -0.10354749858379364,
          0.17198540270328522,
          -0.07613784074783325,
          -0.1894027590751648,
          0.05968137085437775,
          0.05743373930454254,
          0.09040527045726776,
          -0.10388293117284775,
          -0.10558654367923737,
          0.11717723309993744,
          0.1720273345708847,
          -0.14210614562034607,
          0.18270646035671234,
          0.06028313934803009,
          -0.09077347069978714,
          0.06732307374477386,
          0.0005676150321960449,
          -0.01737743616104126,
          -0.06307817995548248,
          0.04770021140575409,
          0.02817179262638092,
          0.14557231962680817,
          0.1174614280462265,
          0.11705611646175385,
          0.10751058161258698,
          -0.1746813952922821,
          -0.17439723014831543,
          -0.20038540661334991
        ],
        [
          0.11705462634563446,
          0.10068313777446747,
          0.18100668489933014,
          0.1555362194776535,
          0.11603061854839325,
          0.09225334227085114,
          0.07154001295566559,
          -0.13650698959827423,
          -0.08989836275577545,
          -0.1777876913547516,
          -0.13868749141693115,
          -0.0034379810094833374,
          0.028374895453453064,
          0.08848614990711212,
          0.01161329448223114,
          0.17003990709781647,
          0.17849533259868622,
          0.07194681465625763,
          0.2001304179430008,
          0.18249361217021942,
          0.20574210584163666,
          0.013202294707298279,
          0.1495675891637802,
          -0.11490501463413239,
          -0.16689398884773254,
          -0.15064969658851624,
          0.17536060512065887,
          0.10040818154811859,
          -0.011193051934242249,
          -0.06941565871238708,
          -0.0659680962562561,
          -0.10224614292383194,
          0.04370443522930145,
          0.1820608526468277,
          -0.04197007417678833,
          0.12518475949764252,
          0.09946303069591522,
          0.012877970933914185,
          -0.014575570821762085,
          0.15540306270122528,
          0.0111941397190094,
          0.1517651230096817,
          -0.2042737752199173,
          -0.13842856884002686,
          0.045073673129081726,
          0.10625828802585602,
          -0.0396268367767334,
          -0.15844449400901794,
          0.20188163220882416,
          -0.024219393730163574,
          -0.12781092524528503,
          -0.11732416599988937,
          0.19305355846881866,
          0.14302797615528107,
          0.08781139552593231,
          -0.08707458525896072,
          -0.17856284976005554,
          0.18856312334537506,
          -0.12803776562213898,
          -0.05228358507156372,
          0.13974370062351227,
          0.12697361409664154,
          0.18782983720302582,
          0.020078420639038086,
          0.06758935749530792,
          0.20338593423366547,
          0.12412990629673004,
          0.05610986053943634,
          -0.07417252659797668,
          -0.04501798748970032,
          0.03229692578315735,
          0.19351758062839508,
          0.10657946765422821,
          -0.09773556888103485,
          0.014557108283042908,
          -0.1286177635192871,
          0.028322920203208923,
          -0.20203931629657745,
          -0.013533532619476318,
          0.1653529852628708,
          -0.10501069575548172,
          -0.10883104801177979,
          0.05758826434612274,
          -0.13871854543685913,
          0.09208638966083527,
          0.008849471807479858,
          0.1388755589723587,
          -0.11617329716682434,
          -0.19796665012836456,
          0.1949978917837143,
          -0.17864182591438293,
          -0.00477108359336853,
          -0.1236576959490776,
          -0.11045204102993011,
          0.12862764298915863,
          -0.20097720623016357,
          -0.17525659501552582,
          -0.065334752202034,
          0.08121906220912933,
          0.09232969582080841,
          -0.14071519672870636,
          -0.1810629963874817,
          0.06008945405483246,
          -0.06951062381267548,
          0.08416824042797089,
          -0.10045906156301498,
          -0.19670334458351135,
          -0.20346860587596893,
          -0.08603911846876144,
          0.11115853488445282,
          -0.15384913980960846,
          -0.045472562313079834,
          -0.05187170207500458,
          0.12479035556316376,
          0.19190852344036102,
          -0.19133810698986053,
          0.09257076680660248,
          -0.16300299763679504,
          0.07818226516246796,
          -0.10823037475347519,
          -0.08083654940128326,
          -0.19753071665763855,
          -0.07259348034858704,
          -0.07217083871364594,
          0.16419585049152374,
          0.19069336354732513,
          -0.11930838227272034,
          -0.1329423487186432
        ]
      ],
      "bias": [
        0.0,
        0.0,
        0.0,
        0.0,
        0.0,
        0.0,
        0.0,
        0.0,
        0.0,
        0.0,
        0.0,
        0.0,
        0.0,
        0.0,
        0.0,
        0.0,
        0.0,
        0.0,
        0.0,
        0.0,
        0.0,
        0.0,
        0.0,
        0.0,
        0.0,
        0.0,
        0.0,
        0.0,
        0.0,
        0.0,
        0.0,
        0.0,
        0.0,
        0.0,
        0.0,
        0.0,
        0.0,
        0.0,
        0.0,
        0.0,
        0.0,
        0.0,
        0.0,
        0.0,
        0.0,
        0.0,
        0.0,
        0.0,
        0.0,
        0.0,
        0.0,
        0.0,
        0.0,
        0.0,
        0.0,
        0.0,
        0.0,
        0.0,
        0.0,
        0.0,
        0.0,
        0.0,
        0.0,
        0.0,
        0.0,
        0.0,
        0.0,
        0.0,
        0.0,
        0.0,
        0.0,
        0.0,
        0.0,
        0.0,
        0.0,
        0.0,
        0.0,
        0.0,
        0.0,
        0.0,
        0.0,
        0.0,
        0.0,
        0.0,
        0.0,
        0.0,
        0.0,
        0.0,
        0.0,
        0.0,
        0.0,
        0.0,
        0.0,
        0.0,
        0.0,
        0.0,
        0.0,
        0.0,
        0.0,
        0.0,
        0.0,
        0.0,
        0.0,
        0.0,
        0.0,
        0.0,
        0.0,
        0.0,
        0.0,
        0.0,
        0.0,
        0.0,
        0.0,
        0.0,
        0.0,
        0.0,
        0.0,
        0.0,
        0.0,
        0.0,
        0.0,
        0.0,
        0.0,
        0.0,
        0.0,
        0.0,
        0.0,
        0.0
      ]
    },
    {
      "name": "dense_2",
      "weights": [
        [
          -0.008514627814292908,
          0.0011199712753295898,
          -0.09052658826112747,
          0.041670188307762146,
          0.01876005530357361,
          -0.07856355607509613,
          -0.16877435147762299,
          0.09630709886550903,
          0.0026897788047790527,
          0.07488784193992615,
          -0.09362424165010452,
          0.09789994359016418,
          0.04292866587638855,
          -0.1841631978750229,
          -0.10469496250152588,
          0.034269049763679504
        ],
        [
          0.04688996076583862,
          0.08366268873214722,
          -0.014381781220436096,
          0.14786964654922485,
          -0.012688025832176208,
          0.1454576551914215,
          -0.14572332799434662,
          -0.1409817487001419,
          0.18591058254241943,
          -0.1617475152015686,
          0.08038058876991272,
          -0.017713084816932678,
          -0.19554299116134644,
          -0.008345276117324829,
          0.05225330591201782,
          -0.1952802836894989
        ],
        [
          -0.07999305427074432,
          0.0925622284412384,
          0.17505335807800293,
          0.0735912024974823,
          -0.042971983551979065,
          0.16818198561668396,
          0.08704563975334167,
          -0.14527904987335205,
          -0.18127422034740448,
          0.00735241174697876,
          0.040170758962631226,
          0.16000103950500488,
          -0.1987828016281128,
          -0.08005282282829285,
          -0.033902689814567566,
          -0.041655585169792175
        ],
        [
          0.18528184294700623,
          -0.11604726314544678,
          -0.20065906643867493,
          0.1718258261680603,
          -0.0685638040304184,
          0.01790595054626465,
          -0.17979411780834198,
          -0.013288572430610657,
          -0.08181096613407135,
          -0.15107887983322144,
          0.0965133011341095,
          0.01139765977859497,
          -0.1768852323293686,
          0.18073737621307373,
          0.14974293112754822,
          0.16503867506980896
        ],
        [
          -0.11717808991670609,
          -0.060893312096595764,
          -0.19452857971191406,
          -0.07652923464775085,
          -0.12048307061195374,
          -0.19502386450767517,
          -0.08605837821960449,
          0.1058676540851593,
          -0.1287647783756256,
          0.19263747334480286,
          -0.11333164572715759,
          0.1331729292869568,
          0.1955234706401825,
          -0.026439115405082703,
          0.0259818434715271,
          -0.019693538546562195
        ],
        [
          -0.13526800274848938,
          0.06279486417770386,
          0.13413134217262268,
          -0.0037443339824676514,
          0.07768243551254272,
          -0.03965672850608826,
          -0.14403891563415527,
          0.008529230952262878,
          0.13701432943344116,
          0.09361386299133301,
          0.0012852400541305542,
          0.13725537061691284,
          -0.08079981058835983,
          0.08248218894004822,
          0.06042328476905823,
          0.09159848093986511
        ],
        [
          -0.03605702519416809,
          -0.06192187964916229,
          0.15605339407920837,
          0.01952528953552246,
          0.10247817635536194,
          0.0025477707386016846,
          0.012405410408973694,
          -0.09839019924402237,
          -0.19196397066116333,
          -0.04499872028827667,
          -0.1962691992521286,
          -0.006605714559555054,
          0.20055675506591797,
          0.026531338691711426,
          0.04797515273094177,
          -0.18634255230426788
        ],
        [
          0.1535358726978302,
          0.19338861107826233,
          -0.14821824431419373,
          -0.022963717579841614,
          0.118416428565979,
          -0.016720563173294067,
          -0.10344076156616211,
          -0.15362469851970673,
          -0.066606804728508,
          0.06970131397247314,
          0.05471596121788025,
          -0.019429177045822144,
          -0.09109842777252197,
          -0.016648486256599426,
          0.07825535535812378,
          -0.044770121574401855
        ],
        [
          -0.12353351712226868,
          -0.08613084256649017,
          0.16844725608825684,
          -0.05404926836490631,
          -0.011103853583335876,
          -0.12495137751102448,
          0.12446433305740356,
          -0.19679519534111023,
          0.14376243948936462,
          -0.13970288634300232,
          0.13399511575698853,
          0.035304829478263855,
          -0.06968033313751221,
          -0.18006888031959534,
          0.08769315481185913,
          -0.04585102200508118
        ],
        [
          0.07469522953033447,
          0.028750315308570862,
          -0.04344974458217621,
          -0.1989920288324356,
          0.04362785816192627,
          0.0769534707069397,
          0.02658030390739441,
          -0.16295626759529114,
          0.023741602897644043,
          -0.09211405366659164,
          0.03041297197341919,
          -0.12317853420972824,
          -0.013607770204544067,
          0.1911083161830902,
          0.006228640675544739,
          0.07513216137886047
        ],
        [
          -0.019928067922592163,
          0.13637804985046387,
          -0.021092131733894348,
          -0.14620862901210785,
          0.02043585479259491,
          -0.07914571464061737,
          -0.16845393180847168,
          -0.17826002836227417,
          0.06818747520446777,
          -0.09550220519304276,
          0.17943105101585388,
          -0.04494395852088928,
          -0.15718308091163635,
          0.15427955985069275,
          0.0925668478012085,
          0.046808451414108276
        ],
        [
          0.15834739804267883,
          -0.031402960419654846,
          -0.05811947584152222,
          -0.030466660857200623,
          0.12959057092666626,
          0.013304531574249268,
          0.05029621720314026,
          0.047749340534210205,
          0.06864893436431885,
          0.03685219585895538,
          -0.17344452440738678,
          -0.02989739179611206,
          0.08325505256652832,
          -0.18480491638183594,
          -0.073945552110672,
          -0.019169881939888
        ],
        [
          -0.15617884695529938,
          0.08421400189399719,
          -0.08612967282533646,
          -0.1609439253807068,
          0.13795441389083862,
          -0.17202681303024292,
          0.19760608673095703,
          0.014500334858894348,
          0.16743186116218567,
          -0.00022430717945098877,
          -0.015163511037826538,
          0.07445207238197327,
          -0.05419853329658508,
          0.15327176451683044,
          0.08390563726425171,
          -0.18648140132427216
        ],
        [
          0.07780927419662476,
          -0.13996227085590363,
          0.028551563620567322,
          0.041726499795913696,
          -0.07930660992860794,
          -0.14386692643165588,
          0.13671302795410156,
          -0.12159768491983414,
          -0.02332092821598053,
          -0.20314925909042358,
          0.12946447730064392,
          0.027335330843925476,
          -0.11437968909740448,
          0.10109347105026245,
          -0.02200751006603241,
          -0.14411002397537231
        ],
        [
          -0.04572102427482605,
          -0.00873120129108429,
          -0.07753625512123108,
          -0.06306809186935425,
          0.04366859793663025,
          -0.09736566245555878,
          -0.0313878208398819,
          -0.13456563651561737,
          -0.08581562340259552,
          0.09006118774414062,
          -0.13250741362571716,
          -0.026580199599266052,
          -0.19845838844776154,
          0.17154553532600403,
          0.17376837134361267,
          0.01369445025920868
        ],
        [
          0.16596612334251404,
          -0.07436014711856842,
          0.19558289647102356,
          0.05622303485870361,
          -0.09777373820543289,
          0.06582978367805481,
          0.1498694121837616,
          -0.13057860732078552,
          0.1821458339691162,
          0.19072306156158447,
          0.06675314903259277,
          0.09299024939537048,
          -0.16830208897590637,
          -0.010127261281013489,
          0.025704294443130493,
          -0.013769745826721191
        ],
        [
          0.06066533923149109,
          -0.135435551404953,
          -0.19138361513614655,
          0.14399787783622742,
          -0.19440972805023193,
          -0.08570042997598648,
          -0.06299051642417908,
          0.15231677889823914,
          0.030619367957115173,
          0.05257275700569153,
          0.08556917309761047,
          0.11220315098762512,
          -0.08073371648788452,
          0.1343839168548584,
          0.08180877566337585,
          0.17820397019386292
        ],
        [
          -0.12972863018512726,
          -0.03676557540893555,
          0.17029845714569092,
          -0.04280126094818115,
          0.040994107723236084,
          -0.12177931517362595,
          0.15636956691741943,
          -0.17117801308631897,
          -0.0631742775440216,
          -0.10998686403036118,
          -0.007002204656600952,
          0.1041383147239685,
          0.09618178009986877,
          -0.18882733583450317,
          -0.1543152928352356,
          0.1713232696056366
        ],
        [
          0.18366435170173645,
          -0.173143669962883,
          0.11972799897193909,
          -0.13663560152053833,
          -0.1661345511674881,
          -0.00014609098434448242,
          0.0340099036693573,
          0.13701027631759644,
          -0.18992643058300018,
          -0.20120733976364136,
          -0.15012477338314056,
          0.09942549467086792,
          -0.04395671188831329,
          0.02879747748374939,
          -0.046275779604911804,
          -0.1372087001800537
        ],
        [
          -0.09077396243810654,
          0.07208755612373352,
          -0.06878860294818878,
          -0.12746283411979675,
          -0.16952328383922577,
          -0.11226808279752731,
          -0.18061216175556183,
          0.09093013405799866,
          0.04024779796600342,
          -0.198918879032135,
          -0.09051530063152313,
          0.13790357112884521,
          -0.10049363970756531,
          0.04340122640132904,
          -0.06490735709667206,
          0.037465840578079224
        ],
        [
          -0.16465157270431519,
          0.04121491312980652,
          -0.18227529525756836,
          -0.05421161651611328,
          -0.06895266473293304,
          -0.14278095960617065,
          0.0038518905639648438,
          -0.09784960746765137,
          0.03547103703022003,
          0.12173080444335938,
          0.11148172616958618,
          -0.08837297558784485,
          -0.1702742576599121,
          0.08352422714233398,
          -0.03287844359874725,
          0.07331964373588562
        ],
        [
          -0.09672695398330688,
          -0.10083805024623871,
          0.07432276010513306,
          -0.1403338462114334,
          0.041726887226104736,
          -0.1959165632724762,
          0.18657779693603516,
          -0.18726596236228943,
          0.07356289029121399,
          0.12965860962867737,
          -0.17881284654140472,
          -0.1721823513507843,
          0.09057754278182983,
          -0.15876257419586182,
          -0.023570194840431213,
          0.16081461310386658
        ],
        [
          0.13778981566429138,
          0.15273824334144592,
          0.05143585801124573,
          0.046874672174453735,
          0.19190585613250732,
          -0.03701378405094147,
          -0.10623040050268173,
          0.019044801592826843,
          0.1628304123878479,
          -0.002083823084831238,
          0.2010904848575592,
          -0.1080797016620636,
          -0.14664620161056519,
          -0.08441036194562912,
          -0.13172192871570587,
          0.17510437965393066
        ],
        [
          0.08256983757019043,
          0.08090102672576904,
          -0.10314350575208664,
          -0.05075256526470184,
          0.11902618408203125,
          -0.1765090376138687,
          -0.15568755567073822,
          -0.059972330927848816,
          -0.11660026758909225,
          0.17053312063217163,
          0.1467456817626953,
          0.14049363136291504,
          0.10151419043540955,
          0.11700406670570374,
          0.04867711663246155,
          -0.020339876413345337
        ],
        [
          0.025670230388641357,
          -0.1365576684474945,
          -0.06775125861167908,
          -0.20399007201194763,
          0.08254584670066833,
          0.1284511685371399,
          -0.13853506743907928,
          0.10246926546096802,
          0.06476947665214539,
          0.18132469058036804,
          -0.12355872243642807,
          0.14994293451309204,
          -0.0003498196601867676,
          -0.15167850255966187,
          0.07991188764572144,
          -0.1191895455121994
        ],
        [
          0.1591489315032959,
          0.10121896862983704,
          -0.10548151284456253,
          -0.1234913170337677,
          0.050686269998550415,
          -0.050090983510017395,
          -0.1948619931936264,
          0.19915959239006042,
          -0.021491482853889465,
          0.20287811756134033,
          0.08610960841178894,
          -0.0027170330286026,
          -0.17811986804008484,
          0.1709221601486206,
          0.07260093092918396,
          -0.08488438278436661
        ],
        [
          0.010262459516525269,
          0.19364503026008606,
          0.13823378086090088,
          0.08890831470489502,
          -0.19667436182498932,
          0.12240171432495117,
          -0.11599285900592804,
          -0.026477083563804626,
          -0.08541523665189743,
          -0.0810178890824318,
          0.005800515413284302,
          -0.1972293108701706,
          0.051936596632003784,
          0.06453129649162292,
          0.18646785616874695,
          -0.07586356997489929
        ],
        [
          0.04919591546058655,
          -0.08158650994300842,
          -0.08622895181179047,
          -0.011366859078407288,
          0.029283419251441956,
          -0.14242716133594513,
          0.1894732117652893,
          -0.19910089671611786,
          -0.19480159878730774,
          -0.18546099960803986,
          -0.12052662670612335,
          -0.0016381293535232544,
          0.07947814464569092,
          -0.016091197729110718,
          -0.00396333634853363,
          0.20265236496925354
        ],
        [
          0.1791640818119049,
          -0.10426946729421616,
          -0.13896143436431885,
          0.15299773216247559,
          0.1211523711681366,
          0.12846830487251282,
          -0.008723601698875427,
          -0.16368471086025238,
          0.037196964025497437,
          0.12469908595085144,
          -0.08819013833999634,
          -0.0805879607796669,
          -0.15023334324359894,
          0.1536724865436554,
          -0.07627464830875397,
          -0.03679405152797699
        ],
        [
          -0.041057124733924866,
          -0.04687449336051941,
          0.05805972218513489,
          -0.0962396040558815,
          0.16632592678070068,
          -0.021168246865272522,
          0.06677737832069397,
          -0.08568461239337921,
          -0.14113904535770416,
          -0.0020456165075302124,
          -0.11867022514343262,
          -0.06187671422958374,
          0.1294909417629242,
          -0.026979178190231323,
          -0.06264755129814148,
          0.10773420333862305
        ],
        [
          0.025377795100212097,
          0.16593316197395325,
          -0.17296667397022247,
          -0.061862170696258545,
          0.10184234380722046,
          0.18193408846855164,
          0.07035651803016663,
          0.1350090503692627,
          0.18169096112251282,
          -0.015409380197525024,
          0.17133107781410217,
          -0.15383261442184448,
          0.1748245656490326,
          -0.017860442399978638,
          -0.031009390950202942,
          -0.05142602324485779
        ],
        [
          -0.1754564642906189,
          0.03008982539176941,
          -0.062289267778396606,
          0.0009580999612808228,
          -0.03538757562637329,
          0.06344452500343323,
          0.15810823440551758,
          -0.024981975555419922,
          0.07944875955581665,
          0.16143536567687988,
          0.1349126398563385,
          0.0906129777431488,
          -0.03982044756412506,
          0.20180058479309082,
          -0.10694001615047455,
          -0.0860222652554512
        ],
        [
          -0.09701822698116302,
          -0.0877300351858139,
          -0.18558767437934875,
          0.13976973295211792,
          -0.14781026542186737,
          0.05213645100593567,
          0.06969666481018066,
          0.0773613452911377,
          0.13667592406272888,
          0.09332504868507385,
          -0.09935750812292099,
          -0.08340704441070557,
          -0.11653018742799759,
          -0.144165500998497,
          -0.12849657237529755,
          0.025665760040283203
        ],
        [
          0.10390552878379822,
          0.1439569592475891,
          -0.04324407875537872,
          -0.1569308489561081,
          -0.1867498904466629,
          -0.03687025606632233,
          0.19204506278038025,
          0.04328456521034241,
          0.03819769620895386,
          -0.16465099155902863,
          -0.15830715000629425,
          -0.16379989683628082,
          0.11930888891220093,
          -0.14140120148658752,
          0.16792988777160645,
          0.054019153118133545
        ],
        [
          -0.12434367090463638,
          0.02978585660457611,
          -0.057509392499923706,
          -0.2029465138912201,
          0.010340660810470581,
          -0.10136083513498306,
          -0.13379469513893127,
          0.099019855260849,
          0.1282346546649933,
          -0.08570758253335953,
          -0.16712415218353271,
          -0.08899611234664917,
          -0.15102389454841614,
          0.1067577600479126,
          -0.20014971494674683,
          -0.13678085803985596
        ],
        [
          -0.12173541635274887,
          -0.13646748661994934,
          -0.18864604830741882,
          0.19590595364570618,
          -0.025207459926605225,
          0.18482068181037903,
          -0.05329142510890961,
          -0.019651100039482117,
          -0.06688100099563599,
          -0.16472500562667847,
          0.14447683095932007,
          0.06366008520126343,
          0.03648598492145538,
          -0.11721751093864441,
          0.08013126254081726,
          -0.12490830570459366
        ],
        [
          -0.1810079663991928,
          0.09504565596580505,
          0.1349208950996399,
          -0.12765279412269592,
          0.12752684950828552,
          -0.0683598518371582,
          0.07378309965133667,
          -0.17931395769119263,
          0.15454289317131042,
          -0.1490144282579422,
          0.05204731225967407,
          0.14410725235939026,
          0.19173431396484375,
          0.0635351836681366,
          -0.12331368774175644,
          -0.1603281944990158
        ],
        [
          0.11611729860305786,
          -0.05685867369174957,
          -0.14039117097854614,
          -0.12537020444869995,
          0.045692652463912964,
          -0.17520228028297424,
          -0.00821182131767273,
          -0.17716580629348755,
          0.061546504497528076,
          0.061876386404037476,
          0.05607813596725464,
          -0.16865886747837067,
          0.11622601747512817,
          -0.02800697088241577,
          0.11546963453292847,
          -0.0015689283609390259
        ],
        [
          -0.11151379346847534,
          0.10178831219673157,
          -0.16526862978935242,
          -0.12738390266895294,
          0.11777868866920471,
          -0.19457466900348663,
          -0.06502874195575714,
          0.015529051423072815,
          -0.15114833414554596,
          0.052166879177093506,
          -0.018279075622558594,
          0.10561341047286987,
          -0.03240044414997101,
          0.1417173445224762,
          0.06695389747619629,
          0.1471206545829773
        ],
        [
          -0.0802762508392334,
          0.09985589981079102,
          0.18503457307815552,
          -0.1699070781469345,
          0.18408459424972534,
          0.017851486802101135,
          -0.12187820672988892,
          0.06895607709884644,
          0.014108270406723022,
          -0.015041112899780273,
          -0.087929867208004,
          0.1067982017993927,
          -0.19431434571743011,
          -0.18415263295173645,
          -0.157150536775589,
          0.09444355964660645
        ],
        [
          -0.11130252480506897,
          -0.1649552583694458,
          0.15042036771774292,
          0.16760039329528809,
          -0.021733075380325317,
          0.1406651735305786,
          0.006841748952865601,
          0.03469274938106537,
          -0.15434089303016663,
          0.10341969132423401,
          -0.14192195236682892,
          -0.16901081800460815,
          -0.19309446215629578,
          0.11344772577285767,
          -0.10341998189687729,
          -0.10864735394716263
        ],
        [
          -0.01430395245552063,
          -0.2030060738325119,
          0.09670063853263855,
          -0.15487666428089142,
          0.063853919506073,
          -0.13870078325271606,
          0.02975080907344818,
          -0.15473300218582153,
          -0.19308380782604218,
          -0.15397889912128448,
          -0.1345304548740387,
          -0.11948198825120926,
          0.17876505851745605,
          0.034515902400016785,
          0.14802083373069763,
          0.09936100244522095
        ],
        [
          0.14533385634422302,
          0.13658615946769714,
          -0.011482775211334229,
          0.06319531798362732,
          0.023011505603790283,
          -0.046143606305122375,
          -0.05341659486293793,
          0.023892179131507874,
          -0.12600979208946228,
          0.16921737790107727,
          0.16508689522743225,
          0.1797679364681244,
          -0.11851882189512253,
          -0.19201435148715973,
          -0.03609172999858856,
          0.14455273747444153
        ],
        [
          -0.12431549280881882,
          -0.09725519269704819,
          0.08410760760307312,
          0.07633286714553833,
          0.00025978684425354004,
          -0.19777938723564148,
          -2.987682819366455e-05,
          -0.186498761177063,
          0.14369776844978333,
          -0.09140663594007492,
          0.0019103288650512695,
          -0.027425646781921387,
          -0.04917989671230316,
          0.19057661294937134,
          0.04802435636520386,
          0.082224041223526
        ],
        [
          -0.048331230878829956,
          0.07933244109153748,
          0.12735149264335632,
          0.017788618803024292,
          0.11852598190307617,
          0.05305472016334534,
          -0.19862288236618042,
          -0.1723451018333435,
          -0.04595176875591278,
          0.09071579575538635,
          0.01140257716178894,
          0.06629815697669983,
          0.09059512615203857,
          -0.16269317269325256,
          0.08063545823097229,
          0.07225465774536133
        ],
        [
          -0.10221026837825775,
          -0.020521938800811768,
          -0.05215612053871155,
          0.0649954080581665,
          -0.13952136039733887,
          0.050175756216049194,
          -0.14793524146080017,
          0.1998927891254425,
          -0.03552582859992981,
          -0.1636844128370285,
          -0.02356991171836853,
          -0.004366353154182434,
          0.07017922401428223,
          0.012346714735031128,
          -0.16687901318073273,
          0.11358553171157837
        ],
        [
          0.1598888635635376,
          0.05618852376937866,
          0.13572809100151062,
          -0.20411500334739685,
          0.01283957064151764,
          -0.14007624983787537,
          0.11956378817558289,
          0.1694698929786682,
          -0.022631078958511353,
          0.19358119368553162,
          0.17829006910324097,
          -0.08837512135505676,
          0.04496212303638458,
          -0.1737736612558365,
          0.06927946209907532,
          0.1327505111694336
        ],
        [
          -0.046899884939193726,
          -0.03298784792423248,
          -0.10682063549757004,
          -0.039323270320892334,
          0.18713811039924622,
          -0.08649248629808426,
          -0.033060699701309204,
          -0.06466986238956451,
          -0.13581478595733643,
          0.12444397807121277,
          -0.1997365802526474,
          -0.0914909765124321,
          -0.02900250256061554,
          0.0442996621131897,
          -0.013264000415802002,
          0.16084074974060059
        ],
        [
          0.14351093769073486,
          0.031483009457588196,
          -0.12851768732070923,
          -0.13468238711357117,
          0.020254328846931458,
          0.05640032887458801,
          -0.014957696199417114,
          0.10468214750289917,
          -0.004380956292152405,
          0.012595310807228088,
          0.07088950276374817,
          -0.12335388362407684,
          0.15106427669525146,
          -0.011980786919593811,
          0.008423477411270142,
          0.12735971808433533
        ],
        [
          -0.01597444713115692,
          -0.1415800154209137,
          0.003463923931121826,
          0.11694416403770447,
          0.17852994799613953,
          -0.08502862602472305,
          -0.04173603653907776,
          0.03841236233711243,
          0.1162034273147583,
          -0.13266383111476898,
          -0.007789388298988342,
          -0.11937623471021652,
          -0.06800992786884308,
          -0.05554461479187012,
          -0.1975976675748825,
          -0.1402186006307602
        ],
        [
          0.12299239635467529,
          0.14414596557617188,
          -0.0656362920999527,
          -0.09064879268407822,
          0.1862252950668335,
          -0.03952528536319733,
          0.048895567655563354,
          -0.1308811604976654,
          0.14009317755699158,
          0.18362468481063843,
          0.16733098030090332,
          0.03138859570026398,
          0.018535122275352478,
          0.04932418465614319,
          -0.06323973834514618,
          0.12108317017555237
        ],
        [
          0.03674858808517456,
          -0.18455204367637634,
          0.11830249428749084,
          -0.09223611652851105,
          0.17342403531074524,
          -0.015589639544487,
          0.10709843039512634,
          0.10607695579528809,
          0.15745669603347778,
          0.03640557825565338,
          0.15531042218208313,
          0.18281793594360352,
          -0.10172968357801437,
          -0.006584495306015015,
          -0.07274410128593445,
          0.06674247980117798
        ],
        [
          -0.0707591325044632,
          0.0500047504901886,
          -0.15346205234527588,
          -0.05141949653625488,
          0.012272253632545471,
          -0.20324590802192688,
          0.1882649064064026,
          -0.18475206196308136,
          0.13931232690811157,
          0.18107864260673523,
          -0.0017625242471694946,
          0.039135560393333435,
          -0.08646172285079956,
          0.15771517157554626,
          0.03752127289772034,
          -0.06873613595962524
        ],
        [
          -0.017785504460334778,
          -0.1608715057373047,
          0.050406068563461304,
          -0.10936616361141205,
          -0.12307273596525192,
          0.081017404794693,
          0.1917136311531067,
          -0.04502786695957184,
          0.11805576086044312,
          0.19837740063667297,
          0.09323832392692566,
          0.09211289882659912,
          -0.11090525984764099,
          -0.1819399893283844,
          0.11279654502868652,
          -0.1307963728904724
        ],
        [
          -0.15587277710437775,
          -0.01725877821445465,
          0.030183464288711548,
          -0.11350373178720474,
          0.09907680749893188,
          0.0394265353679657,
          0.04405093193054199,
          0.16064614057540894,
          -0.02577798068523407,
          0.1605665683746338,
          0.12710970640182495,
          0.10351377725601196,
          0.1967756748199463,
          -0.03315788507461548,
          0.12795886397361755,
          0.03269004821777344
        ],
        [
          -0.03525495529174805,
          -0.08896301686763763,
          -0.20338544249534607,
          -0.009771794080734253,
          0.1771264672279358,
          -0.08391153067350388,
          -0.11154376715421677,
          0.028686121106147766,
          -0.03018389642238617,
          0.009722739458084106,
          0.11969330906867981,
          0.05859321355819702,
          -0.15229278802871704,
          0.10108152031898499,
          0.057705819606781006,
          -0.00702396035194397
        ],
        [
          -0.19183598458766937,
          0.06347319483757019,
          -0.1786421239376068,
          -0.03681381046772003,
          -0.17311622202396393,
          -0.08743229508399963,
          0.1765058934688568,
          0.10337555408477783,
          0.1808004081249237,
          0.12598589062690735,
          0.008562907576560974,
          0.035959213972091675,
          0.08023250102996826,
          -0.016449972987174988,
          -0.15962719917297363,
          -0.061289846897125244
        ],
        [
          -0.02913995087146759,
          0.07792523503303528,
          -0.11254431307315826,
          0.13310301303863525,
          0.0037838518619537354,
          0.03676027059555054,
          0.00011524558067321777,
          -0.0587211549282074,
          -0.12127429246902466,
          -0.14442430436611176,
          -0.19694173336029053,
          -0.08526194095611572,
          -0.14844974875450134,
          0.14184287190437317,
          0.06544482707977295,
          0.18466168642044067
        ],
        [
          0.13571655750274658,
          0.12456139922142029,
          -0.09469511359930038,
          0.1723053753376007,
          -0.19474169611930847,
          -0.012606069445610046,
          0.17529240250587463,
          -0.09378114342689514,
          -0.1740194857120514,
          -0.1674572229385376,
          -0.17258790135383606,
          0.11449572443962097,
          0.1419992446899414,
          -0.172469824552536,
          0.09291696548461914,
          -0.04503259062767029
        ],
        [
          -0.18280820548534393,
          0.14919573068618774,
          -0.18073411285877228,
          0.1652522087097168,
          -0.021751418709754944,
          0.16621407866477966,
          0.012707829475402832,
          -0.1780102252960205,
          0.18086040019989014,
          0.18235516548156738,
          0.10210350155830383,
          -0.07850803434848785,
          -0.061666861176490784,
          -0.044437870383262634,
          0.05385202169418335,
          -0.019349411129951477
        ],
        [
          0.11911937594413757,
          0.03820888698101044,
          -0.03402167558670044,
          0.044942259788513184,
          0.001460060477256775,
          -0.08164232969284058,
          -0.072786346077919,
          0.08021146059036255,
          -0.20315125584602356,
          0.06955146789550781,
          0.12068703770637512,
          0.14313089847564697,
          0.16324499249458313,
          0.10585430264472961,
          -0.13864178955554962,
          0.011316433548927307
        ],
        [
          0.14751991629600525,
          0.09711712598800659,
          0.06636711955070496,
          -0.14113548398017883,
          0.13959458470344543,
          0.07665011286735535,
          0.02845253050327301,
          0.03958810865879059,
          0.11676627397537231,
          0.05086970329284668,
          -0.19146406650543213,
          -0.18445490300655365,
          -0.07185861468315125,
          0.20175352692604065,
          -0.010053575038909912,
          0.0639137327671051
        ],
        [
          0.021981030702590942,
          0.19749239087104797,
          0.1366107165813446,
          0.11393111944198608,
          -0.13167321681976318,
          -0.09411592781543732,
          -0.010143756866455078,
          -0.09133411943912506,
          -0.1390874832868576,
          -0.16464583575725555,
          0.0780981183052063,
          0.00445769727230072,
          -0.1942736655473709,
          0.07858017086982727,
          -0.025953665375709534,
          -0.19881512224674225
        ],
        [
          -0.04043082892894745,
          0.03444060683250427,
          0.16395723819732666,
          0.16141000390052795,
          0.18935975432395935,
          -0.13899759948253632,
          0.0066223591566085815,
          0.16639608144760132,
          -0.09909626096487045,
          0.2008775770664215,
          0.12009766697883606,
          0.060373932123184204,
          -0.12505611777305603,
          0.08679690957069397,
          0.10656183958053589,
          0.03485013544559479
        ],
        [
          0.1810702085494995,
          -0.20410142838954926,
          -0.16696500778198242,
          -0.1007395014166832,
          -0.19474320113658905,
          0.17483162879943848,
          0.11669337749481201,
          0.1834779679775238,
          -0.03823395073413849,
          0.1369495987892151,
          -0.19000323116779327,
          0.062469542026519775,
          -0.17630819976329803,
          0.13280311226844788,
          -0.11273552477359772,
          -0.16098222136497498
        ],
        [
          0.05239638686180115,
          0.19521990418434143,
          -0.14487433433532715,
          -0.061068758368492126,
          -0.034777238965034485,
          -0.08018241822719574,
          0.08222702145576477,
          0.16662809252738953,
          0.05395174026489258,
          0.08636552095413208,
          0.060968607664108276,
          -0.0985582023859024,
          -0.16249537467956543,
          0.0088721364736557,
          0.07399147748947144,
          0.1682964265346527
        ],
        [
          0.07815602421760559,
          0.10306710004806519,
          0.17053532600402832,
          -0.08437415957450867,
          0.15730807185173035,
          0.07922554016113281,
          -0.16058996319770813,
          0.07822158932685852,
          0.09442850947380066,
          0.17635121941566467,
          -0.1633288562297821,
          0.1001756489276886,
          0.19512367248535156,
          0.1349903643131256,
          -0.08050940930843353,
          -0.1584630310535431
        ],
        [
          0.0603046715259552,
          0.14316827058792114,
          0.07946264743804932,
          0.05427229404449463,
          -0.013540282845497131,
          -0.06557765603065491,
          0.13382920622825623,
          0.017356351017951965,
          -0.1304020881652832,
          0.15107065439224243,
          -0.18593038618564606,
          0.1613520383834839,
          -0.15230213105678558,
          -0.021741971373558044,
          -0.03698009252548218,
          0.04577426612377167
        ],
        [
          -0.08339142054319382,
          0.1279696226119995,
          -0.007024496793746948,
          0.13984811305999756,
          0.07427200675010681,
          0.1544540524482727,
          -0.025330737233161926,
          0.20028942823410034,
          0.17328494787216187,
          0.07547584176063538,
          0.033575356006622314,
          0.14776962995529175,
          0.0983535647392273,
          -0.1712256520986557,
          0.08354610204696655,
          0.031565696001052856
        ],
        [
          0.03494781255722046,
          0.047097235918045044,
          -0.010361149907112122,
          -0.14613159000873566,
          0.08892178535461426,
          -0.05328315496444702,
          0.009048804640769958,
          0.15964728593826294,
          0.15601181983947754,
          -0.060679271817207336,
          -0.14479359984397888,
          0.1297089159488678,
          -0.01750469207763672,
          0.10899284482002258,
          -0.14514151215553284,
          0.16467946767807007
        ],
        [
          -0.09392101317644119,
          0.07540974020957947,
          0.11528009176254272,
          0.00033590197563171387,
          -0.19001184403896332,
          -0.14645864069461823,
          -0.13095912337303162,
          0.07417711615562439,
          0.04684191942214966,
          0.15968000888824463,
          -0.07220759987831116,
          0.13449162244796753,
          0.0693615972995758,
          -0.03332433104515076,
          -0.11301993578672409,
          -0.14351584017276764
        ],
        [
          -0.11705949157476425,
          -0.17158934473991394,
          -0.1363045573234558,
          -0.18885619938373566,
          -0.07378582656383514,
          -0.033122748136520386,
          0.10127195715904236,
          -0.10005096346139908,
          0.034729450941085815,
          0.06556791067123413,
          0.15953579545021057,
          0.048778235912323,
          -0.1708344668149948,
          -0.2007753700017929,
          0.04819527268409729,
          0.03256760537624359
        ],
        [
          0.07883620262145996,
          -0.005975767970085144,
          0.11494934558868408,
          -0.18170852959156036,
          0.07861495018005371,
          -0.19564369320869446,
          -0.09436393529176712,
          0.1928793489933014,
          -0.003428056836128235,
          0.17025554180145264,
          0.10281482338905334,
          -0.1097341850399971,
          0.18065524101257324,
          -0.1303674876689911,
          -0.18967725336551666,
          0.025956928730010986
        ],
        [
          0.14948368072509766,
          -0.006789088249206543,
          0.12987565994262695,
          -0.197093665599823,
          -0.014986708760261536,
          -0.04702754318714142,
          0.12450027465820312,
          0.19322171807289124,
          -0.0863565057516098,
          -0.0284917950630188,
          -0.1580606997013092,
          -0.14490464329719543,
          -0.02976711094379425,
          -0.047387540340423584,
          0.012331441044807434,
          -0.03895588219165802
        ],
        [
          -0.0032267719507217407,
          -0.16031000018119812,
          -0.15996012091636658,
          -0.13693134486675262,
          -0.16675300896167755,
          -0.11732278019189835,
          -0.008453309535980225,
          0.1512821614742279,
          0.1481623649597168,
          -0.07512304186820984,
          0.12781977653503418,
          0.16328981518745422,
          -0.007518857717514038,
          0.09087908267974854,
          0.13775980472564697,
          0.1529940664768219
        ],
        [
          -0.08367247879505157,
          -0.20207007229328156,
          0.0006279051303863525,
          -0.19614334404468536,
          -0.06451933085918427,
          0.19196951389312744,
          0.13206201791763306,
          -0.15008315443992615,
          0.016501322388648987,
          -0.1337558627128601,
          -0.07592172920703888,
          -0.044504061341285706,
          0.1701377034187317,
          -0.19512255489826202,
          -0.14727546274662018,
          0.1311764121055603
        ],
        [
          -0.15633507072925568,
          0.09056425094604492,
          -0.03865210711956024,
          0.030696555972099304,
          0.05945703387260437,
          -0.02917848527431488,
          0.18492940068244934,
          -0.14426171779632568,
          0.003120720386505127,
          0.10011973977088928,
          0.14614945650100708,
          0.013080373406410217,
          -0.05663864314556122,
          0.1630234718322754,
          0.19430261850357056,
          0.05745220184326172
        ],
        [
          -0.05146495997905731,
          0.007082268595695496,
          0.052309900522232056,
          0.1801496148109436,
          -0.20234133303165436,
          -0.13587400317192078,
          -0.10954219102859497,
          -0.19276854395866394,
          0.05550426244735718,
          -0.11806855350732803,
          -0.0873599722981453,
          0.014528214931488037,
          0.10747399926185608,
          0.06850600242614746,
          0.09479737281799316,
          -0.06515391170978546
        ],
        [
          -0.01601250469684601,
          -0.02807953953742981,
          0.20222225785255432,
          0.14106619358062744,
          0.0992155373096466,
          -0.1481049358844757,
          -0.13648760318756104,
          -0.11455951631069183,
          0.08202758431434631,
          0.02889569103717804,
          -0.2032993882894516,
          0.12754178047180176,
          -0.04017879068851471,
          0.1779487431049347,
          0.0978621244430542,
          -0.19269543886184692
        ],
        [
          -0.07697521150112152,
          -0.021396934986114502,
          -0.10128126293420792,
          0.020068466663360596,
          0.12168845534324646,
          -0.17529787123203278,
          -0.18063031136989594,
          -0.19025294482707977,
          -0.12519456446170807,
          0.11029911041259766,
          0.045992106199264526,
          -0.10161818563938141,
          0.0614568293094635,
          0.015954211354255676,
          0.19623249769210815,
          -0.0544736385345459
        ],
        [
          0.1463514268398285,
          -0.14669203758239746,
          0.05762141942977905,
          0.19201448559761047,
          -0.09337204694747925,
          -0.1929960548877716,
          -0.14082051813602448,
          -0.013601645827293396,
          0.13096657395362854,
          0.13602063059806824,
          -0.1532205194234848,
          -0.11233879625797272,
          0.15510275959968567,
          -0.007504105567932129,
          -0.05893605947494507,
          0.15016403794288635
        ],
        [
          -0.08528189361095428,
          -0.13446222245693207,
          -0.038412079215049744,
          -0.15956470370292664,
          -0.2007182389497757,
          -0.039791494607925415,
          0.1529192328453064,
          -0.18162427842617035,
          -0.06274494528770447,
          0.10603880882263184,
          0.03440070152282715,
          0.07806077599525452,
          -0.17584706842899323,
          0.20034193992614746,
          -0.060270413756370544,
          -0.14357531070709229
        ],
        [
          0.021667376160621643,
          -0.08097326010465622,
          0.03900235891342163,
          0.1268959641456604,
          0.023316115140914917,
          -0.011085167527198792,
          0.05234980583190918,
          -0.05019523203372955,
          0.006647765636444092,
          -0.19226250052452087,
          -0.1371169090270996,
          0.09750109910964966,
          -0.06958635151386261,
          0.026650339365005493,
          0.09893611073493958,
          -0.15488523244857788
        ],
        [
          -0.03739751875400543,
          -0.023452281951904297,
          0.13700303435325623,
          -0.1723230928182602,
          0.06518492102622986,
          -0.15583302080631256,
          -0.010434985160827637,
          0.09272536635398865,
          -0.0063130855560302734,
          -0.15443584322929382,
          0.108661949634552,
          -0.1814246028661728,
          -0.1172599047422409,
          0.013701260089874268,
          -0.16856561601161957,
          0.004789024591445923
        ],
        [
          -0.13624641299247742,
          0.05520671606063843,
          0.08006581664085388,
          0.1494995355606079,
          0.07118570804595947,
          0.06199774146080017,
          -0.09431487321853638,
          -0.11475126445293427,
          0.14738723635673523,
          -0.08259635418653488,
          0.08429622650146484,
          -0.03214274346828461,
          -0.08682147413492203,
          0.1025940477848053,
          -0.013720482587814331,
          -0.1402362585067749
        ],
        [
          0.0029066801071166992,
          0.057104289531707764,
          -0.11605534702539444,
          0.16864848136901855,
          -0.0038368552923202515,
          -0.09578622132539749,
          -0.010029345750808716,
          -0.10900972783565521,
          0.07757371664047241,
          -0.12040963023900986,
          -0.12095391750335693,
          -0.14633527398109436,
          -0.06939752399921417,
          -0.1522727906703949,
          0.06084683537483215,
          -0.08159220218658447
        ],
        [
          -0.006157934665679932,
          0.14503532648086548,
          0.17738431692123413,
          -0.07705312967300415,
          -0.01994737982749939,
          0.10162875056266785,
          -0.0750468373298645,
          -0.031153634190559387,
          -0.19605356454849243,
          -0.08143476396799088,
          0.0689058005809784,
          -0.14758872985839844,
          0.002089470624923706,
          0.14941227436065674,
          -0.046358659863471985,
          0.08267194032669067
        ],
        [
          0.06948244571685791,
          -0.05965186655521393,
          -0.10677085071802139,
          0.15760448575019836,
          -0.09111745655536652,
          0.15793153643608093,
          0.14294323325157166,
          -0.10971350222826004,
          0.07392546534538269,
          0.06916484236717224,
          -0.004987448453903198,
          -0.08952852338552475,
          0.16327843070030212,
          -0.03867478668689728,
          -0.0746823251247406,
          -0.18561415374279022
        ],
        [
          -0.03657791018486023,
          -0.012002497911453247,
          -0.055241167545318604,
          0.17706507444381714,
          0.018974915146827698,
          0.01791548728942871,
          -0.10894310474395752,
          -0.1784529983997345,
          -0.14070181548595428,
          0.17551851272583008,
          -0.1505531370639801,
          0.013059929013252258,
          0.057926028966903687,
          0.1251210868358612,
          0.0567648708820343,
          0.09674826264381409
        ],
        [
          -0.0042950063943862915,
          -0.09190619736909866,
          0.0839720070362091,
          0.016269326210021973,
          0.026322662830352783,
          -0.1224939376115799,
          0.06379172205924988,
          -0.16160151362419128,
          -0.18401193618774414,
          -0.14991900324821472,
          0.037354111671447754,
          -0.18756642937660217,
          0.16235634684562683,
          -0.1750747710466385,
          0.06375229358673096,
          0.14784866571426392
        ],
        [
          -0.06253337860107422,
          0.15397632122039795,
          -0.014340117573738098,
          -0.1998784989118576,
          -0.0739453136920929,
          -0.10064752399921417,
          0.18728521466255188,
          -0.06124059855937958,
          0.16321274638175964,
          -0.09591762721538544,
          -0.03401866555213928,
          0.06306439638137817,
          0.019931912422180176,
          -0.09621157497167587,
          0.0755382776260376,
          0.17710191011428833
        ],
        [
          -0.07352662086486816,
          -0.11096769571304321,
          -0.05535559356212616,
          0.15940526127815247,
          0.15581023693084717,
          -0.049719080328941345,
          0.018738791346549988,
          -0.08417525142431259,
          0.05267333984375,
          -0.09572276473045349,
          0.10893827676773071,
          0.14019280672073364,
          -0.08574135601520538,
          -0.07153463363647461,
          -0.04495856165885925,
          0.01777474582195282
        ],
        [
          0.07893741130828857,
          0.09773513674736023,
          0.05046051740646362,
          0.06748560070991516,
          0.17172202467918396,
          0.048190534114837646,
          -0.15541520714759827,
          -0.04803121089935303,
          0.18837600946426392,
          0.09965413808822632,
          -0.07692879438400269,
          0.12430387735366821,
          0.17632102966308594,
          -0.012138858437538147,
          0.019042909145355225,
          -0.13398510217666626
        ],
        [
          -0.0361655056476593,
          0.036749467253685,
          0.18391361832618713,
          -0.10932674258947372,
          -0.18225686252117157,
          -0.033610835671424866,
