{
  "input_features": [
    "queue_len",
    "io_type",
    "size",
    "prev_queue_len_1",
    "prev_queue_len_2",
    "prev_queue_len_3",
    "prev_latency_1",
    "prev_latency_2",
    "prev_latency_3",
    "prev_throughput_1",
    "prev_throughput_2",
    "prev_throughput_3"
  ],
  "scaler_min": [
    1.0,
    0.0,
    512.0,
    1.0,
    1.0,
    1.0,
    16.0,
    16.0,
    16.0,
    2.0,
    2.0,
    2.0
  ],
  "scaler_scale": [
    9.0,
    1.0,
    523776.0,
    9.0,
    9.0,
    9.0,
    1030.0,
    1030.0,
    1030.0,
    5319.0,
    5319.0,
    5319.0
  ],
  "layers": [
    {
      "name": "dense_1",
      "weights": [
        [
          -0.10111383348703384,
          -0.0013357102870941162,
          0.02395331859588623,
          0.11173741519451141,
          -0.050928473472595215,
          0.13635002076625824,
          0.06935553252696991,
          -0.02731439471244812,
          0.05377097427845001,
          0.02622780203819275,
          0.14748890697956085,
          0.04234267771244049,
          -0.10471869260072708,
          -0.013507872819900513,
          0.0627833753824234,
          0.054850175976753235,
          0.12728600203990936,
          -0.19368134438991547,
          -0.20214331150054932,
          0.10874398052692413,
          -0.07637637853622437,
          0.1587352603673935,
          -0.0329427570104599,
          0.19917742908000946,
          -0.007871955633163452,
          0.15929363667964935,
          -0.02369581162929535,
          0.08995507657527924,
          -0.01972639560699463,
          -0.09679457545280457,
          -0.1633354127407074,
          0.11972622573375702,
          0.17281381785869598,
          -0.07144099473953247,
          -0.010792270302772522,
          0.09592647850513458,
          -0.15030863881111145,
          -0.020514532923698425,
          0.13620434701442719,
          -0.08271697163581848,
          -0.19838263094425201,
          -0.03813496232032776,
          -0.05270498991012573,
          0.009737655520439148,
          -0.010461047291755676,
          -0.16647711396217346,
          -0.04305322468280792,
          -0.09915883839130402,
          -0.030590742826461792,
          -0.20641252398490906,
          0.04547680914402008,
          -0.11386431753635406,
          0.19694237411022186,
          -0.14232251048088074,
          -0.08935079723596573,
          0.18192221224308014,
          0.18465180695056915,
          0.07459555566310883,
          0.09502442181110382,
          0.12314663827419281,
          0.08240650594234467,
          -0.10407710075378418,
          -0.17136837542057037,
          -0.15697385370731354,
          0.03913700580596924,
          0.09598253667354584,
          -0.015759646892547607,
          0.13195426762104034,
          -0.10096077620983124,
          0.15666557848453522,
          -0.17593900859355927,
          0.017257049679756165,
          0.1700187474489212,
          0.18010516464710236,
          0.13915447890758514,
          0.06583867967128754,
          -0.0878400206565857,
          0.20204515755176544,
          -0.007224231958389282,
          0.06688235700130463,
          -0.01602746546268463,
          -0.14560453593730927,
          0.17689906060695648,
          0.10490132868289948,
          0.13550443947315216,
          0.04976414144039154,
          0.19074402749538422,
          -0.07078509032726288,
          -0.042240843176841736,
          0.06993065774440765,
          -0.19327212870121002,
          -0.025535166263580322,
          -0.1875220388174057,
          0.05965842306613922,
          -0.1756867915391922,
          0.18069307506084442,
          -0.1679629683494568,
          -0.0817938894033432,
          -0.048287615180015564,
          -0.02720463275909424,
          -0.059629783034324646,
          0.1634947508573532,
          0.12070290744304657,
          -0.14306673407554626,
          -0.058049604296684265,
          0.12250672280788422,
          -0.05679355561733246,
          0.10563482344150543,
          0.12039385735988617,
          0.16758327186107635,
          -0.027725547552108765,
          -0.047665610909461975,
          0.04843868315219879,
          0.17579640448093414,
          0.14064909517765045,
          -0.08159217238426208,
          0.07747338712215424,
          0.08561854064464569,
          -0.17938578128814697,
          0.028088465332984924,
          0.08663134276866913,
          -0.03045816719532013,
          0.1916944533586502,
          0.027929246425628662,
          -0.02410641312599182,
          0.20013152062892914,
          0.12656475603580475,
          -0.17101754248142242
        ],
        [
          -0.021095171570777893,
          0.16128315031528473,
          0.084027960896492,
          0.14693738520145416,
          0.09729452431201935,
          0.015483886003494263,
          0.015402302145957947,
          -0.02170005440711975,
          0.1294211894273758,
          -0.04249805212020874,
          -0.11664179712533951,
          -0.047071099281311035,
          0.19977198541164398,
          0.1595030575990677,
          0.12179361283779144,
          -0.17289553582668304,
          0.07530121505260468,
          0.012500092387199402,
          0.1892005354166031,
          0.18281035125255585,
          -0.024883359670639038,
          0.18194319307804108,
          -0.15560413897037506,
          0.16993756592273712,
          0.06603114306926727,
          0.05666331946849823,
          -0.0364711731672287,
          -0.007819488644599915,
          0.0629078596830368,
          0.022694408893585205,
          0.17816464602947235,
          -0.006748676300048828,
          -0.18729332089424133,
          0.09848351776599884,
          -0.16790428757667542,
          0.16269637644290924,
          0.14504964649677277,
          -0.11669865995645523,
          0.10756523907184601,
          -0.12193562090396881,
          -0.11425581574440002,
          0.0780392438173294,
          -0.13442470133304596,
          0.14041303098201752,
          -0.12885591387748718,
          -0.11130217462778091,
          -0.13308608531951904,
          -0.10156574845314026,
          -0.03944781422615051,
          -0.1806422770023346,
          -0.11678236722946167,
          -0.20104733109474182,
          -0.14774921536445618,
          0.02690596878528595,
          -0.09365633130073547,
          -0.19964179396629333,
          -0.1221865564584732,
          0.11996592581272125,
          0.12796835601329803,
          0.16193901002407074,
          -0.15645016729831696,
          0.04282154142856598,
          -0.147388756275177,
          0.020354121923446655,
          0.06165452301502228,
          0.17361585795879364,
          0.19144411385059357,
          0.05624459683895111,
          0.10718102753162384,
          0.004109248518943787,
          0.1827964335680008,
          -0.20397160947322845,
          -0.10293980687856674,
          -0.19879955053329468,
          -0.1235596239566803,
          -0.11335509270429611,
          0.15507738292217255,
          0.18074987828731537,
          0.19282667338848114,
          0.06286357343196869,
          -0.15862001478672028,
          -0.09781483560800552,
          0.1812223345041275,
          -0.18526428937911987,
          0.11610110104084015,
          -0.16312752664089203,
          -0.07402227818965912,
          0.14751191437244415,
          -0.15683002769947052,
          0.12706227600574493,
          -0.17914506793022156,
          -0.11815973371267319,
          -0.16711905598640442,
          -0.16932813823223114,
          -0.0008659809827804565,
          0.02648712694644928,
          -0.11660542339086533,
          0.16308991611003876,
          0.03802222013473511,
          0.05412323772907257,
          0.06692005693912506,
          0.04769636690616608,
          0.18325169384479523,
          -0.09810303896665573,
          0.17374561727046967,
          -0.11215423047542572,
          -0.07718159258365631,
          0.05181403458118439,
          -0.017250001430511475,
          0.12690354883670807,
          0.15221862494945526,
          -0.02861817181110382,
          0.030589893460273743,
          -0.04634180665016174,
          -0.040811702609062195,
          -0.09997190535068512,
          -0.12872472405433655,
          -0.049471259117126465,
          0.14752428233623505,
          0.016911104321479797,
          0.09802357852458954,
          0.14641611278057098,
          -0.14183378219604492,
          0.17880256474018097,
          0.06746895611286163,
          0.026594817638397217,
          0.20627157390117645,
          -0.11269908398389816
        ],
        [
          -0.16974219679832458,
          0.12471829354763031,
          -0.09100377559661865,
          -0.07124726474285126,
          0.014939233660697937,
          -0.15018464624881744,
          0.10018704831600189,
          -0.0165947824716568,
          -0.054817646741867065,
          -0.16195198893547058,
          0.13224492967128754,
          0.04544679820537567,
          0.15740297734737396,
          0.10034675896167755,
          -0.031069263815879822,
          0.1315029114484787,
          0.13397102057933807,
          -0.10959648340940475,
          -0.01693721115589142,
          -0.17810659110546112,
          -0.1442127525806427,
          0.0838278979063034,
          -0.18418903648853302,
          -0.054030582308769226,
          -0.15935371816158295,
          0.05844436585903168,
          0.0069857388734817505,
          0.16928915679454803,
          0.1589866429567337,
          0.16470704972743988,
          -0.18513230979442596,
          -0.07075738906860352,
          0.03313007950782776,
          -0.19313110411167145,
          -0.2002844214439392,
          0.0018711388111114502,
          0.058859601616859436,
          -0.20217204093933105,
          0.010098308324813843,
          0.1930621713399887,
          -0.061528563499450684,
          -0.15335802733898163,
          -0.022389531135559082,
          0.18373940885066986,
          0.13523174822330475,
          -0.11071433126926422,
          0.2046097368001938,
          -0.16919220983982086,
          0.2019447535276413,
          -0.13191409409046173,
          0.01545649766921997,
          -0.11363480240106583,
          0.18246720731258392,
          0.10841406881809235,
          0.06656740605831146,
          -0.06867268681526184,
          0.1403706818819046,
          -0.20432312786579132,
          0.04200728237628937,
          -0.10787732154130936,
          -0.18632838129997253,
          0.08643056452274323,
          0.04294769465923309,
          -0.14584851264953613,
          0.16901056468486786,
          0.06741373240947723,
          0.17364631593227386,
          -0.032199740409851074,
          -0.03052040934562683,
          0.10017062723636627,
          -0.01953563094139099,
          0.05778835713863373,
          -0.10565219074487686,
          -0.132938951253891,
          -0.07683376967906952,
          0.01310969889163971,
          0.06220148503780365,
          0.02208089828491211,
          -0.11747292429208755,
          0.11237393319606781,
          0.06747685372829437,
          0.0049993544816970825,
          -0.08151023089885712,
          -0.14331528544425964,
          0.19366230070590973,
          -0.0869261622428894,
          -0.16902543604373932,
          0.17487068474292755,
          0.11290721595287323,
          -0.0734795480966568,
          0.18781493604183197,
          0.15326480567455292,
          0.03444075584411621,
          -0.03368045389652252,
          0.019670382142066956,
          0.18026988208293915,
          -0.08371349424123764,
          0.0933687835931778,
          0.101690873503685,
          -0.20537430047988892,
          0.15727345645427704,
          0.04763363301753998,
          -0.09581848233938217,
          0.16706277430057526,
          0.06780265271663666,
          0.14828245341777802,
          0.1464173048734665,
          -0.18231894075870514,
          -0.01759377121925354,
          0.01884309947490692,
          0.2044878453016281,
          -0.0980335921049118,
          -0.1760450303554535,
          -0.09618989378213882,
          0.11796759068965912,
          -0.18064597249031067,
          -0.007759958505630493,
          -0.20634707808494568,
          0.10159985721111298,
          -0.05850502848625183,
          -0.08593497425317764,
          0.08108557760715485,
          0.03566130995750427,
          0.07519443333148956,
          0.13981525599956512,
          -0.08493499457836151,
          0.14499719440937042,
          -0.15041425824165344
        ],
        [
          0.1036687046289444,
          -0.17414486408233643,
          0.09722308814525604,
          0.09485705196857452,
          -0.08117267489433289,
          -0.15224315226078033,
          0.05681030452251434,
          0.06883098185062408,
          -0.10590929538011551,
          -0.1381579488515854,
          -0.20605966448783875,
          0.015400037169456482,
          0.05781729519367218,
          -0.12923863530158997,
          0.12929974496364594,
          0.04320986568927765,
          -0.1349678337574005,
          -0.12713517248630524,
          -0.14893126487731934,
          -0.10311196744441986,
          -0.08142909407615662,
          -0.1584506630897522,
          -0.10722605139017105,
          -0.16397953033447266,
          0.03631426393985748,
          -0.09026602655649185,
          -0.0904533863067627,
          0.09778635203838348,
          -0.1334579437971115,
          -0.1740417182445526,
          -0.13666078448295593,
          -0.010926634073257446,
          0.1532471626996994,
          -0.13644316792488098,
          -0.070564404129982,
          0.10471327602863312,
          -0.09141003340482712,
          0.08444313704967499,
          -0.016462251543998718,
          0.05644772946834564,
          0.15922902524471283,
          -0.09807658195495605,
          0.058700963854789734,
          -0.19383791089057922,
          -0.15855614840984344,
          -0.0560368150472641,
          -0.06853464245796204,
          -0.2038542926311493,
          -0.15192246437072754,
          0.17272846400737762,
          0.02735300362110138,
          -0.1895793080329895,
          -0.14898249506950378,
          -0.1712617576122284,
          0.01491592824459076,
          0.0027929842472076416,
          0.039970412850379944,
          0.04189850389957428,
          0.1863723248243332,
          -0.19579684734344482,
          0.06174845993518829,
          0.1578289121389389,
          0.03403104841709137,
          -0.1883910745382309,
          -0.007256612181663513,
          0.05861751735210419,
          0.13374711573123932,
          0.15004192292690277,
          0.026392459869384766,
          0.08203499019145966,
          -0.1881466656923294,
          -0.18060633540153503,
          0.05042518675327301,
          0.20424030721187592,
          -0.055484697222709656,
          0.20049689710140228,
          0.11712910234928131,
          0.13995809853076935,
          0.14227859675884247,
          -0.09612706303596497,
          0.025655552744865417,
          -0.0721052885055542,
          -0.1707347333431244,
          0.14661429822444916,
          -0.18444985151290894,
          0.16941259801387787,
          -0.07844677567481995,
          -0.12443379312753677,
          -0.03840692341327667,
          -0.009640321135520935,
          0.06868617236614227,
          0.11205334961414337,
          0.00513380765914917,
          0.019334599375724792,
          -0.0981694683432579,
          0.031439393758773804,
          -0.0993412658572197,
          -0.16810822486877441,
          -0.08129952847957611,
          -0.07307146489620209,
          0.1851801723241806,
          -0.18166771531105042,
          -0.20689988136291504,
          0.14310665428638458,
          0.20032058656215668,
          -0.14944034814834595,
          -0.05452421307563782,
          -0.040664613246917725,
          0.07128216326236725,
          0.05946438014507294,
          0.11336974799633026,
          0.013829872012138367,
          0.16477690637111664,
          0.08050473034381866,
          0.1154828816652298,
          -0.06230786442756653,
          0.14555706083774567,
          0.08031128346920013,
          -0.1692325323820114,
          0.17736490070819855,
          0.1694546490907669,
          -0.10215937346220016,
          -0.1259872168302536,
          0.0612473338842392,
          0.10907052457332611,
          -0.12588687241077423,
          0.1743452101945877,
          0.1246054619550705
        ],
        [
          0.1058851033449173,
          0.11333198845386505,
          -0.017329707741737366,
          0.06658466160297394,
          -0.006035909056663513,
          0.007613375782966614,
          0.15215720236301422,
          -0.12319432944059372,
          -0.0946030542254448,
          -0.1324734091758728,
          -0.09479925036430359,
          0.1626984030008316,
          0.06242223083972931,
          -0.01373821496963501,
          0.10200844705104828,
          -0.05492168664932251,
          -0.19317938387393951,
          -0.19644244015216827,
          -0.0813589096069336,
          -0.035460084676742554,
          0.06335680186748505,
          -0.11756043881177902,
          0.16616986691951752,
          -0.007204696536064148,
          -0.130311518907547,
          -0.18979880213737488,
          0.08945612609386444,
          0.190602645277977,
          0.06022019684314728,
          -0.018378987908363342,
          0.1273667961359024,
          0.0692458301782608,
          0.19746197760105133,
          -0.16307294368743896,
          0.05091674625873566,
          0.055059924721717834,
          -0.12419065833091736,
          -0.054009467363357544,
          0.08714042603969574,
          0.05928577482700348,
          0.10265041887760162,
          0.1838434487581253,
          -0.03910912573337555,
          0.06358622014522552,
          0.10252563655376434,
          -0.17883455753326416,
          -0.0004588812589645386,
          0.1009320467710495,
          -0.1424979269504547,
          -0.035747841000556946,
          0.07376779615879059,
          0.012601181864738464,
          -0.2057545930147171,
          0.20358790457248688,
          -0.1800246685743332,
          -0.14372822642326355,
          -0.10969910025596619,
          0.19661732017993927,
          -0.012819230556488037,
          -0.10746893286705017,
          0.10500575602054596,
          0.06849296391010284,
          0.13755179941654205,
          -0.06828996539115906,
          0.09158031642436981,
          -0.006592109799385071,
          0.20089788734912872,
          -0.044660940766334534,
          -0.10034642368555069,
          0.11865799129009247,
          -0.10916860401630402,
          0.032417550683021545,
          0.20671026408672333,
          -0.06038030982017517,
          0.1531723588705063,
          -0.13868162035942078,
          -0.048647478222846985,
          -0.08106809854507446,
          -0.005307301878929138,
          0.05802951753139496,
          0.1965264528989792,
          -0.15865683555603027,
          0.050544217228889465,
          -0.09840825945138931,
          -0.15981119871139526,
          0.06762178242206573,
          -0.020268484950065613,
          0.03944525122642517,
          -0.04394012689590454,
          0.196141317486763,
          0.0020476430654525757,
          0.047656044363975525,
          0.07041667401790619,
          -0.16135233640670776,
          -0.16070975363254547,
          -0.1440947949886322,
          -0.004091963171958923,
          -0.08532866835594177,
          -0.10023808479309082,
          0.1820954531431198,
          -0.1328742504119873,
          -0.0013385266065597534,
          0.11608029901981354,
          0.19437189400196075,
          -0.19840779900550842,
          -0.18270382285118103,
          -0.10843031853437424,
          0.17332886159420013,
          0.10881723463535309,
          0.05166144669055939,
          0.17569206655025482,
          0.12284280359745026,
          0.006656080484390259,
          0.14154769480228424,
          -0.11915300041437149,
          -0.15067614614963531,
          -0.1288813352584839,
          -0.02201727032661438,
          0.02246341109275818,
          -0.07485271990299225,
          0.1693434864282608,
          -0.03648464381694794,
          -0.10489001870155334,
          -0.08028636872768402,
          -0.0641690343618393,
          -0.20253486931324005,
          0.17668993771076202,
          -0.05827285349369049
        ],
        [
          -0.05794729292392731,
          0.15553025901317596,
          0.1509631723165512,
          0.039825305342674255,
          0.02414517104625702,
          0.08314751088619232,
          -0.10092124342918396,
          0.1556159406900406,
          -0.08651699125766754,
          -0.19116021692752838,
          0.06876973807811737,
          -0.182037353515625,
          -0.18614190816879272,
          -0.0337015837430954,
          0.19465111196041107,
          0.15835319459438324,
          0.009428828954696655,
          0.14414305984973907,
          -0.16364803910255432,
          -0.09640810638666153,
          0.13522376120090485,
          -0.18951740860939026,
          -0.13502237200737,
          -0.07172198593616486,
          0.20234982669353485,
          0.0463683158159256,
          -0.06422050297260284,
          -0.02417004108428955,
          -0.02878624200820923,
          -0.01660054922103882,
          -0.008449479937553406,
          -0.17212152481079102,
          0.1445821076631546,
          -0.09816902875900269,
          -0.027638182044029236,
          -0.12227741628885269,
          0.15114115178585052,
          -0.08954866975545883,
          0.16556231677532196,
          0.035546258091926575,
          -0.09350204467773438,
          -0.04271063208580017,
          0.07458578050136566,
          0.0433245450258255,
          0.08177830278873444,
          0.12915067374706268,
          0.08217443525791168,
          0.0729784220457077,
          -0.10131886601448059,
          -0.12304019182920456,
          -0.1067187562584877,
          -0.1581726372241974,
          -0.042223721742630005,
          -0.016645804047584534,
          -0.20223882794380188,
          -0.1582217961549759,
          -0.16033044457435608,
          0.029959410429000854,
          -0.07157529890537262,
          -0.15578848123550415,
          -0.14463037252426147,
          0.03377892076969147,
          0.1636078804731369,
          0.008549869060516357,
          -0.1510883867740631,
          0.11043502390384674,
          0.1428815871477127,
          -0.0745190680027008,
          0.1841881424188614,
          -0.08496218919754028,
          -0.11966365575790405,
          0.11443518102169037,
          0.039035484194755554,
          0.1659730225801468,
          -0.029244467616081238,
          -0.009509876370429993,
          -0.17909398674964905,
          0.1578930765390396,
          0.04392300546169281,
          0.021191775798797607,
          0.06472913920879364,
          0.08516208827495575,
          0.17832203209400177,
          -0.1898958384990692,
          -0.12223941832780838,
          0.17197616398334503,
          -0.004125535488128662,
          -0.004294335842132568,
          0.021767571568489075,
          -0.15654459595680237,
          -0.07327194511890411,
          -0.18722787499427795,
          -0.054734572768211365,
          0.17442412674427032,
          -0.13677485287189484,
          0.05561758577823639,
          -0.030631020665168762,
          -0.03292030096054077,
          -0.1352599859237671,
          -0.07882781326770782,
          0.11827968060970306,
          0.15832222998142242,
          0.056670352816581726,
          -0.06377777457237244,
          -0.17312726378440857,
          0.1749892383813858,
          -0.07256397604942322,
          -0.13753846287727356,
          0.029851123690605164,
          0.04572834074497223,
          0.19978414475917816,
          -0.05880783498287201,
          -0.18677403032779694,
          0.17369551956653595,
          0.036217570304870605,
          -0.1199226826429367,
          -0.041529059410095215,
          -0.04273037612438202,
          0.20015980303287506,
          -0.008138328790664673,
          0.06915722787380219,
          -0.08777762949466705,
          -0.1775202751159668,
          0.09639330208301544,
          0.034647271037101746,
          0.020246386528015137,
          0.17456920444965363,
          0.1575234979391098
        ],
        [
          -0.08858837187290192,
          -0.027109071612358093,
          0.16425751149654388,
          0.1630231887102127,
          -0.1877356618642807,
          -0.034662023186683655,
          0.037123724818229675,
          -0.10897048562765121,
          0.10556827485561371,
          -0.13017311692237854,
          -0.15179240703582764,
          0.19939272105693817,
          0.19019238650798798,
          0.14068908989429474,
          -0.18485501408576965,
          0.01565195620059967,
          0.06814314424991608,
          -0.17232076823711395,
          -0.12921518087387085,
          -0.06925688683986664,
          0.09686298668384552,
          0.1506810337305069,
          0.09896175563335419,
          -0.16433149576187134,
          -0.013329535722732544,
          0.04681093990802765,
          -0.20309694111347198,
          0.18791942298412323,
          0.19221384823322296,
          0.1319608837366104,
          -0.13027489185333252,
          0.15766306221485138,
          0.17809681594371796,
          -0.1132502630352974,
          0.1275119036436081,
          -0.01986554265022278,
          0.10354582965373993,
          0.17323265969753265,
          0.11388055980205536,
          0.13710130751132965,
          -0.09238819777965546,
          -0.08053158223628998,
          -0.16898199915885925,
          0.06017230451107025,
          -0.10992012172937393,
          -0.02135084569454193,
          0.1401522308588028,
          0.15043143928050995,
          0.03215235471725464,
          0.11348225176334381,
          -0.0747288316488266,
          0.015319779515266418,
          0.09068091213703156,
          0.09233532845973969,
          0.0776963084936142,
          -0.1123582273721695,
          0.09804914891719818,
          -0.11436223238706589,
          0.06698428094387054,
          0.021258249878883362,
          -0.01322317123413086,
          -0.040572524070739746,
          0.18331335484981537,
          0.14522309601306915,
          0.01566094160079956,
          -0.0008913427591323853,
          -0.062350302934646606,
          0.1804463118314743,
          -0.1807996779680252,
          -0.1455010324716568,
          0.0033286064863204956,
          -0.02428656816482544,
          -0.11650562286376953,
          0.05519641935825348,
          0.01567336916923523,
          0.11862893402576447,
          0.1539643257856369,
          -0.045742303133010864,
          0.0015089958906173706,
          -0.1351521909236908,
          0.16374869644641876,
          0.07815910875797272,
          0.07108409702777863,
          -0.152898907661438,
          0.010147079825401306,
          0.05315662920475006,
          -0.12189958989620209,
          0.09339843690395355,
          0.165253147482872,
          0.1200983077287674,
          0.0927734225988388,
          -0.08252689987421036,
          0.10093601047992706,
          -0.056451261043548584,
          0.1435752660036087,
          -0.011799752712249756,
          0.034094616770744324,
          0.07942153513431549,
          0.042523905634880066,
          0.17070387303829193,
          -0.03092522919178009,
          0.1111372858285904,
          -0.1612478494644165,
          -0.023248150944709778,
          -0.09217393398284912,
          0.03847508132457733,
          -0.1646045446395874,
          0.14269517362117767,
          -0.08890796452760696,
          0.0340743362903595,
          -0.08977576345205307,
          -0.1953497678041458,
          0.15196023881435394,
          0.1331038624048233,
          -0.032184988260269165,
          -0.17011627554893494,
          0.1843608170747757,
          -0.15528637170791626,
          0.12925125658512115,
          -0.12806546688079834,
          0.08080403506755829,
          0.035268038511276245,
          0.11973275244235992,
          0.0415797084569931,
          0.11623509228229523,
          0.027827128767967224,
          0.03606501221656799,
          -0.16615979373455048
        ],
        [
          -0.10347780585289001,
          0.1533413976430893,
          0.05456261336803436,
          0.11357788741588593,
          -0.10731898993253708,
          0.03194159269332886,
          0.19054661691188812,
          0.15150205790996552,
          0.03560534119606018,
          -0.07078306376934052,
          -0.003390014171600342,
          -0.01638026535511017,
          0.15910299122333527,
          -0.05957919359207153,
          0.03884480893611908,
          0.05057917535305023,
          0.09632088243961334,
          0.030046522617340088,
          0.00984559953212738,
          -0.10943641513586044,
          -0.14105930924415588,
          0.0780448466539383,
          0.12564636766910553,
          -0.02254040539264679,
          -0.12753117084503174,
          -0.17128071188926697,
          -0.057124361395835876,
          -0.014500156044960022,
          -0.1511290967464447,
          -0.037113457918167114,
          0.16103841364383698,
          -0.16259466111660004,
          0.10395549237728119,
          0.10449309647083282,
          -0.19598925113677979,
          -0.09453055262565613,
          -0.08970127999782562,
          -0.15265780687332153,
          -0.04860606789588928,
          0.14099876582622528,
          -0.11341624706983566,
          -0.06501422822475433,
          0.1312006264925003,
          -0.1640295386314392,
          0.2013276368379593,
          -0.0889090970158577,
          0.021197587251663208,
          -0.06116819381713867,
          -0.07914917171001434,
          0.19975008070468903,
          -0.008484035730361938,
          -0.031132832169532776,
          -0.040976911783218384,
          0.06074248254299164,
          -0.036253854632377625,
          0.20615936815738678,
          -0.06882095336914062,
          0.02130100131034851,
          0.18144337832927704,
          -0.07278691232204437,
          -0.07668150961399078,
          -0.14882954955101013,
          0.09902729094028473,
          0.1001414805650711,
          0.13035939633846283,
          -0.13308653235435486,
          0.1905306726694107,
          0.13255737721920013,
          0.035192668437957764,
          0.13742102682590485,
          -0.17287254333496094,
          0.030684813857078552,
          0.15145684778690338,
          -0.09772076457738876,
          0.1804705709218979,
          -0.01794193685054779,
          0.17623011767864227,
          -0.07876907289028168,
          -0.1438273787498474,
          -0.12908685207366943,
          -0.19784404337406158,
          0.06342639029026031,
          0.007296696305274963,
          0.03403715789318085,
          -0.1724509745836258,
          0.07537482678890228,
          0.03350257873535156,
          0.027404680848121643,
          0.1870434731245041,
          -0.10140825062990189,
          0.1918160766363144,
          -0.08953983336687088,
          0.11619426310062408,
          0.20072557032108307,
          0.0854739397764206,
          -0.08570412546396255,
          -0.07327698171138763,
          -0.13637840747833252,
          0.12385217845439911,
          -0.047997936606407166,
          -0.16639576852321625,
          -0.1366523951292038,
          0.16811873018741608,
          -0.06047794222831726,
          0.039636656641960144,
          -0.1516992300748825,
          -0.20569708943367004,
          0.01665528118610382,
          0.06799130141735077,
          -0.06862737238407135,
          -0.057771384716033936,
          0.2034091204404831,
          0.13111306726932526,
          0.09204591810703278,
          -0.12333983927965164,
          -0.14665140211582184,
          0.14599664509296417,
          -0.012847065925598145,
          0.04072369635105133,
          0.14648522436618805,
          0.14442302286624908,
          -0.06880778074264526,
          -0.12847700715065002,
          0.03540599346160889,
          0.15966640412807465,
          0.0964919775724411,
          -0.03031596541404724,
          -0.17869152128696442
        ],
        [
          0.11976109445095062,
          -0.13540208339691162,
          -0.10315001755952835,
          0.08162607252597809,
          -0.07516485452651978,
          -0.11810025572776794,
          -0.10410439223051071,
          0.07720468938350677,
          0.08901636302471161,
          -0.0953008234500885,
          0.11356253921985626,
          0.11211512982845306,
          0.13076622784137726,
          0.06836839020252228,
          0.09045116603374481,
          -0.012580439448356628,
          -0.18666160106658936,
          -0.1562633514404297,
          -0.1766868680715561,
          0.12942592799663544,
          0.14876843988895416,
          -0.1496235579252243,
          -0.12716616690158844,
          -0.01991163194179535,
          -0.15605506300926208,
          -0.061261340975761414,
          0.15593822300434113,
          0.07616107165813446,
          0.10847492516040802,
          -0.04422985017299652,
          -0.1777905523777008,
          0.09118659794330597,
          0.1875157207250595,
          -0.026869043707847595,
          -0.02951154112815857,
          0.019196495413780212,
          -0.15612757205963135,
          -0.1690438985824585,
          -0.1999519020318985,
          0.007305830717086792,
          0.043724969029426575,
          0.032894983887672424,
          0.02015872299671173,
          -0.18474441766738892,
          -0.1853797882795334,
          -0.08999095857143402,
          -0.040883868932724,
          0.1062244325876236,
          0.1112697571516037,
          -0.16002990305423737,
          0.008113846182823181,
          -0.10670217126607895,
          0.12454678118228912,
          0.10912616550922394,
          0.08635668456554413,
          -0.14168545603752136,
          0.02843441069126129,
          0.1674172729253769,
          0.20047275722026825,
          -0.14525187015533447,
          0.09087757766246796,
          0.20505090057849884,
          0.14533229172229767,
          -0.11850498616695404,
          0.062211617827415466,
          3.109872341156006e-05,
          -0.0998474732041359,
          0.14701412618160248,
          0.06521777808666229,
          0.169875368475914,
          0.09793747961521149,
          -0.00655953586101532,
          -0.04558451473712921,
          -0.05946049094200134,
          -0.17212235927581787,
          0.14007572829723358,
          0.14593715965747833,
          -0.19796067476272583,
          -0.10810229182243347,
          0.04321737587451935,
          0.1619885414838791,
          -0.07866661250591278,
          0.027557626366615295,
          0.20077936351299286,
          -0.1857749968767166,
          0.0425342321395874,
          -0.16333043575286865,
          -0.08369814604520798,
          -0.1932215839624405,
          0.10051222145557404,
          -0.1451271027326584,
          -0.07222981750965118,
          0.19637052714824677,
          -0.07984872162342072,
          -0.13609954714775085,
          0.02097681164741516,
          -0.038365259766578674,
          0.017822638154029846,
          -0.0062901973724365234,
          0.053923144936561584,
          0.07463870942592621,
          -0.050156235694885254,
          0.0856064110994339,
          -0.09552011638879776,
          0.1468839794397354,
          0.06889040768146515,
          -0.1826142966747284,
          -0.15319213271141052,
          0.18924130499362946,
          -0.0028696805238723755,
          0.0681014209985733,
          0.06675906479358673,
          -0.13408592343330383,
          0.11422087252140045,
          0.16952432692050934,
          -0.037211135029792786,
          -0.1074967235326767,
          -0.1658341884613037,
          0.036670178174972534,
          -0.050830110907554626,
          -0.09633683413267136,
          -0.17209038138389587,
          -0.09642454236745834,
          -0.18299736082553864,
          -0.025517985224723816,
          0.05256699025630951,
          0.006052687764167786,
          0.003833085298538208
        ],
        [
          -0.011402830481529236,
          0.002168312668800354,
          -0.012857183814048767,
          -0.014099612832069397,
          0.03214859962463379,
          -0.16524307429790497,
          -0.11669258773326874,
          0.027646973729133606,
          0.0462675541639328,
          0.04174046218395233,
          -0.12960496544837952,
          0.1441725343465805,
          -0.04776418209075928,
          0.10590331256389618,
          0.010311037302017212,
          0.15090210735797882,
          0.08947457373142242,
          -0.05765257775783539,
          -0.014859378337860107,
          0.035236746072769165,
          -0.021438509225845337,
          -0.1258348524570465,
          -0.16973978281021118,
          -0.07543967664241791,
          -0.132252037525177,
          -0.132472425699234,
          -0.10772603750228882,
          0.014075621962547302,
          -0.07921096682548523,
          -0.042072296142578125,
          0.0005726367235183716,
          0.10525916516780853,
          0.18304680287837982,
          -0.04152645170688629,
          0.013107329607009888,
          0.15982265770435333,
          -0.143381729722023,
          -0.20109520852565765,
          -0.19359754025936127,
          -0.08477591723203659,
          -0.18782366812229156,
          -0.1380195915699005,
          -0.1703859567642212,
          0.1364649385213852,
          0.07375530898571014,
          -0.05210016667842865,
          -0.10414807498455048,
          0.04752592742443085,
          0.1602994054555893,
          0.06222321093082428,
          0.04493950307369232,
          0.18117927014827728,
          -0.19618642330169678,
          0.15115679800510406,
          -0.10795066505670547,
          -0.02145099639892578,
          0.10249333083629608,
          -0.13403162360191345,
          -0.10876757651567459,
          -0.008477658033370972,
          0.11921347677707672,
          0.1627039760351181,
          0.1190052181482315,
          0.14733703434467316,
          -0.17626269161701202,
          0.10744483768939972,
          0.08611099421977997,
          0.1038568764925003,
          0.17182503640651703,
          -0.12600839138031006,
          0.19697792828083038,
          -0.06495815515518188,
          -0.15889626741409302,
          -0.030131816864013672,
          -0.1833299696445465,
          0.2006307691335678,
          0.04952244460582733,
          0.13293884694576263,
          -0.04159550368785858,
          -0.07774890959262848,
          0.11277510225772858,
          -0.016268715262413025,
          -0.09706445783376694,
          -0.18204742670059204,
          0.004143446683883667,
          -0.10707629472017288,
          0.17244960367679596,
          0.07884444296360016,
          -0.12721052765846252,
          -0.07328453660011292,
          0.04141923785209656,
          0.03617843985557556,
          0.004178538918495178,
          -0.18402373790740967,
          -0.12439484894275665,
          0.17492292821407318,
          0.1638963669538498,
          0.06674627959728241,
          -0.20368099212646484,
          0.013482257723808289,
          0.0004936158657073975,
          -0.1550065129995346,
          0.07625989615917206,
          -0.08423727750778198,
          0.10119898617267609,
          -0.1691684126853943,
          0.01573324203491211,
          -0.013020619750022888,
          -0.01938469707965851,
          -0.12249676138162613,
          0.17762134969234467,
          -0.15862080454826355,
          0.13881494104862213,
          -0.19041171669960022,
          -0.09950660914182663,
          -0.16243019700050354,
          0.0362359881401062,
          0.09019745886325836,
          -0.09204753488302231,
          -0.12221068888902664,
          -0.1830763816833496,
          0.005603194236755371,
          -0.020974159240722656,
          -0.0985838770866394,
          0.03370124101638794,
          -0.1924578696489334,
          0.15479986369609833,
          -0.18986138701438904
        ],
        [
          -0.12964138388633728,
          -0.08269742876291275,
          0.05283688008785248,
          -0.09558576345443726,
          -0.01409284770488739,
          0.09801153838634491,
          -0.08196151256561279,
          -0.05679020285606384,
          -0.05346880853176117,
          -0.13176864385604858,
          -0.17348116636276245,
          -0.10930927097797394,
          0.03122735023498535,
          -0.09862074255943298,
          -0.20030929148197174,
          0.11869068443775177,
          0.059212908148765564,
          -0.18926697969436646,
          -0.1424138844013214,
          0.0007252544164657593,
          0.10861663520336151,
          -0.11999691277742386,
          0.03463508188724518,
          0.12528909742832184,
          0.15997113287448883,
          0.17694194614887238,
          0.026178881525993347,
          -0.0891280472278595,
          -0.1236712709069252,
          0.023280233144760132,
          -0.044790253043174744,
          -0.07203821837902069,
          -0.07265271246433258,
          0.00995887815952301,
          -0.1498384028673172,
          -0.1822059601545334,
          -0.018937230110168457,
          0.10942433774471283,
          0.1662241667509079,
          0.033220887184143066,
          0.03455398976802826,
          0.13028772175312042,
          0.15108950436115265,
          -0.024020686745643616,
          0.025303229689598083,
          0.1727226823568344,
          0.1330200582742691,
          0.19325105845928192,
          0.047099992632865906,
          -0.03663775324821472,
          -0.07332481443881989,
          -0.1415303349494934,
          -0.15084411203861237,
          -0.03847379982471466,
          -0.05411790311336517,
          0.15429402887821198,
          0.1253286451101303,
          0.15998919308185577,
          0.05478017032146454,
          0.14577703177928925,
          0.1526249200105667,
          0.18250088393688202,
          -0.15377569198608398,
          -0.1907062828540802,
          0.15465562045574188,
          0.017862513661384583,
          -0.0016273558139801025,
          -0.16610071063041687,
          -0.18083703517913818,
          0.07801736891269684,
          0.08972059190273285,
          0.17787466943264008,
          -0.0993909165263176,
          0.1789654940366745,
          -0.17414644360542297,
          0.10197906196117401,
          -0.08205904066562653,
          -0.09741593152284622,
          -0.06783376634120941,
          0.16019125282764435,
          -0.13319432735443115,
          0.04518134891986847,
          -0.03199021518230438,
          -0.18598994612693787,
          -0.1393495798110962,
          0.00919640064239502,
          0.19440709054470062,
          -0.0006620287895202637,
          -0.11907842010259628,
          0.14673911035060883,
          0.17402662336826324,
          -0.18513990938663483,
          0.0695621520280838,
          0.014418214559555054,
          0.13080044090747833,
          0.009965300559997559,
          -0.1402113139629364,
          0.050522223114967346,
          0.04573698341846466,
          -0.089730404317379,
          -0.01050373911857605,
          -0.1675064116716385,
          -0.12122304737567902,
          0.15611828863620758,
          -0.047786787152290344,
          0.08133058249950409,
          0.0007369965314865112,
          0.13646645843982697,
          -0.06397712230682373,
          -0.10498058795928955,
          -0.06161296367645264,
          0.20423360168933868,
          0.028491675853729248,
          0.06980188190937042,
          -0.20114880800247192,
          0.06606973707675934,
          -0.1383916139602661,
          0.06641973555088043,
          -0.0671263188123703,
          -0.1640554964542389,
          0.09098576009273529,
          -0.029616132378578186,
          0.062468335032463074,
          -0.17673593759536743,
          -0.0883796438574791,
          0.08545725047588348,
          0.0600249320268631,
          -0.14526747167110443
        ],
        [
          -0.15289822220802307,
          0.000530734658241272,
          0.07332338392734528,
          0.13969148695468903,
          0.15991850197315216,
          0.11716265976428986,
          0.06491373479366302,
          0.09893842041492462,
          0.1373235136270523,
          -0.043289437890052795,
          -0.07054086029529572,
          -0.13618379831314087,
          -0.03631460666656494,
          -0.18177448213100433,
          0.06755848228931427,
          -0.14364203810691833,
          0.13354642689228058,
          -0.08514520525932312,
          0.0031297504901885986,
          0.15417660772800446,
          -0.055311113595962524,
          0.074183389544487,
          0.05100531876087189,
          0.06690959632396698,
          -0.12674292922019958,
          0.11613534390926361,
          -0.15549728274345398,
          -0.05513964593410492,
          5.517899990081787e-05,
          -0.04617320001125336,
          0.15684472024440765,
          0.0368674099445343,
          -0.04818889498710632,
          0.20262251794338226,
          -0.008795976638793945,
          -0.03543895483016968,
          0.0028464943170547485,
          -0.1913316398859024,
          -0.013363942503929138,
          0.05417130887508392,
          0.012301132082939148,
          0.043386295437812805,
          0.15284793078899384,
          -0.14516669511795044,
          -0.12579280138015747,
          0.16159577667713165,
          -0.01604650914669037,
          -0.012620121240615845,
          -0.1668756753206253,
          0.12356702983379364,
          0.05271230638027191,
          0.09917600452899933,
          -0.03331749141216278,
          0.08052624762058258,
          0.03236819803714752,
          -0.04189775884151459,
          0.04988269507884979,
          0.19220571219921112,
          0.0779862254858017,
          -0.17959214746952057,
          0.15321384370326996,
          -0.0002085864543914795,
          -0.050243645906448364,
          0.06640709936618805,
          0.0016646236181259155,
          0.168071910738945,
          -0.11177990585565567,
          0.0929778665304184,
          -0.0948530063033104,
          0.16084326803684235,
          0.12796638906002045,
          0.20206670463085175,
          0.14471624791622162,
          0.1859864443540573,
          0.008735164999961853,
          -0.10249080508947372,
          0.06999202072620392,
          -0.002732217311859131,
          0.1510884314775467,
          -0.16787293553352356,
          0.1059100478887558,
          0.037870943546295166,
          -0.059085413813591,
          -0.0958833396434784,
          0.006700992584228516,
          -0.009470045566558838,
          0.0629744678735733,
          0.14887230098247528,
          0.10298486053943634,
          -0.18148060142993927,
          0.1402481645345688,
          -0.17881669104099274,
          0.19371269643306732,
          -0.053773775696754456,
          -0.001825287938117981,
          -0.0871269479393959,
          -0.1437467336654663,
          -0.0014901459217071533,
          -0.14004364609718323,
          0.19666539132595062,
          -0.15209828317165375,
          0.19092245399951935,
          -0.15116582810878754,
          0.014859020709991455,
          -0.05506516993045807,
          0.12579308450222015,
          -0.03513813018798828,
          -0.08633960038423538,
          0.17099107801914215,
          -0.07582826912403107,
          0.1601966768503189,
          0.015172943472862244,
          0.18555401265621185,
          0.10056798160076141,
          0.10061876475811005,
          -0.08930642157793045,
          -0.14533302187919617,
          0.058437809348106384,
          -0.050717175006866455,
          0.03169436752796173,
          0.20035193860530853,
          0.06395496428012848,
          0.09244813024997711,
          -0.15146729350090027,
          -0.1361600160598755,
          -0.165336012840271,
          -0.07612460851669312,
          0.1430928260087967
        ]
      ],
      "bias": [
        0.0,
        0.0,
        0.0,
        0.0,
        0.0,
        0.0,
        0.0,
        0.0,
        0.0,
        0.0,
        0.0,
        0.0,
        0.0,
        0.0,
        0.0,
        0.0,
        0.0,
        0.0,
        0.0,
        0.0,
        0.0,
        0.0,
        0.0,
        0.0,
        0.0,
        0.0,
        0.0,
        0.0,
        0.0,
        0.0,
        0.0,
        0.0,
        0.0,
        0.0,
        0.0,
        0.0,
        0.0,
        0.0,
        0.0,
        0.0,
        0.0,
        0.0,
        0.0,
        0.0,
        0.0,
        0.0,
        0.0,
        0.0,
        0.0,
        0.0,
        0.0,
        0.0,
        0.0,
        0.0,
        0.0,
        0.0,
        0.0,
        0.0,
        0.0,
        0.0,
        0.0,
        0.0,
        0.0,
        0.0,
        0.0,
        0.0,
        0.0,
        0.0,
        0.0,
        0.0,
        0.0,
        0.0,
        0.0,
        0.0,
        0.0,
        0.0,
        0.0,
        0.0,
        0.0,
        0.0,
        0.0,
        0.0,
        0.0,
        0.0,
        0.0,
        0.0,
        0.0,
        0.0,
        0.0,
        0.0,
        0.0,
        0.0,
        0.0,
        0.0,
        0.0,
        0.0,
        0.0,
        0.0,
        0.0,
        0.0,
        0.0,
        0.0,
        0.0,
        0.0,
        0.0,
        0.0,
        0.0,
        0.0,
        0.0,
        0.0,
        0.0,
        0.0,
        0.0,
        0.0,
        0.0,
        0.0,
        0.0,
        0.0,
        0.0,
        0.0,
        0.0,
        0.0,
        0.0,
        0.0,
        0.0,
        0.0,
        0.0,
        0.0
      ]
    },
    {
      "name": "dense_2",
      "weights": [
        [
          0.001224219799041748,
          -0.0541498064994812,
          -0.13038699328899384,
          -0.10485731065273285,
          -0.07913004606962204,
          -0.07469837367534637,
          0.12958699464797974,
          -0.1516748070716858,
          -0.16776052117347717,
          0.050834476947784424,
          0.14247193932533264,
          -0.05377279222011566,
          0.1357305347919464,
          0.19311898946762085,
          0.17449557781219482,
          0.12946105003356934
        ],
        [
          0.04026487469673157,
          -0.0994701236486435,
          -0.14771652221679688,
          0.005335405468940735,
          0.16393116116523743,
          0.007672250270843506,
          -0.056269943714141846,
          0.15975216031074524,
          -0.038350120186805725,
          0.062272101640701294,
          -0.0107145756483078,
          0.06748268008232117,
          0.0005638599395751953,
          0.15802618861198425,
          -0.07869364321231842,
          0.10302218794822693
        ],
        [
          0.1807192862033844,
          -0.03462144732475281,
          -0.013471126556396484,
          -0.037635743618011475,
          -0.081524558365345,
          0.14072421193122864,
          0.1503099501132965,
          -0.07619848847389221,
          0.13210821151733398,
          -0.1929442286491394,
          0.0764511227607727,
          -0.08268166333436966,
          -0.032039761543273926,
          -0.082296222448349,
          0.07058164477348328,
          0.18881681561470032
        ],
        [
          0.16707471013069153,
          0.1415250599384308,
          -0.16053619980812073,
          0.10572883486747742,
          0.03049829602241516,
          -0.06104309856891632,
          0.15471816062927246,
          0.11881676316261292,
          0.026898100972175598,
          0.02819712460041046,
          0.03571641445159912,
          -0.09117887169122696,
          -0.03305219113826752,
          0.10168305039405823,
          -0.07616180181503296,
          -0.1668652445077896
        ],
        [
          0.08038482069969177,
          0.04304468631744385,
          -0.017852410674095154,
          -0.1466134935617447,
          0.18345513939857483,
          0.095492422580719,
          -0.12711861729621887,
          0.1822269856929779,
          -0.04417644441127777,
          0.11510396003723145,
          0.09645509719848633,
          0.06310263276100159,
          0.16525226831436157,
          -0.1874675750732422,
          0.1326882243156433,
          0.10430309176445007
        ],
        [
          0.10652542114257812,
          0.1362365186214447,
          -0.20381926000118256,
          -0.004607602953910828,
          0.07040545344352722,
          -0.0414842814207077,
          -0.17570306360721588,
          0.022914469242095947,
          -0.1038326770067215,
          -0.20261318981647491,
          -0.1238478571176529,
          -0.09222239255905151,
          -0.1343814730644226,
          -0.06568725407123566,
          -0.14567042887210846,
          -0.052553921937942505
        ],
        [
          -0.1087985634803772,
          -0.16267496347427368,
          0.17515137791633606,
          0.13916641473770142,
          -0.01442757248878479,
          0.08569809794425964,
          0.10378775000572205,
          -0.06308643519878387,
          0.15666964650154114,
          0.18222108483314514,
          -0.11964686959981918,
          -0.10697544366121292,
          -0.040056630969047546,
          -0.014213189482688904,
          0.13293719291687012,
          0.09495747089385986
        ],
        [
          -0.19794602692127228,
          0.06291750073432922,
          0.14749985933303833,
          -0.00864209234714508,
          0.17375993728637695,
          -0.16594377160072327,
          -0.010519072413444519,
          0.18758851289749146,
          -0.08212729543447495,
          0.061006128787994385,
          0.1747196614742279,
          -0.013970494270324707,
          -0.13101863861083984,
          -0.036953672766685486,
          -0.17801134288311005,
          0.12379029393196106
        ],
        [
          0.1490246057510376,
          0.19916436076164246,
          -0.035175621509552,
          -0.09971968829631805,
          0.13658654689788818,
          0.03983728587627411,
          0.1633925437927246,
          0.01127856969833374,
          0.010076895356178284,
          0.09425783157348633,
          -0.09955757856369019,
          -0.15825118124485016,
          0.14913791418075562,
          -0.061884015798568726,
          0.07881882786750793,
          -0.20250660181045532
        ],
        [
          0.09625804424285889,
          -0.17049424350261688,
          -0.1527065485715866,
          0.09835472702980042,
          -0.11809901893138885,
          -0.08094960451126099,
          0.17670702934265137,
          0.059811294078826904,
          0.03590446710586548,
          0.0915442705154419,
          0.052083611488342285,
          -0.07061706483364105,
          0.02373586595058441,
          0.030717000365257263,
          0.18388593196868896,
          0.08487293124198914
        ],
        [
          0.007715329527854919,
          -0.18980929255485535,
          -0.08664777874946594,
          -0.07434296607971191,
          -0.004329130053520203,
          -0.16160735487937927,
          -0.011123865842819214,
          0.07001671195030212,
          0.07508358359336853,
          0.011999532580375671,
          0.06949630379676819,
          0.05932283401489258,
          -0.14551128447055817,
          0.00540567934513092,
          0.0531180202960968,
          0.027907654643058777
        ],
        [
          0.203296959400177,
          -0.04669831693172455,
          -0.13077321648597717,
          -0.1399581879377365,
          -0.04770299792289734,
          -0.003718540072441101,
          0.14703547954559326,
          0.06962737441062927,
          -0.03693780303001404,
          -0.08539392054080963,
          -0.08135364204645157,
          -0.020938098430633545,
          0.04058125615119934,
          -0.09183568507432938,
          -0.016786321997642517,
          0.10077464580535889
        ],
        [
          0.023038655519485474,
          0.10113516449928284,
          0.15232408046722412,
          0.09005042910575867,
          0.015112116932868958,
          -0.1431988775730133,
          -0.0559181272983551,
          0.1973341703414917,
          -0.06620925664901733,
          -0.125005304813385,
          0.0905756950378418,
          0.17032691836357117,
          0.05560353398323059,
          0.006700083613395691,
          0.08765566349029541,
          -0.18852828443050385
        ],
        [
          -0.062654510140419,
          -0.19086122512817383,
          -0.00604662299156189,
          0.13584676384925842,
          -0.14981266856193542,
          0.11746025085449219,
          -0.10101626813411713,
          0.153446763753891,
          -0.13749480247497559,
          0.19904372096061707,
          -0.04518359899520874,
          -0.06751318275928497,
          0.08835229277610779,
          -0.13752615451812744,
          -0.08327559381723404,
          0.09094437956809998
        ],
        [
          0.1757025420665741,
          -0.1930159628391266,
          -0.062487050890922546,
          -0.17892614006996155,
          0.009382262825965881,
          -0.063104048371315,
          0.18517401814460754,
          0.1963137686252594,
          -0.04458563029766083,
          0.12673282623291016,
          0.15534687042236328,
          0.04124157130718231,
          0.19158655405044556,
          -0.12310583144426346,
          0.053109705448150635,
          0.19425958395004272
        ],
        [
          0.06369179487228394,
          -0.041313111782073975,
          0.2007438838481903,
          0.15834355354309082,
          0.012619301676750183,
          0.19476628303527832,
          0.07338574528694153,
          -0.09838996082544327,
          0.09027248620986938,
          -0.003989577293395996,
          0.11163011193275452,
          0.06066909432411194,
          0.11445885896682739,
          0.035011470317840576,
          0.056267887353897095,
          0.018970102071762085
        ],
        [
          0.045050248503685,
          0.18480545282363892,
          -0.013632208108901978,
          0.16934242844581604,
          0.0595017671585083,
          0.16742798686027527,
          -0.1744128167629242,
          -0.1664733737707138,
          -0.06831462681293488,
          -0.14863574504852295,
          -0.1905788630247116,
          -0.09717158228158951,
          -0.01123705506324768,
          -0.015010550618171692,
          0.16942551732063293,
          0.08566918969154358
        ],
        [
          0.1115993857383728,
          -0.09262238442897797,
          -0.15099011361598969,
          -0.15147216618061066,
          0.00030334293842315674,
          -0.0941888764500618,
          0.09058237075805664,
          0.1572648584842682,
          -0.07366669178009033,
          0.10177478194236755,
          -0.0524829626083374,
          0.15530961751937866,
          -0.12897804379463196,
          0.0946429967880249,
          0.16509118676185608,
          0.08356204628944397
        ],
        [
          -0.0855461061000824,
          -0.17682795226573944,
          0.09736362099647522,
          -0.09604435414075851,
          0.10019385814666748,
          -0.17218074202537537,
          0.16181907057762146,
          -0.11891896277666092,
          0.0906534492969513,
          -0.08501315116882324,
          -0.04785969853401184,
          -0.12186846882104874,
          0.14215373992919922,
          -0.09620986878871918,
          0.06628245115280151,
          0.006276726722717285
        ],
        [
          0.139960378408432,
          0.03320680558681488,
          -0.0508372038602829,
          0.17117324471473694,
          -0.061940714716911316,
          0.0047811418771743774,
          0.01429787278175354,
          0.05540883541107178,
          -0.10204718261957169,
          0.17662125825881958,
          0.12144696712493896,
          0.18335220217704773,
          -0.03598962724208832,
          -0.08712758868932724,
          0.09546312689781189,
          -0.11682681739330292
        ],
        [
          -0.16519761085510254,
          -0.15197649598121643,
          -0.00788755714893341,
          0.0943383276462555,
          0.06448322534561157,
          0.1775543987751007,
          0.09426972270011902,
          0.0711776614189148,
          0.1752500832080841,
          -0.02203558385372162,
          -0.1303519606590271,
          -0.008626759052276611,
          -0.10683455318212509,
          -0.1239415854215622,
          -0.13239425420761108,
          0.10777503252029419
        ],
        [
          0.1683347523212433,
          -0.056275248527526855,
          0.011382430791854858,
          0.025764688849449158,
          0.11119067668914795,
          -0.0097866952419281,
          0.019670814275741577,
          -0.15311628580093384,
          -0.17819467186927795,
          0.026815757155418396,
          -0.011058896780014038,
          0.1964920461177826,
          0.012643292546272278,
          -0.0013100206851959229,
          -0.06236003339290619,
          0.15667909383773804
        ],
        [
          0.014810100197792053,
          0.06361320614814758,
          0.09340041875839233,
          0.17687928676605225,
          -0.0021926462650299072,
          0.055398404598236084,
          -0.16336184740066528,
          -0.18504801392555237,
          -0.08784221112728119,
          0.1413157880306244,
          0.043762922286987305,
          0.2034415900707245,
          0.13347166776657104,
          -0.18374893069267273,
          -0.07895654439926147,
          0.016011834144592285
        ],
        [
          0.18595263361930847,
          -0.10571905970573425,
          -0.13483759760856628,
          0.08323511481285095,
          -0.07641272246837616,
          -0.06859135627746582,
          -0.12411197274923325,
          0.07895800471305847,
          -0.18481329083442688,
          0.1362926959991455,
          0.1279641091823578,
          -0.17296388745307922,
          -0.06197930872440338,
          0.059988200664520264,
          0.006803154945373535,
          0.02548058331012726
        ],
        [
          -0.08394145965576172,
          -0.18743716180324554,
          0.11540627479553223,
          0.046515852212905884,
          0.11926370859146118,
          -0.1751045137643814,
          -0.07831394672393799,
          -0.09498326480388641,
          0.17946726083755493,
          -0.06109064817428589,
          -0.046196117997169495,
          0.19160521030426025,
          0.0484350323677063,
          -0.0655638724565506,
          -0.11626645922660828,
          0.20168209075927734
        ],
        [
          -0.0671072006225586,
          -0.07108840346336365,
          -0.18635568022727966,
          -0.1642850637435913,
          0.07974892854690552,
          0.1174929141998291,
          -0.02711525559425354,
          0.1623583734035492,
          -0.025551870465278625,
          0.1848430633544922,
          -0.11951245367527008,
          0.13370150327682495,
          0.1090080738067627,
          -0.10392193496227264,
          -0.089907206594944,
          0.0039478689432144165
        ],
        [
          0.012939780950546265,
          0.029447421431541443,
          0.18397247791290283,
          -0.16834676265716553,
          -0.09078934043645859,
          -0.11049450933933258,
          -0.031389281153678894,
          -0.20208227634429932,
          -0.07545402646064758,
          -0.0638405829668045,
          0.18617358803749084,
          -0.07770103216171265,
          0.06639188528060913,
          -0.026441216468811035,
          -0.11936304718255997,
          0.14895933866500854
        ],
        [
          -0.1800481081008911,
          -0.1957893967628479,
          -0.10478509217500687,
          0.19148829579353333,
          -0.13887397944927216,
          0.1333531141281128,
          0.060683101415634155,
          0.04652443528175354,
          0.08474710583686829,
          -0.07605336606502533,
          0.07896670699119568,
          0.10816773772239685,
          -0.1072951927781105,
          0.19845283031463623,
          -0.14532499015331268,
          0.0897892415523529
        ],
        [
          0.1174490749835968,
          0.04383601248264313,
          0.18460318446159363,
          -0.07840524613857269,
          0.20229706168174744,
          0.006048724055290222,
          -0.048648253083229065,
          0.16401320695877075,
          0.15553390979766846,
          -0.11249102652072906,
          0.10352841019630432,
          0.16311156749725342,
          -0.18202953040599823,
          -0.005421891808509827,
          0.058583617210388184,
          0.0397682785987854
        ],
        [
          0.08425605297088623,
          -0.12215789407491684,
          -0.07791444659233093,
          -0.13647553324699402,
          0.13174065947532654,
          -0.0036565959453582764,
          0.11211389303207397,
          0.17396944761276245,
          0.05030322074890137,
          -0.014859050512313843,
          -0.1707974374294281,
          -0.053885266184806824,
          0.15514451265335083,
          0.08660811185836792,
          -0.16384676098823547,
          0.05400225520133972
        ],
        [
          -0.014476045966148376,
          0.034519344568252563,
          0.02537296712398529,
          0.14685386419296265,
          0.08281359076499939,
          0.0708504319190979,
          -0.08191724866628647,
          0.04852089285850525,
          -0.027754351496696472,
          0.018269002437591553,
          -0.08021191507577896,
          -0.12559081614017487,
          0.13496851921081543,
          -0.15700428187847137,
          0.12563654780387878,
          0.09615656733512878
        ],
        [
          -0.034970492124557495,
          -0.18932247161865234,
          0.13255199790000916,
          -0.013258054852485657,
          -0.017224371433258057,
          -0.0825900211930275,
          0.18717938661575317,
          -0.13581322133541107,
          -0.02725861966609955,
          -0.008483096957206726,
          0.06301644444465637,
          -0.05727311968803406,
          -0.15907025337219238,
          0.08600771427154541,
          -0.18268795311450958,
          -0.03883256018161774
        ],
        [
          0.044482409954071045,
          0.1725057065486908,
          -0.036983415484428406,
          -0.16572575271129608,
          0.12463855743408203,
          -0.05136159062385559,
          -0.02263215184211731,
          0.12558701634407043,
          0.06303995847702026,
          0.026738807559013367,
          0.07828724384307861,
          0.14321857690811157,
          0.15175354480743408,
          -0.13625890016555786,
          0.10274949669837952,
          -0.037996649742126465
        ],
        [
          0.10321187973022461,
          -0.15496499836444855,
          -0.1726549118757248,
          0.09638157486915588,
          -0.03921663761138916,
          -0.08596556633710861,
          0.07167196273803711,
          0.17169520258903503,
          -0.05914975702762604,
          0.11555048823356628,
          0.1920899748802185,
          0.14339423179626465,
          -0.036380425095558167,
          -0.09424050897359848,
          0.02817361056804657,
          -0.07334460318088531
        ],
        [
          -0.18688371777534485,
          0.19692489504814148,
          -0.16026020050048828,
          0.1563449501991272,
          0.04452100396156311,
          0.20336908102035522,
          -0.12492680549621582,
          -0.1847444772720337,
          0.008954674005508423,
          0.18648213148117065,
          -0.19965101778507233,
          0.040457069873809814,
          0.04058578610420227,
          -0.059140756726264954,
          0.07309621572494507,
          -0.010603904724121094
        ],
        [
          0.1490119993686676,
          0.18125447630882263,
          0.0604688823223114,
          -0.15004763007164001,
          0.11355260014533997,
          0.00950700044631958,
          -0.1996450424194336,
          0.08610305190086365,
          0.06715914607048035,
          0.1967373788356781,
          0.09357503056526184,
          -0.021968036890029907,
          0.14400899410247803,
          -0.09019511938095093,
          0.09359899163246155,
          -0.09410745650529861
        ],
        [
          -0.07397757470607758,
          0.0003306865692138672,
          -0.04436454176902771,
          0.0907934308052063,
          0.13229414820671082,
          -0.15357671678066254,
          -0.11474795639514923,
          -0.02041049301624298,
          -0.07353198528289795,
          -0.08644401282072067,
          0.2005000114440918,
          -0.19657765328884125,
          -0.074321448802948,
          -0.07552897930145264,
          0.1660434901714325,
          0.1174401044845581
        ],
        [
          0.16347578167915344,
          0.07626697421073914,
          -0.12376371026039124,
          -0.105300672352314,
          0.0627044141292572,
          0.11312699317932129,
          -0.15705017745494843,
          0.16843923926353455,
          -0.08303294330835342,
          0.05583393573760986,
          -0.05233974754810333,
          -0.07978057861328125,
          0.07554081082344055,
          0.05466315150260925,
          0.1205747127532959,
          -0.08936300873756409
        ],
        [
          0.09407255053520203,
          0.11766743659973145,
          -0.12707924842834473,
          -0.06888413429260254,
          -0.1409270465373993,
          0.11385282874107361,
          0.12000671029090881,
          -0.10088992863893509,
          0.01901531219482422,
          -0.13792084157466888,
          0.13380172848701477,
          0.1573515236377716,
          -0.002803906798362732,
          -0.12823177874088287,
          0.017130047082901,
          -0.02210269868373871
        ],
        [
          -0.005410507321357727,
          -0.032637834548950195,
          0.09293794631958008,
          -0.0003694295883178711,
          -0.07768741250038147,
          0.14506679773330688,
          0.1841321885585785,
          -0.18906386196613312,
          0.06199079751968384,
          0.08910581469535828,
          -0.18237058818340302,
          0.07910454273223877,
          -0.047717005014419556,
          0.07162699103355408,
          -0.19538614153862,
          -0.15147051215171814
        ],
        [
          0.028034284710884094,
          0.16509225964546204,
          -0.07129943370819092,
          0.17014071345329285,
          -0.08926363289356232,
          0.01327553391456604,
          -0.08196143805980682,
          -0.09290839731693268,
          0.13262325525283813,
          0.01670198142528534,
          0.18451228737831116,
          -0.12546242773532867,
          0.10070791840553284,
          -0.16426768898963928,
          0.011163532733917236,
          -0.19590342044830322
        ],
        [
          0.17822834849357605,
          0.11354193091392517,
          0.15435510873794556,
          -0.15790992975234985,
          0.04314859211444855,
          -0.16382987797260284,
          -0.1749080866575241,
          0.04376690089702606,
          0.18362966179847717,
          -0.1428745985031128,
          0.20118781924247742,
          0.08705854415893555,
          0.1038627028465271,
          0.13817915320396423,
          -0.04413074254989624,
          -0.11903069913387299
        ],
        [
          -0.033091798424720764,
          -0.10553193837404251,
          -0.0021241754293441772,
          0.04593992233276367,
          0.07163190841674805,
          -0.013756945729255676,
          -0.04571796953678131,
          0.203811377286911,
          0.10007324814796448,
          -0.14103664457798004,
          0.03456120193004608,
          0.08025854825973511,
          0.005643770098686218,
          0.1116051971912384,
          -0.18991972506046295,
          -0.12197539210319519
        ],
        [
          0.2039124071598053,
          0.09982046484947205,
          -0.0282096266746521,
          -0.09296548366546631,
          0.09955635666847229,
          0.12592428922653198,
          -0.18304701149463654,
          -0.20352135598659515,
          -0.1439330130815506,
          0.0959635078907013,
          0.16066569089889526,
          0.10779160261154175,
          0.006031930446624756,
          -0.15008676052093506,
          -0.01776905357837677,
          0.10807576775550842
        ],
        [
          0.007031559944152832,
          0.1739310920238495,
          -0.18383187055587769,
          0.19872123003005981,
          -0.16328568756580353,
          0.1381869912147522,
          -0.12279149144887924,
          0.03727400302886963,
          0.12420693039894104,
          -0.003709733486175537,
          0.08371704816818237,
          0.12239962816238403,
          0.18050086498260498,
          -0.15868708491325378,
          -0.19730225205421448,
          -0.005285918712615967
        ],
        [
          -0.12714889645576477,
          0.023496419191360474,
          0.1063002347946167,
          0.17685118317604065,
          0.04627212882041931,
          -0.00014922022819519043,
          0.16691628098487854,
          0.195020854473114,
          -0.14297933876514435,
          0.02956850826740265,
          -0.1803356260061264,
          0.14521324634552002,
          0.03171885013580322,
          0.13396507501602173,
          -0.0093507319688797,
          0.01662372052669525
        ],
        [
          -0.07491505146026611,
          -0.0993075743317604,
          0.1274350881576538,
          0.11115580797195435,
          -0.17629894614219666,
          -0.08068300783634186,
          0.15051278471946716,
          -0.12669925391674042,
          0.05350211262702942,
          0.12012133002281189,
          0.09888079762458801,
          0.19098415970802307,
          0.025730431079864502,
          0.1375001072883606,
          0.08138224482536316,
          -0.06260702013969421
        ],
        [
          -0.202171191573143,
          0.044165343046188354,
          0.05758580565452576,
          0.05500650405883789,
          -0.17242710292339325,
          0.10945183038711548,
          0.10852071642875671,
          -0.07916522771120071,
          -0.02852235734462738,
          0.03805042803287506,
          0.14919304847717285,
          -0.0010150521993637085,
          -0.15307655930519104,
          0.025311559438705444,
          0.1770198941230774,
          -0.1652321219444275
        ],
        [
          0.0779743492603302,
          0.04598817229270935,
          0.034501731395721436,
          -0.134841188788414,
          -0.13103187084197998,
          -0.04230625927448273,
          -0.12903857231140137,
          0.11407870054244995,
          -0.18760010600090027,
          0.035921305418014526,
          0.03015260398387909,
          -0.007094383239746094,
          -0.03515133261680603,
          0.04895150661468506,
          -0.1015738993883133,
          -0.07967214286327362
        ],
        [
          -0.1935635656118393,
          -0.14480099081993103,
          -0.07400025427341461,
          -0.12384055554866791,
          -0.09262730181217194,
          0.061663031578063965,
          0.09942278265953064,
          0.1737232506275177,
          0.0123615562915802,
          0.01977899670600891,
          -0.09232230484485626,
          -0.18315991759300232,
          -0.1744357794523239,
          -0.004807084798812866,
          0.1857127547264099,
          -0.011126294732093811
        ],
        [
          -0.06754447519779205,
          0.036147311329841614,
          0.09374740719795227,
          0.0690075159072876,
          0.15148210525512695,
          0.11076271533966064,
          0.2039322555065155,
          0.1894177794456482,
          0.030181512236595154,
          -0.1722252368927002,
          -0.19987109303474426,
          0.11066067218780518,
          -0.016282424330711365,
          -0.02294677495956421,
          -0.1148051843047142,
          -0.0303318053483963
        ],
        [
          -0.02062302827835083,
          0.024351119995117188,
          -0.017023026943206787,
          0.12469607591629028,
          -0.04107902944087982,
          -0.07855558395385742,
          0.10792416334152222,
          -0.14611013233661652,
          -0.1756347417831421,
          -0.10463743656873703,
          -0.13734063506126404,
          0.1009664237499237,
          0.03213627636432648,
          -0.1603514552116394,
          -0.17214182019233704,
          0.052573978900909424
        ],
        [
          -0.07721772789955139,
          0.11538267135620117,
          -0.08463466912508011,
          0.029836177825927734,
          -0.1983271837234497,
          0.07183068990707397,
          0.11857891082763672,
          -0.0006647408008575439,
          -0.1997411996126175,
          -0.09687646478414536,
          -0.16910091042518616,
          -0.09323617070913315,
          -0.09620393067598343,
          -0.04177205264568329,
          0.10116547346115112,
          0.07579192519187927
        ],
        [
          -0.1433231681585312,
          -0.11235835403203964,
          0.09238475561141968,
          -0.1142301857471466,
          -0.17204038798809052,
          -0.09453227370977402,
          -0.06866304576396942,
          -0.1087532490491867,
          -0.0627388060092926,
          0.1340365707874298,
          0.02390255033969879,
          0.03111042082309723,
          0.02506326138973236,
          0.09813493490219116,
          0.00039853155612945557,
          -0.11322317272424698
        ],
        [
          -0.1123812273144722,
          -0.08001383394002914,
          0.1983410120010376,
          -0.03469464182853699,
          0.04756912589073181,
          0.017341405153274536,
          -0.1545446515083313,
          0.11936834454536438,
          -0.08019156754016876,
          0.06765493750572205,
          -0.11241349577903748,
          -0.08730994164943695,
          -0.16991788148880005,
          0.11357152462005615,
          -0.00397317111492157,
          0.1771678328514099
        ],
        [
          0.09227707982063293,
          0.16961342096328735,
          0.1821020543575287,
          0.0902855396270752,
          -0.02909064292907715,
          -0.16164644062519073,
          -0.20027069747447968,
          0.19247585535049438,
          -0.18610534071922302,
          -0.006615698337554932,
          -0.06499691307544708,
          0.04329162836074829,
          0.0812775194644928,
          0.17786508798599243,
          0.18676793575286865,
          0.07095608115196228
        ],
        [
          0.19551801681518555,
          -0.1632850468158722,
          -0.14713811874389648,
          0.18855655193328857,
          0.024402067065238953,
          0.1396782100200653,
          0.1763102412223816,
          0.10776838660240173,
          0.06788963079452515,
          0.01141202449798584,
          -0.021567553281784058,
          -0.11105281859636307,
          0.03920866549015045,
          0.05399125814437866,
          -0.06554383039474487,
          0.02716951072216034
        ],
        [
          0.19527840614318848,
          -0.10101749002933502,
          0.08709779381752014,
          0.16545721888542175,
          -0.10103364288806915,
          -0.1286582350730896,
          0.08535513281822205,
          -0.1251581609249115,
          -0.12781114876270294,
          0.004125311970710754,
          0.015620842576026917,
          -0.20283500850200653,
          -0.18723583221435547,
          -0.11491887271404266,
          0.05498892068862915,
          0.062491774559020996
        ],
        [
          -0.11817440390586853,
          -0.1355348527431488,
          -0.18055155873298645,
          -0.10691650956869125,
          0.1483495831489563,
          -0.014750674366950989,
          0.13099566102027893,
          -0.08765620738267899,
          -0.06642387807369232,
          0.07457029819488525,
          0.061005741357803345,
          -0.10769469290971756,
          -0.0037565529346466064,
          0.010127991437911987,
          -0.06973405182361603,
          0.14399462938308716
        ],
        [
          -0.07843060791492462,
          0.1653715968132019,
          -0.05905549228191376,
          0.057337552309036255,
          0.006823405623435974,
          -0.19184547662734985,
          -0.18944808840751648,
          -0.11945478618144989,
          0.13693121075630188,
          -0.1129559874534607,
          -0.05101761221885681,
          -0.11260558664798737,
          0.16680863499641418,
          -0.0028176307678222656,
          -0.1306990385055542,
          0.14745208621025085
        ],
        [
          -0.19409207999706268,
          0.016183629631996155,
          0.1365002989768982,
          0.16689690947532654,
          -0.0009927600622177124,
          -0.19096605479717255,
          -0.03583924472332001,
          0.1732890009880066,
          -0.011237010359764099,
          0.08845990896224976,
          0.12865307927131653,
          0.0223587304353714,
          0.0669507384300232,
          -0.04292924702167511,
          -0.025802746415138245,
          -0.06252822279930115
        ],
        [
          0.009864941239356995,
          0.04179346561431885,
          -0.010049879550933838,
          0.0590842068195343,
          -0.19534745812416077,
          0.15629711747169495,
          0.1156286895275116,
          -0.1854245364665985,
          0.0051535964012146,
          -0.1399076282978058,
          -0.11947814375162125,
          -0.059326618909835815,
          -0.0028600096702575684,
          0.1990441381931305,
          0.08893409371376038,
          0.1743372678756714
        ],
        [
          0.17454636096954346,
          0.12603479623794556,
          0.10816174745559692,
          -0.08360400050878525,
          -0.1140766441822052,
          -0.1545267403125763,
          0.012259066104888916,
          -0.1598511040210724,
          -0.01742735505104065,
          0.08153137564659119,
          -0.16116560995578766,
          -0.07644450664520264,
          0.046968817710876465,
          0.10607558488845825,
          -0.1857498288154602,
          0.18609565496444702
        ],
        [
          0.09738624095916748,
          -0.15881752967834473,
          0.17991772294044495,
          0.04574546217918396,
          -0.03542563319206238,
          0.07674452662467957,
          0.08827149868011475,
          0.18667012453079224,
          -0.053840771317481995,
          -0.08019828796386719,
          0.0018984079360961914,
          -0.15596354007720947,
          -0.17792096734046936,
          0.042154282331466675,
          -0.050809264183044434,
          -0.04557615518569946
        ],
        [
          -0.14172255992889404,
          0.044728562235832214,
          0.1608394980430603,
          0.09650358557701111,
          -0.0941896066069603,
          0.0002299100160598755,
          0.0255843847990036,
          -0.17534132301807404,
          0.010965108871459961,
          -0.011265829205513,
          -0.08757610619068146,
          0.12702718377113342,
          0.04641479253768921,
          -0.17148028314113617,
          0.20375096797943115,
          0.07479420304298401
        ],
        [
          -0.197855606675148,
          0.025965005159378052,
          0.015635445713996887,
          0.04312853515148163,
          -0.10749141126871109,
          0.03689609467983246,
          0.09150838851928711,
          -0.1963716447353363,
          0.06638193130493164,
          0.14636027812957764,
          0.1231565773487091,
          0.0896390974521637,
          -0.11182793229818344,
          0.05687627196311951,
          0.11425870656967163,
          -0.04781156778335571
        ],
        [
          0.18855056166648865,
          0.15422087907791138,
          -0.15732306241989136,
          0.07800385355949402,
          0.11807209253311157,
          0.0955398678779602,
          -0.015746593475341797,
          -0.01639638841152191,
          -0.046805232763290405,
          0.1538415551185608,
          0.13693517446517944,
          -0.02295650541782379,
          -0.20295478403568268,
          0.05180665850639343,
          0.0900278389453888,
          0.18104791641235352
        ],
        [
          -0.06287327408790588,
          -0.09610343724489212,
          0.11733120679855347,
          0.023161590099334717,
          -0.1555013507604599,
          -0.17144587635993958,
          -0.10668091475963593,
          -0.20001105964183807,
          -0.05626784265041351,
          -0.1981675624847412,
          0.18720778822898865,
          0.08569416403770447,
          -0.11857274174690247,
          -0.05932004749774933,
          0.19520854949951172,
          0.07589146494865417
        ],
        [
          -0.014963299036026001,
          0.16199475526809692,
          -0.05848097801208496,
          -0.1593218594789505,
          -0.13539639115333557,
          -0.19919924437999725,
          -0.17951704561710358,
          0.007354989647865295,
          0.12259876728057861,
          0.02276495099067688,
          -0.1828753650188446,
          -0.16120867431163788,
          -0.1669299155473709,
          -0.06717787683010101,
          0.045879095792770386,
          -0.029393941164016724
        ],
        [
          0.051588088274002075,
          0.007698535919189453,
          0.01662367582321167,
          -0.11283095926046371,
          0.14224031567573547,
          0.17449292540550232,
          -0.10378444939851761,
          -0.010018587112426758,
          0.005333364009857178,
          -0.04462091624736786,
          0.07156720757484436,
          -0.18708360195159912,
          0.16347438097000122,
          0.01752638816833496,
          0.06817290186882019,
          0.01263059675693512
        ],
        [
          0.0022401362657546997,
          0.13069739937782288,
          -0.08438850939273834,
          -0.08436690270900726,
          0.10709688067436218,
          -0.16179680824279785,
          -0.03260493278503418,
          -0.0447334349155426,
          -0.18461360037326813,
          0.0706278383731842,
          -0.18838033080101013,
          0.17289796471595764,
          0.14582103490829468,
          -0.06335882842540741,
          -0.005136072635650635,
          -0.041729316115379333
        ],
        [
          0.060868144035339355,
          -0.021194174885749817,
          0.18147516250610352,
          0.008597224950790405,
          -0.18214385211467743,
          0.013393014669418335,
          0.07515761256217957,
          0.16325902938842773,
          -0.02747504413127899,
          -0.04927942156791687,
          -0.14120732247829437,
          0.09549042582511902,
          0.18425095081329346,
          -0.1982736438512802,
          -0.17421507835388184,
          0.15919652581214905
        ],
        [
          -0.15212532877922058,
          -0.159951314330101,
          0.014013811945915222,
          -0.11752873659133911,
          -0.08764141798019409,
          0.1881616711616516,
          -0.18775978684425354,
          -0.050752416253089905,
          0.15922531485557556,
          -0.013788968324661255,
          -0.16893957555294037,
          -0.11623366177082062,
          -0.022369593381881714,
          0.1862054169178009,
          -0.07041028141975403,
          0.08068713545799255
        ],
        [
          -0.17098237574100494,
          0.10620588064193726,
          0.16429850459098816,
          0.07553473114967346,
          0.11624002456665039,
          0.024339914321899414,
          -0.1192939355969429,
          0.09776228666305542,
          0.1525081992149353,
          0.07719460129737854,
          0.03444041311740875,
          -0.15559552609920502,
          0.09892231225967407,
          -0.06580385565757751,
          0.08449772000312805,
          -0.1679191291332245
        ],
        [
          0.1907232105731964,
          -0.0070593953132629395,
          -0.10169322788715363,
          0.007142558693885803,
          0.10046565532684326,
          0.19293761253356934,
          -0.04639136791229248,
          0.03656326234340668,
          -0.12336483597755432,
          -0.11943531781435013,
          0.07121202349662781,
          -0.03329688310623169,
          0.10445567965507507,
          -0.1008530929684639,
          -0.03778183460235596,
          0.13844913244247437
        ],
        [
          0.16504999995231628,
          -0.06819121539592743,
          0.12647241353988647,
          -0.18734309077262878,
          0.17935848236083984,
          0.0020125210285186768,
          0.10650920867919922,
          -0.20301386713981628,
          -0.1035522073507309,
          -0.18846271932125092,
          0.0943739116191864,
          0.07311958074569702,
          -0.11839262396097183,
          0.15014925599098206,
          0.18879425525665283,
          -0.02721087634563446
        ],
        [
          -0.20193831622600555,
          -0.008644968271255493,
          0.12058979272842407,
          0.02413848042488098,
          -0.07269047200679779,
          -0.14865107834339142,
          -0.056950896978378296,
          -0.1679801046848297,
          -0.08101428300142288,
          -0.12983977794647217,
          -0.20140746235847473,
          -0.13770321011543274,
          0.06538790464401245,
          -0.1521930694580078,
          0.08997476100921631,
          0.17525526881217957
        ],
        [
          0.08612486720085144,
          -0.11423549056053162,
          -0.17154544591903687,
          0.16754907369613647,
          -0.15763257443904877,
          -0.15993496775627136,
          -0.033427268266677856,
          0.12782618403434753,
          -0.038879960775375366,
          0.07385185360908508,
          -0.16602587699890137,
          0.18397697806358337,
          -0.028223052620887756,
          0.09229090809822083,
          0.10912209749221802,
          0.1502545177936554
        ],
        [
          -0.17536307871341705,
          0.06280308961868286,
          0.052278369665145874,
          0.026347428560256958,
          -0.11589065194129944,
          0.1813276708126068,
          0.1674167811870575,
          0.04712313413619995,
          -0.13922633230686188,
          0.003194257616996765,
          0.05893296003341675,
          0.09339174628257751,
          0.146591454744339,
          0.131086528301239,
          0.16158312559127808,
          0.12480300664901733
        ],
        [
          0.10311907529830933,
          0.09167706966400146,
          0.07717961072921753,
          -0.17174892127513885,
          -0.18817685544490814,
          -0.15148501098155975,
          0.08287832140922546,
          -0.17293372750282288,
          -0.1510489583015442,
          0.11938300728797913,
          -0.030903637409210205,
          -0.033804044127464294,
          -0.13412874937057495,
          0.11490786075592041,
          -0.04983241856098175,
          -0.09413446485996246
        ],
        [
          0.1832467019557953,
          -0.03912310302257538,
          0.04596912860870361,
          -0.06988973915576935,
          0.12352561950683594,
          0.018867552280426025,
          0.18154695630073547,
          0.08976686000823975,
          0.024977698922157288,
          0.11960890889167786,
          0.033575400710105896,
          0.03109017014503479,
          -0.07722385227680206,
          0.19350078701972961,
          0.19388219714164734,
          0.06503185629844666
        ],
        [
          0.1652412712574005,
          0.046474069356918335,
          -0.2021692544221878,
          0.005205720663070679,
          0.026337504386901855,
          0.18985751271247864,
          -0.05246923863887787,
          0.016372650861740112,
          0.08263549208641052,
          0.17018088698387146,
          -0.12138842046260834,
          -0.17513716220855713,
          -0.14125517010688782,
          0.08939030766487122,
          0.18781045079231262,
          0.1907370388507843
        ],
        [
          -0.07483401894569397,
          -0.16497822105884552,
          -0.17505580186843872,
          -0.059941232204437256,
          0.01402062177658081,
          0.1286386251449585,
          -0.15447822213172913,
          -0.05992503464221954,
          -0.18838641047477722,
          0.11694708466529846,
          0.1811792254447937,
          -0.14347802102565765,
          -0.004670232534408569,
          -0.06426997482776642,
          -0.1389893740415573,
          -0.04705211520195007
        ],
        [
          -0.1454673856496811,
          0.12135055661201477,
          0.13415080308914185,
          0.18153241276741028,
          0.1228364109992981,
          -0.09403280168771744,
          0.180543452501297,
          -0.1508992612361908,
          0.17027509212493896,
          -0.17209869623184204,
          0.03674246370792389,
          -0.10352359712123871,
          0.1234574019908905,
          0.13705140352249146,
          -0.027904972434043884,
          0.12114888429641724
        ],
        [
          -0.08740304410457611,
          -0.06441986560821533,
          0.04098968207836151,
          -0.010488316416740417,
          0.07011613249778748,
          -0.0765889436006546,
          -0.1765298694372177,
          0.1904611885547638,
          -0.032805487513542175,
          0.0828666090965271,
          0.05216944217681885,
          0.07604566216468811,
          -0.07541042566299438,
          -0.16913506388664246,
          0.08704620599746704,
          -0.19316035509109497
        ],
        [
          -0.19706851243972778,
          -0.14183615148067474,
          -0.17575621604919434,
          -0.07128506898880005,
          -0.1386798471212387,
          0.04872864484786987,
          -0.17965278029441833,
          0.028443172574043274,
          -0.12220962345600128,
          -0.06976661086082458,
          0.019815295934677124,
          0.04932492971420288,
          0.10827520489692688,
          -0.019237279891967773,
          0.10593593120574951,
          0.11077696084976196
        ],
        [
          0.03393898904323578,
          0.06696489453315735,
          0.03310517966747284,
          -0.03472380340099335,
          -0.005629703402519226,
          -0.07581786811351776,
          0.14159411191940308,
          0.18792977929115295,
          0.12749502062797546,
          0.165863037109375,
          -0.13765156269073486,
          0.02503882348537445,
          -0.05784578621387482,
          0.0970049798488617,
          0.05176714062690735,
          -0.04121364653110504
        ],
        [
          0.2027524709701538,
          -0.05126988887786865,
          0.15310877561569214,
          0.18152526021003723,
          -0.13616177439689636,
          -0.09406818449497223,
          -0.15601785480976105,
          0.12526339292526245,
          0.2033969759941101,
          0.06029573082923889,
          0.11389505863189697,
          -0.06696783006191254,
          0.0946759283542633,
          -0.17783677577972412,
          -0.17745469510555267,
          -0.053939566016197205
        ],
        [
          0.036209747195243835,
          0.19888836145401,
          0.08775866031646729,
          -0.13794180750846863,
          -0.016430124640464783,
          -0.08485133945941925,
          -0.05594615638256073,
          0.07176068425178528,
          0.1892102062702179,
          -0.04997126758098602,
          -0.006943807005882263,
          0.12236297130584717,
          0.13035649061203003,
          0.18092966079711914,
          0.1217227578163147,
          0.023902446031570435
        ],
        [
          0.14578402042388916,
          -0.10977530479431152,
          -0.19338811933994293,
          0.1616407036781311,
          -0.09211654216051102,
          0.11482101678848267,
          -0.02750764787197113,
          -0.003944307565689087,
          0.08464604616165161,
          0.18969866633415222,
          0.0953340232372284,
          0.06657561659812927,
          0.002995014190673828,
          0.1706293523311615,
          -0.1374182105064392,
          -0.14382025599479675
        ],
        [
          -0.1854766607284546,
          -0.046855270862579346,
          -0.17613819241523743,
          -0.026448756456375122,
          -0.009457692503929138,
          0.18199944496154785,
          -0.08118554204702377,
          -0.14611417055130005,
          -0.15726304054260254,
          0.12457337975502014,
          0.10556277632713318,
          -0.1548612415790558,
          0.17062968015670776,
          0.15849503874778748,
          0.17058616876602173,
          -0.1493232250213623
        ],
        [
          0.14080697298049927,
          0.06894418597221375,
          0.005857944488525391,
          -0.17831794917583466,
          -0.1943664699792862,
          -0.15187881886959076,
          0.02043740451335907,
          0.08846953511238098,
          0.19773873686790466,
          0.1654597520828247,
          -0.19233223795890808,
          -0.08128185570240021,
          0.15413007140159607,
          -0.08442715555429459,
          0.06933200359344482,
          0.06506624817848206
        ],
        [
          -0.1658887416124344,
          0.05313846468925476,
          -0.16289016604423523,
          -0.014684289693832397,
          -0.15962301194667816,
          0.1277860403060913,
          -0.17257095873355865,
          -0.042250052094459534,
          -0.06628112494945526,
          0.15678942203521729,
          0.2001943290233612,
          -0.0675102174282074,
          0.011933043599128723,
          0.19930043816566467,
          0.00917363166809082,
          0.18493086099624634
        ],
        [
          0.07758378982543945,
          0.10461995005607605,
          0.10134628415107727,
          0.16943174600601196,
          -0.03178572654724121,
          0.0644187331199646,
          0.04723939299583435,
          0.08209401369094849,
          -0.030896440148353577,
          0.033269673585891724,
