{
  "input_features": [
    "queue_len",
    "io_type",
    "size",
    "prev_queue_len_1",
    "prev_queue_len_2",
    "prev_queue_len_3",
    "prev_latency_1",
    "prev_latency_2",
    "prev_latency_3",
    "prev_throughput_1",
    "prev_throughput_2",
    "prev_throughput_3"
  ],
  "scaler_min": [
    1.0,
    0.0,
    1024.0,
    1.0,
    1.0,
    1.0,
    17.0,
    17.0,
    17.0,
    1.0,
    1.0,
    1.0
  ],
  "scaler_scale": [
    12.0,
    1.0,
    130048.0,
    11.0,
    11.0,
    12.0,
    3640.0,
    3640.0,
    4653.0,
    2978.0,
    2978.0,
    2912.0
  ],
  "layers": [
    {
      "name": "dense_1",
      "weights": [
        [
          -0.16742190718650818,
          0.10805974900722504,
          -0.0004742741584777832,
          0.02543497085571289,
          -0.17462310194969177,
          -0.07244719564914703,
          0.191852405667305,
          -0.14346015453338623,
          -0.1619507521390915,
          0.17250408232212067,
          -0.0892578586935997,
          -0.061313167214393616,
          -0.1989930272102356,
          -0.08640549331903458,
          0.20297281444072723,
          -0.05346021056175232,
          0.12886010110378265,
          0.16228310763835907,
          0.08323310315608978,
          0.078935906291008,
          -0.051283061504364014,
          -0.140231192111969,
          -0.12762445211410522,
          -0.002206072211265564,
          0.1480056196451187,
          -0.1748681515455246,
          -0.1103043183684349,
          0.12926186621189117,
          0.12101273238658905,
          -0.200973242521286,
          0.11096803843975067,
          -0.003008723258972168,
          0.05760602653026581,
          0.15211941301822662,
          0.11607398092746735,
          0.20065273344516754,
          -0.036361053586006165,
          0.180270716547966,
          0.13128884136676788,
          -0.20378942787647247,
          0.15784092247486115,
          0.043540582060813904,
          -0.0329105406999588,
          -0.007042452692985535,
          -0.17364691197872162,
          -0.19755303859710693,
          0.0463419109582901,
          0.09351764619350433,
          0.17180167138576508,
          -0.09574449807405472,
          0.20449040830135345,
          0.11020423471927643,
          -0.06294684112071991,
          -0.12798884510993958,
          -0.1805666983127594,
          -0.08145870268344879,
          0.020431622862815857,
          0.08943454921245575,
          -0.01977965235710144,
          0.11086441576480865,
          0.04128868877887726,
          0.08973716199398041,
          -0.055882528424263,
          0.12841914594173431,
          -0.10995649546384811,
          0.19985751807689667,
          0.18193809688091278,
          -0.061023831367492676,
          -0.07006017863750458,
          -0.0856221467256546,
          0.12521357834339142,
          -0.17840436100959778,
          -0.1626100093126297,
          -0.1990330070257187,
          -0.04033870995044708,
          0.11571009457111359,
          -0.1203470528125763,
          0.17930291593074799,
          -0.06364598870277405,
          -0.08513365685939789,
          -0.1207193061709404,
          0.12841252982616425,
          -0.04154959321022034,
          0.14046485722064972,
          0.14910708367824554,
          0.016895368695259094,
          -0.1646347939968109,
          -0.1680082231760025,
          -0.03313155472278595,
          -0.016950249671936035,
          0.1569746881723404,
          0.046399399638175964,
          0.19296522438526154,
          -0.016569897532463074,
          0.024248957633972168,
          -0.03139561414718628,
          0.03865927457809448,
          -0.14692193269729614,
          -0.11542188376188278,
          -0.0710311233997345,
          0.06068719923496246,
          -0.16920213401317596,
          -0.15311633050441742,
          0.03861284255981445,
          -0.13985104858875275,
          -0.2062952071428299,
          -0.13274379074573517,
          0.008801355957984924,
          -0.003850609064102173,
          -0.18512022495269775,
          -0.19713522493839264,
          0.025264441967010498,
          0.20298795402050018,
          -0.14819347858428955,
          0.16424553096294403,
          0.16748760640621185,
          -0.01012738049030304,
          -0.13679859042167664,
          -0.0840110257267952,
          0.1575971394777298,
          0.16531415283679962,
          -0.0345962792634964,
          0.14035309851169586,
          -0.11376480758190155,
          0.18472664058208466,
          -0.015665724873542786,
          -0.0014203041791915894,
          0.16964299976825714
        ],
        [
          0.1933678239583969,
          -0.1757562905550003,
          -0.17799316346645355,
          -0.09884971380233765,
          -0.19136914610862732,
          0.00871334969997406,
          0.037214845418930054,
          0.12368325889110565,
          0.05614154040813446,
          -0.0972069501876831,
          -0.1358908712863922,
          -0.07333843410015106,
          -0.039297327399253845,
          -0.15101030468940735,
          0.06768445670604706,
          -0.0014155209064483643,
          -0.16841177642345428,
          -0.07984413206577301,
          -0.16534030437469482,
          0.12616391479969025,
          -0.05325947701931,
          -0.03745318949222565,
          0.1598350554704666,
          -0.1154944896697998,
          -0.025153234601020813,
          -0.12571990489959717,
          -0.1875854730606079,
          0.13783420622348785,
          0.07441379129886627,
          -0.1892322301864624,
          -0.10021533071994781,
          -0.15906324982643127,
          0.016934648156166077,
          0.18172724545001984,
          0.1804155856370926,
          -0.12520051002502441,
          0.13993041217327118,
          -0.07053381204605103,
          -0.05712786316871643,
          0.10806997120380402,
          -0.07045607268810272,
          0.08593268692493439,
          0.05685900151729584,
          -0.180277019739151,
          0.05455382168292999,
          -0.013628005981445312,
          -0.04557719826698303,
          -0.06953164935112,
          0.027951300144195557,
          0.11599560081958771,
          0.07088114321231842,
          0.009211510419845581,
          0.02341882884502411,
          -0.04264858365058899,
          0.15240134298801422,
          0.0738036185503006,
          0.11997686326503754,
          0.04169405996799469,
          -0.07927557826042175,
          0.0017462670803070068,
          0.016950935125350952,
          -0.04908004403114319,
          -0.1228838711977005,
          -0.06417840719223022,
          0.1686558574438095,
          -0.15188243985176086,
          0.079433873295784,
          -0.19900651276111603,
          0.1588238626718521,
          0.09813560545444489,
          -0.081875279545784,
          0.2061658352613449,
          -0.11374097317457199,
          0.0762157291173935,
          0.03344842791557312,
          0.01305358111858368,
          -0.10195720195770264,
          0.03143376111984253,
          0.1412035971879959,
          -0.1361178606748581,
          -0.12577348947525024,
          -0.10212758183479309,
          -0.15841606259346008,
          0.019911780953407288,
          0.05342833697795868,
          -0.15006974339485168,
          -0.16461718082427979,
          -0.09284776449203491,
          -0.1085338220000267,
          0.18222446739673615,
          -0.1504075527191162,
          0.1934957057237625,
          -0.0411054790019989,
          0.1781228631734848,
          -0.1221122220158577,
          0.055557891726493835,
          0.12198580801486969,
          -0.007408738136291504,
          0.06594832241535187,
          0.09487767517566681,
          -0.03463561832904816,
          0.1723632663488388,
          0.20010919868946075,
          -0.0708116888999939,
          0.0013435035943984985,
          -0.1521175354719162,
          -0.05917288362979889,
          -0.09634403884410858,
          0.04088158905506134,
          -0.009632036089897156,
          0.05261601507663727,
          0.16353155672550201,
          -0.06857259571552277,
          -0.1781756430864334,
          -0.1318005621433258,
          0.19352753460407257,
          -0.16253869235515594,
          -0.016805872321128845,
          0.13385693728923798,
          -0.12740647792816162,
          -0.07297086715698242,
          -0.09957240521907806,
          0.056343331933021545,
          0.08478100597858429,
          0.2066538780927658,
          0.1580018252134323,
          -0.0788935124874115,
          0.059340015053749084
        ],
        [
          0.06035424768924713,
          0.0899352878332138,
          -0.08258691430091858,
          -0.09432942420244217,
          0.009188070893287659,
          0.20105768740177155,
          0.08117885887622833,
          -0.20092813670635223,
          -0.16440123319625854,
          0.007055193185806274,
          0.14590878784656525,
          -0.13310369849205017,
          -0.1906827837228775,
          0.03305321931838989,
          0.18650804460048676,
          0.14994437992572784,
          -0.01346413791179657,
          -0.1727643460035324,
          -0.1785481870174408,
          0.18484316766262054,
          0.20370374619960785,
          0.04577542841434479,
          0.066327765583992,
          -0.1822560578584671,
          -0.004324048757553101,
          -0.16877661645412445,
          -0.12785989046096802,
          -0.03067326545715332,
          -0.0893523246049881,
          -0.004638597369194031,
          0.10486043989658356,
          -0.18160440027713776,
          0.1345822662115097,
          0.16740427911281586,
          0.020652830600738525,
          0.05448205769062042,
          -0.1681903600692749,
          -0.10273358970880508,
          0.19278712570667267,
          0.15086759626865387,
          0.15720267593860626,
          0.0009722411632537842,
          0.11038915812969208,
          0.12641765177249908,
          0.05606316030025482,
          -0.012114852666854858,
          -0.16160815954208374,
          0.136697456240654,
          0.005600929260253906,
          -0.059571534395217896,
          -0.167133167386055,
          -0.03428463637828827,
          -0.10536675900220871,
          0.18428026139736176,
          0.0510420948266983,
          0.032326534390449524,
          0.14194346964359283,
          -0.10210206359624863,
          -0.1209951639175415,
          -0.09052347391843796,
          0.06740351021289825,
          0.10764889419078827,
          0.050244733691215515,
          0.05765505135059357,
          0.038702964782714844,
          0.0013097971677780151,
          -0.012361451983451843,
          -0.06626197695732117,
          -0.18617236614227295,
          -0.11214035749435425,
          -0.0059896111488342285,
          -0.1264936625957489,
          0.0037118196487426758,
          0.06478850543498993,
          0.07398290932178497,
          0.1136382669210434,
          0.1783684343099594,
          -0.07526884973049164,
          -0.020474210381507874,
          -0.19835706055164337,
          -0.006395384669303894,
          0.1362995058298111,
          -0.06685811281204224,
          0.107765331864357,
          -0.06582146883010864,
          -0.05280262231826782,
          -0.1534939557313919,
          -0.08091691136360168,
          -0.0052887797355651855,
          -0.04165497422218323,
          -0.1503056287765503,
          -0.0852072462439537,
          -0.054971978068351746,
          -0.12198088318109512,
          0.040408894419670105,
          -0.135869100689888,
          -0.0953793004155159,
          -0.14372693002223969,
          0.0069414228200912476,
          0.13270093500614166,
          0.08785773813724518,
          0.13446222245693207,
          -0.0669880211353302,
          0.09718553721904755,
          0.010769665241241455,
          -0.025944337248802185,
          0.07216285169124603,
          -0.18251118063926697,
          -0.16773004829883575,
          -0.18345504999160767,
          0.010800465941429138,
          0.030500710010528564,
          0.08923123776912689,
          -0.12902840971946716,
          -0.09837030619382858,
          0.19976763427257538,
          0.14759506285190582,
          -0.004455640912055969,
          -0.19468340277671814,
          0.041160911321640015,
          0.19982658326625824,
          -0.02508142590522766,
          -0.20106929540634155,
          0.001990973949432373,
          -0.18655700981616974,
          0.18794147670269012,
          0.09522216022014618,
          0.19619877636432648
        ],
        [
          0.1110202819108963,
          0.13948585093021393,
          0.1198389083147049,
          0.005065053701400757,
          0.10605616867542267,
          0.10201390087604523,
          -0.08609992265701294,
          -0.12581022083759308,
          0.101130411028862,
          0.16078276932239532,
          -0.09532135725021362,
          0.08206988871097565,
          0.10242851078510284,
          -0.04044857621192932,
          0.15659759938716888,
          -0.1665915697813034,
          0.028795361518859863,
          0.11282958090305328,
          -0.06813371181488037,
          0.045121535658836365,
          -0.011043205857276917,
          -0.16673603653907776,
          -0.002321973443031311,
          -0.13437248766422272,
          0.15111751854419708,
          -0.17760226130485535,
          -0.07580842077732086,
          -0.1906256377696991,
          -0.192641481757164,
          -0.1944863647222519,
          -0.17657962441444397,
          -0.18785417079925537,
          -0.1171768307685852,
          0.1459791213274002,
          0.09969021379947662,
          -0.01636052131652832,
          0.06221328675746918,
          -0.1635996252298355,
          -0.059272974729537964,
          -0.07641902565956116,
          -0.20346076786518097,
          -0.14589150249958038,
          -0.1624559760093689,
          -0.18901248276233673,
          0.09164546430110931,
          0.20544804632663727,
          0.15899808704853058,
          0.013123974204063416,
          0.20689119398593903,
          0.17661766707897186,
          0.16016392409801483,
          -0.15156744420528412,
          -0.11124876886606216,
          -0.0242549329996109,
          0.17025192081928253,
          0.2023242563009262,
          -0.16704876720905304,
          -0.17828136682510376,
          0.18635572493076324,
          0.05175347626209259,
          -0.12726646661758423,
          0.07463283836841583,
          0.004845067858695984,
          -0.17127661406993866,
          0.1086897999048233,
          -0.008218735456466675,
          -0.1724380999803543,
          0.12516121566295624,
          0.19183684885501862,
          0.19552095234394073,
          0.12070222198963165,
          -0.20640210807323456,
          -0.2022067904472351,
          -0.027224913239479065,
          -0.006360143423080444,
          0.05305607616901398,
          -0.04345296323299408,
          0.015732601284980774,
          0.15913189947605133,
          0.1500590294599533,
          0.18300674855709076,
          -0.04065820574760437,
          -0.14833596348762512,
          -0.151760533452034,
          0.09467358887195587,
          0.08398367464542389,
          -0.10770826786756516,
          0.04414395987987518,
          0.1367819756269455,
          -0.03093402087688446,
          -0.13075345754623413,
          -0.006570294499397278,
          -0.04835927486419678,
          -0.030928492546081543,
          0.07961003482341766,
          0.14501254260540009,
          -0.09364384412765503,
          0.12255530059337616,
          -0.06290735304355621,
          -0.08096404373645782,
          0.031877338886260986,
          0.19355528056621552,
          0.18932057917118073,
          0.019551381468772888,
          0.13142378628253937,
          -0.0011210590600967407,
          0.2010992020368576,
          -0.059298545122146606,
          -0.05294299125671387,
          -0.06660608947277069,
          -0.1828436553478241,
          -0.05441226065158844,
          0.05908660590648651,
          0.1214790791273117,
          -0.11189708113670349,
          -0.12478605657815933,
          0.053070589900016785,
          0.03525170683860779,
          0.11184461414813995,
          0.13773293793201447,
          -0.1851380318403244,
          -0.1454254686832428,
          -0.08639088273048401,
          -0.04591244459152222,
          -0.012593328952789307,
          0.13944830000400543,
          0.014760509133338928,
          -0.10261992365121841
        ],
        [
          -0.05570365488529205,
          0.2031402438879013,
          0.12137152254581451,
          0.20071791112422943,
          0.04112863540649414,
          -0.06300137937068939,
          0.09560476243495941,
          0.19858227670192719,
          0.10120944678783417,
          -0.15274980664253235,
          0.03655847907066345,
          -0.12888163328170776,
          -0.058290764689445496,
          -0.0514644980430603,
          0.19799847900867462,
          -0.05660437047481537,
          -0.1256047934293747,
          -0.12896046042442322,
          -0.08725843578577042,
          -0.0375116765499115,
          0.20664484798908234,
          -0.07453994452953339,
          -0.10298659652471542,
          0.003952234983444214,
          -0.02780584990978241,
          0.044366076588630676,
          0.03362646698951721,
          -0.1679029017686844,
          -0.11336057633161545,
          -0.015057340264320374,
          0.1482020765542984,
          0.20449908077716827,
          0.11145247519016266,
          -0.045637279748916626,
          -0.15887227654457092,
          0.10487623512744904,
          0.0083848237991333,
          0.04525993764400482,
          0.04215268790721893,
          -0.15409301221370697,
          -0.16633126139640808,
          0.16346721351146698,
          -0.06619375944137573,
          -0.09189541637897491,
          0.10886161029338837,
          0.189932718873024,
          -0.01689229905605316,
          0.16861699521541595,
          0.16763006150722504,
          -0.12360429018735886,
          0.19597409665584564,
          -0.14941704273223877,
          0.1627265065908432,
          0.03630705177783966,
          0.035299137234687805,
          0.1704256385564804,
          0.04439865052700043,
          -0.03948339819908142,
          -0.08037979900836945,
          -0.021002724766731262,
          0.05128498375415802,
          0.16562457382678986,
          0.19139106571674347,
          -0.10281424224376678,
          -0.19764038920402527,
          -0.10079651325941086,
          -0.053896188735961914,
          -0.030362308025360107,
          0.021897435188293457,
          -0.1810189187526703,
          0.08598379790782928,
          -0.1418946385383606,
          0.15486930310726166,
          -0.06440234184265137,
          0.13725228607654572,
          0.17973332107067108,
          0.0713195651769638,
          -0.20000135898590088,
          0.05215214192867279,
          0.029997065663337708,
          0.17485888302326202,
          -0.0679834634065628,
          0.07765953242778778,
          0.19420526921749115,
          0.12551917135715485,
          -0.030746161937713623,
          -0.11098712682723999,
          -0.002926945686340332,
          -0.12294092774391174,
          0.034755319356918335,
          0.06001053750514984,
          0.12802548706531525,
          0.1330263763666153,
          0.19425205886363983,
          0.12270624935626984,
          0.13832305371761322,
          0.1229049414396286,
          0.11324454843997955,
          -0.15390856564044952,
          0.10572858154773712,
          -0.009404987096786499,
          -0.1418953239917755,
          -0.14083394408226013,
          -0.15502265095710754,
          0.05476219952106476,
          -0.010657384991645813,
          0.05891998112201691,
          0.03496354818344116,
          -0.1766422986984253,
          -0.16446900367736816,
          0.1997634619474411,
          0.15507246553897858,
          0.04749266803264618,
          -0.17458957433700562,
          -0.15972784161567688,
          -0.03581629693508148,
          -0.1705811321735382,
          -0.1500459611415863,
          0.03527143597602844,
          0.1486072987318039,
          -0.090166375041008,
          -0.15214985609054565,
          0.17989768087863922,
          0.09302978217601776,
          0.10876990854740143,
          -0.12266916781663895,
          -0.036204248666763306,
          0.09842218458652496
        ],
        [
          0.11030055582523346,
          0.1883324533700943,
          -0.029387012124061584,
          -0.12584008276462555,
          0.07005532085895538,
          -0.1715274453163147,
          -0.18229874968528748,
          -0.10008882731199265,
          -0.2065192312002182,
          0.07136054337024689,
          0.1993304342031479,
          0.15522728860378265,
          -0.011151745915412903,
          -0.02815292775630951,
          0.07300092279911041,
          0.09695227444171906,
          -0.020808711647987366,
          0.08476732671260834,
          0.11917801201343536,
          -0.05809250473976135,
          0.20499227941036224,
          -0.011245816946029663,
          0.12707816064357758,
          -0.07723303139209747,
          0.09503050148487091,
          -0.09011020511388779,
          0.07463259994983673,
          -0.0663837343454361,
          -0.14378882944583893,
          0.135394886136055,
          0.20322592556476593,
          0.07706870138645172,
          -0.16012482345104218,
          0.10578601062297821,
          0.015627562999725342,
          0.12515608966350555,
          0.17960645258426666,
          -0.03316052258014679,
          0.1137503832578659,
          -0.11089522391557693,
          -0.20497825741767883,
          -0.08920198678970337,
          -0.02291819453239441,
          -0.13283997774124146,
          0.1676764339208603,
          -0.14329718053340912,
          0.016516894102096558,
          0.07648707926273346,
          -0.062293052673339844,
          -0.19395655393600464,
          0.13541670143604279,
          -0.003173232078552246,
          -0.1728171557188034,
          0.019064515829086304,
          -0.07775187492370605,
          -0.060965731739997864,
          0.09828107059001923,
          -0.1917915940284729,
          0.013112470507621765,
          0.02299267053604126,
          -0.053601622581481934,
          -0.19312286376953125,
          -0.1940314918756485,
          0.08575959503650665,
          -0.04499320685863495,
          -0.1556733250617981,
          -0.18857508897781372,
          -0.013689354062080383,
          0.10690940916538239,
          -0.16725966334342957,
          0.08675236999988556,
          0.08524568378925323,
          0.04565359652042389,
          0.17929737269878387,
          0.09323091804981232,
          -0.1221931204199791,
          0.1535681039094925,
          0.13258050382137299,
          0.1235998123884201,
          0.1841614991426468,
          -0.002246841788291931,
          0.05384393036365509,
          -0.050810620188713074,
          -0.20657604932785034,
          0.07164640724658966,
          -0.20425447821617126,
          -0.1423528790473938,
          0.08191384375095367,
          -0.18767954409122467,
          -0.08919817954301834,
          0.16306202113628387,
          0.17625661194324493,
          0.0999395102262497,
          0.06251241266727448,
          -0.012204691767692566,
          -0.170469731092453,
          0.08636133372783661,
          -0.007243141531944275,
          0.11321146786212921,
          -0.2055962085723877,
          0.19519449770450592,
          0.02527347207069397,
          0.16481302678585052,
          0.13159431517124176,
          0.1773063987493515,
          0.06580980122089386,
          0.047281160950660706,
          0.15803523361682892,
          0.1011144369840622,
          -0.03033086657524109,
          0.20132611691951752,
          0.07334540784358978,
          -0.09074849635362625,
          0.060233309864997864,
          -0.0702734887599945,
          0.008855149149894714,
          0.04872150719165802,
          0.196990504860878,
          -0.16955864429473877,
          -0.09348294138908386,
          -0.017573729157447815,
          -0.17467600107192993,
          -0.1331450641155243,
          -0.11076230555772781,
          -0.17378772795200348,
          0.0318991094827652,
          -0.0992879569530487,
          0.06488220393657684
        ],
        [
          0.14894850552082062,
          0.14924030005931854,
          0.01665361225605011,
          0.17068709433078766,
          -0.1432843953371048,
          0.17851288616657257,
          0.18381910026073456,
          0.15692882239818573,
          0.14188547432422638,
          0.013311177492141724,
          0.13874496519565582,
          0.13940896093845367,
          -0.0019041001796722412,
          0.0309007465839386,
          0.19547845423221588,
          -0.15340551733970642,
          0.10065372288227081,
          0.18594755232334137,
          -0.16802993416786194,
          -0.04646080732345581,
          -0.18017974495887756,
          -0.1520037055015564,
          -0.00661526620388031,
          -0.035973355174064636,
          -0.023671329021453857,
          0.10755552351474762,
          0.16711126267910004,
          -0.19217249751091003,
          0.08147071301937103,
          -0.1990736871957779,
          0.06038297712802887,
          -0.037976473569869995,
          0.10133244097232819,
          0.15831507742404938,
          0.09625692665576935,
          -0.026105985045433044,
          0.08422334492206573,
          0.05664880573749542,
          0.20107828080654144,
          0.1344413310289383,
          -0.10834956914186478,
          -0.18675675988197327,
          -0.06770938634872437,
          -0.17843900620937347,
          -0.04956458508968353,
          0.05185754597187042,
          -0.1470285952091217,
          -0.06761525571346283,
          -0.020539313554763794,
          0.07176931202411652,
          -0.11357735097408295,
          -0.1940663754940033,
          0.13153903186321259,
          0.06869401037693024,
          -0.14985010027885437,
          0.08068706095218658,
          -0.0020355433225631714,
          0.16349966824054718,
          -0.19872674345970154,
          0.1532711237668991,
          0.036634743213653564,
          0.1247839480638504,
          -0.014220386743545532,
          -0.08060586452484131,
          0.1901623159646988,
          0.12994666397571564,
          -0.1512196660041809,
          0.1801314800977707,
          -0.03844131529331207,
          0.1613791435956955,
          0.16612835228443146,
          0.1776738315820694,
          -0.1958828866481781,
          -0.010634824633598328,
          0.2062329202890396,
          0.09657852351665497,
          -0.09541651606559753,
          -0.027378767728805542,
          -0.07894735038280487,
          -0.009802907705307007,
          0.0989922434091568,
          -0.20021314918994904,
          -0.12304606288671494,
          0.0949346274137497,
          0.012960448861122131,
          -0.04381677508354187,
          0.07069061696529388,
          -0.13454297184944153,
          -0.06878972053527832,
          -0.08713874965906143,
          0.10305489599704742,
          -0.07944872975349426,
          -0.08653994649648666,
          0.01536637544631958,
          0.029626592993736267,
          -0.10384897142648697,
          -0.1899832934141159,
          -0.20338894426822662,
          -0.14326298236846924,
          0.07967068254947662,
          0.16029761731624603,
          0.16313685476779938,
          0.012124776840209961,
          -0.01196432113647461,
          -0.061094850301742554,
          -0.0057754963636398315,
          -0.18476933240890503,
          -0.12339857220649719,
          0.05206967890262604,
          -0.163993701338768,
          0.06181474030017853,
          -0.18074828386306763,
          0.09760113060474396,
          -0.009525179862976074,
          0.053209975361824036,
          -0.15997418761253357,
          -0.03154757618904114,
          -0.02688603103160858,
          0.1271456927061081,
          -0.1683882772922516,
          0.14574865996837616,
          0.02991563081741333,
          -0.09224925935268402,
          -0.12588652968406677,
          0.015237599611282349,
          -0.16745828092098236,
          -0.10116097331047058,
          0.1265900582075119
        ],
        [
          -0.13989794254302979,
          0.15725035965442657,
          -0.0348924845457077,
          0.05031748116016388,
          -0.036307841539382935,
          -0.07580265402793884,
          0.05908738076686859,
          -0.1711820513010025,
          0.16204966604709625,
          -0.11558481305837631,
          0.20689775049686432,
          -0.14301081001758575,
          0.14828889071941376,
          -0.04990662634372711,
          0.12038324773311615,
          0.05084846913814545,
          -0.00043824315071105957,
          -0.07845546305179596,
          -0.07944028079509735,
          -0.12409781664609909,
          0.08880801498889923,
          -0.0950111448764801,
          -0.0986783429980278,
          0.11278752982616425,
          0.0699610561132431,
          -0.07945652306079865,
          0.12571580708026886,
          0.013654664158821106,
          -0.1510593146085739,
          0.15829654037952423,
          0.05976729094982147,
          0.14467547833919525,
          -0.027880623936653137,
          -0.03435458242893219,
          -0.1581301987171173,
          0.027154535055160522,
          0.015401706099510193,
          0.192924365401268,
          0.14910544455051422,
          0.02136911451816559,
          -0.003147318959236145,
          -0.16110214591026306,
          0.19483940303325653,
          -0.2039458453655243,
          -0.04076279699802399,
          0.03904274106025696,
          -0.19116732478141785,
          -0.025525391101837158,
          -0.10394018143415451,
          0.16529278457164764,
          -0.1250646710395813,
          -0.1468079686164856,
          -0.05059906840324402,
          -0.19508476555347443,
          -0.11969292163848877,
          0.20548228919506073,
          0.11780698597431183,
          0.04262036085128784,
          0.17696534097194672,
          0.08487798273563385,
          -0.16195282340049744,
          0.18360935151576996,
          -0.06704597175121307,
          -0.032262369990348816,
          -0.1273883730173111,
          -0.10626062005758286,
          0.17152948677539825,
          -0.04363158345222473,
          0.1251593977212906,
          0.01586359739303589,
          -0.041867852210998535,
          0.011765509843826294,
          -0.05014646053314209,
          0.007107853889465332,
          0.07582466304302216,
          0.19413776695728302,
          -0.07087787985801697,
          0.13522084057331085,
          0.0012799352407455444,
          -0.04782266914844513,
          -0.16323113441467285,
          0.09714208543300629,
          -0.06232389807701111,
          0.04654683172702789,
          -0.0370553582906723,
          -0.16034653782844543,
          0.16060803830623627,
          0.09908969700336456,
          -0.03618939220905304,
          0.1289568394422531,
          0.17035408318042755,
          -0.18977481126785278,
          0.031723976135253906,
          0.20030485093593597,
          -0.20542000234127045,
          -0.09241164475679398,
          -0.20580829679965973,
          -0.07201290130615234,
          0.14538909494876862,
          0.08119969069957733,
          0.01417630910873413,
          -0.12839506566524506,
          -0.1675419956445694,
          -0.13924774527549744,
          -0.1071358248591423,
          0.07259403169155121,
          -0.10967288911342621,
          -0.1712193638086319,
          0.04570646584033966,
          0.15214990079402924,
          0.024348169565200806,
          -0.06289492547512054,
          -0.15897445380687714,
          0.10189561545848846,
          0.0022747814655303955,
          0.06999562680721283,
          0.14951981604099274,
          0.06430371105670929,
          -0.04377704858779907,
          0.1462358683347702,
          0.19020415842533112,
          -0.1337091624736786,
          0.09012569487094879,
          -0.02256987988948822,
          -0.20533417165279388,
          -0.007129371166229248,
          -0.1973559558391571,
          -0.00696718692779541
        ],
        [
          0.17072634398937225,
          0.004540085792541504,
          -0.13816124200820923,
          0.14359234273433685,
          0.16646571457386017,
          0.008470460772514343,
          0.169801726937294,
          0.18585361540317535,
          -0.1799977719783783,
          0.04258294403553009,
          -0.1995384395122528,
          0.20217908918857574,
          0.014860808849334717,
          0.019362837076187134,
          -0.0940776988863945,
          -0.0680907666683197,
          -0.12022923678159714,
          -0.17106275260448456,
          0.08608858287334442,
          0.20548711717128754,
          -0.13268697261810303,
          -0.18131566047668457,
          0.12420113384723663,
          0.041780292987823486,
          0.06934438645839691,
          -0.10793718695640564,
          -0.14528504014015198,
          0.16230161488056183,
          -0.1841975301504135,
          -0.08297161012887955,
          -0.08280394226312637,
          -0.0776495486497879,
          0.09223051369190216,
          -0.028776168823242188,
          -0.1942746639251709,
          0.13861726224422455,
          -0.18712900578975677,
          0.11969830095767975,
          -0.03335168957710266,
          -0.04008693993091583,
          0.19227762520313263,
          -0.14660032093524933,
          -0.09326513111591339,
          -0.07462671399116516,
          -0.08092382550239563,
          -0.1228625476360321,
          -0.001450464129447937,
          0.15642400085926056,
          0.13266848027706146,
          -0.19640833139419556,
          0.12129916250705719,
          -0.037791237235069275,
          0.03979514539241791,
          -0.0443999320268631,
          -0.012687742710113525,
          -0.18681219220161438,
          0.12292014062404633,
          -0.022374123334884644,
          -0.1213507354259491,
          0.0019633322954177856,
          0.18091364204883575,
          -0.03710225224494934,
          0.07816638052463531,
          0.05746828019618988,
          -0.14588621258735657,
          0.17321167886257172,
          -0.1889791190624237,
          0.12289680540561676,
          0.18468843400478363,
          -0.20253945887088776,
          -0.1565706431865692,
          0.0301702618598938,
          -0.10847513377666473,
          -0.13358642160892487,
          -0.13487963378429413,
          0.00038345158100128174,
          0.021617084741592407,
          0.2022220939397812,
          -0.15746194124221802,
          -0.11616095900535583,
          -0.1282041072845459,
          0.0831059068441391,
          -0.196004256606102,
          -0.13901183009147644,
          0.029078379273414612,
          0.19242070615291595,
          -0.13190209865570068,
          -0.13534101843833923,
          -0.20671938359737396,
          -0.05476349592208862,
          0.10127781331539154,
          0.020208418369293213,
          0.11260490119457245,
          0.1106148213148117,
          0.02815668284893036,
          -0.15201155841350555,
          -0.11898399889469147,
          0.1254129856824875,
          0.17829068005084991,
          -0.11425675451755524,
          -0.07080067694187164,
          0.05573900043964386,
          -0.08125485479831696,
          -0.110897496342659,
          0.1896945685148239,
          -0.039451465010643005,
          -0.03134714066982269,
          0.06229923665523529,
          0.06741936504840851,
          0.05137871205806732,
          0.07828675210475922,
          0.042455896735191345,
          0.0007391273975372314,
          0.1063358336687088,
          -0.10812894254922867,
          0.12624581158161163,
          -0.08518755435943604,
          -0.15485908091068268,
          0.10905684530735016,
          0.18216381967067719,
          0.03673848509788513,
          -0.1536426693201065,
          0.029800623655319214,
          -0.052077025175094604,
          0.02074439823627472,
          0.18728379905223846,
          0.11724342405796051,
          0.1899235099554062
        ],
        [
          -0.16845066845417023,
          0.044039711356163025,
          0.024376004934310913,
          -0.15940894186496735,
          -0.14776456356048584,
          -0.053510308265686035,
          -0.17471984028816223,
          0.19661696255207062,
          0.09084074199199677,
          -0.0490996390581131,
          0.02984762191772461,
          -0.12509335577487946,
          0.07355944812297821,
          0.029754817485809326,
          0.01357218623161316,
          -0.004687026143074036,
          0.16104914247989655,
          0.0651121586561203,
          0.03655301034450531,
          -0.052268385887145996,
          -0.1281033158302307,
          0.1316758543252945,
          -0.0812339335680008,
          -0.17053872346878052,
          0.16533733904361725,
          0.05953289568424225,
          -0.05754241347312927,
          -0.1702665239572525,
          0.07249091565608978,
          -0.18648755550384521,
          -0.19292716681957245,
          -0.1072334498167038,
          -0.08627751469612122,
          0.14214478433132172,
          -0.1283208280801773,
          -0.032651856541633606,
          -0.1427057385444641,
          -0.04688739776611328,
          0.0707564502954483,
          -0.016317039728164673,
          -0.003121808171272278,
          -0.1438242644071579,
          0.19875232875347137,
          0.14399562776088715,
          -0.1334260106086731,
          -0.16400563716888428,
          0.15936334431171417,
          0.1939866691827774,
          0.07590822875499725,
          0.08264599740505219,
          -0.19398795068264008,
          0.0011927634477615356,
          0.0801347941160202,
          0.17696602642536163,
          0.020691588521003723,
          0.16643713414669037,
          0.16248993575572968,
          -0.11303205043077469,
          -0.191059872508049,
          0.11163617670536041,
          -0.1914336085319519,
          -0.02090337872505188,
          0.1852778047323227,
          0.10984896123409271,
          0.1787470430135727,
          0.01976001262664795,
          -0.10253483057022095,
          0.19293160736560822,
          -0.013211175799369812,
          -0.13951581716537476,
          -0.06262834370136261,
          0.028880953788757324,
          0.061716511845588684,
          -0.037045836448669434,
          -0.19787736237049103,
          -0.1476873755455017,
          0.1841639131307602,
          0.14322806894779205,
          -0.16557830572128296,
          0.08265043795108795,
          -0.09580712765455246,
          -0.075018510222435,
          -0.09063872694969177,
          0.13521097600460052,
          -0.01633244752883911,
          0.17303012311458588,
          0.13435505330562592,
          0.16452868282794952,
          -0.04522228240966797,
          0.07142968475818634,
          -0.03752574324607849,
          -0.01735103130340576,
          -0.09565555304288864,
          0.012110114097595215,
          0.1736271232366562,
          -0.07883752882480621,
          -0.19506463408470154,
          -0.09044613689184189,
          0.14117027819156647,
          0.10960088670253754,
          -0.16743552684783936,
          0.15755464136600494,
          -0.02306714653968811,
          0.06404159963130951,
          -0.0972619354724884,
          0.14251397550106049,
          0.13206897675991058,
          -0.06535063683986664,
          0.12863902747631073,
          -0.08192183077335358,
          -0.12050159275531769,
          -0.11410320550203323,
          -0.1235077977180481,
          0.032402247190475464,
          0.1311885267496109,
          0.13114292919635773,
          -0.09342938661575317,
          0.1243702620267868,
          0.022889360785484314,
          0.09375415742397308,
          -0.12448675185441971,
          0.11340819299221039,
          -0.07922039926052094,
          -0.04602862894535065,
          -0.037109360098838806,
          -0.10280930995941162,
          0.15530242025852203,
          0.05969326198101044
        ],
        [
          -0.0501919686794281,
          -0.11205393821001053,
          0.061182573437690735,
          0.04966913163661957,
          -0.06984414160251617,
          -0.011468872427940369,
          -0.11020718514919281,
          0.19258873164653778,
          -0.18361620604991913,
          0.02834804356098175,
          0.010990098118782043,
          -0.042340248823165894,
          -0.05329836905002594,
          -0.12602433562278748,
          0.1833214908838272,
          -0.1889551877975464,
          0.12640424072742462,
          -0.09343654662370682,
          -0.16996192932128906,
          -0.18430271744728088,
          0.12581036984920502,
          0.11264993250370026,
          0.09982974827289581,
          -0.07238811254501343,
          -0.06229640543460846,
          0.03391249477863312,
          0.0014596432447433472,
          0.15388087928295135,
          0.08939053118228912,
          0.12854529917240143,
          0.10745979845523834,
          -0.01300540566444397,
          0.11180759966373444,
          0.08970828354358673,
          0.10168419778347015,
          -0.19738265872001648,
          -0.07536529004573822,
          0.2044437974691391,
          -0.01385296881198883,
          -0.17110317945480347,
          -0.007567122578620911,
          0.19110439717769623,
          -0.04122753441333771,
          -0.08298532664775848,
          -0.135046124458313,
          0.005844399333000183,
          0.20240609347820282,
          -0.03051675856113434,
          0.07819826900959015,
          0.05413271486759186,
          0.06654493510723114,
          0.03539162874221802,
          0.17244954407215118,
          0.017955362796783447,
          0.13694898784160614,
          -0.16406689584255219,
          0.11930783092975616,
          0.16565226018428802,
          -0.03322000801563263,
          0.13533832132816315,
          -0.1341923326253891,
          0.08454234898090363,
          -0.11969815194606781,
          -0.10348762571811676,
          0.05589698255062103,
          0.13281209766864777,
          -0.1036725640296936,
          0.19697381556034088,
          0.1788983792066574,
          0.009525328874588013,
          0.021590188145637512,
          -0.10037900507450104,
          0.1193036288022995,
          0.058259472250938416,
          0.007933005690574646,
          -0.006060495972633362,
          -0.07240124046802521,
          -0.08824973553419113,
          0.06120885908603668,
          0.17237432301044464,
          0.030267298221588135,
          0.004647284746170044,
          -0.13871321082115173,
          0.068494513630867,
          -0.14595620334148407,
          -0.10566680133342743,
          0.01930631697177887,
          -0.051904574036598206,
          0.0374956876039505,
          0.049447521567344666,
          -0.13308070600032806,
          0.19069986045360565,
          0.12640433013439178,
          -0.053573042154312134,
          0.008443713188171387,
          0.15078891813755035,
          0.1664666086435318,
          -0.12763915956020355,
          -0.09416269510984421,
          0.05312083661556244,
          0.011876210570335388,
          -0.0817020833492279,
          -0.029317066073417664,
          0.1749504953622818,
          0.03708122670650482,
          0.06684084236621857,
          0.14152629673480988,
          0.05581529438495636,
          0.12275786697864532,
          -0.18064014613628387,
          -0.17454344034194946,
          -0.11840583384037018,
          0.1647731512784958,
          -0.168379545211792,
          0.17350886762142181,
          -0.202194944024086,
          -0.02314499020576477,
          0.1083497554063797,
          0.009420186281204224,
          0.17698587477207184,
          -0.2045215517282486,
          0.14124934375286102,
          -0.18839295208454132,
          -0.18480171263217926,
          -0.168583482503891,
          -0.10974662750959396,
          -0.20196108520030975,
          -0.09021208435297012
        ],
        [
          0.09025605022907257,
          -0.13071328401565552,
          0.06410713493824005,
          0.016466841101646423,
          0.13053090870380402,
          -0.11113292723894119,
          -0.04520796239376068,
          0.039604127407073975,
          -0.020267456769943237,
          -0.12031620740890503,
          0.1188836544752121,
          -0.02097681164741516,
          0.19142957031726837,
          0.1773703247308731,
          -0.06149899959564209,
          -0.09684180468320847,
          0.027415037155151367,
          -0.1493835747241974,
          0.14561627805233002,
          -0.07768711447715759,
          0.1615048497915268,
          -0.13683141767978668,
          -0.073878213763237,
          -0.10905266553163528,
          0.13566066324710846,
          -0.0029599666595458984,
          -0.12245786935091019,
          -0.102817602455616,
          0.04679875075817108,
          0.11189748346805573,
          -0.12898819148540497,
          0.0930328518152237,
          -0.026728078722953796,
          -0.1236189529299736,
          -0.12263856828212738,
          -0.06508520245552063,
          0.17723791301250458,
          0.1432870477437973,
          -0.04122157394886017,
          0.01832801103591919,
          0.0630391389131546,
          0.02720235288143158,
          -0.014822989702224731,
          0.166253462433815,
          -0.09721948951482773,
          -0.16622579097747803,
          0.11865676939487457,
          0.06628744304180145,
          -0.1571311056613922,
          0.05540268123149872,
          0.01860608160495758,
          -0.06398704648017883,
          0.005872875452041626,
          -0.11866866052150726,
          0.1874968260526657,
          -0.028322219848632812,
          -0.194372296333313,
          -0.11001883447170258,
          -0.0279218852519989,
          0.006346657872200012,
          -0.08172410726547241,
          -0.02795851230621338,
          -0.14188867807388306,
          -0.06335315108299255,
          0.0800909548997879,
          0.02634042501449585,
          -0.06682658195495605,
          -0.07560290396213531,
          0.10393179953098297,
          0.04312799870967865,
          0.08332352340221405,
          -0.05011032521724701,
          -0.0613594651222229,
          -0.11163529008626938,
          0.02151411771774292,
          0.11736719310283661,
          0.19696982204914093,
          -0.10657729208469391,
          -0.126370370388031,
          0.15649043023586273,
          0.03204020857810974,
          -0.08524263650178909,
          -0.1432182490825653,
          -0.17413386702537537,
          -0.04602527618408203,
          0.056732550263404846,
          -0.15523661673069,
          0.182684525847435,
          0.13729442656040192,
          0.14215223491191864,
          -0.028511956334114075,
          -0.0003339499235153198,
          -0.17784233391284943,
          -0.1364763379096985,
          0.04401479661464691,
          0.17161081731319427,
          0.07348962128162384,
          -0.06310607492923737,
          -0.11086457222700119,
          -0.12727633118629456,
          0.06276087462902069,
          0.0799727588891983,
          0.034896716475486755,
          0.14510579407215118,
          0.1197565346956253,
          -0.09861235320568085,
          0.18815968930721283,
          -0.1192956417798996,
          -0.19824428856372833,
          0.19376777112483978,
          -0.19662995636463165,
          -0.014811292290687561,
          -0.18025200068950653,
          -0.009181901812553406,
          0.0061508119106292725,
          0.1703808754682541,
          0.10059626400470734,
          0.12717001140117645,
          -0.054179251194000244,
          -0.024398311972618103,
          -0.17650677263736725,
          0.09602360427379608,
          -0.14984926581382751,
          0.09509699046611786,
          0.1421329528093338,
          0.06017099320888519,
          -0.15722709894180298,
          0.0597945898771286
        ]
      ],
      "bias": [
        0.0,
        0.0,
        0.0,
        0.0,
        0.0,
        0.0,
        0.0,
        0.0,
        0.0,
        0.0,
        0.0,
        0.0,
        0.0,
        0.0,
        0.0,
        0.0,
        0.0,
        0.0,
        0.0,
        0.0,
        0.0,
        0.0,
        0.0,
        0.0,
        0.0,
        0.0,
        0.0,
        0.0,
        0.0,
        0.0,
        0.0,
        0.0,
        0.0,
        0.0,
        0.0,
        0.0,
        0.0,
        0.0,
        0.0,
        0.0,
        0.0,
        0.0,
        0.0,
        0.0,
        0.0,
        0.0,
        0.0,
        0.0,
        0.0,
        0.0,
        0.0,
        0.0,
        0.0,
        0.0,
        0.0,
        0.0,
        0.0,
        0.0,
        0.0,
        0.0,
        0.0,
        0.0,
        0.0,
        0.0,
        0.0,
        0.0,
        0.0,
        0.0,
        0.0,
        0.0,
        0.0,
        0.0,
        0.0,
        0.0,
        0.0,
        0.0,
        0.0,
        0.0,
        0.0,
        0.0,
        0.0,
        0.0,
        0.0,
        0.0,
        0.0,
        0.0,
        0.0,
        0.0,
        0.0,
        0.0,
        0.0,
        0.0,
        0.0,
        0.0,
        0.0,
        0.0,
        0.0,
        0.0,
        0.0,
        0.0,
        0.0,
        0.0,
        0.0,
        0.0,
        0.0,
        0.0,
        0.0,
        0.0,
        0.0,
        0.0,
        0.0,
        0.0,
        0.0,
        0.0,
        0.0,
        0.0,
        0.0,
        0.0,
        0.0,
        0.0,
        0.0,
        0.0,
        0.0,
        0.0,
        0.0,
        0.0,
        0.0,
        0.0
      ]
    },
    {
      "name": "dense_2",
      "weights": [
        [
          0.12381762266159058,
          0.06966349482536316,
          -0.07573182880878448,
          0.06178605556488037,
          0.005017518997192383,
          -0.16166843473911285,
          0.08805146813392639,
          0.07247021794319153,
          0.06153342127799988,
          0.0013940632343292236,
          0.03123009204864502,
          0.1678313910961151,
          -0.17285415530204773,
          -0.19769568741321564,
          0.20011672377586365,
          -0.18513745069503784
        ],
        [
          0.13813209533691406,
          0.06486925482749939,
          -0.19988477230072021,
          0.10303372144699097,
          -0.004687756299972534,
          0.1042928695678711,
          -0.11995536834001541,
          -0.06840452551841736,
          -0.01048491895198822,
          -0.03912836313247681,
          0.12497565150260925,
          0.016942933201789856,
          0.19979795813560486,
          -0.09236931800842285,
          -0.10732210427522659,
          0.09200197458267212
        ],
        [
          0.03309263288974762,
          -0.09781335294246674,
          0.20384275913238525,
          0.14144915342330933,
          -0.17720936238765717,
          0.11680072546005249,
          0.0995606780052185,
          -0.01573510468006134,
          0.025168567895889282,
          -0.05674444139003754,
          -0.07006484270095825,
          0.07715591788291931,
          -0.11096765100955963,
          0.158940851688385,
          0.06475761532783508,
          -0.2007310837507248
        ],
        [
          -0.10133100301027298,
          0.1484701931476593,
          0.03163418173789978,
          -0.1077062338590622,
          -0.13678890466690063,
          -0.1422952264547348,
          -0.11409571766853333,
          -0.07689125835895538,
          0.09469437599182129,
          -0.12005703896284103,
          0.1736144721508026,
          -0.145727276802063,
          0.12673887610435486,
          -0.181987926363945,
          0.11762362718582153,
          0.13976046442985535
        ],
        [
          -0.18593096733093262,
          0.040582865476608276,
          -0.07497583329677582,
          0.14407750964164734,
          -0.026207417249679565,
          -0.17916975915431976,
          -0.11735232174396515,
          -0.0008511841297149658,
          0.07182511687278748,
          0.12963342666625977,
          0.0442902147769928,
          0.16022706031799316,
          -0.04513035714626312,
          -0.17658865451812744,
          -0.17149507999420166,
          -0.1447540819644928
        ],
        [
          0.19795382022857666,
          -0.12466371059417725,
          0.0020389556884765625,
          0.12500262260437012,
          -0.12739402055740356,
          0.07441762089729309,
          0.020729273557662964,
          0.1817212700843811,
          0.05598562955856323,
          0.09442150592803955,
          -0.17946751415729523,
          0.09582611918449402,
          0.11773085594177246,
          -0.1435735523700714,
          -0.020848989486694336,
          -0.18249523639678955
        ],
        [
          0.0013296306133270264,
          0.08417290449142456,
          0.06523171067237854,
          0.012808278203010559,
          -0.1485166698694229,
          0.1677384376525879,
          0.11714023351669312,
          -0.07686634361743927,
          0.05782923102378845,
          0.005429685115814209,
          -0.19760312139987946,
          -0.04028789699077606,
          -0.07944253832101822,
          -0.13602297008037567,
          -0.07351396977901459,
          -0.003468453884124756
        ],
        [
          0.03502534329891205,
          0.12491318583488464,
          -0.038110628724098206,
          0.2021690011024475,
          0.1807163655757904,
          -0.13710731267929077,
          -0.16642723977565765,
          0.17798295617103577,
          0.09442844986915588,
          0.13663870096206665,
          0.14079120755195618,
          0.1899045705795288,
          -0.0866556167602539,
          -0.04003770649433136,
          -0.08876119554042816,
          -0.05963176488876343
        ],
        [
          -0.0456412136554718,
          0.009150907397270203,
          0.06809782981872559,
          -0.11759930849075317,
          0.06336787343025208,
          -0.17909832298755646,
          -0.19691471755504608,
          0.1396460235118866,
          -0.16193372011184692,
          -0.08949173241853714,
          0.12130066752433777,
          -0.11307750642299652,
          -0.15791255235671997,
          -0.10429287701845169,
          0.172445148229599,
          -0.1392402946949005
        ],
        [
          0.013550445437431335,
          -0.18854832649230957,
          0.18310976028442383,
          0.062308162450790405,
          0.16102081537246704,
          0.13952642679214478,
          -0.07353602349758148,
          0.029539555311203003,
          -0.04311811923980713,
          0.12099099159240723,
          -0.07992954552173615,
          -0.0156620591878891,
          0.10600993037223816,
          -0.09131664782762527,
          -0.029392480850219727,
          0.17636707425117493
        ],
        [
          0.1021522581577301,
          0.20146164298057556,
          -0.09844076633453369,
          0.09773120284080505,
          -0.10281505435705185,
          0.1732836365699768,
          -0.006172731518745422,
          0.17162862420082092,
          -0.14487384259700775,
          -0.09977161139249802,
          0.17105922102928162,
          0.1643587350845337,
          0.1908242404460907,
          0.09168803691864014,
          0.15948596596717834,
          0.17619824409484863
        ],
        [
          0.10902774333953857,
          0.027455732226371765,
          0.0784902572631836,
          -0.05594611167907715,
          -0.15792131423950195,
          -0.1389068365097046,
          0.14100179076194763,
          0.033594727516174316,
          -0.12420998513698578,
          0.132476806640625,
          0.045314863324165344,
          -0.17285697162151337,
          -0.10426897555589676,
          0.032258033752441406,
          0.07427459955215454,
          -0.16218897700309753
        ],
        [
          -0.06954148411750793,
          -0.15618965029716492,
          0.17309075593948364,
          -0.19071030616760254,
          -0.11099675297737122,
          -0.07446609437465668,
          0.14414241909980774,
          -0.05207858979701996,
          0.052015334367752075,
          0.1715819537639618,
          0.022306278347969055,
          -0.14550501108169556,
          -0.05421644449234009,
          0.04553833603858948,
          0.10050508379936218,
          -0.11293160170316696
        ],
        [
          0.14690491557121277,
          0.11123377084732056,
          0.1393108069896698,
          0.091513991355896,
          0.09402969479560852,
          -0.10077502578496933,
          0.0851793885231018,
          -0.17290495336055756,
          -0.1514308899641037,
          0.014539852738380432,
          0.015637576580047607,
          -0.15947291254997253,
          -0.0008219927549362183,
          0.003884941339492798,
          0.06831687688827515,
          -0.17376455664634705
        ],
        [
          -0.1438317894935608,
          -0.11032276600599289,
          0.1197749674320221,
          -0.03921094536781311,
          0.09887146949768066,
          -0.14765745401382446,
          -0.18496517837047577,
          0.08846190571784973,
          -0.1891622692346573,
          -0.1652446687221527,
          0.04502232372760773,
          -0.024947136640548706,
          -0.1901785284280777,
          -0.1874666064977646,
          0.007331922650337219,
          -0.1696343868970871
        ],
        [
          0.07069319486618042,
          -0.1237114891409874,
          0.017074227333068848,
          -0.05739983916282654,
          -0.012243539094924927,
          -0.010442420840263367,
          -0.07871252298355103,
          0.06893762946128845,
          0.08586487174034119,
          0.03968033194541931,
          -0.14503639936447144,
          -0.13022834062576294,
          0.028776749968528748,
          0.1583089530467987,
          0.14163029193878174,
          0.06031426787376404
        ],
        [
          0.03764386475086212,
          -0.17996937036514282,
          -0.14957186579704285,
          -0.06677831709384918,
          0.05140480399131775,
          0.049869537353515625,
          0.022969797253608704,
          -0.08295176923274994,
          -0.1652097851037979,
          0.1701134741306305,
          -0.10966040194034576,
          0.14156362414360046,
          -0.1654939502477646,
          0.18360906839370728,
          0.18251118063926697,
          0.0863296389579773
        ],
        [
          -0.14962545037269592,
          -0.027676820755004883,
          0.10415056347846985,
          -0.0791948214173317,
          -0.015748634934425354,
          -0.17936384677886963,
          -0.1725011169910431,
          -0.16260595619678497,
          -0.10651636868715286,
          -0.17785722017288208,
          -0.10718636959791183,
          -0.18841838836669922,
          0.15747159719467163,
          -0.0518995076417923,
          -0.02431558072566986,
          -0.07449184358119965
        ],
        [
          0.13881918787956238,
          0.12442082166671753,
          0.04892447590827942,
          -0.07874129712581635,
          0.1534661054611206,
          -0.16507624089717865,
          0.05438584089279175,
          0.04400269687175751,
          -0.14013348519802094,
          -0.12466784566640854,
          -0.03596179187297821,
          0.014121949672698975,
          0.09433230757713318,
          0.02327270805835724,
          -0.11918200552463531,
          0.17725178599357605
        ],
        [
          0.1535535454750061,
          0.05157440900802612,
          0.14059650897979736,
          0.18577086925506592,
          -0.18591895699501038,
          -0.008783027529716492,
          -0.19034448266029358,
          0.1478298306465149,
          0.032642364501953125,
          0.1572914719581604,
          -0.08649808168411255,
          0.10328468680381775,
          0.11824721097946167,
          -0.08304072916507721,
          -0.03413949906826019,
          -0.017408475279808044
        ],
        [
          0.08011633157730103,
          -0.1800939440727234,
          0.019018620252609253,
          -0.004457265138626099,
          0.17903000116348267,
          0.12087580561637878,
          0.14064711332321167,
          0.02731192111968994,
          0.14855894446372986,
          -0.15462812781333923,
          -0.06645813584327698,
          -0.026751860976219177,
          0.05248019099235535,
          -0.08484967797994614,
          0.11149457097053528,
          -0.07429488003253937
        ],
        [
          0.07262331247329712,
          -0.18716764450073242,
          -0.08116232603788376,
          -0.09054415673017502,
          -0.03253139555454254,
          0.1337067186832428,
          -0.1032472625374794,
          -0.049448877573013306,
          0.12877917289733887,
          -0.1595487892627716,
          -0.19878484308719635,
          0.029298648238182068,
          0.15060478448867798,
          -0.03074541687965393,
          -0.02140335738658905,
          -0.13518905639648438
        ],
        [
          -0.010001793503761292,
          -0.09371919184923172,
          0.14551424980163574,
          0.13213622570037842,
          0.09326255321502686,
          -0.030339151620864868,
          -0.1281827688217163,
          0.10130846500396729,
          -0.12186817824840546,
          0.20294544100761414,
          0.13847368955612183,
          -0.0003671497106552124,
          0.14488333463668823,
          0.15302887558937073,
          0.17687803506851196,
          -0.1491655856370926
        ],
        [
          -0.05869658291339874,
          0.17900720238685608,
          -0.08629509061574936,
          0.02642817795276642,
          0.07373633980751038,
          0.06222200393676758,
          0.1417563259601593,
          -0.02993828058242798,
          0.002796351909637451,
          0.023347601294517517,
          -0.0874374508857727,
          0.08916109800338745,
          -0.09012756496667862,
          0.11403718590736389,
          0.1193162202835083,
          -0.12969544529914856
        ],
        [
          0.014670178294181824,
          0.04793679714202881,
          -0.18002869188785553,
          0.16654804348945618,
          -0.053277403116226196,
          0.19766589999198914,
          -0.13858646154403687,
          0.10951882600784302,
          -0.06686873733997345,
          0.10212406516075134,
          -0.06037028133869171,
          -0.07190212607383728,
          -0.0009630173444747925,
          -0.13429364562034607,
          0.13377031683921814,
          -0.01213034987449646
        ],
        [
          0.047365158796310425,
          -0.18374285101890564,
          -0.1648731529712677,
          -0.1646994650363922,
          0.062459707260131836,
          -0.17878076434135437,
          0.0018952935934066772,
          -0.186400905251503,
          -0.02228952944278717,
          -0.16798906028270721,
          0.18482714891433716,
          -0.0982937440276146,
          -0.16516588628292084,
          0.13934600353240967,
          -0.19009822607040405,
          -0.03469820320606232
        ],
        [
          -0.11364087462425232,
          0.04518963396549225,
          -0.004805624485015869,
          0.06728440523147583,
          0.0011888444423675537,
          0.08104714751243591,
          -0.10990729182958603,
          0.15587317943572998,
          0.06215018033981323,
          0.20306378602981567,
          0.1090351939201355,
          0.03341451287269592,
          0.11570858955383301,
          0.14000612497329712,
          0.15656378865242004,
          -0.11309415102005005
        ],
        [
          0.04488229751586914,
          0.10331398248672485,
          -0.044025957584381104,
          -0.09686191380023956,
          -0.04882034659385681,
          0.07058286666870117,
          0.0025643110275268555,
          0.01651577651500702,
          -0.04004451632499695,
          -0.13154259324073792,
          0.14290955662727356,
          -0.14612828195095062,
          -0.09607603400945663,
          0.07827365398406982,
          -0.12360548973083496,
          -0.032474905252456665
        ],
        [
          -0.047977715730667114,
          0.15607526898384094,
          0.1547907590866089,
          -0.06524482369422913,
          -0.0010895580053329468,
          0.012142226099967957,
          0.05139121413230896,
          -0.06131763756275177,
          -0.11197037994861603,
          -0.05865919589996338,
          0.14664322137832642,
          -0.11974994838237762,
          -0.14089307188987732,
          0.16360485553741455,
          0.1745714247226715,
          -0.010490700602531433
        ],
        [
          0.14565080404281616,
          0.16622790694236755,
          -0.16295883059501648,
          0.11163589358329773,
          -0.04870285093784332,
          0.18094849586486816,
          0.14189454913139343,
          -0.16776075959205627,
          0.09593680500984192,
          -0.06470982730388641,
          0.09187543392181396,
          -0.04020744562149048,
          -0.05406765639781952,
          0.15765491127967834,
          0.08241984248161316,
          -0.03308960795402527
        ],
        [
          0.1177133321762085,
          -0.03768596053123474,
          -0.1178056076169014,
          -0.06739793717861176,
          -0.007571369409561157,
          0.1260443925857544,
          0.021599292755126953,
          0.16105833649635315,
          -0.03745810687541962,
          0.01770266890525818,
          0.023274153470993042,
          -0.1519746482372284,
          0.1837763488292694,
          -0.0814586654305458,
          -0.14028006792068481,
          -0.09401435405015945
        ],
        [
          0.12046217918395996,
          0.044202521443367004,
          -0.1362956464290619,
          0.14240950345993042,
          -0.17186908423900604,
          0.08339819312095642,
          -0.15263865888118744,
          0.06983265280723572,
          0.04883420467376709,
          0.09616237878799438,
          0.15266412496566772,
          0.11181217432022095,
          -0.18980886042118073,
          -0.07852987945079803,
          -0.10812569409608841,
          0.09449109435081482
        ],
        [
          -0.0985264703631401,
          -0.14361248910427094,
          0.06393933296203613,
          -0.06364421546459198,
          0.0740712583065033,
          0.06534731388092041,
          -0.11467889696359634,
          0.11446461081504822,
          0.05858314037322998,
          -0.11753588914871216,
          -0.08642420172691345,
          -0.06630434095859528,
          -0.06776946783065796,
          -0.1260966658592224,
          0.08681479096412659,
          0.20203423500061035
        ],
        [
          -0.0054367780685424805,
          -0.0645264983177185,
          0.09042379260063171,
          -0.19766497611999512,
          -0.14574016630649567,
          0.08577367663383484,
          0.1879834532737732,
          -0.05787001550197601,
          0.15267542004585266,
          0.002709433436393738,
          -0.11479564756155014,
          0.05028355121612549,
          -0.10160373151302338,
          -0.06712014973163605,
          -0.17380033433437347,
          -0.025083214044570923
        ],
        [
          -0.19345659017562866,
          -0.01325562596321106,
          0.18535426259040833,
          -0.13176359236240387,
          -0.1404542475938797,
          0.10696494579315186,
          0.1509946882724762,
          0.17766031622886658,
          -0.03318957984447479,
          0.18949639797210693,
          -0.09144829213619232,
          -0.17055094242095947,
          -0.20155765116214752,
          0.027641043066978455,
          -0.14638806879520416,
          -0.09431015700101852
        ],
        [
          0.08543416857719421,
          0.04588007926940918,
          -0.12360038608312607,
          -0.1496667116880417,
          0.026340574026107788,
          0.11862963438034058,
          0.18378320336341858,
          -0.06026662886142731,
          0.11205726861953735,
          -0.13653212785720825,
          0.16399496793746948,
          0.1978568732738495,
          -0.06147360801696777,
          0.19683504104614258,
          -0.14308971166610718,
          -0.08968323469161987
        ],
        [
          0.03281897306442261,
          -0.11801891028881073,
          0.09955918788909912,
          -0.16492269933223724,
          -0.1344907432794571,
          0.18812644481658936,
          0.046813011169433594,
          -0.13167180120944977,
          0.08415865898132324,
          0.03424929082393646,
          0.09537801146507263,
          -0.08612295240163803,
          0.1346287727355957,
          -0.1625124216079712,
          0.11814767122268677,
          -0.02376769483089447
        ],
        [
          0.16301602125167847,
          0.13685181736946106,
          0.17353633046150208,
          0.007463380694389343,
          0.13547134399414062,
          0.15081733465194702,
          0.10125526785850525,
          -0.009499594569206238,
          0.18208107352256775,
          0.17779839038848877,
          -0.02437014877796173,
          0.09441512823104858,
          0.06828621029853821,
          0.07605865597724915,
          -0.07960060238838196,
          0.07494688034057617
        ],
        [
          -0.0029571950435638428,
          -0.19640693068504333,
          0.08405661582946777,
          -0.03688567876815796,
          0.15071597695350647,
          0.026943355798721313,
          -0.11090365052223206,
          -0.1778181791305542,
          -0.20069555938243866,
          -0.1860387623310089,
          -0.18034492433071136,
          0.17137616872787476,
          -0.05801425874233246,
          -0.05105955898761749,
          -0.10022226721048355,
          -0.09648186713457108
        ],
        [
          0.07375040650367737,
          -0.16291698813438416,
          0.1661618947982788,
          0.14204511046409607,
          0.19605505466461182,
          0.18047642707824707,
          -0.03200361132621765,
          0.08210393786430359,
          0.18872728943824768,
          -0.02234719693660736,
          0.11788824200630188,
          -0.15665802359580994,
          0.048093557357788086,
          0.17943674325942993,
          -0.1074099913239479,
          0.13051071763038635
        ],
        [
          -0.053823262453079224,
          -0.10991361737251282,
          0.20310726761817932,
          -0.1664888560771942,
          0.08967432379722595,
          -0.0453917533159256,
          0.025588318705558777,
          -0.0386221706867218,
          -0.15165981650352478,
          -0.18076512217521667,
          0.18502071499824524,
          -0.1038634330034256,
          0.18483984470367432,
          0.19636735320091248,
          0.09234985709190369,
          0.1042570173740387
        ],
        [
          -0.05357874929904938,
          0.010150179266929626,
          0.10000765323638916,
          -0.14039409160614014,
          -0.20308291912078857,
          0.09671357274055481,
          -0.16162696480751038,
          -0.1904897540807724,
          -0.16099317371845245,
          -0.133255273103714,
          -0.10280546545982361,
          -0.14373941719532013,
          -0.02796970307826996,
          0.2004857063293457,
          -0.17345494031906128,
          0.008560717105865479
        ],
        [
          -0.038667917251586914,
          -0.09314511716365814,
          -0.0049340128898620605,
          0.13867926597595215,
          -0.12441526353359222,
          -0.12686821818351746,
          -0.15258586406707764,
          0.059606343507766724,
          -0.18739107251167297,
          0.0015116482973098755,
          -0.02969689667224884,
          -0.1776895523071289,
          0.06819456815719604,
          0.16631078720092773,
          -0.028169915080070496,
          -0.0061442553997039795
        ],
        [
          0.14825475215911865,
          0.1205645501613617,
          -0.050918519496917725,
          0.1565452516078949,
          0.025999024510383606,
          0.03731629252433777,
          0.1785067617893219,
          0.11506989598274231,
          0.009762153029441833,
          0.16354414820671082,
          -0.004330530762672424,
          0.12113082408905029,
          -0.1439792513847351,
          0.11122527718544006,
          0.05040439963340759,
          0.19751259684562683
        ],
        [
          0.04444119334220886,
          -0.19858667254447937,
          0.1620560586452484,
          0.013856947422027588,
          -0.0630238950252533,
          -0.12443229556083679,
          -0.16668064892292023,
          -0.09752441197633743,
          -0.11398611962795258,
          -0.13273581862449646,
          0.07161518931388855,
          -0.06070408225059509,
          0.17876774072647095,
          0.1060073971748352,
          0.16956639289855957,
          0.11263254284858704
        ],
        [
          -0.0919681042432785,
          0.1089487373828888,
          0.03017061948776245,
          -0.06539690494537354,
          0.04842308163642883,
          -0.04397574067115784,
          -0.14024074375629425,
          0.14540719985961914,
          -0.05904883146286011,
          -0.026171445846557617,
          0.03948162496089935,
          0.007334351539611816,
          0.06125018000602722,
          -0.12231221795082092,
          -0.03278534114360809,
          0.11752066016197205
        ],
        [
          -0.06363603472709656,
          0.10561582446098328,
          0.16358336806297302,
          0.049125105142593384,
          -0.000885888934135437,
          0.14890944957733154,
          0.11466643214225769,
          -0.13525335490703583,
          0.1273345649242401,
          0.09121361374855042,
          -0.17416617274284363,
          0.1788145899772644,
          0.1531643569469452,
          0.1840279996395111,
          -0.09181675314903259,
          0.05537119507789612
        ],
        [
          -0.19320376217365265,
          0.0972302258014679,
          0.1131715476512909,
          -0.008443385362625122,
          0.14755675196647644,
          0.14864811301231384,
          0.1594584584236145,
          -0.1453479528427124,
          -0.16450104117393494,
          -0.08362181484699249,
          -0.14327503740787506,
          0.04579256474971771,
          -0.018874764442443848,
          -0.1863463968038559,
          -0.013619646430015564,
          -0.14206114411354065
        ],
        [
          0.05247896909713745,
          0.131009042263031,
          -0.08341765403747559,
          -0.1122303158044815,
          -0.047814056277275085,
          -0.1381058692932129,
          0.027651414275169373,
          -0.14010803401470184,
          -0.2014402598142624,
          -0.18488696217536926,
          0.032991111278533936,
          -0.06565400958061218,
          -0.09617482870817184,
          -0.19607433676719666,
          0.04714265465736389,
          0.19551429152488708
        ],
        [
          0.17500373721122742,
          -0.04626843333244324,
          0.2008538842201233,
          -0.06805412471294403,
          0.025979653000831604,
          0.0036881864070892334,
          0.1575431227684021,
          0.1976732313632965,
          -0.04209485650062561,
          -0.0012771636247634888,
          -0.121812604367733,
          0.010139286518096924,
          0.06049126386642456,
          -0.11272355169057846,
          0.06375658512115479,
          0.1465393304824829
        ],
        [
          0.12374049425125122,
          0.00040033459663391113,
          -0.087253637611866,
          -0.0479760617017746,
          -0.008144080638885498,
          -0.05037739872932434,
          0.16258162260055542,
          0.0796932578086853,
          -0.07593807578086853,
          -0.19496016204357147,
          -0.19919578731060028,
          0.02543926239013672,
          -0.05845378339290619,
          0.16772085428237915,
          -0.055113956332206726,
          0.16769617795944214
        ],
        [
          0.1510506570339203,
          -0.19578993320465088,
          -0.14171506464481354,
          -0.005959317088127136,
          -0.16701382398605347,
          0.0673927366733551,
          0.010644301772117615,
          -0.13480235636234283,
          0.1569215953350067,
          0.022517099976539612,
          0.07967209815979004,
          -0.14912664890289307,
          -0.0074480026960372925,
          0.19475001096725464,
          -0.12880410254001617,
          0.00429457426071167
        ],
        [
          0.17779028415679932,
          0.16986799240112305,
          0.0023497939109802246,
          0.0298643559217453,
          0.1700662076473236,
          0.16159743070602417,
          0.15435820817947388,
          0.072172611951828,
          0.03349520266056061,
          0.17060208320617676,
          -0.0641901046037674,
          -0.022451341152191162,
          -0.19470417499542236,
          0.0032474547624588013,
          -0.003938570618629456,
          -0.033767879009246826
        ],
        [
          -0.07628233730792999,
          0.12106779217720032,
          -0.19447188079357147,
          -0.11474036425352097,
          0.0707038938999176,
          0.0946805477142334,
          -0.12273099273443222,
          0.018528059124946594,
          -0.13298633694648743,
          -0.015949830412864685,
          -0.18465059995651245,
          -0.2038317620754242,
          0.18856805562973022,
          0.07730460166931152,
          0.024020224809646606,
          -0.15671856701374054
        ],
        [
          -0.0827951580286026,
          -0.02970696985721588,
          0.18951860070228577,
          -0.1735934019088745,
          -0.0962413102388382,
          0.07855165004730225,
          -0.12728744745254517,
          0.054697513580322266,
          -0.09894490987062454,
          -0.012792855501174927,
          0.10173016786575317,
          0.033737704157829285,
          -0.012369692325592041,
          -0.03980278968811035,
          -0.13091328740119934,
          0.09979185461997986
        ],
        [
          0.0041463375091552734,
          -0.025120824575424194,
          0.11950609087944031,
          -0.11052818596363068,
          0.1390570104122162,
          0.15994441509246826,
          0.010020539164543152,
          0.01813088357448578,
          0.05154794454574585,
          -0.04561567306518555,
          0.19806379079818726,
          0.12985029816627502,
          -0.012678146362304688,
          -0.06197619438171387,
          -0.01290123164653778,
          -0.13832759857177734
        ],
        [
          0.0013944059610366821,
          0.054138123989105225,
          -0.09394943714141846,
          -0.14721910655498505,
          -0.03635390102863312,
          0.12521281838417053,
          0.1945996880531311,
          -0.18352848291397095,
          -0.06592537462711334,
          -0.017160266637802124,
          0.18567684292793274,
          -0.08054815232753754,
          0.044607147574424744,
          0.03165645897388458,
          -0.1427135169506073,
          -0.006480544805526733
        ],
        [
          -0.04493257403373718,
          0.18240243196487427,
          0.0047128647565841675,
          -0.009279385209083557,
          0.11709719896316528,
          -0.07489660382270813,
          0.13998621702194214,
          0.1625693440437317,
          0.18378689885139465,
          0.1414271593093872,
          0.12099358439445496,
          0.1386127769947052,
          -0.14660000801086426,
          0.09724637866020203,
          -0.04295884072780609,
          0.15544718503952026
        ],
        [
          -0.08828630298376083,
          0.18539759516716003,
          -0.17689049243927002,
          0.1981511116027832,
          0.10447946190834045,
          0.11226862668991089,
          -0.05671125650405884,
          0.17465364933013916,
          -0.09659784287214279,
          0.12892886996269226,
          -0.16411098837852478,
          -0.1394261121749878,
          -0.15049147605895996,
          0.028498128056526184,
          0.18063312768936157,
          0.15156501531600952
        ],
        [
          -0.0807153731584549,
          -0.15445208549499512,
          0.019890934228897095,
          -0.010282561182975769,
          -0.02700662612915039,
          0.021958351135253906,
          0.016968578100204468,
          -0.06120361387729645,
          0.0600857138633728,
          0.16083160042762756,
          -0.08395270258188248,
          0.00999586284160614,
          0.08552110195159912,
          0.09496653079986572,
          -0.024229541420936584,
          0.06218215823173523
        ],
        [
          -0.12066186964511871,
          -0.1810460239648819,
          -0.20034734904766083,
          -0.1619548797607422,
          0.16374555230140686,
          0.08269047737121582,
          0.03588475286960602,
          0.03622683882713318,
          0.13928502798080444,
          -0.08219757676124573,
          -0.03566570580005646,
          0.03446216881275177,
          0.19776031374931335,
          0.06563940644264221,
          -0.12247855961322784,
          0.15204685926437378
        ],
        [
          -0.04840107262134552,
          -0.18715018033981323,
          -0.06203596293926239,
          0.1708519458770752,
          0.057590335607528687,
          0.19483143091201782,
          -0.08556713163852692,
          0.11128422617912292,
          0.08513152599334717,
          -0.0827936977148056,
          -0.07325287163257599,
          -0.05982321500778198,
          -0.10859284549951553,
          -0.17219403386116028,
          0.017360836267471313,
          0.17788374423980713
        ],
        [
          0.15987932682037354,
          0.07145076990127563,
          -0.1620260328054428,
          0.0027248114347457886,
          0.15302211046218872,
          -0.005839794874191284,
          -0.19397801160812378,
          0.153105229139328,
          0.1856476366519928,
          -0.14553634822368622,
          -0.041610077023506165,
          0.15522423386573792,
          -0.17080435156822205,
          -0.1744314432144165,
          0.19496095180511475,
          0.19383648037910461
        ],
        [
          0.17648836970329285,
          0.13681405782699585,
          -0.13752512633800507,
          -0.09243521094322205,
          0.07320141792297363,
          0.0019641518592834473,
          0.08161202073097229,
          0.06772604584693909,
          0.007827654480934143,
          -0.19035139679908752,
          0.09435036778450012,
          -0.15258483588695526,
          -0.09321047365665436,
          -0.09685105830430984,
          0.09663712978363037,
          -0.05337002873420715
        ],
        [
          0.10488477349281311,
          0.0038084834814071655,
          -0.029388830065727234,
          0.10749506950378418,
          -0.16939446330070496,
          -0.11788566410541534,
          0.06628608703613281,
          -0.12586048245429993,
          -0.0826793760061264,
          0.0697472095489502,
          -0.0017528384923934937,
          -0.053119197487831116,
          0.15006431937217712,
          -0.04106253385543823,
          0.0011509805917739868,
          -0.13682043552398682
        ],
        [
          -0.2010451853275299,
          -0.15151965618133545,
          -0.02804143726825714,
          0.18093320727348328,
          -0.20341931283473969,
          -0.08919505774974823,
          -0.08551296591758728,
          -0.14847159385681152,
          0.010182783007621765,
          0.10189500451087952,
          0.16269055008888245,
          0.05713212490081787,
          -0.002901524305343628,
          -0.11376789957284927,
          -0.0002120882272720337,
          0.0979604721069336
        ],
        [
          -0.10718116164207458,
          -0.1804344207048416,
          -0.03984376788139343,
          -0.17248700559139252,
          -0.059565573930740356,
          0.07299202680587769,
          0.10708022117614746,
          -0.14472238719463348,
          -0.13542480766773224,
          -0.10451644659042358,
          -0.19740353524684906,
          -0.015924468636512756,
          -0.20175348222255707,
          0.07026904821395874,
          0.05861949920654297,
          -0.0250861793756485
        ],
        [
          -0.08114300668239594,
          0.040910348296165466,
          0.025965005159378052,
          -0.07585781812667847,
          -0.17197221517562866,
          -0.009091973304748535,
          -0.01538519561290741,
          -0.10485794395208359,
          -0.05819803476333618,
          -0.10533083975315094,
          0.06143069267272949,
          0.07018762826919556,
          -0.194484144449234,
          -0.10916482657194138,
          -0.1268596053123474,
          -0.0418211966753006
        ],
        [
          -0.1258392632007599,
          0.054391056299209595,
          -0.028966203331947327,
          0.04323580861091614,
          0.15487799048423767,
          -0.1072998121380806,
          0.1695694625377655,
          0.05055287480354309,
          -0.160622239112854,
          0.14734908938407898,
          -0.002049952745437622,
          0.13231703639030457,
          -0.10692999511957169,
          -0.1999887228012085,
          -0.10471004992723465,
          0.0727882981300354
        ],
        [
          0.049032002687454224,
          -0.06616705656051636,
          0.039500221610069275,
          0.08213508129119873,
          0.1318594217300415,
          -0.04707197844982147,
          -0.08409310132265091,
          0.1169995367527008,
          -0.12247291207313538,
          -0.017710894346237183,
          0.12797611951828003,
          0.006549075245857239,
          0.19855931401252747,
          -0.15835343301296234,
          0.010082140564918518,
          0.07138034701347351
        ],
        [
          -0.19279053807258606,
          -0.14359351992607117,
          -0.1500277817249298,
          -0.08840349316596985,
          0.1617177426815033,
          -0.18021872639656067,
          -0.13556122779846191,
          -0.11711463332176208,
          0.021856680512428284,
          -0.06338301301002502,
          0.06664097309112549,
          -0.07057414948940277,
          0.02366037666797638,
          0.06787249445915222,
          -0.1668730229139328,
          0.005803972482681274
        ],
        [
          0.20070412755012512,
          0.16714823246002197,
          0.004229500889778137,
          -0.16107265651226044,
          -0.015568181872367859,
          -0.1860790103673935,
          -0.13169381022453308,
          0.0718594491481781,
          -0.18250417709350586,
          0.10439741611480713,
          -0.0394885390996933,
          -0.0062462687492370605,
          0.19363248348236084,
          0.1997518241405487,
          0.12694361805915833,
          -0.08726298063993454
        ],
        [
          0.14463123679161072,
          -0.0630640983581543,
          0.14797759056091309,
          0.036974892020225525,
          0.099419504404068,
          -0.12962335348129272,
          0.0068104565143585205,
          0.09887310862541199,
          -0.06749030947685242,
          0.010513678193092346,
          0.17745479941368103,
          0.01746906340122223,
          0.012166157364845276,
          -0.030149146914482117,
          -0.16158267855644226,
          -0.1665782928466797
        ],
        [
          0.052877575159072876,
          -0.18977561593055725,
          0.06617903709411621,
          0.04058451950550079,
          -0.1359994113445282,
          -0.03553250432014465,
          -0.16367283463478088,
          0.13206747174263,
          -0.05433197319507599,
          0.1869957447052002,
          -0.12164581567049026,
          0.17323827743530273,
          -0.1442636102437973,
          0.1769394874572754,
          -0.10937828570604324,
          0.0860150158405304
        ],
        [
          0.02507162094116211,
          0.17086061835289001,
          0.10625854134559631,
          -0.17399728298187256,
          -0.04457774758338928,
          -0.15335513651371002,
          -0.04203265905380249,
          -0.017581820487976074,
          -0.05326208472251892,
          0.180893212556839,
          0.18994730710983276,
          -0.15040159225463867,
          -0.17222021520137787,
          -0.15521690249443054,
          -0.007283836603164673,
          -0.1005941852927208
        ],
        [
          -0.1786028891801834,
          -0.1667432337999344,
          0.07894915342330933,
          -0.04700344800949097,
          -0.1184999868273735,
          0.015972450375556946,
          0.06767323613166809,
          0.14514529705047607,
          -0.13362714648246765,
          0.1021735668182373,
          0.03348693251609802,
          0.07635140419006348,
          0.09326678514480591,
          0.022397473454475403,
          -0.0562838613986969,
          0.09491872787475586
        ],
        [
          0.03045332431793213,
          -0.014003589749336243,
          0.1745196282863617,
          0.08753633499145508,
          -0.17355792224407196,
          0.18208074569702148,
          -0.2018652707338333,
          -0.16032147407531738,
          0.01852041482925415,
          -0.11962180584669113,
          -0.1454986333847046,
          0.08079823851585388,
          0.0048024654388427734,
          -0.04835975170135498,
          -0.10543304681777954,
          0.08369943499565125
        ],
        [
          -0.12979836761951447,
          0.09040915966033936,
          -0.0028493553400039673,
          -0.0028295964002609253,
          -0.08297999203205109,
          0.015481159090995789,
          0.006813615560531616,
          -0.12771210074424744,
          0.13653630018234253,
          -0.10989322513341904,
          -0.08622666448354721,
          0.13754677772521973,
          -0.12183289229869843,
          0.1652437448501587,
          0.1771867871284485,
          0.11756947636604309
        ],
        [
          -0.13520994782447815,
          0.0015973448753356934,
          -0.0849933922290802,
          0.006951391696929932,
          0.11528739333152771,
          0.016868606209754944,
          0.1984516680240631,
          -0.04523387551307678,
          0.1264512836933136,
          0.1290445625782013,
          0.07572180032730103,
          0.05026009678840637,
          0.0649983286857605,
          0.15756165981292725,
          0.029372036457061768,
          -0.14287908375263214
        ],
        [
          0.0102568119764328,
          0.17504236102104187,
          0.19918781518936157,
          -0.05668415129184723,
          0.0052051842212677,
          0.10830458998680115,
          -0.14136645197868347,
          -0.05445490777492523,
          0.061599522829055786,
          0.04510943591594696,
          0.06684938073158264,
          -0.18084950745105743,
          -0.0015826523303985596,
          0.12816408276557922,
          -0.19739997386932373,
          0.17086085677146912
        ],
        [
          0.1776251196861267,
          0.19151148200035095,
          -0.0018736273050308228,
          -0.16396965086460114,
          0.16440168023109436,
          0.06160008907318115,
          0.009530842304229736,
          0.11588624119758606,
          -0.038921087980270386,
          0.01865483820438385,
          -0.13141722977161407,
          0.07444882392883301,
          0.045882463455200195,
          -0.03488615155220032,
          0.03263448178768158,
          0.04606947302818298
        ],
        [
          0.14707866311073303,
          -0.1528186798095703,
          -0.17714639008045197,
          0.16899695992469788,
          -0.16392959654331207,
          -0.06928403675556183,
          0.012377768754959106,
          0.04900640249252319,
          -0.09860681742429733,
          -0.06430204212665558,
          -0.0815238282084465,
          0.08432605862617493,
          -0.01265735924243927,
          0.15666615962982178,
          0.17360740900039673,
          -0.1546221822500229
        ],
        [
          0.16832956671714783,
          0.1492895483970642,
          -0.1854141801595688,
          -0.07504168152809143,
          0.07623991370201111,
          0.13791102170944214,
          0.046908795833587646,
          -0.1099020391702652,
          0.13376960158348083,
          -0.1579086184501648,
          -0.07607200741767883,
          -0.0930020809173584,
          -0.15088455379009247,
          -0.13137118518352509,
          0.09479853510856628,
          0.19562461972236633
        ],
        [
          0.10439789295196533,
          -0.14040184020996094,
          -0.020427629351615906,
          -0.005782857537269592,
          0.17798468470573425,
          -0.07439075410366058,
          0.185374915599823,
          0.15165594220161438,
          0.1553938090801239,
          0.06884971261024475,
          0.07209575176239014,
          -0.15706989169120789,
          0.10098016262054443,
          -0.1244615912437439,
          -0.03612379729747772,
          -0.1967216581106186
        ],
        [
          -0.123456671833992,
          -0.09633786231279373,
          0.06312835216522217,
          0.08778294920921326,
          0.021465599536895752,
          0.022188499569892883,
          -0.019282639026641846,
          -0.054709091782569885,
          0.0814676284790039,
          0.01950763165950775,
          0.04722777009010315,
          -0.06393708288669586,
          0.14676645398139954,
          0.054132282733917236,
          0.17141905426979065,
          0.186691552400589
        ],
        [
          -0.15303699672222137,
          0.18838545680046082,
          -0.19233359396457672,
          0.07384535670280457,
          -0.13836190104484558,
          0.16872680187225342,
          0.028707295656204224,
          -0.035319626331329346,
          0.16149786114692688,
          -0.18489140272140503,
          -0.109132319688797,
          0.031716182827949524,
          0.01823367178440094,
          -0.16184304654598236,
          -0.028158038854599,
          -0.08090872317552567
        ],
        [
          0.0015059560537338257,
          -0.03830276429653168,
          -0.062123849987983704,
          0.0157240629196167,
          -0.052676618099212646,
          0.03089141845703125,
          0.11665180325508118,
          0.17424967885017395,
          -0.18681657314300537,
          0.07830026745796204,
          0.10460555553436279,
          0.014823377132415771,
          -0.01806548237800598,
          -0.18200062215328217,
          0.11913198232650757,
          -0.17394676804542542
        ],
        [
          -0.1794973909854889,
          -0.10125765949487686,
          0.04684898257255554,
          -0.07443825900554657,
          0.193503737449646,
          -0.12751422822475433,
          -0.16462749242782593,
          -0.028705835342407227,
          0.17545068264007568,
          0.09277650713920593,
          0.07062017917633057,
          0.13775745034217834,
          0.2011052966117859,
          0.010898873209953308,
          0.20374810695648193,
          -0.10467597842216492
        ],
        [
          0.14422783255577087,
          0.1239040195941925,
          0.01773829758167267,
          -0.08166452497243881,
          -0.19308754801750183,
          -0.0949658453464508,
          0.011723726987838745,
          0.12566789984703064,
          -0.17855845391750336,
          -0.1577274203300476,
          -0.07464207708835602,
          -0.10468444973230362,
          -0.04463322460651398,
          0.17103269696235657,
          -0.03488776087760925,
          -0.1750391125679016
        ],
        [
          0.05342364311218262,
          -0.0029412806034088135,
          -0.013943538069725037,
          0.11635932326316833,
          0.07670167088508606,
          -0.08671503514051437,
          -0.008024454116821289,
          0.14502418041229248,
          0.17324548959732056,
          -0.021650776267051697,
          -0.06722332537174225,
          -0.12520089745521545,
          -0.1782364845275879,
          -0.09564542770385742,
          -0.10283228009939194,
          -0.17053653299808502
        ],
        [
          -0.2032841593027115,
          0.1715831160545349,
          -0.19088132679462433,
          0.09819698333740234,
          0.07057535648345947,
          0.15696969628334045,
          -0.13769488036632538,
          -0.021119579672813416,
          0.17360994219779968,
          -0.04809252917766571,
          0.16294997930526733,
          0.11648780107498169,
          -0.09035805612802505,
          -0.10254319757223129,
          0.1483369767665863,
          -0.11445264518260956
        ],
        [
          -0.055968597531318665,
          -0.131522536277771,
          -0.11856909096240997,
          0.07298043370246887,
          -0.0035116225481033325,
          0.10445261001586914,
          -0.10048103332519531,
          -0.054425954818725586,
          -0.09847415238618851,
          -0.018043681979179382,
          -0.16347169876098633,
          0.1589660942554474,
          -0.17903763055801392,
          0.14060181379318237,
          -0.14140835404396057,
          -0.15806250274181366
        ],
        [
          0.19184449315071106,
          0.027291327714920044,
          0.13535451889038086,
          0.09513351321220398,
          -0.10643646121025085,
          0.10437437891960144,
          -0.03969576954841614,
          -0.18196359276771545,
          -0.05494581162929535,
          0.03283411264419556,
          -0.00770646333694458,
          -0.04778300225734711,
          -0.14879104495048523,
          -0.005351126194000244,
          -0.11434581875801086,
          -0.045471370220184326
        ],
        [
          -0.08767085522413254,
          0.11315390467643738,
          0.11708050966262817,
          0.12463352084159851,
          0.16097316145896912,
          0.12709346413612366,
          -0.19241765141487122,
          0.05967235565185547,
          -0.10734176635742188,
